{"learner":{"attributes":{"best_iteration":"504","best_score":"0.7190356602001505"},"feature_names":["current_ratio","quick_ratio","cash_ratio","working_cap_to_assets","cfo_to_current_liab","cfo_to_total_liab","cfo_to_total_debt","cfo_to_assets","fcf_to_assets","fcf_to_debt","debt_to_assets","debt_to_equity","total_liab_to_assets","equity_to_assets","equity_to_liab","lt_debt_to_assets","st_debt_to_assets","current_liab_to_assets","interest_coverage_ebitda","fixed_assets_to_lt_debt","roa","roa_avg_assets","roe","roe_avg_equity","return_on_fixed_assets","return_on_current_assets","log_assets","log_book_equity","asset_growth","equity_growth","ni_growth","accruals","total_accruals","delta_nwc_to_assets","capx_to_assets","delta_fixed_assets_to_assets"],"feature_types":["float","float","float","float","float","float","float","float","float","float","float","float","float","float","float","float","float","float","float","float","float","float","float","float","float","float","float","float","float","float","float","float","float","float","float","float"],"gradient_booster":{"model":{"cats":{"enc":[],"feature_segments":[],"sorted_idx":[]},"gbtree_model_param":{"num_parallel_tree":"1","num_trees":"555"},"iteration_indptr":[0,1,2,3,4,5,6,7,8,9,10,11,12,13,14,15,16,17,18,19,20,21,22,23,24,25,26,27,28,29,30,31,32,33,34,35,36,37,38,39,40,41,42,43,44,45,46,47,48,49,50,51,52,53,54,55,56,57,58,59,60,61,62,63,64,65,66,67,68,69,70,71,72,73,74,75,76,77,78,79,80,81,82,83,84,85,86,87,88,89,90,91,92,93,94,95,96,97,98,99,100,101,102,103,104,105,106,107,108,109,110,111,112,113,114,115,116,117,118,119,120,121,122,123,124,125,126,127,128,129,130,131,132,133,134,135,136,137,138,139,140,141,142,143,144,145,146,147,148,149,150,151,152,153,154,155,156,157,158,159,160,161,162,163,164,165,166,167,168,169,170,171,172,173,174,175,176,177,178,179,180,181,182,183,184,185,186,187,188,189,190,191,192,193,194,195,196,197,198,199,200,201,202,203,204,205,206,207,208,209,210,211,212,213,214,215,216,217,218,219,220,221,222,223,224,225,226,227,228,229,230,231,232,233,234,235,236,237,238,239,240,241,242,243,244,245,246,247,248,249,250,251,252,253,254,255,256,257,258,259,260,261,262,263,264,265,266,267,268,269,270,271,272,273,274,275,276,277,278,279,280,281,282,283,284,285,286,287,288,289,290,291,292,293,294,295,296,297,298,299,300,301,302,303,304,305,306,307,308,309,310,311,312,313,314,315,316,317,318,319,320,321,322,323,324,325,326,327,328,329,330,331,332,333,334,335,336,337,338,339,340,341,342,343,344,345,346,347,348,349,350,351,352,353,354,355,356,357,358,359,360,361,362,363,364,365,366,367,368,369,370,371,372,373,374,375,376,377,378,379,380,381,382,383,384,385,386,387,388,389,390,391,392,393,394,395,396,397,398,399,400,401,402,403,404,405,406,407,408,409,410,411,412,413,414,415,416,417,418,419,420,421,422,423,424,425,426,427,428,429,430,431,432,433,434,435,436,437,438,439,440,441,442,443,444,445,446,447,448,449,450,451,452,453,454,455,456,457,458,459,460,461,462,463,464,465,466,467,468,469,470,471,472,473,474,475,476,477,478,479,480,481,482,483,484,485,486,487,488,489,490,491,492,493,494,495,496,497,498,499,500,501,502,503,504,505,506,507,508,509,510,511,512,513,514,515,516,517,518,519,520,521,522,523,524,525,526,527,528,529,530,531,532,533,534,535,536,537,538,539,540,541,542,543,544,545,546,547,548,549,550,551,552,553,554,555],"tree_info":[0,0,0,0,0,0,0,0,0,0,0,0,0,0,0,0,0,0,0,0,0,0,0,0,0,0,0,0,0,0,0,0,0,0,0,0,0,0,0,0,0,0,0,0,0,0,0,0,0,0,0,0,0,0,0,0,0,0,0,0,0,0,0,0,0,0,0,0,0,0,0,0,0,0,0,0,0,0,0,0,0,0,0,0,0,0,0,0,0,0,0,0,0,0,0,0,0,0,0,0,0,0,0,0,0,0,0,0,0,0,0,0,0,0,0,0,0,0,0,0,0,0,0,0,0,0,0,0,0,0,0,0,0,0,0,0,0,0,0,0,0,0,0,0,0,0,0,0,0,0,0,0,0,0,0,0,0,0,0,0,0,0,0,0,0,0,0,0,0,0,0,0,0,0,0,0,0,0,0,0,0,0,0,0,0,0,0,0,0,0,0,0,0,0,0,0,0,0,0,0,0,0,0,0,0,0,0,0,0,0,0,0,0,0,0,0,0,0,0,0,0,0,0,0,0,0,0,0,0,0,0,0,0,0,0,0,0,0,0,0,0,0,0,0,0,0,0,0,0,0,0,0,0,0,0,0,0,0,0,0,0,0,0,0,0,0,0,0,0,0,0,0,0,0,0,0,0,0,0,0,0,0,0,0,0,0,0,0,0,0,0,0,0,0,0,0,0,0,0,0,0,0,0,0,0,0,0,0,0,0,0,0,0,0,0,0,0,0,0,0,0,0,0,0,0,0,0,0,0,0,0,0,0,0,0,0,0,0,0,0,0,0,0,0,0,0,0,0,0,0,0,0,0,0,0,0,0,0,0,0,0,0,0,0,0,0,0,0,0,0,0,0,0,0,0,0,0,0,0,0,0,0,0,0,0,0,0,0,0,0,0,0,0,0,0,0,0,0,0,0,0,0,0,0,0,0,0,0,0,0,0,0,0,0,0,0,0,0,0,0,0,0,0,0,0,0,0,0,0,0,0,0,0,0,0,0,0,0,0,0,0,0,0,0,0,0,0,0,0,0,0,0,0,0,0,0,0,0,0,0,0,0,0,0,0,0,0,0,0,0,0,0,0,0,0,0,0,0,0,0,0,0,0,0,0,0,0,0,0,0,0,0,0,0,0,0,0,0,0,0,0,0,0,0,0,0,0,0,0,0,0,0,0,0,0,0,0,0,0,0,0,0,0,0,0,0,0,0,0,0,0,0,0,0,0,0,0,0,0,0,0,0,0,0,0,0,0,0,0,0,0,0,0,0,0],"trees":[{"base_weights":[-5.7759574E-3,3.8388383E-1,-5.483778E-1,1.6086078E0,2.6852307E-1,-3.5683247E-1,-1.6346914E0,1.7487874E0,1.1029823E0,4.0226042E-1,-6.826368E-1,-1.7497227E-1,-6.0278386E-1,-1.2183614E0,-1.8209529E0,4.6170034E-2,5.478789E-2,2.5373481E-2,5.4050323E-2,1.8282868E-2,5.5530174E-3,-7.4507254E-3,-3.2648504E-2,-2.8289357E-2,-4.097583E-3,-1.3689863E-2,-3.0754983E-2,-2.3220075E-2,-4.8561603E-2,-5.5277623E-2,-2.8640516E-2],"categories":[],"categories_nodes":[],"categories_segments":[],"categories_sizes":[],"default_left":[0,0,0,1,1,0,0,0,0,1,0,0,0,1,0,0,0,0,0,0,0,0,0,0,0,0,0,0,0,0,0],"id":0,"left_children":[1,3,5,7,9,11,13,15,17,19,21,23,25,27,29,-1,-1,-1,-1,-1,-1,-1,-1,-1,-1,-1,-1,-1,-1,-1,-1],"loss_changes":[1.8337231E3,7.127616E2,7.537112E2,2.8856934E1,5.872722E2,1.3779114E2,3.989673E1,2.6888428E0,1.5905319E1,1.8192676E2,1.000051E2,5.216473E1,8.057727E1,2.914975E1,5.2353516E0,0E0,0E0,0E0,0E0,0E0,0E0,0E0,0E0,0E0,0E0,0E0,0E0,0E0,0E0,0E0,0E0],"parents":[2147483647,0,0,1,1,2,2,3,3,4,4,5,5,6,6,7,7,8,8,9,9,10,10,11,11,12,12,13,13,14,14],"right_children":[2,4,6,8,10,12,14,16,18,20,22,24,26,28,30,-1,-1,-1,-1,-1,-1,-1,-1,-1,-1,-1,-1,-1,-1,-1,-1],"split_conditions":[9.026271E-3,-1.1965278E1,2.0405063E-1,-9.6892416E-1,1.0677682E-2,-1.9657936E-2,9.102423E-1,-1.5925238E-1,8.4222454E-1,-5.926E3,-2.4828495E-2,-2.7694914E-2,8.10135E-2,8.317911E-2,1.8262626E3,4.6170034E-2,5.478789E-2,2.5373481E-2,5.4050323E-2,1.8282868E-2,5.5530174E-3,-7.4507254E-3,-3.2648504E-2,-2.8289357E-2,-4.097583E-3,-1.3689863E-2,-3.0754983E-2,-2.3220075E-2,-4.8561603E-2,-5.5277623E-2,-2.8640516E-2],"split_indices":[20,20,20,28,31,31,20,13,3,32,20,8,20,31,7,0,0,0,0,0,0,0,0,0,0,0,0,0,0,0,0],"split_type":[0,0,0,0,0,0,0,0,0,0,0,0,0,0,0,0,0,0,0,0,0,0,0,0,0,0,0,0,0,0,0],"sum_hessian":[8.670956E3,5.0469043E3,3.6240513E3,4.3334683E2,4.6135576E3,3.0819514E3,5.4209973E2,3.373588E2,9.598805E1,4.0453416E3,5.6821606E2,1.7728157E3,1.3091357E3,1.6989442E2,3.7220535E2,9.661411E1,2.4074467E2,7.1776596E1,2.421146E1,2.0693723E3,1.9759691E3,2.7520163E2,2.9301447E2,8.3268364E1,1.6895474E3,9.7362524E2,3.3551044E2,8.191268E1,8.7981735E1,3.6203662E2,1.0168707E1],"tree_param":{"num_deleted":"0","num_feature":"36","num_nodes":"31","size_leaf_vector":"1"}},{"base_weights":[-9.696391E-4,3.76429E-1,-3.3595425E-1,5.4187644E-1,-4.319382E-1,-2.450717E-1,-1.6573901E0,1.3568087E0,4.335926E-1,1.1337893E0,-5.763984E-1,-1.397911E-1,-1.1790192E0,3.5894558E-2,-1.7407786E0,4.6757884E-2,-1.7837726E-2,9.189605E-3,2.3729254E-2,4.869475E-2,8.864736E-4,2.2047663E-2,-2.0344507E-2,1.1840106E-2,-7.674253E-3,-2.8761402E-2,-4.5425218E-2,-2.5287315E-2,-5.2700326E-2],"categories":[],"categories_nodes":[],"categories_segments":[],"categories_sizes":[],"default_left":[0,1,1,0,0,1,0,0,1,0,1,0,0,0,0,0,0,0,0,0,0,0,0,0,0,0,0,0,0],"id":1,"left_children":[1,3,5,7,9,11,13,15,17,19,21,23,25,-1,27,-1,-1,-1,-1,-1,-1,-1,-1,-1,-1,-1,-1,-1,-1],"loss_changes":[1.1013851E3,5.4812494E2,5.538711E2,2.9953473E2,1.5820428E2,4.245553E2,7.272046E1,1.5781982E2,1.3637726E2,3.1929283E1,8.567706E1,2.4087502E2,3.0848694E1,0E0,2.6419067E0,0E0,0E0,0E0,0E0,0E0,0E0,0E0,0E0,0E0,0E0,0E0,0E0,0E0,0E0],"parents":[2147483647,0,0,1,1,2,2,3,3,4,4,5,5,6,6,7,7,8,8,9,9,10,10,11,11,12,12,14,14],"right_children":[2,4,6,8,10,12,14,16,18,20,22,24,26,-1,28,-1,-1,-1,-1,-1,-1,-1,-1,-1,-1,-1,-1,-1,-1],"split_conditions":[8.439245E-3,-4.057392E-3,5.6746566E-1,-4.1666665E0,-1.9E1,7.6356225E-2,3.347189E-5,-3.160323E-4,3.415691E-2,-1.0845921E-2,-8.1211996E-1,8.95571E-3,4.127442E-1,3.5894558E-2,8.731258E-5,4.6757884E-2,-1.7837726E-2,9.189605E-3,2.3729254E-2,4.869475E-2,8.864736E-4,2.2047663E-2,-2.0344507E-2,1.1840106E-2,-7.674253E-3,-2.8761402E-2,-4.5425218E-2,-2.5287315E-2,-5.2700326E-2],"split_indices":[24,31,7,31,7,31,21,24,9,24,1,21,31,0,19,0,0,0,0,0,0,0,0,0,0,0,0,0,0],"split_type":[0,0,0,0,0,0,0,0,0,0,0,0,0,0,0,0,0,0,0,0,0,0,0,0,0,0,0,0,0],"sum_hessian":[8.709923E3,4.0956167E3,4.6143066E3,3.4000605E3,6.9555615E2,4.3184854E3,2.9582098E2,3.974401E2,3.0026206E3,5.8175392E1,6.373808E2,3.8820278E3,4.3645758E2,8.019358E0,2.878016E2,3.6037613E2,3.706397E1,2.215489E3,7.871314E2,3.998514E1,1.8190252E1,4.544813E1,5.919327E2,6.9195807E2,3.1900698E3,2.656799E2,1.707777E2,5.9473863E0,2.8185422E2],"tree_param":{"num_deleted":"0","num_feature":"36","num_nodes":"29","size_leaf_vector":"1"}},{"base_weights":[-8.432602E-3,2.3831265E-1,-8.007716E-1,1.5151104E0,1.4773694E-1,-5.3089136E-1,-1.5963048E0,8.937171E-1,1.6691215E0,2.9162756E-1,-4.247049E-1,-3.4136993E-1,-8.082535E-1,-1.7280844E0,-1.2580458E0,5.269351E-2,2.0773249E-2,4.2047743E-2,5.1939216E-2,1.2547151E-2,-2.5873198E-3,-1.7973391E-2,3.1846338E-3,-8.137861E-3,-2.362571E-2,-1.7669609E-2,-2.9032968E-2,-5.2191682E-2,-3.2860514E-2,-4.6381276E-2,-2.561389E-2],"categories":[],"categories_nodes":[],"categories_segments":[],"categories_sizes":[],"default_left":[0,0,0,0,1,0,1,0,0,0,0,0,0,0,0,0,0,0,0,0,0,0,0,0,0,0,0,0,0,0,0],"id":2,"left_children":[1,3,5,7,9,11,13,15,17,19,21,23,25,27,29,-1,-1,-1,-1,-1,-1,-1,-1,-1,-1,-1,-1,-1,-1,-1,-1],"loss_changes":[1.6971819E3,7.6531E2,4.4173645E2,4.046167E1,5.0934604E2,8.071463E1,2.10802E1,1.42771225E1,3.3987427E0,2.3642502E2,1.1507738E2,2.8470352E1,2.1279236E1,8.3935547E-1,1.6135727E1,0E0,0E0,0E0,0E0,0E0,0E0,0E0,0E0,0E0,0E0,0E0,0E0,0E0,0E0,0E0,0E0],"parents":[2147483647,0,0,1,1,2,2,3,3,4,4,5,5,6,6,7,7,8,8,9,9,10,10,11,11,12,12,13,13,14,14],"right_children":[2,4,6,8,10,12,14,16,18,20,22,24,26,28,30,-1,-1,-1,-1,-1,-1,-1,-1,-1,-1,-1,-1,-1,-1,-1,-1],"split_conditions":[4.9473416E-2,-1.1965278E1,2.2687949E-1,-8.976015E-1,-2.8E1,-1.9657936E-2,-3.9844406E-1,6.931472E-1,4E1,8.3425855E-3,1.2277682E2,9.710045E-2,8.10135E-2,6.5987366E2,3.8873714E-1,5.269351E-2,2.0773249E-2,4.2047743E-2,5.1939216E-2,1.2547151E-2,-2.5873198E-3,-1.7973391E-2,3.1846338E-3,-8.137861E-3,-2.362571E-2,-1.7669609E-2,-2.9032968E-2,-5.2191682E-2,-3.2860514E-2,-4.6381276E-2,-2.561389E-2],"split_indices":[20,20,20,14,32,31,28,26,12,20,17,34,20,11,5,0,0,0,0,0,0,0,0,0,0,0,0,0,0,0,0],"split_type":[0,0,0,0,0,0,0,0,0,0,0,0,0,0,0,0,0,0,0,0,0,0,0,0,0,0,0,0,0,0,0],"sum_hessian":[8.679E3,6.618582E3,2.0604182E3,4.3737738E2,6.181205E3,1.5397379E3,5.206803E2,8.822333E1,3.4915405E2,4.93997E3,1.2412346E3,9.1603937E2,6.236985E2,3.717459E2,1.4893439E2,1.5227337E1,7.2995995E1,7.029134E1,2.7886273E2,3.7000974E3,1.2398728E3,9.341885E2,3.0704614E2,7.930317E2,1.2300771E2,2.6462946E2,3.5906903E2,3.633137E2,8.432223E0,8.532349E1,6.3610897E1],"tree_param":{"num_deleted":"0","num_feature":"36","num_nodes":"31","size_leaf_vector":"1"}},{"base_weights":[-4.002484E-3,2.395211E-1,-7.867522E-1,1.446872E0,1.4678054E-1,-5.2705455E-1,-1.5692933E0,1.0116998E0,1.6588861E0,2.8823793E-1,-4.175414E-1,-3.0727848E-1,-7.816774E-1,-5.0828286E-2,-1.2532486E0,4.273153E-2,2.1627542E-2,5.1566467E-2,4.2006373E-2,1.2482595E-2,-2.8102363E-3,-1.754052E-2,2.4768116E-3,-3.8017295E-2,-7.7622393E-3,-1.8931791E-2,-3.0485056E-2,-4.8436385E-2,-2.8609011E-2],"categories":[],"categories_nodes":[],"categories_segments":[],"categories_sizes":[],"default_left":[0,0,0,0,1,1,1,0,1,0,0,1,0,0,0,0,0,0,0,0,0,0,0,0,0,0,0,0,0],"id":3,"left_children":[1,3,5,7,9,11,13,15,17,19,21,23,25,-1,27,-1,-1,-1,-1,-1,-1,-1,-1,-1,-1,-1,-1,-1,-1],"loss_changes":[1.6525491E3,7.401671E2,4.1723755E2,4.182965E1,4.9039795E2,8.627835E1,1.8103882E1,1.7818771E1,2.4899902E0,2.398447E2,1.0297679E2,3.841359E1,2.4632935E1,0E0,1.4585373E1,0E0,0E0,0E0,0E0,0E0,0E0,0E0,0E0,0E0,0E0,0E0,0E0,0E0,0E0],"parents":[2147483647,0,0,1,1,2,2,3,3,4,4,5,5,6,6,7,7,8,8,9,9,10,10,11,11,12,12,14,14],"right_children":[2,4,6,8,10,12,14,16,18,20,22,24,26,-1,28,-1,-1,-1,-1,-1,-1,-1,-1,-1,-1,-1,-1,-1,-1],"split_conditions":[4.9473416E-2,-8.324111E0,2.2687949E-1,-3.7830082E-1,-2.8E1,-2.7380016E-2,-3.9844406E-1,-8.377698E1,-9.9794936E-1,8.3425855E-3,1.2277682E2,1.257274E-3,1.0035219E-1,-5.0828286E-2,1.7297181E-1,4.273153E-2,2.1627542E-2,5.1566467E-2,4.2006373E-2,1.2482595E-2,-2.8102363E-3,-1.754052E-2,2.4768116E-3,-3.8017295E-2,-7.7622393E-3,-1.8931791E-2,-3.0485056E-2,-4.8436385E-2,-2.8609011E-2],"split_indices":[20,20,20,14,32,31,28,20,28,20,17,8,20,0,7,0,0,0,0,0,0,0,0,0,0,0,0,0,0],"split_type":[0,0,0,0,0,0,0,0,0,0,0,0,0,0,0,0,0,0,0,0,0,0,0,0,0,0,0,0,0],"sum_hessian":[8.667438E3,6.6112783E3,2.0561602E3,4.7056656E2,6.140712E3,1.5450773E3,5.1108304E2,1.5604536E2,3.1452118E2,4.910337E3,1.2303748E3,8.304697E2,7.1460754E2,3.63122E2,1.4796103E2,6.289077E1,9.3154594E1,2.5072389E2,6.3797287E1,3.6787527E3,1.2315842E3,9.22043E2,3.083317E2,3.8760403E1,7.917093E2,4.3736902E2,2.772385E2,6.508635E1,8.287467E1],"tree_param":{"num_deleted":"0","num_feature":"36","num_nodes":"29","size_leaf_vector":"1"}},{"base_weights":[1.0643284E-3,1.9886303E-1,-8.4055114E-1,5.691942E-1,-8.298171E-2,-5.512649E-1,-1.503844E0,1.427251E0,4.3625346E-1,-2.1919718E-1,2.6992884E-1,-8.398999E-1,-3.0750307E-1,-1.2002383E0,-1.6131437E0,2.6627807E-2,4.7387157E-2,1.51040405E-2,2.217813E-3,2.8944E-4,-1.3953661E-2,2.0849554E-2,-5.861383E-3,-2.0817578E-2,-3.390317E-2,-6.532531E-3,-2.6895443E-2,-2.0557024E-2,-4.49351E-2,-4.921854E-2,-1.7682314E-2],"categories":[],"categories_nodes":[],"categories_segments":[],"categories_sizes":[],"default_left":[0,1,0,0,0,1,0,0,0,0,0,0,0,1,0,0,0,0,0,0,0,0,0,0,0,0,0,0,0,0,0],"id":4,"left_children":[1,3,5,7,9,11,13,15,17,19,21,23,25,27,29,-1,-1,-1,-1,-1,-1,-1,-1,-1,-1,-1,-1,-1,-1,-1,-1],"loss_changes":[1.4443525E3,7.333125E2,3.1598474E2,3.45714E2,1.9186974E2,8.074188E1,1.4683594E1,3.2041992E1,6.402014E1,1.6205588E2,2.199974E2,2.1522034E1,3.2883545E1,1.9891586E1,9.30896E0,0E0,0E0,0E0,0E0,0E0,0E0,0E0,0E0,0E0,0E0,0E0,0E0,0E0,0E0,0E0,0E0],"parents":[2147483647,0,0,1,1,2,2,3,3,4,4,5,5,6,6,7,7,8,8,9,9,10,10,11,11,12,12,13,13,14,14],"right_children":[2,4,6,8,10,12,14,16,18,20,22,24,26,28,30,-1,-1,-1,-1,-1,-1,-1,-1,-1,-1,-1,-1,-1,-1,-1,-1],"split_conditions":[6.348382E-2,-7.728291E-2,2.2687949E-1,-1.1965278E1,1.2277682E2,8.262737E-2,9.102423E-1,-8.4873116E-1,2.5724104E-4,-1.9657936E-2,8.3425855E-3,1.0340297E-1,-1.253E2,5.7E1,7.776E5,2.6627807E-2,4.7387157E-2,1.51040405E-2,2.217813E-3,2.8944E-4,-1.3953661E-2,2.0849554E-2,-5.861383E-3,-2.0817578E-2,-3.390317E-2,-6.532531E-3,-2.6895443E-2,-2.0557024E-2,-4.49351E-2,-4.921854E-2,-1.7682314E-2],"split_indices":[20,31,20,20,17,8,20,14,20,31,20,20,32,32,31,0,0,0,0,0,0,0,0,0,0,0,0,0,0,0,0],"split_type":[0,0,0,0,0,0,0,0,0,0,0,0,0,0,0,0,0,0,0,0,0,0,0,0,0,0,0,0,0,0,0],"sum_hessian":[8.674326E3,7.024236E3,1.6500908E3,3.0351572E3,3.9890784E3,1.1502542E3,4.998367E2,4.0585547E2,2.6293018E3,2.8784436E3,1.110635E3,5.2553265E2,6.2472144E2,1.3548279E2,3.643539E2,9.084131E1,3.1501416E2,2.21754E3,4.1176187E2,1.4914949E3,1.3869486E3,5.8016455E2,5.304704E2,3.5190634E2,1.7362631E2,5.4330396E2,8.141752E1,5.0827168E1,8.4655624E1,3.542444E2,1.0109541E1],"tree_param":{"num_deleted":"0","num_feature":"36","num_nodes":"31","size_leaf_vector":"1"}},{"base_weights":[4.321131E-3,1.8394579E-1,-8.91876E-1,5.4705876E-1,-8.0417596E-2,-5.7132787E-1,-1.4735969E0,1.4208114E0,4.2945033E-1,-1.995574E-1,2.3484223E-1,-9.1299874E-1,-3.329031E-1,-1.2275928E0,-1.5935128E0,2.7221506E-2,4.622876E-2,1.5039502E-2,1.15621E-3,-1.0836949E-3,-1.5498519E-2,1.9933755E-2,-6.9295466E-3,-1.415499E-2,-2.9712891E-2,-7.6252804E-3,-2.5058836E-2,-2.5823567E-2,-4.3231416E-2,-4.835119E-2,-1.9371375E-2],"categories":[],"categories_nodes":[],"categories_segments":[],"categories_sizes":[],"default_left":[0,1,0,0,0,1,0,0,0,0,0,0,0,1,1,0,0,0,0,0,0,0,0,0,0,0,0,0,0,0,0],"id":5,"left_children":[1,3,5,7,9,11,13,15,17,19,21,23,25,27,29,-1,-1,-1,-1,-1,-1,-1,-1,-1,-1,-1,-1,-1,-1,-1,-1],"loss_changes":[1.3957467E3,6.933776E2,2.6910046E2,3.121045E2,1.5706854E2,7.586191E1,1.31970215E1,2.0845093E1,7.5370575E1,1.5722566E2,2.297054E2,1.2640198E1,2.1630829E1,1.228064E1,4.8564453E0,0E0,0E0,0E0,0E0,0E0,0E0,0E0,0E0,0E0,0E0,0E0,0E0,0E0,0E0,0E0,0E0],"parents":[2147483647,0,0,1,1,2,2,3,3,4,4,5,5,6,6,7,7,8,8,9,9,10,10,11,11,12,12,13,13,14,14],"right_children":[2,4,6,8,10,12,14,16,18,20,22,24,26,28,30,-1,-1,-1,-1,-1,-1,-1,-1,-1,-1,-1,-1,-1,-1,-1,-1],"split_conditions":[7.5316794E-2,-7.728291E-2,2.2687949E-1,-1.7595745E1,2.6882353E1,8.262737E-2,4.080883E0,-8.976015E-1,4.351085E-3,-2.8E1,8.3425855E-3,8.10135E-2,-1.102E2,-8.130225E-3,2.790406E1,2.7221506E-2,4.622876E-2,1.5039502E-2,1.15621E-3,-1.0836949E-3,-1.5498519E-2,1.9933755E-2,-6.9295466E-3,-1.415499E-2,-2.9712891E-2,-7.6252804E-3,-2.5058836E-2,-2.5823567E-2,-4.3231416E-2,-4.835119E-2,-1.9371375E-2],"split_indices":[20,31,20,20,17,8,20,14,20,32,20,20,32,31,23,0,0,0,0,0,0,0,0,0,0,0,0,0,0,0,0],"split_type":[0,0,0,0,0,0,0,0,0,0,0,0,0,0,0,0,0,0,0,0,0,0,0,0,0,0,0,0,0,0,0],"sum_hessian":[8.668341E3,7.221693E3,1.4466481E3,3.042136E3,4.1795566E3,9.33977E2,5.126711E2,3.5958405E2,2.682552E3,3.0335247E3,1.146032E3,3.8271045E2,5.5126654E2,1.7169032E2,3.4098077E2,6.981104E1,2.89773E2,2.265729E3,4.1682285E2,2.0024432E3,1.0310815E3,5.959664E2,5.5006555E2,5.8201126E1,3.245093E2,4.778856E2,7.338095E1,6.500912E1,1.06681206E2,3.3387143E2,7.109349E0],"tree_param":{"num_deleted":"0","num_feature":"36","num_nodes":"31","size_leaf_vector":"1"}},{"base_weights":[6.2619788E-3,2.2690009E-1,-7.099202E-1,1.3849115E0,1.4773592E-1,-4.7055253E-1,-1.430978E0,9.3222576E-1,1.5643288E0,2.965347E-1,-3.1262597E-1,-2.8517315E-1,-7.3659533E-1,-1.0736333E0,-1.558202E0,4.604361E-2,2.083161E-2,4.7704373E-2,2.5706481E-2,1.1888977E-2,-1.373278E-4,-1.7660888E-2,-1.2452665E-3,-4.9777073E-3,-1.3476822E-2,-2.710326E-2,-1.634131E-2,-4.1782018E-2,-1.4968114E-2,-4.7290977E-2,-2.6662324E-2],"categories":[],"categories_nodes":[],"categories_segments":[],"categories_sizes":[],"default_left":[0,0,0,0,1,1,0,0,0,0,0,1,1,0,0,0,0,0,0,0,0,0,0,0,0,0,0,0,0,0,0],"id":6,"left_children":[1,3,5,7,9,11,13,15,17,19,21,23,25,27,29,-1,-1,-1,-1,-1,-1,-1,-1,-1,-1,-1,-1,-1,-1,-1,-1],"loss_changes":[1.3624102E3,6.040376E2,3.4980725E2,3.2787354E1,4.2278915E2,7.505127E1,2.1313232E1,1.6440521E1,4.1255493E0,1.4010562E2,1.1282886E2,1.7551674E1,1.955069E1,2.4238708E1,3.106018E0,0E0,0E0,0E0,0E0,0E0,0E0,0E0,0E0,0E0,0E0,0E0,0E0,0E0,0E0,0E0,0E0],"parents":[2147483647,0,0,1,1,2,2,3,3,4,4,5,5,6,6,7,7,8,8,9,9,10,10,11,11,12,12,13,13,14,14],"right_children":[2,4,6,8,10,12,14,16,18,20,22,24,26,28,30,-1,-1,-1,-1,-1,-1,-1,-1,-1,-1,-1,-1,-1,-1,-1,-1],"split_conditions":[4.9473416E-2,-1.1965278E1,2.2687949E-1,-5.538918E-1,-4.057392E-3,-2.0566374E-2,9.102423E-1,-9.6892416E-1,2.4465799E2,6.6581997E-3,1.2327073E1,1.2277505E0,9.954552E0,2.910335E-1,1.8262626E3,4.604361E-2,2.083161E-2,4.7704373E-2,2.5706481E-2,1.1888977E-2,-1.373278E-4,-1.7660888E-2,-1.2452665E-3,-4.9777073E-3,-1.3476822E-2,-2.710326E-2,-1.634131E-2,-4.1782018E-2,-1.4968114E-2,-4.7290977E-2,-2.6662324E-2],"split_indices":[20,20,20,14,31,31,20,28,22,20,26,19,18,7,7,0,0,0,0,0,0,0,0,0,0,0,0,0,0,0,0],"split_type":[0,0,0,0,0,0,0,0,0,0,0,0,0,0,0,0,0,0,0,0,0,0,0,0,0,0,0,0,0,0,0],"sum_hessian":[8.619896E3,6.590278E3,2.0296191E3,4.2064203E2,6.1696357E3,1.525016E3,5.0460315E2,1.2115441E2,2.994876E2,4.662857E3,1.5067787E3,8.9997955E2,6.250365E2,1.3496239E2,3.6964078E2,3.274426E1,8.841015E1,2.8773938E2,1.1748243E1,3.5021938E3,1.1606632E3,7.459892E2,7.6078955E2,5.2232074E2,3.776588E2,3.3234738E2,2.9268912E2,8.586327E1,4.909911E1,3.5855762E2,1.1083142E1],"tree_param":{"num_deleted":"0","num_feature":"36","num_nodes":"31","size_leaf_vector":"1"}},{"base_weights":[-5.111976E-4,2.7387664E-1,-3.5926932E-1,1.3885626E0,2.0389073E-1,-2.3640154E-1,-1.1531337E0,1.4411231E0,-3.5348207E-2,2.7631438E-1,-4.5440024E-1,-1.5943395E-1,-1.1042411E0,-4.0551516E-1,-1.2131113E0,2.7420374E-2,4.4467524E-2,1.5248653E-2,3.057544E-3,-8.346712E-3,-4.470422E-2,3.803809E-3,-1.0810956E-2,-7.809586E-3,-3.9093208E-2,2.1645209E-2,-4.193861E-2,-2.6024468E-2,-4.2930156E-2],"categories":[],"categories_nodes":[],"categories_segments":[],"categories_sizes":[],"default_left":[1,0,1,1,1,1,0,0,0,0,0,0,0,0,0,0,0,0,0,0,0,0,0,0,0,0,0,0,0],"id":7,"left_children":[1,3,5,7,9,11,13,15,-1,17,19,21,23,25,27,-1,-1,-1,-1,-1,-1,-1,-1,-1,-1,-1,-1,-1,-1],"loss_changes":[8.51189E2,3.8194315E2,3.6524207E2,4.0725525E1,2.1997256E2,2.1666418E2,2.2017395E1,4.800293E0,0E0,1.6803516E2,8.305208E1,1.7160648E2,4.4015778E1,4.438757E1,3.3718018E1,0E0,0E0,0E0,0E0,0E0,0E0,0E0,0E0,0E0,0E0,0E0,0E0,0E0,0E0],"parents":[2147483647,0,0,1,1,2,2,3,3,4,4,5,5,6,6,7,7,9,9,10,10,11,11,12,12,13,13,14,14],"right_children":[2,4,6,8,10,12,14,16,-1,18,20,22,24,26,28,-1,-1,-1,-1,-1,-1,-1,-1,-1,-1,-1,-1,-1,-1],"split_conditions":[-1.1211268E-2,-5.246447E1,7.6356225E-2,3.347189E-5,1.1036655E-2,1.858431E-1,-1.9E1,-9.840834E-1,-3.5348207E-2,-5.926E3,9.4038063E-1,-5.290396E-2,1.4421834E-3,-2.2824996E-4,1.6513762E-1,2.7420374E-2,4.4467524E-2,1.5248653E-2,3.057544E-3,-8.346712E-3,-4.470422E-2,3.803809E-3,-1.0810956E-2,-7.809586E-3,-3.9093208E-2,2.1645209E-2,-4.193861E-2,-2.6024468E-2,-4.2930156E-2],"split_indices":[25,31,31,21,21,34,7,14,0,32,13,31,24,25,31,0,0,0,0,0,0,0,0,0,0,0,0,0,0],"split_type":[0,0,0,0,0,0,0,0,0,0,0,0,0,0,0,0,0,0,0,0,0,0,0,0,0,0,0,0,0],"sum_hessian":[8.644881E3,4.8985645E3,3.7463167E3,2.882755E2,4.610289E3,3.245329E3,5.009875E2,2.8292078E2,5.354752E0,4.15387E3,4.564189E2,2.9820393E3,2.6328964E2,3.7783127E1,4.6320435E2,2.2157978E1,2.607628E2,1.7818363E3,2.3720337E3,3.9115347E2,6.526545E1,1.2301104E3,1.7519291E3,5.065126E1,2.1263837E2,1.78198E1,1.9963327E1,1.8103044E2,2.8217392E2],"tree_param":{"num_deleted":"0","num_feature":"36","num_nodes":"29","size_leaf_vector":"1"}},{"base_weights":[5.2211257E-3,1.6279043E-1,-8.760052E-1,5.2991E-1,-6.844299E-2,-5.9054834E-1,-1.4443306E0,1.2893156E0,4.069036E-1,-1.7725152E-1,2.4605379E-1,-3.766034E-1,-9.779758E-1,-1.5312018E0,-1.1182224E0,2.8901363E-2,4.532566E-2,1.683391E-2,6.283434E-3,5.013652E-4,-1.241066E-2,1.9831281E-2,-5.6485157E-3,-2.2390306E-2,-8.635929E-3,-3.2522883E-2,-2.0850515E-2,-4.6241928E-2,-2.8939072E-2,-4.6611764E-2,-2.6217693E-2],"categories":[],"categories_nodes":[],"categories_segments":[],"categories_sizes":[],"default_left":[0,0,0,0,0,1,1,0,0,1,0,1,0,1,0,0,0,0,0,0,0,0,0,0,0,0,0,0,0,0,0],"id":8,"left_children":[1,3,5,7,9,11,13,15,17,19,21,23,25,27,29,-1,-1,-1,-1,-1,-1,-1,-1,-1,-1,-1,-1,-1,-1,-1,-1],"loss_changes":[1.199986E3,6.223809E2,2.1181226E2,2.6413336E2,1.5399638E2,7.209906E1,1.0684509E1,2.7029541E1,7.418021E1,1.5332115E2,2.086402E2,1.8318802E1,8.567352E0,4.9346924E-1,8.829918E0,0E0,0E0,0E0,0E0,0E0,0E0,0E0,0E0,0E0,0E0,0E0,0E0,0E0,0E0,0E0,0E0],"parents":[2147483647,0,0,1,1,2,2,3,3,4,4,5,5,6,6,7,7,8,8,9,9,10,10,11,11,12,12,13,13,14,14],"right_children":[2,4,6,8,10,12,14,16,18,20,22,24,26,28,30,-1,-1,-1,-1,-1,-1,-1,-1,-1,-1,-1,-1,-1,-1,-1,-1],"split_conditions":[8.10135E-2,-8.569705E-2,3.264133E-1,-1.1965278E1,1E0,-2.6377619E-3,-3.9844406E-1,-1.1243005E1,2.3360883E-1,-1.9657936E-2,8.3425855E-3,8.787158E-2,1.3500437E1,6.5987366E2,-1.4649412E-2,2.8901363E-2,4.532566E-2,1.683391E-2,6.283434E-3,5.013652E-4,-1.241066E-2,1.9831281E-2,-5.6485157E-3,-2.2390306E-2,-8.635929E-3,-3.2522883E-2,-2.0850515E-2,-4.6241928E-2,-2.8939072E-2,-4.6611764E-2,-2.6217693E-2],"split_indices":[20,31,20,20,3,31,28,25,28,31,20,8,26,11,8,0,0,0,0,0,0,0,0,0,0,0,0,0,0,0,0],"split_type":[0,0,0,0,0,0,0,0,0,0,0,0,0,0,0,0,0,0,0,0,0,0,0,0,0,0,0,0,0,0,0],"sum_hessian":[8.640029E3,7.3301616E3,1.309868E3,2.8322407E3,4.497921E3,8.7327905E2,4.3658896E2,3.934868E2,2.438754E3,3.342077E3,1.155844E3,5.638708E2,3.0940826E2,3.418333E2,9.475565E1,1.613912E2,2.320956E2,1.3682296E3,1.0705243E3,1.836453E3,1.5056239E3,5.9082086E2,5.6502313E2,1.077034E2,4.5616736E2,2.2295892E2,8.6449356E1,3.3410037E2,7.7329464E0,3.2125973E1,6.262968E1],"tree_param":{"num_deleted":"0","num_feature":"36","num_nodes":"31","size_leaf_vector":"1"}},{"base_weights":[-3.7487E-3,1.9321744E-1,-6.987408E-1,1.2659483E0,1.1528881E-1,-4.554488E-1,-1.3248106E0,8.708879E-1,1.459526E0,2.4450411E-1,-3.6330017E-1,-6.609805E-1,-2.4819222E-1,-1.0117904E0,-1.4715658E0,4.267764E-2,1.9664476E-2,4.4722363E-2,2.2831228E-2,1.081033E-2,-2.1498E-3,-1.731122E-2,-1.7602724E-3,-1.651E-2,-3.0152244E-2,-3.7912605E-4,-1.1106667E-2,-4.0691007E-2,-2.1372784E-2,-4.4711668E-2,-2.1683369E-2],"categories":[],"categories_nodes":[],"categories_segments":[],"categories_sizes":[],"default_left":[0,0,0,0,1,1,0,0,0,0,0,0,0,0,0,0,0,0,0,0,0,0,0,0,0,0,0,0,0,0,0],"id":9,"left_children":[1,3,5,7,9,11,13,15,17,19,21,23,25,27,29,-1,-1,-1,-1,-1,-1,-1,-1,-1,-1,-1,-1,-1,-1,-1,-1],"loss_changes":[1.1798555E3,5.6126587E2,2.893011E2,3.3503967E1,3.873381E2,5.8287537E1,2.2954895E1,1.7133308E1,5.488159E0,1.8063403E2,8.667169E1,2.5654572E1,1.9680325E1,1.6883972E1,3.9976807E0,0E0,0E0,0E0,0E0,0E0,0E0,0E0,0E0,0E0,0E0,0E0,0E0,0E0,0E0,0E0,0E0],"parents":[2147483647,0,0,1,1,2,2,3,3,4,4,5,5,6,6,7,7,8,8,9,9,10,10,11,11,12,12,13,13,14,14],"right_children":[2,4,6,8,10,12,14,16,18,20,22,24,26,28,30,-1,-1,-1,-1,-1,-1,-1,-1,-1,-1,-1,-1,-1,-1,-1,-1],"split_conditions":[5.420504E-2,-8.324111E0,2.0405063E-1,-3.7830082E-1,-7.1E1,8.262737E-2,9.102423E-1,-6.596116E2,1.352E2,8.3425855E-3,-3.751563E-5,1.0340297E-1,9.635211E-2,9.933661E-2,1.8262626E3,4.267764E-2,1.9664476E-2,4.4722363E-2,2.2831228E-2,1.081033E-2,-2.1498E-3,-1.731122E-2,-1.7602724E-3,-1.651E-2,-3.0152244E-2,-3.7912605E-4,-1.1106667E-2,-4.0691007E-2,-2.1372784E-2,-4.4711668E-2,-2.1683369E-2],"split_indices":[20,20,20,14,32,8,20,20,22,20,4,20,21,8,7,0,0,0,0,0,0,0,0,0,0,0,0,0,0,0,0],"split_type":[0,0,0,0,0,0,0,0,0,0,0,0,0,0,0,0,0,0,0,0,0,0,0,0,0,0,0,0,0,0,0],"sum_hessian":[8.617024E3,6.7147373E3,1.9022867E3,4.5372443E2,6.2610127E3,1.3711735E3,5.3111316E2,1.5101874E2,3.027057E2,4.9303467E3,1.3306661E3,6.873524E2,6.838211E2,1.7204524E2,3.5906793E2,4.0832794E1,1.1018594E2,2.8866907E2,1.4036621E1,3.608192E3,1.3221548E3,7.814591E2,5.492071E2,5.2207355E2,1.6527885E2,2.3373865E2,4.5008246E2,7.834137E1,9.370388E1,3.4929688E2,9.7710495E0],"tree_param":{"num_deleted":"0","num_feature":"36","num_nodes":"31","size_leaf_vector":"1"}},{"base_weights":[7.71387E-4,1.9511321E-1,-6.382942E-1,1.2559587E0,1.2352903E-1,-4.1131806E-1,-1.2787583E0,8.276023E-1,1.4366938E0,2.6203957E-1,-3.0446738E-1,-2.2860822E-1,-6.2663215E-1,-9.473605E-1,-1.4314617E0,4.2494528E-2,1.8767675E-2,4.3995976E-2,2.2908092E-2,1.0366492E-2,-6.409313E-4,-1.7105507E-2,-1.3386437E-3,-3.0474246E-2,-5.7682763E-3,-1.3422027E-2,-2.334532E-2,-1.7038353E-2,-3.7769042E-2,-4.3721747E-2,-1.6240204E-2],"categories":[],"categories_nodes":[],"categories_segments":[],"categories_sizes":[],"default_left":[0,0,0,0,1,0,0,0,0,0,0,0,0,1,0,0,0,0,0,0,0,0,0,0,0,0,0,0,0,0,0],"id":10,"left_children":[1,3,5,7,9,11,13,15,17,19,21,23,25,27,29,-1,-1,-1,-1,-1,-1,-1,-1,-1,-1,-1,-1,-1,-1,-1,-1],"loss_changes":[1.0685353E3,5.0084076E2,2.9112335E2,3.1088745E1,3.665231E2,5.8188812E1,2.5185852E1,1.4111656E1,4.7418213E0,1.1054596E2,1.0435718E2,2.2790855E1,1.8123901E1,1.9194641E1,7.452881E0,0E0,0E0,0E0,0E0,0E0,0E0,0E0,0E0,0E0,0E0,0E0,0E0,0E0,0E0,0E0,0E0],"parents":[2147483647,0,0,1,1,2,2,3,3,4,4,5,5,6,6,7,7,8,8,9,9,10,10,11,11,12,12,13,13,14,14],"right_children":[2,4,6,8,10,12,14,16,18,20,22,24,26,28,30,-1,-1,-1,-1,-1,-1,-1,-1,-1,-1,-1,-1,-1,-1,-1,-1],"split_conditions":[4.9473416E-2,-1.1965278E1,2.0405063E-1,-5.538918E-1,-4.057392E-3,-2.7380016E-2,9.102423E-1,6.931472E-1,2.4465799E2,9.026271E-3,0E0,2.3275055E-3,8.10135E-2,8.317911E-2,1.8262626E3,4.2494528E-2,1.8767675E-2,4.3995976E-2,2.2908092E-2,1.0366492E-2,-6.409313E-4,-1.7105507E-2,-1.3386437E-3,-3.0474246E-2,-5.7682763E-3,-1.3422027E-2,-2.334532E-2,-1.7038353E-2,-3.7769042E-2,-4.3721747E-2,-1.6240204E-2],"split_indices":[20,20,20,14,31,31,20,26,22,20,4,9,20,31,7,0,0,0,0,0,0,0,0,0,0,0,0,0,0,0,0],"split_type":[0,0,0,0,0,0,0,0,0,0,0,0,0,0,0,0,0,0,0,0,0,0,0,0,0,0,0,0,0,0,0],"sum_hessian":[8.601536E3,6.5962812E3,2.0052548E3,4.159243E2,6.180357E3,1.4817682E3,5.234866E2,1.25072266E2,2.9085205E2,4.669557E3,1.5107999E3,8.026892E2,6.7907904E2,1.6739941E2,3.5608713E2,3.0410822E1,9.466144E1,2.7737683E2,1.3475213E1,3.60659E3,1.062967E3,7.463721E2,7.644279E2,3.4223434E1,7.6846576E2,3.1293066E2,3.6614838E2,7.675938E1,9.064004E1,3.453884E2,1.0698738E1],"tree_param":{"num_deleted":"0","num_feature":"36","num_nodes":"31","size_leaf_vector":"1"}},{"base_weights":[1.2466671E-3,1.9416422E-1,-6.315237E-1,1.2439463E0,1.2310166E-1,-4.2763925E-1,-1.3278668E0,8.4757096E-1,1.4290186E0,2.5614873E-1,-2.9009107E-1,-2.508307E-1,-6.3085806E-1,-1.4205178E0,-1.0474564E0,4.0000103E-2,1.9371055E-2,3.7344884E-2,4.4862434E-2,1.0384334E-2,-4.5930603E-4,-1.6057758E-2,-1.382124E-3,-2.468366E-2,-6.47442E-3,-1.3716474E-2,-2.2725051E-2,-1.8796189E-2,-4.3059513E-2,-3.9203074E-2,-2.1543711E-2],"categories":[],"categories_nodes":[],"categories_segments":[],"categories_sizes":[],"default_left":[0,0,0,0,1,1,1,0,0,0,0,0,0,0,0,0,0,0,0,0,0,0,0,0,0,0,0,0,0,0,0],"id":11,"left_children":[1,3,5,7,9,11,13,15,17,19,21,23,25,27,29,-1,-1,-1,-1,-1,-1,-1,-1,-1,-1,-1,-1,-1,-1,-1,-1],"loss_changes":[1.043205E3,4.8841113E2,2.829074E2,2.9240356E1,3.3733984E2,5.5388763E1,1.024823E1,1.2336639E1,1.5814209E0,1.13391205E2,8.94008E1,1.6412685E1,1.5455994E1,3.0575562E0,8.967773E0,0E0,0E0,0E0,0E0,0E0,0E0,0E0,0E0,0E0,0E0,0E0,0E0,0E0,0E0,0E0,0E0],"parents":[2147483647,0,0,1,1,2,2,3,3,4,4,5,5,6,6,7,7,8,8,9,9,10,10,11,11,12,12,13,13,14,14],"right_children":[2,4,6,8,10,12,14,16,18,20,22,24,26,28,30,-1,-1,-1,-1,-1,-1,-1,-1,-1,-1,-1,-1,-1,-1,-1,-1],"split_conditions":[4.9473416E-2,-1.1965278E1,2.6675513E-1,-3.7830082E-1,-4.057392E-3,-2.7380016E-2,-3.9844406E-1,-9.6892416E-1,-1.0677425E0,6.6581997E-3,0E0,5.987552E-2,8.10135E-2,3.264133E-1,2.0930573E-1,4.0000103E-2,1.9371055E-2,3.7344884E-2,4.4862434E-2,1.0384334E-2,-4.5930603E-4,-1.6057758E-2,-1.382124E-3,-2.468366E-2,-6.47442E-3,-1.3716474E-2,-2.2725051E-2,-1.8796189E-2,-4.3059513E-2,-3.9203074E-2,-2.1543711E-2],"split_indices":[20,20,20,14,31,31,28,28,21,20,4,9,20,20,5,0,0,0,0,0,0,0,0,0,0,0,0,0,0,0,0],"split_type":[0,0,0,0,0,0,0,0,0,0,0,0,0,0,0,0,0,0,0,0,0,0,0,0,0,0,0,0,0,0,0],"sum_hessian":[8.543777E3,6.548101E3,1.9956765E3,4.1410907E2,6.1339917E3,1.5449421E3,4.5073438E2,1.3358513E2,2.8052396E2,4.640229E3,1.4937627E3,8.2734937E2,7.175927E2,3.3573694E2,1.1499744E2,3.757116E1,9.601397E1,7.9561264E1,2.0096268E2,3.4846885E3,1.1555408E3,7.445343E2,7.4922833E2,4.64324E1,7.80917E2,3.0458447E2,4.1300827E2,6.936446E0,3.2880048E2,6.267776E1,5.2319675E1],"tree_param":{"num_deleted":"0","num_feature":"36","num_nodes":"31","size_leaf_vector":"1"}},{"base_weights":[-7.451751E-4,2.529623E-1,-3.2707337E-1,1.8633148E-1,1.2499667E0,-2.1849659E-1,-1.0396559E0,3.7331885E-1,1.7781047E-3,5.580231E-1,1.3558174E0,-1.3584664E-1,-8.857508E-1,-7.233497E-1,-1.2178978E0,1.2238654E-2,-1.8083882E-2,-1.4656263E-3,1.5904244E-2,-2.1095298E-2,2.4441121E-2,8.985084E-3,4.1364722E-2,4.340128E-3,-9.585627E-3,-6.983188E-3,-3.0832456E-2,-1.7579239E-2,-3.604981E-2,-1.3079072E-2,-3.9555453E-2],"categories":[],"categories_nodes":[],"categories_segments":[],"categories_sizes":[],"default_left":[1,1,1,0,0,0,0,0,1,0,0,1,0,0,0,0,0,0,0,0,0,0,0,0,0,0,0,0,0,0,0],"id":12,"left_children":[1,3,5,7,9,11,13,15,17,19,21,23,25,27,29,-1,-1,-1,-1,-1,-1,-1,-1,-1,-1,-1,-1,-1,-1,-1,-1],"loss_changes":[7.113887E2,3.209048E2,2.9055627E2,1.5641145E2,2.1410828E1,1.7981137E2,2.7121277E1,7.636319E1,6.1077034E1,1.4122654E1,5.949402E0,1.4968515E2,3.3085907E1,1.1220009E1,2.4302826E1,0E0,0E0,0E0,0E0,0E0,0E0,0E0,0E0,0E0,0E0,0E0,0E0,0E0,0E0,0E0,0E0],"parents":[2147483647,0,0,1,1,2,2,3,3,4,4,5,5,6,6,7,7,8,8,9,9,10,10,11,11,12,12,13,13,14,14],"right_children":[2,4,6,8,10,12,14,16,18,20,22,24,26,28,30,-1,-1,-1,-1,-1,-1,-1,-1,-1,-1,-1,-1,-1,-1,-1,-1],"split_conditions":[-1.1211268E-2,5.109221E1,7.6356225E-2,-3.933E3,-9.840834E-1,1.350076E-1,1.6513762E-1,6.0916996E0,6.483599E-2,3.2282867E-2,-1.1812477E2,-5.4538812E-2,1.4421834E-3,3.6212134E0,-1.9E1,1.2238654E-2,-1.8083882E-2,-1.4656263E-3,1.5904244E-2,-2.1095298E-2,2.4441121E-2,8.985084E-3,4.1364722E-2,4.340128E-3,-9.585627E-3,-6.983188E-3,-3.0832456E-2,-1.7579239E-2,-3.604981E-2,-1.3079072E-2,-3.9555453E-2],"split_indices":[25,17,31,32,14,34,31,8,4,22,11,31,24,2,7,0,0,0,0,0,0,0,0,0,0,0,0,0,0,0,0],"split_type":[0,0,0,0,0,0,0,0,0,0,0,0,0,0,0,0,0,0,0,0,0,0,0,0,0,0,0,0,0,0,0],"sum_hessian":[8.590492E3,4.8331396E3,3.757353E3,4.531483E3,3.0165665E2,3.2616755E3,4.9567752E2,2.2503904E3,2.2810925E3,4.0855694E1,2.6080096E2,2.903264E3,3.584114E2,1.80472E2,3.152055E2,2.1738364E3,7.6554016E1,2.0824424E3,1.9864998E2,6.6147385E0,3.424096E1,5.8580217E0,2.5494293E2,1.1488654E3,1.7543987E3,6.449054E1,2.9392087E2,1.4193275E2,3.8539253E1,3.654396E1,2.7866156E2],"tree_param":{"num_deleted":"0","num_feature":"36","num_nodes":"31","size_leaf_vector":"1"}},{"base_weights":[-3.2780855E-3,1.932923E-1,-5.9278256E-1,4.6249887E-1,-6.544645E-2,-3.917369E-1,-1.2753977E0,1.1936629E0,3.7307936E-1,-2.1372429E-1,2.3596916E-1,-2.4077556E-1,-6.2358356E-1,-1.3966789E0,-9.79013E-1,2.5239808E-2,4.1326087E-2,7.640856E-3,1.5981238E-2,-1.3724932E-2,1.3456738E-3,1.8257005E-2,-3.911226E-3,-2.2794602E-2,-5.483032E-3,-1.4075856E-2,-2.5695372E-2,-2.7739726E-2,-4.243126E-2,-1.918807E-2,-3.8789358E-2],"categories":[],"categories_nodes":[],"categories_segments":[],"categories_sizes":[],"default_left":[0,0,0,0,0,1,1,0,1,1,0,1,1,0,1,0,0,0,0,0,0,0,0,0,0,0,0,0,0,0,0],"id":13,"left_children":[1,3,5,7,9,11,13,15,17,19,21,23,25,27,29,-1,-1,-1,-1,-1,-1,-1,-1,-1,-1,-1,-1,-1,-1,-1,-1],"loss_changes":[9.900679E2,4.4633456E2,2.9271423E2,2.0486957E2,1.46113E2,5.7666153E1,1.6089844E1,2.0981232E1,5.2769135E1,1.3813263E2,1.4723486E2,3.0032932E1,2.3001923E1,1.5513916E0,1.45572815E1,0E0,0E0,0E0,0E0,0E0,0E0,0E0,0E0,0E0,0E0,0E0,0E0,0E0,0E0,0E0,0E0],"parents":[2147483647,0,0,1,1,2,2,3,3,4,4,5,5,6,6,7,7,8,8,9,9,10,10,11,11,12,12,13,13,14,14],"right_children":[2,4,6,8,10,12,14,16,18,20,22,24,26,28,30,-1,-1,-1,-1,-1,-1,-1,-1,-1,-1,-1,-1,-1,-1,-1,-1],"split_conditions":[4.4498783E-2,-6.379876E-2,2.2687949E-1,-1.7595745E1,2.6882353E1,-1.9657936E-2,-3.7228388E-1,-1.9092106E1,-3.7130084E-2,1.8517914E-3,7.6312777E-3,3.633215E-2,2.5424108E-1,3.264133E-1,7.6356225E-2,2.5239808E-2,4.1326087E-2,7.640856E-3,1.5981238E-2,-1.3724932E-2,1.3456738E-3,1.8257005E-2,-3.911226E-3,-2.2794602E-2,-5.483032E-3,-1.4075856E-2,-2.5695372E-2,-2.7739726E-2,-4.243126E-2,-1.918807E-2,-3.8789358E-2],"split_indices":[20,31,20,20,17,31,28,25,9,18,20,8,25,20,31,0,0,0,0,0,0,0,0,0,0,0,0,0,0,0,0],"split_type":[0,0,0,0,0,0,0,0,0,0,0,0,0,0,0,0,0,0,0,0,0,0,0,0,0,0,0,0,0,0,0],"sum_hessian":[8.541983E3,6.40643E3,2.1355535E3,3.1393174E3,3.2671125E3,1.6508998E3,4.8465356E2,3.4074768E2,2.7985698E3,2.1900396E3,1.0770731E3,1.0010978E3,6.49802E2,3.412861E2,1.4336746E2,1.18758934E2,2.2198875E2,1.6083652E3,1.1902046E3,1.1268989E3,1.0631405E3,5.336507E2,5.434224E2,9.941851E1,9.0167926E2,3.9259744E2,2.5720456E2,1.425701E1,3.2702908E2,7.035153E1,7.301594E1],"tree_param":{"num_deleted":"0","num_feature":"36","num_nodes":"31","size_leaf_vector":"1"}},{"base_weights":[1.020048E-2,2.4728353E-1,-2.990146E-1,1.1948029E0,1.9115856E-1,-1.3730124E-1,-6.859108E-1,1.2544806E0,-2.8215403E-2,4.0028435E-1,1.2231232E-2,-4.620085E-2,-1.0498095E0,-9.207916E-1,-4.010193E-1,2.0876411E-2,4.002161E-2,1.4502708E-2,-6.8284455E-3,-1.5863689E-3,1.3063175E-2,1.251687E-2,-4.5904564E-3,-6.538194E-3,-3.6416095E-2,-2.3519894E-2,-3.726593E-2,-5.6081987E-3,-1.8536216E-2],"categories":[],"categories_nodes":[],"categories_segments":[],"categories_sizes":[],"default_left":[1,0,1,1,0,1,0,0,0,1,1,1,0,1,0,0,0,0,0,0,0,0,0,0,0,0,0,0,0],"id":14,"left_children":[1,3,5,7,9,11,13,15,-1,17,19,21,23,25,27,-1,-1,-1,-1,-1,-1,-1,-1,-1,-1,-1,-1,-1,-1],"loss_changes":[6.2897614E2,2.58025E2,2.3286823E2,3.5761658E1,1.7159111E2,2.1834534E2,7.305786E1,1.0825287E1,0E0,1.10492004E2,6.815065E1,1.1835699E2,3.2275208E1,2.543576E1,2.2986809E1,0E0,0E0,0E0,0E0,0E0,0E0,0E0,0E0,0E0,0E0,0E0,0E0,0E0,0E0],"parents":[2147483647,0,0,1,1,2,2,3,3,4,4,5,5,6,6,7,7,9,9,10,10,11,11,12,12,13,13,14,14],"right_children":[2,4,6,8,10,12,14,16,-1,18,20,22,24,26,28,-1,-1,-1,-1,-1,-1,-1,-1,-1,-1,-1,-1,-1,-1],"split_conditions":[-1.1211268E-2,-1.5326017E1,-1.7E1,-1.089473E-3,-5.26503E3,1.858431E-1,1.1455953E1,-9.352708E-1,-2.8215403E-2,9.314734E-3,-1.3104384E-4,5.3731925E-3,1.4421834E-3,9.8678306E-2,8.42017E-2,2.0876411E-2,4.002161E-2,1.4502708E-2,-6.8284455E-3,-1.5863689E-3,1.3063175E-2,1.251687E-2,-4.5904564E-3,-6.538194E-3,-3.6416095E-2,-2.3519894E-2,-3.726593E-2,-5.6081987E-3,-1.8536216E-2],"split_indices":[25,8,32,24,32,34,26,14,0,21,4,22,24,21,21,0,0,0,0,0,0,0,0,0,0,0,0,0,0],"split_type":[0,0,0,0,0,0,0,0,0,0,0,0,0,0,0,0,0,0,0,0,0,0,0,0,0,0,0,0,0],"sum_hessian":[8.577709E3,4.855259E3,3.72245E3,2.703772E2,4.584882E3,2.6261409E3,1.0963092E3,2.6342746E2,6.94974E0,2.1134717E3,2.47141E3,2.3887139E3,2.3742696E2,5.996727E2,4.966364E2,3.4061573E1,2.2936589E2,1.866554E3,2.4691779E2,2.1426414E3,3.287686E2,4.4689368E2,1.9418202E3,3.94951E1,1.9793185E2,4.2305402E2,1.7661871E2,2.5085442E2,2.4578201E2],"tree_param":{"num_deleted":"0","num_feature":"36","num_nodes":"29","size_leaf_vector":"1"}},{"base_weights":[3.808204E-3,1.8104552E-1,-5.8614135E-1,1.00993E0,1.0665135E-1,-3.8898325E-1,-1.2100693E0,6.771987E-1,1.3365241E0,2.1853791E-1,-3.0128458E-1,-2.2341447E-1,-5.851893E-1,-1.3536073E0,-8.660505E-1,1.4586794E-2,3.647142E-2,3.3300694E-2,4.1970335E-2,9.100384E-3,-7.258924E-4,-1.6008954E-2,-2.7862666E-3,-2.46458E-2,-5.416262E-3,-1.3910684E-2,-2.230541E-2,-2.7509313E-2,-4.089796E-2,-3.5250526E-2,-1.7107481E-2],"categories":[],"categories_nodes":[],"categories_segments":[],"categories_sizes":[],"default_left":[0,0,0,0,1,1,1,0,0,0,1,0,0,1,0,0,0,0,0,0,0,0,0,0,0,0,0,0,0,0,0],"id":15,"left_children":[1,3,5,7,9,11,13,15,17,19,21,23,25,27,29,-1,-1,-1,-1,-1,-1,-1,-1,-1,-1,-1,-1,-1,-1,-1,-1],"loss_changes":[8.9419275E2,4.054071E2,2.4256189E2,5.7938293E1,2.7554987E2,4.8687057E1,2.222998E1,2.720234E1,2.3002625E0,9.75255E1,6.2878456E1,2.0791988E1,1.2873108E1,1.5252686E-1,1.2335182E1,0E0,0E0,0E0,0E0,0E0,0E0,0E0,0E0,0E0,0E0,0E0,0E0,0E0,0E0,0E0,0E0],"parents":[2147483647,0,0,1,1,2,2,3,3,4,4,5,5,6,6,7,7,8,8,9,9,10,10,11,11,12,12,13,13,14,14],"right_children":[2,4,6,8,10,12,14,16,18,20,22,24,26,28,30,-1,-1,-1,-1,-1,-1,-1,-1,-1,-1,-1,-1,-1,-1,-1,-1],"split_conditions":[4.9473416E-2,-3.9696453E0,2.2687949E-1,1.1716862E-4,-7.1E1,-2.7380016E-2,-3.9844406E-1,7.68621E2,-2.2037764E1,8.3425855E-3,5.969638E-1,2.1576624E-2,9.447846E-2,-3E0,2.0540397E-1,1.4586794E-2,3.647142E-2,3.3300694E-2,4.1970335E-2,9.100384E-3,-7.258924E-4,-1.6008954E-2,-2.7862666E-3,-2.46458E-2,-5.416262E-3,-1.3910684E-2,-2.230541E-2,-2.7509313E-2,-4.089796E-2,-3.5250526E-2,-1.7107481E-2],"split_indices":[20,20,20,11,32,31,28,12,24,20,11,8,20,11,5,0,0,0,0,0,0,0,0,0,0,0,0,0,0,0,0],"split_type":[0,0,0,0,0,0,0,0,0,0,0,0,0,0,0,0,0,0,0,0,0,0,0,0,0,0,0,0,0,0,0],"sum_hessian":[8.549856E3,6.575181E3,1.9746749E3,5.404972E2,6.034684E3,1.5017522E3,4.729227E2,2.6925546E2,2.7124173E2,4.736143E3,1.2985408E3,8.156247E2,6.861275E2,3.3162228E2,1.4130042E2,2.0017194E2,6.908354E1,6.2707127E1,2.085346E2,3.509663E3,1.2264802E3,6.1326953E2,6.852712E2,5.333846E1,7.6228625E2,3.904335E2,2.95694E2,9.25293E0,3.2236935E2,6.765832E1,7.3642105E1],"tree_param":{"num_deleted":"0","num_feature":"36","num_nodes":"31","size_leaf_vector":"1"}},{"base_weights":[5.4570506E-3,2.3402762E-1,-2.9458135E-1,1.1578484E0,1.8155497E-1,-1.9363984E-1,-9.728797E-1,1.2027159E0,-2.7632732E-2,2.3978929E-1,-3.743346E-1,-1.4073439E-1,-1.1174392E0,-1.9208257E-1,-1.0313791E0,1.0145591E-2,3.6822107E-2,1.10400346E-4,1.1415229E-2,-3.9453268E-2,-6.7188633E-3,1.7909067E-3,-9.443224E-3,3.5409417E-4,-3.9133586E-2,2.650572E-2,-3.2985874E-2,-2.17027E-2,-3.8322587E-2],"categories":[],"categories_nodes":[],"categories_segments":[],"categories_sizes":[],"default_left":[1,0,1,1,1,1,0,0,0,0,0,0,0,0,0,0,0,0,0,0,0,0,0,0,0,0,0,0,0],"id":16,"left_children":[1,3,5,7,9,11,13,15,-1,17,19,21,23,25,27,-1,-1,-1,-1,-1,-1,-1,-1,-1,-1,-1,-1,-1,-1],"loss_changes":[5.850482E2,2.3451315E2,2.5237576E2,2.5365631E1,1.4845181E2,1.5683481E2,2.1616272E1,5.027527E0,0E0,1.378514E2,6.1240463E1,1.06039696E2,3.6729904E1,3.466199E1,3.2723022E1,0E0,0E0,0E0,0E0,0E0,0E0,0E0,0E0,0E0,0E0,0E0,0E0,0E0,0E0],"parents":[2147483647,0,0,1,1,2,2,3,3,4,4,5,5,6,6,7,7,9,9,10,10,11,11,12,12,13,13,14,14],"right_children":[2,4,6,8,10,12,14,16,-1,18,20,22,24,26,28,-1,-1,-1,-1,-1,-1,-1,-1,-1,-1,-1,-1,-1,-1],"split_conditions":[-1.1211268E-2,-5.246447E1,7.6356225E-2,-5.85619E-3,1.1383817E-2,1.7202337E1,-1.9E1,1.7837301E-1,-2.7632732E-2,4.000614E-1,-3.9844406E-1,-4.7144897E-2,6.4934284E-4,-2.2824996E-4,1.88621E-1,1.0145591E-2,3.6822107E-2,1.10400346E-4,1.1415229E-2,-3.9453268E-2,-6.7188633E-3,1.7909067E-3,-9.443224E-3,3.5409417E-4,-3.9133586E-2,2.650572E-2,-3.2985874E-2,-2.17027E-2,-3.8322587E-2],"split_indices":[25,31,31,21,21,7,7,12,0,12,28,31,24,25,31,0,0,0,0,0,0,0,0,0,0,0,0,0,0],"split_type":[0,0,0,0,0,0,0,0,0,0,0,0,0,0,0,0,0,0,0,0,0,0,0,0,0,0,0,0,0],"sum_hessian":[8.528888E3,4.8411206E3,3.687767E3,2.5906256E2,4.582058E3,3.2111787E3,4.765886E2,2.5400218E2,5.0603857E0,4.148079E3,4.3397906E2,3.0383276E3,1.7285092E2,3.351702E1,4.4307156E2,7.4600563E0,2.4654211E2,1.5493961E3,2.5986829E3,5.8739822E1,3.7523926E2,1.4124033E3,1.6259243E3,2.4691786E1,1.4815913E2,1.5349478E1,1.8167545E1,1.9852663E2,2.4454494E2],"tree_param":{"num_deleted":"0","num_feature":"36","num_nodes":"29","size_leaf_vector":"1"}},{"base_weights":[-6.1789607E-3,1.4139321E-1,-6.7260915E-1,5.189747E-1,-1.5331443E-2,-4.3489727E-1,-1.164767E0,1.0794926E0,4.018454E-1,-2.756422E-1,1.0126872E-1,-6.552762E-1,-2.5937486E-1,-8.4992844E-1,-1.313315E0,1.8009769E-2,3.6507986E-2,2.2524888E-2,9.975239E-3,-2.2673358E-3,-2.5836485E-2,1.1376933E-2,-3.6962659E-3,-3.1171313E-2,-1.6792944E-2,4.6879085E-4,-9.9333655E-3,-3.244679E-2,-1.1458852E-2,-4.01158E-2,-1.5493757E-2],"categories":[],"categories_nodes":[],"categories_segments":[],"categories_sizes":[],"default_left":[0,0,0,0,0,1,0,0,0,0,0,0,0,0,0,0,0,0,0,0,0,0,0,0,0,0,0,0,0,0,0],"id":17,"left_children":[1,3,5,7,9,11,13,15,17,19,21,23,25,27,29,-1,-1,-1,-1,-1,-1,-1,-1,-1,-1,-1,-1,-1,-1,-1,-1],"loss_changes":[8.344913E2,4.1110266E2,1.7946185E2,1.3334961E2,1.4906401E2,4.001561E1,2.2287415E1,2.2426208E1,4.0574432E1,1.7792218E2,2.116909E2,1.627687E1,1.1446377E1,1.7282722E1,5.7438354E0,0E0,0E0,0E0,0E0,0E0,0E0,0E0,0E0,0E0,0E0,0E0,0E0,0E0,0E0,0E0,0E0],"parents":[2147483647,0,0,1,1,2,2,3,3,4,4,5,5,6,6,7,7,8,8,9,9,10,10,11,11,12,12,13,13,14,14],"right_children":[2,4,6,8,10,12,14,16,18,20,22,24,26,28,30,-1,-1,-1,-1,-1,-1,-1,-1,-1,-1,-1,-1,-1,-1,-1,-1],"split_conditions":[6.6561975E-2,-1.2874678E-1,2.0405063E-1,-1.1965278E1,0E0,8.262737E-2,9.102423E-1,-8.976015E-1,-7.4245214E-2,-1.14872E-2,8.3425855E-3,5.2937384E0,-9.048278E-2,2.910335E-1,1.8262626E3,1.8009769E-2,3.6507986E-2,2.2524888E-2,9.975239E-3,-2.2673358E-3,-2.5836485E-2,1.1376933E-2,-3.6962659E-3,-3.1171313E-2,-1.6792944E-2,4.6879085E-4,-9.9333655E-3,-3.244679E-2,-1.1458852E-2,-4.01158E-2,-1.5493757E-2],"split_indices":[20,31,20,20,4,8,20,14,35,20,20,18,30,7,7,0,0,0,0,0,0,0,0,0,0,0,0,0,0,0,0],"split_type":[0,0,0,0,0,0,0,0,0,0,0,0,0,0,0,0,0,0,0,0,0,0,0,0,0,0,0,0,0,0,0],"sum_hessian":[8.483244E3,6.945944E3,1.5372998E3,2.0367318E3,4.909212E3,1.0378856E3,4.994142E2,3.5062302E2,1.6861088E3,1.518279E3,3.390933E3,4.5893365E2,5.7895197E2,1.6225214E2,3.3716208E2,7.934951E1,2.712735E2,2.778459E2,1.408263E3,1.1324879E3,3.857911E2,1.5146759E3,1.8762573E3,8.9488304E1,3.6944534E2,1.1994218E2,4.590098E2,1.0765471E2,5.459743E1,3.266944E2,1.046768E1],"tree_param":{"num_deleted":"0","num_feature":"36","num_nodes":"31","size_leaf_vector":"1"}},{"base_weights":[-7.1627107E-3,2.4460976E-1,-2.2689036E-1,1.4492446E-1,9.916969E-1,-1.5577501E-1,-1.1010134E0,3.759877E-1,-2.4261229E-1,1.2116044E0,7.52208E-1,-7.3643714E-2,-5.795401E-1,1.4919472E-1,-1.1761751E0,2.169831E-2,9.01875E-3,-1.2713094E-2,5.3515853E-3,2.0695992E-2,3.854801E-2,6.135593E-3,3.300979E-2,2.0788661E-3,-6.8974416E-3,-1.2264008E-2,-2.8800849E-2,2.2167165E-2,-2.2086933E-2,-3.85397E-2,-2.393731E-2],"categories":[],"categories_nodes":[],"categories_segments":[],"categories_sizes":[],"default_left":[0,0,1,1,1,1,1,0,1,0,0,1,0,1,0,0,0,0,0,0,0,0,0,0,0,0,0,0,0,0,0],"id":18,"left_children":[1,3,5,7,9,11,13,15,17,19,21,23,25,27,29,-1,-1,-1,-1,-1,-1,-1,-1,-1,-1,-1,-1,-1,-1,-1,-1],"loss_changes":[4.7171982E2,2.957924E2,2.8287122E2,3.1413406E2,2.3716492E1,1.4654623E2,3.234967E1,5.729657E1,1.0003059E2,8.377655E0,4.2956757E1,7.884781E1,4.4019302E1,1.1146008E1,1.223291E1,0E0,0E0,0E0,0E0,0E0,0E0,0E0,0E0,0E0,0E0,0E0,0E0,0E0,0E0,0E0,0E0],"parents":[2147483647,0,0,1,1,2,2,3,3,4,4,5,5,6,6,7,7,8,8,9,9,10,10,11,11,12,12,13,13,14,14],"right_children":[2,4,6,8,10,12,14,16,18,20,22,24,26,28,30,-1,-1,-1,-1,-1,-1,-1,-1,-1,-1,-1,-1,-1,-1,-1,-1],"split_conditions":[4.998243E-3,2.6882353E1,1.858431E-1,-6.2804595E-2,-6.843648E-3,2.1392789E-2,1.2004464E-2,-1.1956887E5,8.59375E-4,6.584911E-1,6.3692145E2,1.032841E-1,1.4749087E-1,-6.6661066E-1,1.060886E1,2.169831E-2,9.01875E-3,-1.2713094E-2,5.3515853E-3,2.0695992E-2,3.854801E-2,6.135593E-3,3.300979E-2,2.0788661E-3,-6.8974416E-3,-1.2264008E-2,-2.8800849E-2,2.2167165E-2,-2.2086933E-2,-3.85397E-2,-2.393731E-2],"split_indices":[24,17,34,31,22,31,24,32,18,12,17,22,31,9,26,0,0,0,0,0,0,0,0,0,0,0,0,0,0,0,0],"split_type":[0,0,0,0,0,0,0,0,0,0,0,0,0,0,0,0,0,0,0,0,0,0,0,0,0,0,0,0,0,0,0],"sum_hessian":[8.524896E3,3.9727043E3,4.552192E3,3.5060757E3,4.6662854E2,4.210796E3,3.413962E2,2.1964836E3,1.309592E3,2.4114305E2,2.254855E2,3.5281646E3,6.826314E2,1.9304699E1,3.220915E2,3.9012018E2,1.8063634E3,9.1559906E2,3.9399298E2,3.099826E1,2.1014479E2,8.824257E1,1.3724292E2,1.8429742E3,1.6851902E3,4.72622E2,2.1000938E2,1.1686646E1,7.618053E0,2.4844458E2,7.364693E1],"tree_param":{"num_deleted":"0","num_feature":"36","num_nodes":"31","size_leaf_vector":"1"}},{"base_weights":[2.5649264E-3,1.1552505E-1,-7.572506E-1,4.0346804E-1,-6.4552315E-2,-4.8346725E-1,-1.1460764E0,1.0341129E0,3.1177762E-1,-1.5992312E-1,2.1872713E-1,-7.455253E-1,-2.696378E-1,-1.2551688E0,-8.842131E-1,2.1934532E-2,3.749847E-2,1.3113986E-2,3.7761102E-3,-3.3763167E-3,-2.1936256E-2,1.58204E-2,-5.247749E-3,-1.5141404E-2,-2.6690789E-2,-2.6215496E-3,-1.310183E-2,-3.7971642E-2,-1.8664015E-2,-3.5585362E-2,-1.8933885E-2],"categories":[],"categories_nodes":[],"categories_segments":[],"categories_sizes":[],"default_left":[0,1,0,0,0,1,1,0,0,0,0,0,0,1,0,0,0,0,0,0,0,0,0,0,0,0,0,0,0,0,0],"id":19,"left_children":[1,3,5,7,9,11,13,15,17,19,21,23,25,27,29,-1,-1,-1,-1,-1,-1,-1,-1,-1,-1,-1,-1,-1,-1,-1,-1],"loss_changes":[7.279471E2,3.8288293E2,1.16302E2,1.6396158E2,1.2278612E2,3.5991318E1,1.1826416E1,2.2640015E1,5.7784134E1,9.1938644E1,1.391735E2,9.606644E0,1.0840555E1,1.3320618E0,9.687279E0,0E0,0E0,0E0,0E0,0E0,0E0,0E0,0E0,0E0,0E0,0E0,0E0,0E0,0E0,0E0,0E0],"parents":[2147483647,0,0,1,1,2,2,3,3,4,4,5,5,6,6,7,7,8,8,9,9,10,10,11,11,12,12,13,13,14,14],"right_children":[2,4,6,8,10,12,14,16,18,20,22,24,26,28,30,-1,-1,-1,-1,-1,-1,-1,-1,-1,-1,-1,-1,-1,-1,-1,-1],"split_conditions":[9.198831E-2,-8.569705E-2,2.2687949E-1,-1.1965278E1,2.6882353E1,1.0165161E-1,-3.9844406E-1,-1.1243005E1,3.9597335E-1,1.1930424E-1,9.026271E-3,1.9455253E-1,9.7376096E-1,8.023661E2,5.9566736E-1,2.1934532E-2,3.749847E-2,1.3113986E-2,3.7761102E-3,-3.3763167E-3,-2.1936256E-2,1.58204E-2,-5.247749E-3,-1.5141404E-2,-2.6690789E-2,-2.6215496E-3,-1.310183E-2,-3.7971642E-2,-1.8664015E-2,-3.5585362E-2,-1.8933885E-2],"split_indices":[20,31,20,20,17,8,28,25,28,31,20,22,24,11,4,0,0,0,0,0,0,0,0,0,0,0,0,0,0,0,0],"split_type":[0,0,0,0,0,0,0,0,0,0,0,0,0,0,0,0,0,0,0,0,0,0,0,0,0,0,0,0,0,0,0],"sum_hessian":[8.479359E3,7.382646E3,1.096714E3,2.8400989E3,4.542547E3,6.448794E2,4.5183456E2,3.5920636E2,2.4808926E3,3.3987393E3,1.1438076E3,2.8864496E2,3.5623447E2,3.162793E2,1.3555528E2,1.5126634E2,2.0794002E2,1.4809515E3,9.999409E2,3.1395588E3,2.591805E2,6.409607E2,5.0284692E2,1.0977769E2,1.7886726E2,1.7111465E2,1.8511981E2,3.1011032E2,6.1689744E0,6.0127487E1,7.542779E1],"tree_param":{"num_deleted":"0","num_feature":"36","num_nodes":"31","size_leaf_vector":"1"}},{"base_weights":[-7.341295E-3,1.6538045E-1,-4.8196086E-1,1.0576179E0,1.0606494E-1,-3.23782E-1,-1.1187575E0,7.7022874E-1,1.2514241E0,-2.8236559E-2,2.6441842E-1,-5.3790873E-1,-1.8876286E-1,-1.2379286E0,-8.4298897E-1,2.840792E-2,6.2534064E-3,2.31541E-2,3.8090732E-2,4.3132845E-3,-9.24079E-3,1.521154E-2,2.035737E-4,-1.2718632E-2,-2.3274226E-2,-3.6283775E-4,-9.15777E-3,-3.769363E-2,-2.6303984E-2,-3.516552E-2,-1.7920783E-2],"categories":[],"categories_nodes":[],"categories_segments":[],"categories_sizes":[],"default_left":[0,0,0,0,1,1,1,1,0,1,0,0,0,1,0,0,0,0,0,0,0,0,0,0,0,0,0,0,0,0,0],"id":20,"left_children":[1,3,5,7,9,11,13,15,17,19,21,23,25,27,29,-1,-1,-1,-1,-1,-1,-1,-1,-1,-1,-1,-1,-1,-1,-1,-1],"loss_changes":[6.9326447E2,3.2803568E2,2.2692151E2,2.0557434E1,1.23676186E2,5.2194717E1,1.3697754E1,1.550927E1,1.0278625E0,1.51519E2,1.668144E2,1.8619812E1,2.2859718E1,9.7946167E-1,1.0497681E1,0E0,0E0,0E0,0E0,0E0,0E0,0E0,0E0,0E0,0E0,0E0,0E0,0E0,0E0,0E0,0E0],"parents":[2147483647,0,0,1,1,2,2,3,3,4,4,5,5,6,6,7,7,8,8,9,9,10,10,11,11,12,12,13,13,14,14],"right_children":[2,4,6,8,10,12,14,16,18,20,22,24,26,28,30,-1,-1,-1,-1,-1,-1,-1,-1,-1,-1,-1,-1,-1,-1,-1,-1],"split_conditions":[3.925053E-2,-1.1965278E1,2.2687949E-1,-1.1243005E1,-4.8885267E-2,5.4199114E-2,-3.9844406E-1,-4.581917E-1,-3.6979847E0,-2.951859E-1,3.8318124E-3,8.10135E-2,9.68642E-2,4.2602365E2,1.7297181E-1,2.840792E-2,6.2534064E-3,2.31541E-2,3.8090732E-2,4.3132845E-3,-9.24079E-3,1.521154E-2,2.035737E-4,-1.2718632E-2,-2.3274226E-2,-3.6283775E-4,-9.15777E-3,-3.769363E-2,-2.6303984E-2,-3.516552E-2,-1.7920783E-2],"split_indices":[20,20,20,25,9,8,28,28,23,25,20,20,30,17,7,0,0,0,0,0,0,0,0,0,0,0,0,0,0,0,0],"split_type":[0,0,0,0,0,0,0,0,0,0,0,0,0,0,0,0,0,0,0,0,0,0,0,0,0,0,0,0,0,0,0],"sum_hessian":[8.454832E3,6.199416E3,2.2554163E3,3.8539447E2,5.8140215E3,1.8078572E3,4.4755914E2,1.5722488E2,2.2816957E2,3.1463694E3,2.6676519E3,6.9796747E2,1.1098896E3,3.1007413E2,1.3748502E2,1.1908311E2,3.8141785E1,9.958162E0,2.1821141E2,1.9487676E3,1.1976019E3,1.3733202E3,1.2943317E3,4.7379852E2,2.2416896E2,4.4148083E2,6.684088E2,2.9258548E2,1.7488657E1,5.7137135E1,8.0347885E1],"tree_param":{"num_deleted":"0","num_feature":"36","num_nodes":"31","size_leaf_vector":"1"}},{"base_weights":[-8.550769E-3,1.8815935E-1,-2.682951E-1,1.3520083E-1,1.0544982E0,-1.9777864E-1,-1.0380766E0,3.212711E-1,-1.0396429E-2,6.4096254E-1,1.2412133E0,-1.3452543E-1,-8.478832E-1,-4.5812708E-1,-1.1118611E0,1.7965231E-2,6.016309E-3,-1.7633317E-3,1.278508E-2,3.4043673E-2,9.09058E-3,1.3810331E-2,3.7888415E-2,5.773801E-3,-7.578053E-3,-9.667455E-3,-3.0237196E-2,2.4874052E-2,-2.7928224E-2,-3.7420936E-2,-2.7579755E-2],"categories":[],"categories_nodes":[],"categories_segments":[],"categories_sizes":[],"default_left":[1,1,1,0,0,1,0,0,1,0,1,0,0,0,1,0,0,0,0,0,0,0,0,0,0,0,0,0,0,0,0],"id":21,"left_children":[1,3,5,7,9,11,13,15,17,19,21,23,25,27,29,-1,-1,-1,-1,-1,-1,-1,-1,-1,-1,-1,-1,-1,-1,-1,-1],"loss_changes":[4.3224222E2,2.2072348E2,1.9769205E2,1.2293875E2,2.060611E1,1.3727196E2,1.2572205E1,6.6634705E1,5.38165E1,1.438987E1,2.6412964E0,1.1765028E2,2.4577682E1,2.280736E1,5.9104614E0,0E0,0E0,0E0,0E0,0E0,0E0,0E0,0E0,0E0,0E0,0E0,0E0,0E0,0E0,0E0,0E0],"parents":[2147483647,0,0,1,1,2,2,3,3,4,4,5,5,6,6,7,7,8,8,9,9,10,10,11,11,12,12,13,13,14,14],"right_children":[2,4,6,8,10,12,14,16,18,20,22,24,26,28,30,-1,-1,-1,-1,-1,-1,-1,-1,-1,-1,-1,-1,-1,-1,-1,-1],"split_conditions":[-7.96917E-3,5.109221E1,1.4749087E-1,-5.926E3,1.3953488E-2,1.5615483E-1,-5.9576836E1,-1.2639526E-1,4.034784E-2,-9.6892416E-1,-4.156352E2,-7.133973E-2,2.200971E-2,-8.6942496E-4,-1.7357187E-1,1.7965231E-2,6.016309E-3,-1.7633317E-3,1.278508E-2,3.4043673E-2,9.09058E-3,1.3810331E-2,3.7888415E-2,5.773801E-3,-7.578053E-3,-9.667455E-3,-3.0237196E-2,2.4874052E-2,-2.7928224E-2,-3.7420936E-2,-2.7579755E-2],"split_indices":[25,17,31,32,2,34,8,29,4,28,5,31,21,25,8,0,0,0,0,0,0,0,0,0,0,0,0,0,0,0,0],"split_type":[0,0,0,0,0,0,0,0,0,0,0,0,0,0,0,0,0,0,0,0,0,0,0,0,0,0,0,0,0,0,0],"sum_hessian":[8.4577E3,4.8129917E3,3.644709E3,4.536816E3,2.7617548E2,3.3400024E3,3.0470673E2,1.9910673E3,2.5457488E3,8.728653E1,1.8888893E2,3.0449453E3,2.95057E2,3.520475E1,2.6950198E2,6.023096E2,1.3887577E3,2.2925483E3,2.532005E2,3.4505993E1,5.2780533E1,5.7156234E0,1.8317331E2,8.0766675E2,2.2372786E3,6.956569E1,2.254913E2,9.254696E0,2.5950052E1,1.5496312E2,1.1453887E2],"tree_param":{"num_deleted":"0","num_feature":"36","num_nodes":"31","size_leaf_vector":"1"}},{"base_weights":[7.246125E-4,1.1887924E-1,-6.473926E-1,1.0151433E0,6.373553E-2,-4.5167336E-1,-1.1341751E0,6.511954E-1,1.1941098E0,1.6852543E-1,-2.1998592E-1,-3.0389404E-1,-7.186763E-1,-1.1613427E0,-3.7304094E-1,3.6001544E-2,1.5155189E-2,3.662916E-2,1.9142548E-2,8.394003E-3,-2.177735E-3,-4.3287766E-3,-1.9665405E-2,1.3265758E-3,-1.0864046E-2,-3.1316474E-2,-1.6749823E-2,-2.5635667E-2,-3.6504094E-2,5.7077124E-3,-3.49801E-2],"categories":[],"categories_nodes":[],"categories_segments":[],"categories_sizes":[],"default_left":[0,0,0,0,1,1,0,0,0,0,0,0,0,0,0,0,0,0,0,0,0,0,0,0,0,0,0,0,0,0,0],"id":22,"left_children":[1,3,5,7,9,11,13,15,17,19,21,23,25,27,29,-1,-1,-1,-1,-1,-1,-1,-1,-1,-1,-1,-1,-1,-1,-1,-1],"loss_changes":[6.4821423E2,3.537832E2,1.2383911E2,2.6246735E1,2.005924E2,3.6579056E1,7.292816E0,1.0531342E1,3.3571777E0,1.3220602E2,5.990045E1,1.22223015E1,1.6705276E1,5.0908813E0,6.631562E0,0E0,0E0,0E0,0E0,0E0,0E0,0E0,0E0,0E0,0E0,0E0,0E0,0E0,0E0,0E0,0E0],"parents":[2147483647,0,0,1,1,2,2,3,3,4,4,5,5,6,6,7,7,8,8,9,9,10,10,11,11,12,12,13,13,14,14],"right_children":[2,4,6,8,10,12,14,16,18,20,22,24,26,28,30,-1,-1,-1,-1,-1,-1,-1,-1,-1,-1,-1,-1,-1,-1,-1,-1],"split_conditions":[7.711238E-2,-8.324111E0,3.264133E-1,-5.538918E-1,-2.77E2,-5.7834988E-3,1.8262626E3,6.931472E-1,-1.1965278E1,8.3425855E-3,1.3202994E-1,-1.5109727E-1,9.954552E0,9.102423E-1,7.8348804E0,3.6001544E-2,1.5155189E-2,3.662916E-2,1.9142548E-2,8.394003E-3,-2.177735E-3,-4.3287766E-3,-1.9665405E-2,1.3265758E-3,-1.0864046E-2,-3.1316474E-2,-1.6749823E-2,-2.5635667E-2,-3.6504094E-2,5.7077124E-3,-3.49801E-2],"split_indices":[20,20,20,14,32,31,7,26,20,20,31,29,18,20,20,0,0,0,0,0,0,0,0,0,0,0,0,0,0,0,0],"split_type":[0,0,0,0,0,0,0,0,0,0,0,0,0,0,0,0,0,0,0,0,0,0,0,0,0,0,0,0,0,0,0],"sum_hessian":[8.462748E3,7.158532E3,1.3042155E3,4.1390036E2,6.744632E3,9.3158405E2,3.726314E2,1.3796735E2,2.75933E2,4.925756E3,1.8188763E3,6.010541E2,3.3052994E2,3.5928152E2,1.3349885E1,2.7475733E1,1.1049162E2,2.62076E2,1.3857033E1,3.3702388E3,1.555517E3,1.5507007E3,2.681757E2,8.618078E1,5.148733E2,1.0733405E2,2.2319588E2,5.7513107E1,3.0176843E2,8.24964E0,5.1002436E0],"tree_param":{"num_deleted":"0","num_feature":"36","num_nodes":"31","size_leaf_vector":"1"}},{"base_weights":[-1.570788E-3,1.1218874E-1,-6.064895E-1,5.3658986E-1,2.6956757E-3,-4.2717144E-1,-1.1956438E0,9.873687E-1,4.1639796E-1,-1.6057529E-1,1.3264148E-1,-2.4786796E-1,-7.0345545E-1,-1.2190588E0,-5.066283E-1,2.002395E-2,3.504595E-2,1.8300539E-2,6.4934506E-3,-3.320146E-3,-2.2256818E-2,8.9016035E-3,-2.264511E-3,-2.0090821E-4,-1.01116095E-2,-1.5116485E-2,-2.6998393E-2,-2.376944E-2,-3.69728E-2,-3.462414E-2,5.3450135E-3],"categories":[],"categories_nodes":[],"categories_segments":[],"categories_sizes":[],"default_left":[0,1,0,0,0,1,0,0,0,1,0,0,1,0,1,0,0,0,0,0,0,0,0,0,0,0,0,0,0,0,0],"id":23,"left_children":[1,3,5,7,9,11,13,15,17,19,21,23,25,27,29,-1,-1,-1,-1,-1,-1,-1,-1,-1,-1,-1,-1,-1,-1,-1,-1],"loss_changes":[5.808745E2,3.3015814E2,1.406467E2,7.853473E1,1.1986925E2,5.064804E1,4.403412E0,1.6921692E1,4.4470886E1,7.255504E1,1.07453964E2,1.3412769E1,1.5358475E1,7.3657227E-1,5.4999027E0,0E0,0E0,0E0,0E0,0E0,0E0,0E0,0E0,0E0,0E0,0E0,0E0,0E0,0E0,0E0,0E0],"parents":[2147483647,0,0,1,1,2,2,3,3,4,4,5,5,6,6,7,7,8,8,9,9,10,10,11,11,12,12,13,13,14,14],"right_children":[2,4,6,8,10,12,14,16,18,20,22,24,26,28,30,-1,-1,-1,-1,-1,-1,-1,-1,-1,-1,-1,-1,-1,-1,-1,-1],"split_conditions":[7.5316794E-2,-2.0732826E-1,9.102423E-1,-1.7595745E1,4.8872757E-1,-1.102E2,1.8262626E3,-1.9092106E1,-6.601E3,8.263276E-1,8.3425855E-3,3.0324537E-1,3.033008E-1,2.116402E-2,-4.9194002E-1,2.002395E-2,3.504595E-2,1.8300539E-2,6.4934506E-3,-3.320146E-3,-2.2256818E-2,8.9016035E-3,-2.264511E-3,-2.0090821E-4,-1.01116095E-2,-1.5116485E-2,-2.6998393E-2,-2.376944E-2,-3.69728E-2,-3.462414E-2,5.3450135E-3],"split_indices":[20,31,20,20,12,32,7,25,32,3,20,13,25,25,28,0,0,0,0,0,0,0,0,0,0,0,0,0,0,0,0],"split_type":[0,0,0,0,0,0,0,0,0,0,0,0,0,0,0,0,0,0,0,0,0,0,0,0,0,0,0,0,0,0,0],"sum_hessian":[8.439082E3,7.103946E3,1.3351362E3,1.4561044E3,5.647842E3,1.0249133E3,3.102228E2,3.0499783E2,1.1511066E3,2.5028672E3,3.1449744E3,6.226934E2,4.0221994E2,2.9928296E2,1.09398575E1,1.1183792E2,1.931599E2,5.837677E2,5.6733887E2,2.3060896E3,1.9677771E2,1.7583369E3,1.3866373E3,1.6839748E2,4.5429593E2,2.0131358E2,2.0090636E2,1.0921064E1,2.883619E2,5.27073E0,5.6691275E0],"tree_param":{"num_deleted":"0","num_feature":"36","num_nodes":"31","size_leaf_vector":"1"}},{"base_weights":[-8.651218E-3,8.51982E-2,-6.675064E-1,8.332619E-1,2.3339514E-2,-4.5824403E-1,-1.1796051E0,1.0201732E0,3.7441888E-1,1.24844246E-1,-2.7125126E-1,-7.518329E-1,-2.284467E-1,-1.196178E0,-1.7214889E-2,2.3488281E-2,3.5816602E-2,2.6793066E-2,5.5412254E-3,7.2760745E-3,-2.650411E-3,-5.74171E-3,-2.1916306E-2,-4.124379E-2,-2.094846E-2,-9.79731E-3,2.5223615E-3,-2.3649294E-2,-3.6276046E-2],"categories":[],"categories_nodes":[],"categories_segments":[],"categories_sizes":[],"default_left":[0,0,0,1,1,0,0,0,1,0,0,0,0,0,0,0,0,0,0,0,0,0,0,0,0,0,0,0,0],"id":24,"left_children":[1,3,5,7,9,11,13,15,17,19,21,23,25,27,-1,-1,-1,-1,-1,-1,-1,-1,-1,-1,-1,-1,-1,-1,-1],"loss_changes":[5.212429E2,3.4143137E2,1.12093506E2,4.794876E1,2.0385773E2,5.027826E1,2.3683167E0,1.5542908E1,1.6040966E1,1.2723761E2,6.394243E1,9.9782715E0,1.2935709E1,6.150818E-1,0E0,0E0,0E0,0E0,0E0,0E0,0E0,0E0,0E0,0E0,0E0,0E0,0E0,0E0,0E0],"parents":[2147483647,0,0,1,1,2,2,3,3,4,4,5,5,6,6,7,7,8,8,9,9,10,10,11,11,12,12,13,13],"right_children":[2,4,6,8,10,12,14,16,18,20,22,24,26,28,-1,-1,-1,-1,-1,-1,-1,-1,-1,-1,-1,-1,-1,-1,-1],"split_conditions":[9.198831E-2,-2.7675667E0,9.102423E-1,-7.129296E-1,-1.884E2,1.0165161E-1,1.8262626E3,2.1284659E-5,2.3259297E-2,7.6312777E-3,1.3202994E-1,-1.7357187E-1,6.8689656E-1,2.116402E-2,-1.7214889E-2,2.3488281E-2,3.5816602E-2,2.6793066E-2,5.5412254E-3,7.2760745E-3,-2.650411E-3,-5.74171E-3,-2.1916306E-2,-4.124379E-2,-2.094846E-2,-9.79731E-3,2.5223615E-3,-2.3649294E-2,-3.6276046E-2],"split_indices":[20,20,20,28,32,8,7,13,23,20,31,8,12,25,0,0,0,0,0,0,0,0,0,0,0,0,0,0,0],"split_type":[0,0,0,0,0,0,0,0,0,0,0,0,0,0,0,0,0,0,0,0,0,0,0,0,0,0,0,0,0],"sum_hessian":[8.427907E3,7.377853E3,1.0500541E3,5.6253894E2,6.8153145E3,7.467851E2,3.03269E2,3.9884482E2,1.6369415E2,5.069228E3,1.7460863E3,3.268852E2,4.1989993E2,2.942444E2,9.024618E0,1.7092702E2,2.279178E2,4.2845108E1,1.20849045E2,3.2660679E3,1.80316E3,1.4886578E3,2.5742847E2,2.3922373E1,3.0296283E2,3.195264E2,1.0037352E2,1.1008671E1,2.8323572E2],"tree_param":{"num_deleted":"0","num_feature":"36","num_nodes":"29","size_leaf_vector":"1"}},{"base_weights":[-4.381731E-3,1.1473418E-1,-5.2436125E-1,9.585799E-1,6.262531E-2,-3.2880607E-1,-1.0449572E0,6.802258E-1,1.1947339E0,1.5476124E-1,-2.1597946E-1,-2.090408E-1,-5.631003E-1,-1.1638939E0,-7.684646E-1,3.3932388E-2,1.5217661E-2,1.840376E-2,3.633243E-2,6.921693E-3,-1.1755654E-3,-1.4107071E-2,-1.3851356E-3,-2.9022982E-3,-1.3580853E-2,-2.311835E-2,-1.19833555E-2,-2.439962E-2,-3.5687894E-2,-3.0604992E-2,-1.4089201E-2],"categories":[],"categories_nodes":[],"categories_segments":[],"categories_sizes":[],"default_left":[0,0,0,0,0,0,1,0,0,0,0,0,0,0,0,0,0,0,0,0,0,0,0,0,0,0,0,0,0,0,0],"id":25,"left_children":[1,3,5,7,9,11,13,15,17,19,21,23,25,27,29,-1,-1,-1,-1,-1,-1,-1,-1,-1,-1,-1,-1,-1,-1,-1,-1],"loss_changes":[5.196398E2,3.0009357E2,1.5884805E2,2.527951E1,1.6509111E2,3.1819397E1,1.3132019E1,1.3815201E1,1.2850647E0,7.120689E1,6.898968E1,2.0607578E1,1.27467575E1,1.7022705E0,9.391609E0,0E0,0E0,0E0,0E0,0E0,0E0,0E0,0E0,0E0,0E0,0E0,0E0,0E0,0E0,0E0,0E0],"parents":[2147483647,0,0,1,1,2,2,3,3,4,4,5,5,6,6,7,7,8,8,9,9,10,10,11,11,12,12,13,13,14,14],"right_children":[2,4,6,8,10,12,14,16,18,20,22,24,26,28,30,-1,-1,-1,-1,-1,-1,-1,-1,-1,-1,-1,-1,-1,-1,-1,-1],"split_conditions":[6.348382E-2,-8.324111E0,2.2687949E-1,1.1716862E-4,-4.057392E-3,-9.597833E-3,-3.9844406E-1,-9.6892416E-1,-6.9342103E0,8.3425855E-3,1.7954388E-5,5.279811E-2,2.1211827E-1,4.5810845E-1,3.8873714E-1,3.3932388E-2,1.5217661E-2,1.840376E-2,3.633243E-2,6.921693E-3,-1.1755654E-3,-1.4107071E-2,-1.3851356E-3,-2.9022982E-3,-1.3580853E-2,-2.311835E-2,-1.19833555E-2,-2.439962E-2,-3.5687894E-2,-3.0604992E-2,-1.4089201E-2],"split_indices":[20,20,20,11,31,31,28,28,23,20,25,34,3,20,5,0,0,0,0,0,0,0,0,0,0,0,0,0,0,0,0],"split_type":[0,0,0,0,0,0,0,0,0,0,0,0,0,0,0,0,0,0,0,0,0,0,0,0,0,0,0,0,0,0,0],"sum_hessian":[8.387729E3,6.8250405E3,1.5626879E3,3.9593375E2,6.4291064E3,1.1371599E3,4.255279E2,1.8351064E2,2.1242311E2,4.8316885E3,1.5974181E3,7.537528E2,3.8340714E2,2.9529398E2,1.3023392E2,4.9346905E1,1.3416374E2,6.8644085E0,2.055587E2,3.4717437E3,1.3599448E3,6.389461E2,9.58472E2,5.1691125E2,2.3684154E2,1.6741699E2,2.1599014E2,2.2400673E1,2.728933E2,6.938043E1,6.0853485E1],"tree_param":{"num_deleted":"0","num_feature":"36","num_nodes":"31","size_leaf_vector":"1"}},{"base_weights":[-1.4203514E-3,1.4100707E-1,-3.9124444E-1,9.089744E-1,8.881247E-2,-2.6054326E-1,-1.033743E0,5.512315E-1,1.0989059E0,1.8034966E-1,-2.5209072E-1,-1.290037E-1,-4.6728122E-1,-1.1457947E0,-7.234889E-1,3.304596E-2,1.2373777E-2,2.60241E-2,3.531597E-2,1.0767939E-2,3.0229252E-3,-1.2714932E-2,1.0217523E-3,-4.926123E-4,-8.31951E-3,-1.8329872E-2,-8.471588E-3,-3.490952E-2,-1.2439578E-2,-1.2489231E-2,-2.9815253E-2],"categories":[],"categories_nodes":[],"categories_segments":[],"categories_sizes":[],"default_left":[0,0,0,0,1,1,1,0,0,0,0,1,1,0,0,0,0,0,0,0,0,0,0,0,0,0,0,0,0,0,0],"id":26,"left_children":[1,3,5,7,9,11,13,15,17,19,21,23,25,27,29,-1,-1,-1,-1,-1,-1,-1,-1,-1,-1,-1,-1,-1,-1,-1,-1],"loss_changes":[4.6476514E2,2.4566833E2,1.878353E2,2.5897339E1,1.792212E2,5.0594055E1,1.2322815E1,1.0029026E1,3.577301E0,6.430397E1,5.976413E1,1.9026722E1,1.9063705E1,3.1236267E0,8.147736E0,0E0,0E0,0E0,0E0,0E0,0E0,0E0,0E0,0E0,0E0,0E0,0E0,0E0,0E0,0E0,0E0],"parents":[2147483647,0,0,1,1,2,2,3,3,4,4,5,5,6,6,7,7,8,8,9,9,10,10,11,11,12,12,13,13,14,14],"right_children":[2,4,6,8,10,12,14,16,18,20,22,24,26,28,30,-1,-1,-1,-1,-1,-1,-1,-1,-1,-1,-1,-1,-1,-1,-1,-1],"split_conditions":[3.8133524E-2,-8.324111E0,2.6675513E-1,-5.538918E-1,-7.1E1,-1.9657936E-2,-3.9844406E-1,6.931472E-1,-1.5747573E1,-1.4990631E-1,1.2163285E1,1.1269872E0,9.954552E0,6.5987366E2,1.7518668E-1,3.304596E-2,1.2373777E-2,2.60241E-2,3.531597E-2,1.0767939E-2,3.0229252E-3,-1.2714932E-2,1.0217523E-3,-4.926123E-4,-8.31951E-3,-1.8329872E-2,-8.471588E-3,-3.490952E-2,-1.2439578E-2,-1.2489231E-2,-2.9815253E-2],"split_indices":[20,20,20,14,32,31,28,26,24,31,26,19,18,11,28,0,0,0,0,0,0,0,0,0,0,0,0,0,0,0,0],"split_type":[0,0,0,0,0,0,0,0,0,0,0,0,0,0,0,0,0,0,0,0,0,0,0,0,0,0,0,0,0,0,0],"sum_hessian":[8.36889E3,6.1298906E3,2.2389988E3,3.8905774E2,5.740833E3,1.8616877E3,3.7731094E2,1.362771E2,2.5278064E2,4.5260083E3,1.2148245E3,1.1387611E3,7.229267E2,2.7521936E2,1.020916E2,2.6047647E1,1.10229454E2,6.6951324E1,1.8582932E2,1.3941559E3,3.1318525E3,7.5888025E2,4.5594418E2,6.4798914E2,4.9077197E2,4.0546432E2,3.1746234E2,2.680807E2,7.13866E0,4.8979637E1,5.3111958E1],"tree_param":{"num_deleted":"0","num_feature":"36","num_nodes":"31","size_leaf_vector":"1"}},{"base_weights":[5.31786E-3,2.0051219E-1,-1.6915919E-1,1.1314145E-1,8.778807E-1,-1.14300154E-1,-1.0321152E0,2.8628615E-1,-2.2136481E-1,5.493587E-1,9.526354E-1,-8.085713E-2,-7.56177E-1,4.0072212E-1,-1.0936337E0,7.275988E-3,2.6560245E-2,-4.2566876E-3,-2.1257428E-2,2.1985428E-2,-1.6241437E-2,3.1531762E-2,1.881083E-2,3.1123017E-3,-5.2061207E-3,3.6702922E-3,-2.4120634E-2,2.5904013E-2,-4.2989585E-3,-3.3751905E-2,-1.5474626E-2],"categories":[],"categories_nodes":[],"categories_segments":[],"categories_sizes":[],"default_left":[0,0,1,1,0,1,1,0,0,0,0,0,0,0,1,0,0,0,0,0,0,0,0,0,0,0,0,0,0,0,0],"id":27,"left_children":[1,3,5,7,9,11,13,15,17,19,21,23,25,27,29,-1,-1,-1,-1,-1,-1,-1,-1,-1,-1,-1,-1,-1,-1,-1,-1],"loss_changes":[2.8508698E2,2.3372194E2,2.0913022E2,2.0281317E2,1.055835E1,8.9173416E1,2.3714539E1,6.0255997E1,4.615348E1,1.7610079E1,1.1077637E1,6.763582E1,8.746063E0,3.0446296E0,4.0227356E0,0E0,0E0,0E0,0E0,0E0,0E0,0E0,0E0,0E0,0E0,0E0,0E0,0E0,0E0,0E0,0E0],"parents":[2147483647,0,0,1,1,2,2,3,3,4,4,5,5,6,6,7,7,8,8,9,9,10,10,11,11,12,12,13,13,14,14],"right_children":[2,4,6,8,10,12,14,16,18,20,22,24,26,28,30,-1,-1,-1,-1,-1,-1,-1,-1,-1,-1,-1,-1,-1,-1,-1,-1],"split_conditions":[8.439245E-3,1.7938461E1,2.2911751E-1,-5.5541374E-2,3.1186897E-2,1.4749087E-1,1.2004464E-2,2.6868001E-5,1.3202994E-1,-2.532906E-2,3.95748E-2,9.1612615E-2,-3.7857143E1,-1.0666667E1,3.5273767E-1,7.275988E-3,2.6560245E-2,-4.2566876E-3,-2.1257428E-2,2.1985428E-2,-1.6241437E-2,3.1531762E-2,1.881083E-2,3.1123017E-3,-5.2061207E-3,3.6702922E-3,-2.4120634E-2,2.5904013E-2,-4.2989585E-3,-3.3751905E-2,-1.5474626E-2],"split_indices":[24,17,34,31,2,31,24,24,31,24,8,23,8,31,28,0,0,0,0,0,0,0,0,0,0,0,0,0,0,0,0],"split_type":[0,0,0,0,0,0,0,0,0,0,0,0,0,0,0,0,0,0,0,0,0,0,0,0,0,0,0,0,0,0,0],"sum_hessian":[8.368898E3,3.9498723E3,4.4190264E3,3.4996367E3,4.502355E2,4.1559604E3,2.630663E2,2.3061094E3,1.1935273E3,8.5007E1,3.652285E2,3.95122E3,2.0474022E2,1.06026945E1,2.5246364E2,2.1504517E3,1.5565765E2,1.0272521E3,1.6627525E2,7.304687E1,1.1960134E1,2.787431E2,8.648538E1,1.3206432E3,2.630577E3,1.0493861E1,1.9424635E2,5.412023E0,5.190672E0,2.3854117E2,1.3922458E1],"tree_param":{"num_deleted":"0","num_feature":"36","num_nodes":"31","size_leaf_vector":"1"}},{"base_weights":[-1.4552654E-3,8.535966E-2,-6.218591E-1,9.567128E-1,4.1150957E-2,-4.2763093E-1,-1.1074708E0,6.647015E-1,1.1630679E0,2.1832062E-1,-9.714786E-2,-6.915766E-1,-1.9290528E-1,-1.1299266E0,-1.199833E-2,3.2960273E-2,1.3911089E-2,2.9639594E-2,3.6704622E-2,1.0090784E-2,1.9685025E-3,-5.8498094E-3,5.0046155E-3,-2.3342421E-2,-9.537738E-3,1.6233579E-3,-8.741463E-3,-2.1840395E-2,-3.421851E-2],"categories":[],"categories_nodes":[],"categories_segments":[],"categories_sizes":[],"default_left":[0,0,0,0,1,0,0,0,0,0,0,1,0,0,0,0,0,0,0,0,0,0,0,0,0,0,0,0,0],"id":28,"left_children":[1,3,5,7,9,11,13,15,17,19,21,23,25,27,-1,-1,-1,-1,-1,-1,-1,-1,-1,-1,-1,-1,-1,-1,-1],"loss_changes":[4.4830457E2,2.8123352E2,9.589734E1,2.0469421E1,1.7031763E2,4.5184586E1,4.1760254E0,1.2426628E1,9.621277E-1,5.4904053E1,1.008654E2,1.0868881E1,9.467468E0,3.8027954E-1,0E0,0E0,0E0,0E0,0E0,0E0,0E0,0E0,0E0,0E0,0E0,0E0,0E0,0E0,0E0],"parents":[2147483647,0,0,1,1,2,2,3,3,4,4,5,5,6,6,7,7,8,8,9,9,10,10,11,11,12,12,13,13],"right_children":[2,4,6,8,10,12,14,16,18,20,22,24,26,28,-1,-1,-1,-1,-1,-1,-1,-1,-1,-1,-1,-1,-1,-1,-1],"split_conditions":[9.198831E-2,-1.1965278E1,9.102423E-1,-1.1243005E1,-6.2804595E-2,1.0879811E-1,1.8262626E3,-9.6892416E-1,-1.0677425E0,2.2009037E-1,1.6076479E2,5.243827E1,3.0324537E-1,2.116402E-2,-1.199833E-2,3.2960273E-2,1.3911089E-2,2.9639594E-2,3.6704622E-2,1.0090784E-2,1.9685025E-3,-5.8498094E-3,5.0046155E-3,-2.3342421E-2,-9.537738E-3,1.6233579E-3,-8.741463E-3,-2.1840395E-2,-3.421851E-2],"split_indices":[20,20,20,25,31,8,7,28,21,28,17,18,13,25,0,0,0,0,0,0,0,0,0,0,0,0,0,0,0],"split_type":[0,0,0,0,0,0,0,0,0,0,0,0,0,0,0,0,0,0,0,0,0,0,0,0,0,0,0,0,0],"sum_hessian":[8.321482E3,7.300732E3,1.02075055E3,3.515256E2,6.9492065E3,7.304686E2,2.9028192E2,1.4730164E2,2.0422397E2,3.046222E3,3.9029846E3,3.42917E2,3.875516E2,2.807736E2,9.508331E0,4.5214108E1,1.0208753E2,5.6846977E1,1.47377E2,1.7174468E3,1.3287751E3,2.847687E3,1.0552976E3,2.7757358E2,6.534339E1,1.1059298E2,2.7695862E2,9.065078E0,2.7170853E2],"tree_param":{"num_deleted":"0","num_feature":"36","num_nodes":"29","size_leaf_vector":"1"}},{"base_weights":[1.5687061E-3,9.785062E-2,-5.285413E-1,8.787783E-1,5.31338E-2,-3.5647056E-1,-1.0619906E0,4.80455E-1,1.0912933E0,1.3291122E-1,-2.318825E-1,-5.876315E-1,-1.992881E-1,-1.0971615E0,-2.4676819E-1,3.3687685E-2,9.519335E-3,3.3796363E-2,1.3354051E-2,6.812583E-3,-2.0618206E-3,-1.5674414E-2,-4.062746E-3,-1.3098108E-2,-2.7155655E-2,-4.1715363E-3,-1.9511916E-2,-3.326514E-2,-1.9214926E-2,-2.6144203E-2,9.29432E-3],"categories":[],"categories_nodes":[],"categories_segments":[],"categories_sizes":[],"default_left":[0,0,0,0,1,1,0,0,0,0,0,0,0,1,1,0,0,0,0,0,0,0,0,0,0,0,0,0,0,0,0],"id":29,"left_children":[1,3,5,7,9,11,13,15,17,19,21,23,25,27,29,-1,-1,-1,-1,-1,-1,-1,-1,-1,-1,-1,-1,-1,-1,-1,-1],"loss_changes":[4.269643E2,2.4717209E2,1.1764798E2,3.192685E1,1.5230849E2,3.5262535E1,8.70636E0,1.3810396E1,5.1748962E0,9.938906E1,4.0992783E1,1.8481949E1,1.5700579E1,8.887024E-1,5.2209625E0,0E0,0E0,0E0,0E0,0E0,0E0,0E0,0E0,0E0,0E0,0E0,0E0,0E0,0E0,0E0,0E0],"parents":[2147483647,0,0,1,1,2,2,3,3,4,4,5,5,6,6,7,7,8,8,9,9,10,10,11,11,12,12,13,13,14,14],"right_children":[2,4,6,8,10,12,14,16,18,20,22,24,26,28,30,-1,-1,-1,-1,-1,-1,-1,-1,-1,-1,-1,-1,-1,-1,-1,-1],"split_conditions":[7.5316794E-2,-8.324111E0,4.5810845E-1,-5.538918E-1,-7.1E1,8.620845E-2,1.3147941E8,-1.1301493E3,1.352E2,8.3425855E-3,-7.161572E-1,2.1232398E-1,-3.88E1,3.0166245E0,-3.317675E-1,3.3687685E-2,9.519335E-3,3.3796363E-2,1.3354051E-2,6.812583E-3,-2.0618206E-3,-1.5674414E-2,-4.062746E-3,-1.3098108E-2,-2.7155655E-2,-4.1715363E-3,-1.9511916E-2,-3.326514E-2,-1.9214926E-2,-2.6144203E-2,9.29432E-3],"split_indices":[20,20,20,14,32,8,32,20,22,20,5,15,32,23,28,0,0,0,0,0,0,0,0,0,0,0,0,0,0,0,0],"split_type":[0,0,0,0,0,0,0,0,0,0,0,0,0,0,0,0,0,0,0,0,0,0,0,0,0,0,0,0,0,0,0],"sum_hessian":[8.363272E3,7.078454E3,1.2848179E3,3.823582E2,6.696096E3,9.727223E2,3.1209558E2,1.3415964E2,2.4819853E2,5.2321313E3,1.4639648E3,3.926021E2,5.801202E2,2.988563E2,1.3239296E1,2.5977203E1,1.08182434E2,2.3465326E2,1.3545277E1,3.5663489E3,1.6657823E3,3.637321E2,1.1002328E3,2.6767337E2,1.2492874E2,5.129358E2,6.71844E1,2.9001285E2,8.8434305E0,5.9713135E0,7.267982E0],"tree_param":{"num_deleted":"0","num_feature":"36","num_nodes":"31","size_leaf_vector":"1"}},{"base_weights":[-3.8928457E-3,1.8672907E-1,-2.7451637E-1,-5.406951E-2,3.6586523E-1,-1.7731148E-1,-9.435775E-1,2.807824E-1,-2.170269E-1,9.38885E-1,2.9255402E-1,-5.4124877E-2,-3.423138E-1,-7.1427387E-1,-1.1389065E0,1.3555585E-2,2.67548E-3,-1.5382018E-3,-1.41680185E-2,1.7765079E-2,3.3781182E-2,1.138097E-2,-1.2208585E-3,9.017125E-4,-1.4034509E-2,-8.161317E-3,-1.6770061E-2,-1.3318827E-2,-2.8953964E-2,-2.8183002E-2,-3.5183925E-2],"categories":[],"categories_nodes":[],"categories_segments":[],"categories_sizes":[],"default_left":[0,0,0,0,0,1,0,0,1,0,1,1,0,1,0,0,0,0,0,0,0,0,0,0,0,0,0,0,0,0,0],"id":30,"left_children":[1,3,5,7,9,11,13,15,17,19,21,23,25,27,29,-1,-1,-1,-1,-1,-1,-1,-1,-1,-1,-1,-1,-1,-1,-1,-1],"loss_changes":[4.2787363E2,2.0993735E2,2.22764E2,1.13385E2,1.16956696E2,6.0841988E1,1.8652283E1,2.2257122E1,5.9100967E1,1.9843475E1,7.163318E1,5.9757725E1,1.9333313E1,1.3309753E1,4.734192E-1,0E0,0E0,0E0,0E0,0E0,0E0,0E0,0E0,0E0,0E0,0E0,0E0,0E0,0E0,0E0,0E0],"parents":[2147483647,0,0,1,1,2,2,3,3,4,4,5,5,6,6,7,7,8,8,9,9,10,10,11,11,12,12,13,13,14,14],"right_children":[2,4,6,8,10,12,14,16,18,20,22,24,26,28,30,-1,-1,-1,-1,-1,-1,-1,-1,-1,-1,-1,-1,-1,-1,-1,-1],"split_conditions":[9.026271E-3,4.682061E-1,2.0405063E-1,-1.2874678E-1,-1.1965278E1,-2.0566374E-2,2.42454E1,3.380942E-1,3.216144E0,-2.8499773E-1,-1.7E2,7.9716265E-2,8.10135E-2,3.4787E2,-7.405322E1,1.3555585E-2,2.67548E-3,-1.5382018E-3,-1.41680185E-2,1.7765079E-2,3.3781182E-2,1.138097E-2,-1.2208585E-3,9.017125E-4,-1.4034509E-2,-8.161317E-3,-1.6770061E-2,-1.3318827E-2,-2.8953964E-2,-2.8183002E-2,-3.5183925E-2],"split_indices":[20,12,20,31,20,31,12,28,2,14,32,34,20,32,31,0,0,0,0,0,0,0,0,0,0,0,0,0,0,0,0],"split_type":[0,0,0,0,0,0,0,0,0,0,0,0,0,0,0,0,0,0,0,0,0,0,0,0,0,0,0,0,0,0,0],"sum_hessian":[8.292256E3,4.865443E3,3.4268127E3,2.075803E3,2.7896401E3,2.993208E3,4.3360477E2,6.792753E2,1.3965276E3,3.1508054E2,2.4745596E3,1.714519E3,1.278689E3,2.015982E2,2.3200656E2,3.5814557E2,3.2112976E2,8.474155E2,5.4911206E2,1.11914955E2,2.0316557E2,1.9630464E3,5.1151315E2,1.4253939E3,2.891252E2,9.6726855E2,3.1142047E2,9.836959E1,1.03228615E2,3.7864723E1,1.9414185E2],"tree_param":{"num_deleted":"0","num_feature":"36","num_nodes":"31","size_leaf_vector":"1"}},{"base_weights":[-5.654722E-3,1.6773902E-1,-2.7106583E-1,8.742322E-1,1.1187214E-1,-1.8124466E-1,-9.4708E-1,5.241927E-1,1.0820323E0,-6.309874E-2,2.9227105E-1,-6.3494004E-2,-3.5599327E-1,-6.765318E-1,-1.0589845E0,3.2331605E-2,1.0290388E-2,2.6738118E-2,3.447649E-2,2.5029322E-3,-1.2818687E-2,1.3347454E-2,3.5527262E-3,4.2053298E-4,-1.328718E-2,-5.046348E-3,-1.2906712E-2,-8.911832E-3,-2.9707998E-2,-3.2400623E-2,-5.841594E-3],"categories":[],"categories_nodes":[],"categories_segments":[],"categories_sizes":[],"default_left":[0,0,0,0,0,0,0,0,0,1,0,1,0,1,0,0,0,0,0,0,0,0,0,0,0,0,0,0,0,0,0],"id":31,"left_children":[1,3,5,7,9,11,13,15,17,19,21,23,25,27,29,-1,-1,-1,-1,-1,-1,-1,-1,-1,-1,-1,-1,-1,-1,-1,-1],"loss_changes":[3.8217578E2,1.9815645E2,1.9908188E2,2.619635E1,1.4698366E2,5.9605965E1,1.0928589E1,1.3570549E1,1.922699E0,1.2621097E2,6.0786133E1,5.0956932E1,1.618576E1,1.3434048E1,4.704376E0,0E0,0E0,0E0,0E0,0E0,0E0,0E0,0E0,0E0,0E0,0E0,0E0,0E0,0E0,0E0,0E0],"parents":[2147483647,0,0,1,1,2,2,3,3,4,4,5,5,6,6,7,7,8,8,9,9,10,10,11,11,12,12,13,13,14,14],"right_children":[2,4,6,8,10,12,14,16,18,20,22,24,26,28,30,-1,-1,-1,-1,-1,-1,-1,-1,-1,-1,-1,-1,-1,-1,-1,-1],"split_conditions":[1.0672764E-2,-8.324111E0,2.2687949E-1,-3.7830082E-1,-1.08645045E-5,-1.9657936E-2,9.102423E-1,-3.2605713E2,-1.2209903E0,-2.951859E-1,6.146469E-4,7.9716265E-2,3.9648958E-2,3.4787E2,1.7217313E2,3.2331605E-2,1.0290388E-2,2.6738118E-2,3.447649E-2,2.5029322E-3,-1.2818687E-2,1.3347454E-2,3.5527262E-3,4.2053298E-4,-1.328718E-2,-5.046348E-3,-1.2906712E-2,-8.911832E-3,-2.9707998E-2,-3.2400623E-2,-5.841594E-3],"split_indices":[20,20,20,14,7,31,20,31,21,25,23,34,6,32,22,0,0,0,0,0,0,0,0,0,0,0,0,0,0,0,0],"split_type":[0,0,0,0,0,0,0,0,0,0,0,0,0,0,0,0,0,0,0,0,0,0,0,0,0,0,0,0,0,0,0],"sum_hessian":[8.302458E3,5.0219644E3,3.280494E3,3.6694357E2,4.6550205E3,2.8968599E3,3.8363403E2,1.3800188E2,2.289417E2,2.3633916E3,2.2916292E3,1.7314932E3,1.1653667E3,1.14311646E2,2.693224E2,3.2811172E1,1.05190704E2,6.334541E1,1.655963E2,1.6858655E3,6.775261E2,1.219395E3,1.072234E3,1.4385653E3,2.9292786E2,3.3108453E2,8.3428217E2,5.2616917E1,6.1694725E1,2.6267914E2,6.643276E0],"tree_param":{"num_deleted":"0","num_feature":"36","num_nodes":"31","size_leaf_vector":"1"}},{"base_weights":[-5.328824E-3,1.5076584E-1,-2.095267E-1,9.2907304E-1,1.1583554E-1,-9.7037166E-1,-1.5661728E-1,7.407922E-1,1.0613905E0,4.577947E-1,6.1818235E-2,-1.0693128E0,1.14491075E-1,-1.00181065E-1,-7.2721684E-1,2.7690005E-2,1.1235147E-2,3.3090323E-2,4.6818755E-3,1.651708E-2,-9.798747E-3,6.948519E-3,-6.8226946E-4,-1.0762947E-2,-3.378962E-2,2.6739595E-2,-2.2198373E-2,2.9801142E-3,-6.831905E-3,-4.5654927E-3,-2.5524331E-2],"categories":[],"categories_nodes":[],"categories_segments":[],"categories_sizes":[],"default_left":[1,0,0,1,0,0,0,0,0,1,1,0,0,1,1,0,0,0,0,0,0,0,0,0,0,0,0,0,0,0,0],"id":32,"left_children":[1,3,5,7,9,11,13,15,17,19,21,23,25,27,29,-1,-1,-1,-1,-1,-1,-1,-1,-1,-1,-1,-1,-1,-1,-1,-1],"loss_changes":[2.6354468E2,1.2729141E2,1.4405145E2,4.224579E0,8.283537E1,2.5101639E1,1.0782012E2,5.415615E0,4.191681E0,4.470317E1,5.564623E1,8.238602E0,1.416919E1,7.7641624E1,2.1291077E1,0E0,0E0,0E0,0E0,0E0,0E0,0E0,0E0,0E0,0E0,0E0,0E0,0E0,0E0,0E0,0E0],"parents":[2147483647,0,0,1,1,2,2,3,3,4,4,5,5,6,6,7,7,8,8,9,9,10,10,11,11,12,12,13,13,14,14],"right_children":[2,4,6,8,10,12,14,16,18,20,22,24,26,28,30,-1,-1,-1,-1,-1,-1,-1,-1,-1,-1,-1,-1,-1,-1,-1,-1],"split_conditions":[-1.1211268E-2,-6.234083E1,8.59375E-4,-1.9320742E1,-9.9830353E-1,8.9995843E-1,1.6409346E-1,-4.258277E-1,2.6E3,8.298707E-3,-1.6078156E-1,-2.8570372E-1,-3.371578E-4,-5.290396E-2,6.4934284E-4,2.7690005E-2,1.1235147E-2,3.3090323E-2,4.6818755E-3,1.651708E-2,-9.798747E-3,6.948519E-3,-6.8226946E-4,-1.0762947E-2,-3.378962E-2,2.6739595E-2,-2.2198373E-2,2.9801142E-3,-6.831905E-3,-4.5654927E-3,-2.5524331E-2],"split_indices":[25,31,18,24,30,34,34,28,17,31,31,24,25,31,24,0,0,0,0,0,0,0,0,0,0,0,0,0,0,0,0],"split_type":[0,0,0,0,0,0,0,0,0,0,0,0,0,0,0,0,0,0,0,0,0,0,0,0,0,0,0,0,0,0,0],"sum_hessian":[8.266285E3,4.6851133E3,3.581172E3,2.0013615E2,4.484977E3,2.3171646E2,3.3494556E3,8.532366E1,1.148125E2,6.108005E2,3.8741768E3,2.1236296E2,1.9353504E1,3.0490583E3,3.0039722E2,5.59645E1,2.9359161E1,1.095575E2,5.2549953E0,5.46467E2,6.43335E1,1.2873721E3,2.5868047E3,1.6314308E1,1.9604865E2,1.0114516E1,9.238987E0,1.1891523E3,1.859906E3,5.353798E1,2.4685924E2],"tree_param":{"num_deleted":"0","num_feature":"36","num_nodes":"31","size_leaf_vector":"1"}},{"base_weights":[-2.4652393E-3,6.9740996E-2,-6.216214E-1,2.871384E-1,-7.7102736E-2,-4.3045267E-1,-1.0541273E0,8.54435E-1,2.2317325E-1,-1.5444694E-1,1.5181811E-1,-2.572771E-1,-6.8838453E-1,-1.0815698E0,-9.143857E-3,1.5414768E-2,3.0906575E-2,1.013854E-2,2.2219312E-3,-1.0675758E-2,-7.7364704E-4,2.5091082E-2,-6.7011407E-4,3.4097508E-3,-1.0221366E-2,-1.635632E-2,-3.2062273E-2,-1.9582149E-2,-3.2740913E-2],"categories":[],"categories_nodes":[],"categories_segments":[],"categories_sizes":[],"default_left":[0,1,0,0,0,1,0,0,0,1,0,0,1,0,0,0,0,0,0,0,0,0,0,0,0,0,0,0,0],"id":33,"left_children":[1,3,5,7,9,11,13,15,17,19,21,23,25,27,-1,-1,-1,-1,-1,-1,-1,-1,-1,-1,-1,-1,-1,-1,-1],"loss_changes":[3.7048257E2,2.3694064E2,7.110629E1,1.0838684E2,7.846479E1,2.6707802E1,5.11145E0,1.7602829E1,4.6018433E1,8.581479E1,1.3346312E2,1.12332325E1,1.2551437E1,3.580017E-1,0E0,0E0,0E0,0E0,0E0,0E0,0E0,0E0,0E0,0E0,0E0,0E0,0E0,0E0,0E0],"parents":[2147483647,0,0,1,1,2,2,3,3,4,4,5,5,6,6,7,7,8,8,9,9,10,10,11,11,12,12,13,13],"right_children":[2,4,6,8,10,12,14,16,18,20,22,24,26,28,-1,-1,-1,-1,-1,-1,-1,-1,-1,-1,-1,-1,-1,-1,-1],"split_conditions":[1.0340297E-1,-7.728291E-2,9.102423E-1,-1.1965278E1,1E0,-3.3069537E-3,1.8262626E3,-5.538918E-1,2.2745901E-1,8.59375E-4,2.5724104E-4,1.2116042E-1,7.073124E-1,-3.4258554E2,-9.143857E-3,1.5414768E-2,3.0906575E-2,1.013854E-2,2.2219312E-3,-1.0675758E-2,-7.7364704E-4,2.5091082E-2,-6.7011407E-4,3.4097508E-3,-1.0221366E-2,-1.635632E-2,-3.2062273E-2,-1.9582149E-2,-3.2740913E-2],"split_indices":[20,31,20,20,3,31,7,14,28,18,20,14,25,3,0,0,0,0,0,0,0,0,0,0,0,0,0,0,0],"split_type":[0,0,0,0,0,0,0,0,0,0,0,0,0,0,0,0,0,0,0,0,0,0,0,0,0,0,0,0,0],"sum_hessian":[8.284946E3,7.4204565E3,8.644893E2,2.9911702E3,4.4292866E3,6.008898E2,2.6359952E2,3.0184024E2,2.6893298E3,3.310957E3,1.1183293E3,3.6070786E2,2.4018193E2,2.5385915E2,9.740371E0,1.0408405E2,1.9775618E2,1.5188857E3,1.1704441E3,1.2898954E3,2.0210618E3,2.2603845E2,8.922909E2,6.616949E1,2.9453836E2,1.7626564E2,6.3916286E1,7.178812E0,2.4668034E2],"tree_param":{"num_deleted":"0","num_feature":"36","num_nodes":"29","size_leaf_vector":"1"}},{"base_weights":[6.352509E-3,7.081575E-2,-6.372657E-1,6.6740936E-1,2.5371708E-2,-4.2183876E-1,-1.041328E0,4.5541295E-1,1.0721258E0,1.9608387E-1,-7.087505E-2,-6.977512E-1,-2.2816733E-1,-1.0694501E0,-7.16833E-1,1.9356217E-2,2.9217082E-3,3.370356E-2,2.3997718E-2,9.310616E-3,4.8796166E-4,-2.9374758E-4,-1.1631815E-2,-2.7443513E-2,-1.2152335E-2,4.038919E-3,-9.701131E-3,-3.269615E-2,-2.1891067E-2,-5.509824E-3,-3.228659E-2],"categories":[],"categories_nodes":[],"categories_segments":[],"categories_sizes":[],"default_left":[0,0,0,1,1,0,0,1,0,0,1,0,0,1,0,0,0,0,0,0,0,0,0,0,0,0,0,0,0,0,0],"id":34,"left_children":[1,3,5,7,9,11,13,15,17,19,21,23,25,27,29,-1,-1,-1,-1,-1,-1,-1,-1,-1,-1,-1,-1,-1,-1,-1,-1],"loss_changes":[3.423213E2,2.0330722E2,6.49447E1,4.5052155E1,1.145301E2,2.61109E1,1.6108398E0,2.3724258E1,1.640152E0,5.1633057E1,8.6271835E1,1.2477669E1,1.0071903E1,8.540344E-1,4.3648405E0,0E0,0E0,0E0,0E0,0E0,0E0,0E0,0E0,0E0,0E0,0E0,0E0,0E0,0E0,0E0,0E0],"parents":[2147483647,0,0,1,1,2,2,3,3,4,4,5,5,6,6,7,7,8,8,9,9,10,10,11,11,12,12,13,13,14,14],"right_children":[2,4,6,8,10,12,14,16,18,20,22,24,26,28,30,-1,-1,-1,-1,-1,-1,-1,-1,-1,-1,-1,-1,-1,-1,-1,-1],"split_conditions":[1.14277646E-1,-2.7675667E0,9.102423E-1,8.9995843E-1,-7.728291E-2,1.0879811E-1,1.14826355E2,-4.581917E-1,1.0940651E2,3.9597335E-1,3.216144E0,4.3640205E1,-8.120114E-2,4.2602365E2,1.7473279E2,1.9356217E-2,2.9217082E-3,3.370356E-2,2.3997718E-2,9.310616E-3,4.8796166E-4,-2.9374758E-4,-1.1631815E-2,-2.7443513E-2,-1.2152335E-2,4.038919E-3,-9.701131E-3,-3.269615E-2,-2.1891067E-2,-5.509824E-3,-3.228659E-2],"split_indices":[20,20,20,34,31,8,5,28,16,28,2,18,29,17,3,0,0,0,0,0,0,0,0,0,0,0,0,0,0,0,0],"split_type":[0,0,0,0,0,0,0,0,0,0,0,0,0,0,0,0,0,0,0,0,0,0,0,0,0,0,0,0,0,0,0],"sum_hessian":[8.248663E3,7.4985195E3,7.501436E2,5.297837E2,6.968736E3,4.906149E2,2.595287E2,3.490641E2,1.8071959E2,2.5120657E3,4.45667E3,2.0127185E2,2.8934308E2,2.3671793E2,2.2810755E1,2.2760461E2,1.2145949E2,1.4941815E2,3.1301435E1,1.5355425E3,9.765233E2,3.7372295E3,7.194406E2,1.14349846E2,8.6922E1,6.005896E1,2.292841E2,2.212134E2,1.550453E1,9.793114E0,1.301764E1],"tree_param":{"num_deleted":"0","num_feature":"36","num_nodes":"31","size_leaf_vector":"1"}},{"base_weights":[-9.775065E-4,8.2405E-2,-4.693695E-1,7.215039E-1,3.7782084E-2,-3.28913E-1,-1.0101923E0,1.0178484E0,4.498534E-1,3.6746037E-1,-1.4257846E-2,-4.8818818E-1,-1.46479E-1,-1.0338763E0,-1.061332E-2,6.1397795E-3,3.121598E-2,3.0628087E-2,9.525526E-3,1.8654045E-2,1.9393453E-3,1.1687388E-3,-7.50141E-3,-9.157995E-3,-2.1674719E-2,-1.870244E-3,-1.2001761E-2,-2.4478657E-2,-3.209134E-2],"categories":[],"categories_nodes":[],"categories_segments":[],"categories_sizes":[],"default_left":[0,0,0,0,1,1,0,0,0,0,1,1,0,0,0,0,0,0,0,0,0,0,0,0,0,0,0,0,0],"id":35,"left_children":[1,3,5,7,9,11,13,15,17,19,21,23,25,27,-1,-1,-1,-1,-1,-1,-1,-1,-1,-1,-1,-1,-1,-1,-1],"loss_changes":[3.2229318E2,1.9974777E2,9.4395386E1,3.634218E1,1.12362434E2,2.8736511E1,3.6236877E0,3.8053894E0,1.7836044E1,6.872689E1,7.09936E1,2.2446724E1,9.86505E0,1.0572815E0,0E0,0E0,0E0,0E0,0E0,0E0,0E0,0E0,0E0,0E0,0E0,0E0,0E0,0E0,0E0],"parents":[2147483647,0,0,1,1,2,2,3,3,4,4,5,5,6,6,7,7,8,8,9,9,10,10,11,11,12,12,13,13],"right_children":[2,4,6,8,10,12,14,16,18,20,22,24,26,28,-1,-1,-1,-1,-1,-1,-1,-1,-1,-1,-1,-1,-1,-1,-1],"split_conditions":[7.5316794E-2,-3.9696453E0,9.102423E-1,1.7815579E-2,-1.36597E5,1.0879811E-1,1.8262626E3,6.255792E-2,-9.6892416E-1,3.2178138E-3,3.3526785E0,3.128592E-1,3.6261787E0,-7.405322E1,-1.061332E-2,6.1397795E-3,3.121598E-2,3.0628087E-2,9.525526E-3,1.8654045E-2,1.9393453E-3,1.1687388E-3,-7.50141E-3,-9.157995E-3,-2.1674719E-2,-1.870244E-3,-1.2001761E-2,-2.4478657E-2,-3.209134E-2],"split_indices":[20,20,20,22,32,8,7,12,28,20,2,25,1,31,0,0,0,0,0,0,0,0,0,0,0,0,0,0,0],"split_type":[0,0,0,0,0,0,0,0,0,0,0,0,0,0,0,0,0,0,0,0,0,0,0,0,0,0,0,0,0],"sum_hessian":[8.250152E3,7.0041133E3,1.2460387E3,4.561315E2,6.547982E3,9.904247E2,2.5561398E2,2.1683673E2,2.3929477E2,8.918649E2,5.656117E3,5.278799E2,4.625448E2,2.4615736E2,9.456623E0,6.1565976E0,2.1068015E2,4.3755836E1,1.9553893E2,4.841575E2,4.0770743E2,4.6153115E3,1.0408057E3,2.9773712E2,2.3014273E2,3.482437E2,1.14301094E2,3.811873E1,2.0803864E2],"tree_param":{"num_deleted":"0","num_feature":"36","num_nodes":"29","size_leaf_vector":"1"}},{"base_weights":[1.9926252E-3,7.2772875E-2,-5.2697957E-1,4.8030794E-1,4.0460657E-3,-3.5850194E-1,-9.980738E-1,8.8884395E-1,3.7348732E-1,-1.8094434E-1,8.5297786E-2,-1.864408E-1,-5.731279E-1,-1.0193086E0,-8.467648E-3,1.9890787E-2,3.0675357E-2,1.9643685E-2,4.7214637E-3,-1.6901835E-3,-1.9683871E-2,9.231506E-3,-2.6329344E-3,-1.4021413E-2,-2.6984292E-3,-1.382979E-2,-2.8224433E-2,-1.875303E-2,-3.1234756E-2],"categories":[],"categories_nodes":[],"categories_segments":[],"categories_sizes":[],"default_left":[0,0,0,0,0,0,1,0,0,0,0,1,1,0,0,0,0,0,0,0,0,0,0,0,0,0,0,0,0],"id":36,"left_children":[1,3,5,7,9,11,13,15,17,19,21,23,25,27,-1,-1,-1,-1,-1,-1,-1,-1,-1,-1,-1,-1,-1,-1,-1],"loss_changes":[3.0890103E2,2.0380777E2,7.692175E1,4.549237E1,9.362172E1,2.6435661E1,3.602478E0,5.869858E0,5.0604233E1,1.12514145E2,1.6661295E2,1.0812708E1,1.2732597E1,1.4867859E0,0E0,0E0,0E0,0E0,0E0,0E0,0E0,0E0,0E0,0E0,0E0,0E0,0E0,0E0,0E0],"parents":[2147483647,0,0,1,1,2,2,3,3,4,4,5,5,6,6,7,7,8,8,9,9,10,10,11,11,12,12,13,13],"right_children":[2,4,6,8,10,12,14,16,18,20,22,24,26,28,-1,-1,-1,-1,-1,-1,-1,-1,-1,-1,-1,-1,-1,-1,-1],"split_conditions":[9.198831E-2,-3.2431126E-1,9.102423E-1,-3.890518E1,0E0,-1.56E2,7.5619664E0,3.241591E-1,-8.009E3,-1.14872E-2,7.6312777E-3,3.769063E-1,7.073124E-1,3.1923935E-2,-8.467648E-3,1.9890787E-2,3.0675357E-2,1.9643685E-2,4.7214637E-3,-1.6901835E-3,-1.9683871E-2,9.231506E-3,-2.6329344E-3,-1.4021413E-2,-2.6984292E-3,-1.382979E-2,-2.8224433E-2,-1.875303E-2,-3.1234756E-2],"split_indices":[20,31,20,20,4,32,23,34,32,20,20,24,25,25,0,0,0,0,0,0,0,0,0,0,0,0,0,0,0],"split_type":[0,0,0,0,0,0,0,0,0,0,0,0,0,0,0,0,0,0,0,0,0,0,0,0,0,0,0,0,0],"sum_hessian":[8.248364E3,7.275688E3,9.7267645E2,1.0490515E3,6.226636E3,7.177487E2,2.5492775E2,2.1592485E2,8.3312665E2,1.8998693E3,4.326767E3,3.9941483E2,3.183339E2,2.4717142E2,7.756332E0,8.2503815E1,1.3342104E2,3.610809E2,4.7204575E2,1.506062E3,3.938072E2,1.8930487E3,2.4337185E3,1.0113034E2,2.982845E2,2.4566591E2,7.266797E1,1.4535548E1,2.3263586E2],"tree_param":{"num_deleted":"0","num_feature":"36","num_nodes":"29","size_leaf_vector":"1"}},{"base_weights":[-3.6993257E-3,7.614302E-2,-4.7993043E-1,8.110915E-1,4.0771376E-2,-3.1923583E-1,-9.4245005E-1,4.6301743E-1,9.8848116E-1,1.21106915E-1,-1.6317423E-1,-4.9576074E-1,-1.2542458E-1,-9.7279316E-1,-2.5253168E-1,2.7067067E-2,5.8762645E-3,2.459528E-2,3.155751E-2,6.117774E-3,-1.9326016E-3,-9.990438E-3,-1.4219814E-3,-2.4283279E-2,-1.0543992E-2,-2.5970282E-3,-2.340422E-2,-2.2597468E-2,-3.112143E-2,7.4183033E-3,-2.7524639E-2],"categories":[],"categories_nodes":[],"categories_segments":[],"categories_sizes":[],"default_left":[0,0,0,0,1,1,0,0,0,0,1,0,1,0,0,0,0,0,0,0,0,0,0,0,0,0,0,0,0,0,0],"id":37,"left_children":[1,3,5,7,9,11,13,15,17,19,21,23,25,27,29,-1,-1,-1,-1,-1,-1,-1,-1,-1,-1,-1,-1,-1,-1,-1,-1],"loss_changes":[3.1347128E2,1.8351375E2,8.767807E1,1.9556976E1,1.1040483E2,3.0045143E1,6.1331787E0,1.2883726E1,1.4251862E0,7.428814E1,3.742977E1,2.0545502E1,1.0637865E1,3.3523254E0,4.942028E0,0E0,0E0,0E0,0E0,0E0,0E0,0E0,0E0,0E0,0E0,0E0,0E0,0E0,0E0,0E0,0E0],"parents":[2147483647,0,0,1,1,2,2,3,3,4,4,5,5,6,6,7,7,8,8,9,9,10,10,11,11,12,12,13,13,14,14],"right_children":[2,4,6,8,10,12,14,16,18,20,22,24,26,28,30,-1,-1,-1,-1,-1,-1,-1,-1,-1,-1,-1,-1,-1,-1,-1,-1],"split_conditions":[7.9001985E-2,-1.1965278E1,3.264133E-1,-5.538918E-1,-3.35E2,1.0879811E-1,1.8262626E3,1.9344158E0,-1.0677425E0,9.026271E-3,4.1808107E-1,1.0832748E1,7.775134E2,6.60897E-1,7.8348804E0,2.7067067E-2,5.8762645E-3,2.459528E-2,3.155751E-2,6.117774E-3,-1.9326016E-3,-9.990438E-3,-1.4219814E-3,-2.4283279E-2,-1.0543992E-2,-2.5970282E-3,-2.340422E-2,-2.2597468E-2,-3.112143E-2,7.4183033E-3,-2.7524639E-2],"split_indices":[20,20,20,14,32,8,7,26,21,20,11,18,1,13,20,0,0,0,0,0,0,0,0,0,0,0,0,0,0,0,0],"split_type":[0,0,0,0,0,0,0,0,0,0,0,0,0,0,0,0,0,0,0,0,0,0,0,0,0,0,0,0,0,0,0],"sum_hessian":[8.242205E3,7.0594893E3,1.1827158E3,3.2315137E2,6.736338E3,8.790092E2,3.0370663E2,1.10310425E2,2.1284093E2,4.832995E3,1.9033429E3,4.592042E2,4.19805E2,2.9051935E2,1.31872835E1,4.0819756E1,6.949067E1,6.1984554E1,1.5085638E2,3.3413315E3,1.4916633E3,7.7076416E2,1.1325787E3,1.4322888E2,3.1597534E2,3.9735446E2,2.2450508E1,6.8918205E1,2.2160114E2,7.8871264E0,5.3001566E0],"tree_param":{"num_deleted":"0","num_feature":"36","num_nodes":"31","size_leaf_vector":"1"}},{"base_weights":[-2.228897E-4,9.5068194E-2,-4.0557182E-1,7.4725425E-1,5.907347E-2,-2.9884943E-1,-9.7846836E-1,4.6351862E-1,1.0152528E0,1.0958377E-1,-2.8195915E-1,-1.8122795E-1,-4.6037117E-1,-1.0097078E0,-6.631162E-3,2.362939E-2,6.0475487E-3,1.3473141E-2,3.11025E-2,1.1476037E-2,1.9937532E-3,8.389958E-3,-1.1062383E-2,5.3747273E-5,-8.763625E-3,-9.376396E-3,-1.9793704E-2,-1.8548824E-2,-3.0986408E-2],"categories":[],"categories_nodes":[],"categories_segments":[],"categories_sizes":[],"default_left":[0,0,0,0,1,1,0,0,0,1,0,1,1,0,0,0,0,0,0,0,0,0,0,0,0,0,0,0,0],"id":38,"left_children":[1,3,5,7,9,11,13,15,17,19,21,23,25,27,-1,-1,-1,-1,-1,-1,-1,-1,-1,-1,-1,-1,-1,-1,-1],"loss_changes":[3.1738065E2,1.5613141E2,9.532953E1,2.598262E1,1.0865406E2,2.4990837E1,5.57753E0,1.4343815E1,1.7014923E0,6.4634735E1,3.976718E1,1.5533422E1,1.6168602E1,1.4942932E0,0E0,0E0,0E0,0E0,0E0,0E0,0E0,0E0,0E0,0E0,0E0,0E0,0E0,0E0,0E0],"parents":[2147483647,0,0,1,1,2,2,3,3,4,4,5,5,6,6,7,7,8,8,9,9,10,10,11,11,12,12,13,13],"right_children":[2,4,6,8,10,12,14,16,18,20,22,24,26,28,-1,-1,-1,-1,-1,-1,-1,-1,-1,-1,-1,-1,-1,-1,-1],"split_conditions":[5.9183754E-2,-8.324111E0,9.102423E-1,2.6139048E-1,1.2098596E-2,-2.0566374E-2,7.776E5,-4.581917E-1,9.02909E-2,-1.644851E5,-3.617228E-1,2.2857143E-2,3.033008E-1,3.1923935E-2,-6.631162E-3,2.362939E-2,6.0475487E-3,1.3473141E-2,3.11025E-2,1.1476037E-2,1.9937532E-3,8.389958E-3,-1.1062383E-2,5.3747273E-5,-8.763625E-3,-9.376396E-3,-1.9793704E-2,-1.8548824E-2,-3.0986408E-2],"split_indices":[20,20,20,13,31,31,31,28,17,32,20,34,25,25,0,0,0,0,0,0,0,0,0,0,0,0,0,0,0],"split_type":[0,0,0,0,0,0,0,0,0,0,0,0,0,0,0,0,0,0,0,0,0,0,0,0,0,0,0,0,0],"sum_hessian":[8.214734E3,6.651774E3,1.5629607E3,3.4688193E2,6.3048916E3,1.3188075E3,2.4415321E2,1.698198E2,1.7706213E2,5.4921313E3,8.1276025E2,7.6433466E2,5.5447284E2,2.3416235E2,9.990859E0,7.500205E1,9.481775E1,7.278116E0,1.6978403E2,7.4827094E2,4.743861E3,1.0848686E2,7.042734E2,2.88754E2,4.7558066E2,3.199033E2,2.3456952E2,1.4635291E1,2.1952707E2],"tree_param":{"num_deleted":"0","num_feature":"36","num_nodes":"29","size_leaf_vector":"1"}},{"base_weights":[5.47656E-3,4.85985E-2,-7.9836404E-1,8.166313E-1,1.658301E-2,-5.8903E-1,-1.0195595E0,4.8412734E-1,1.0014447E0,9.010524E-2,-2.2632651E-1,-3.3573896E-1,-7.875943E-1,-6.494784E-1,-1.0517954E0,2.605581E-2,6.8306555E-3,3.207793E-2,2.1643069E-2,5.410271E-3,-1.7551548E-3,-1.0532784E-2,-1.3503226E-3,-2.3938583E-3,-1.9079233E-2,-1.6180675E-2,-2.9207172E-2,-2.7698126E-2,-4.8510563E-3,-1.7329406E-2,-3.2245956E-2],"categories":[],"categories_nodes":[],"categories_segments":[],"categories_sizes":[],"default_left":[0,0,0,0,0,1,0,0,1,0,0,1,1,0,0,0,0,0,0,0,0,0,0,0,0,0,0,0,0,0,0],"id":39,"left_children":[1,3,5,7,9,11,13,15,17,19,21,23,25,27,29,-1,-1,-1,-1,-1,-1,-1,-1,-1,-1,-1,-1,-1,-1,-1,-1],"loss_changes":[2.838544E2,1.9108897E2,1.8704803E1,1.862564E1,1.3328433E2,1.0628159E1,1.7190094E0,1.0944851E1,3.006668E0,7.683557E1,3.9211853E1,7.396574E0,5.0454254E0,2.3544717E0,1.3874664E0,0E0,0E0,0E0,0E0,0E0,0E0,0E0,0E0,0E0,0E0,0E0,0E0,0E0,0E0,0E0,0E0],"parents":[2147483647,0,0,1,1,2,2,3,3,4,4,5,5,6,6,7,7,8,8,9,9,10,10,11,11,12,12,13,13,14,14],"right_children":[2,4,6,8,10,12,14,16,18,20,22,24,26,28,30,-1,-1,-1,-1,-1,-1,-1,-1,-1,-1,-1,-1,-1,-1,-1,-1],"split_conditions":[1.8591926E-1,-1.1965278E1,4E1,-4.354154E-1,-7.1E1,-1.102E2,3.798771E-2,1.9344158E0,-9.9794936E-1,8.721702E-3,1.2250109E1,1.0625615E0,1.6103688E0,8.338652E-1,8.0330006E-4,2.605581E-2,6.8306555E-3,3.207793E-2,2.1643069E-2,5.410271E-3,-1.7551548E-3,-1.0532784E-2,-1.3503226E-3,-2.3938583E-3,-1.9079233E-2,-1.6180675E-2,-2.9207172E-2,-2.7698126E-2,-4.8510563E-3,-1.7329406E-2,-3.2245956E-2],"split_indices":[20,20,12,14,32,32,25,26,28,20,26,5,24,2,2,0,0,0,0,0,0,0,0,0,0,0,0,0,0,0,0],"split_type":[0,0,0,0,0,0,0,0,0,0,0,0,0,0,0,0,0,0,0,0,0,0,0,0,0,0,0,0,0,0,0],"sum_hessian":[8.1868154E3,7.7708867E3,4.1592883E2,3.0998645E2,7.4609004E3,2.1557596E2,2.0035287E2,1.1203682E2,1.9794965E2,5.727859E3,1.7330411E3,9.591562E1,1.1966035E2,1.7747847E1,1.8260503E2,4.3877674E1,6.815914E1,1.570843E2,4.0865337E1,3.5637283E3,2.1641309E3,1.0260577E3,7.0698334E2,5.246026E1,4.345536E1,5.292184E1,6.67385E1,1.0795461E1,6.952387E0,9.6806555E0,1.7292438E2],"tree_param":{"num_deleted":"0","num_feature":"36","num_nodes":"31","size_leaf_vector":"1"}},{"base_weights":[-1.820774E-3,8.352938E-2,-2.537013E-1,2.4578536E-1,-5.022564E-2,-1.7491078E-1,-5.4448986E-1,1.18639335E-1,4.8587978E-1,-8.719715E-3,-7.5660783E-1,-7.612052E-2,-4.3643564E-1,2.0979688E-1,-7.485376E-1,1.9402042E-2,5.228524E-4,1.1296522E-2,2.635639E-2,2.0661089E-3,-6.3152458E-3,2.9188823E-2,-2.7025718E-2,-1.6833244E-2,-1.9554456E-4,-1.38749E-3,-1.5286708E-2,2.476983E-2,-1.8071627E-2,2.1030777E-3,-2.4878854E-2],"categories":[],"categories_nodes":[],"categories_segments":[],"categories_sizes":[],"default_left":[1,0,0,0,1,0,0,0,1,1,0,0,0,0,0,0,0,0,0,0,0,0,0,0,0,0,0,0,0,0,0],"id":40,"left_children":[1,3,5,7,9,11,13,15,17,19,21,23,25,27,29,-1,-1,-1,-1,-1,-1,-1,-1,-1,-1,-1,-1,-1,-1,-1,-1],"loss_changes":[1.763825E2,1.3300757E2,4.7480408E1,8.447781E1,9.850226E1,4.2216328E1,6.821889E1,9.6826035E1,4.0814407E1,4.9715958E1,4.7394768E1,4.0103592E1,1.2762505E1,4.7984676E1,2.3083359E1,0E0,0E0,0E0,0E0,0E0,0E0,0E0,0E0,0E0,0E0,0E0,0E0,0E0,0E0,0E0,0E0],"parents":[2147483647,0,0,1,1,2,2,3,3,4,4,5,5,6,6,7,7,8,8,9,9,10,10,11,11,12,12,13,13,14,14],"right_children":[2,4,6,8,10,12,14,16,18,20,22,24,26,28,30,-1,-1,-1,-1,-1,-1,-1,-1,-1,-1,-1,-1,-1,-1,-1,-1],"split_conditions":[-4.057392E-3,3.5219413E-4,1.4749087E-1,2.002218E-1,5.6746566E-1,1.2179646E-2,-4.479042E0,-3.9844406E-1,2.6868001E-5,7.8120804E-1,-2.131716E-3,-4.6264706E0,2.696629E-4,6.4934284E-4,-3.1081513E-1,1.9402042E-2,5.228524E-4,1.1296522E-2,2.635639E-2,2.0661089E-3,-6.3152458E-3,2.9188823E-2,-2.7025718E-2,-1.6833244E-2,-1.9554456E-4,-1.38749E-3,-1.5286708E-2,2.476983E-2,-1.8071627E-2,2.1030777E-3,-2.4878854E-2],"split_indices":[31,21,31,4,7,7,7,28,24,4,24,18,10,24,21,0,0,0,0,0,0,0,0,0,0,0,0,0,0,0,0],"split_type":[0,0,0,0,0,0,0,0,0,0,0,0,0,0,0,0,0,0,0,0,0,0,0,0,0,0,0,0,0,0,0],"sum_hessian":[8.202599E3,6.127091E3,2.0755073E3,2.7681985E3,3.3588923E3,1.6342903E3,4.41217E2,1.8107694E3,9.574291E2,3.1734385E3,1.85454E2,1.1871418E3,4.4714835E2,9.393754E1,3.4727945E2,2.90358E2,1.5204115E3,7.5044403E2,2.0698505E2,2.2925754E3,8.808631E2,1.3834279E1,1.7161972E2,1.4810289E2,1.0390391E3,7.082869E1,3.7631967E2,5.3416344E1,4.0521194E1,3.1194307E1,3.1608514E2],"tree_param":{"num_deleted":"0","num_feature":"36","num_nodes":"31","size_leaf_vector":"1"}},{"base_weights":[-5.7816855E-3,1.251674E-1,-1.6761698E-1,9.0594165E-2,7.666938E-1,-8.5793203E-1,-1.1768891E-1,1.7222674E-1,-1.15399346E-1,2.4036308E-1,9.311698E-1,-9.3813306E-1,3.2082835E-1,-6.410636E-2,-5.681387E-1,1.5561052E-2,3.4313702E-3,-1.5091173E-3,-2.17175E-2,-1.2672537E-3,2.3048107E-2,3.0458163E-2,2.111735E-2,2.1737585E-4,-2.9817538E-2,3.6141492E-2,-2.0920096E-2,3.7381155E-4,-8.765483E-3,-4.16965E-3,-2.0901265E-2],"categories":[],"categories_nodes":[],"categories_segments":[],"categories_sizes":[],"default_left":[1,1,0,1,0,0,0,0,1,1,0,0,0,1,0,0,0,0,0,0,0,0,0,0,0,0,0,0,0,0,0],"id":41,"left_children":[1,3,5,7,9,11,13,15,17,19,21,23,25,27,29,-1,-1,-1,-1,-1,-1,-1,-1,-1,-1,-1,-1,-1,-1,-1,-1],"loss_changes":[1.7388255E2,1.0052234E2,1.26380005E2,7.240401E1,1.9841553E1,2.3685562E1,8.259076E1,6.173752E1,4.8380585E1,8.46677E0,2.6540222E0,1.2234711E1,1.5691713E1,5.3450424E1,1.9976326E1,0E0,0E0,0E0,0E0,0E0,0E0,0E0,0E0,0E0,0E0,0E0,0E0,0E0,0E0,0E0,0E0],"parents":[2147483647,0,0,1,1,2,2,3,3,4,4,5,5,6,6,7,7,8,8,9,9,10,10,11,11,12,12,13,13,14,14],"right_children":[2,4,6,8,10,12,14,16,18,20,22,24,26,28,30,-1,-1,-1,-1,-1,-1,-1,-1,-1,-1,-1,-1,-1,-1,-1,-1],"split_conditions":[-2.735477E-2,3.702062E1,8.59375E-4,6.117855E-1,-9.352708E-1,9.8966E1,1.2940031E-1,-9.974506E-1,-2.1719761E-2,3.5925826E-1,-2.123879E-3,-8.9022523E-1,-3.371578E-4,-2.8E1,2.200971E-2,1.5561052E-2,3.4313702E-3,-1.5091173E-3,-2.17175E-2,-1.2672537E-3,2.3048107E-2,3.0458163E-2,2.111735E-2,2.1737585E-4,-2.9817538E-2,3.6141492E-2,-2.0920096E-2,3.7381155E-4,-8.765483E-3,-4.16965E-3,-2.0901265E-2],"split_indices":[25,17,18,13,14,3,34,30,24,23,22,24,25,32,21,0,0,0,0,0,0,0,0,0,0,0,0,0,0,0,0],"split_type":[0,0,0,0,0,0,0,0,0,0,0,0,0,0,0,0,0,0,0,0,0,0,0,0,0,0,0,0,0,0,0],"sum_hessian":[8.203042E3,4.5343213E3,3.668721E3,4.3035356E3,2.3078554E2,2.4635712E2,3.4223638E3,3.0822456E3,1.2212903E3,5.5534386E1,1.7525116E2,2.308543E2,1.5502829E1,3.059561E3,3.6280292E2,4.3984677E2,2.6423987E3,1.1042474E3,1.17042915E2,3.6770172E1,1.8764214E1,1.25382774E2,4.9868385E1,1.2911694E1,2.179426E2,8.200552E0,7.3022766E0,2.2913015E3,7.682595E2,8.411593E1,2.7868698E2],"tree_param":{"num_deleted":"0","num_feature":"36","num_nodes":"31","size_leaf_vector":"1"}},{"base_weights":[6.3145007E-3,7.499228E-2,-2.3838317E-1,2.2685674E-1,-4.172715E-2,-3.3140633E-2,-3.8784507E-1,1.5878114E-1,7.1407676E-1,-6.8197516E-3,-7.8120315E-1,8.768716E-1,-7.650443E-2,-8.364566E-1,-2.5899807E-1,1.5997123E-2,1.2166785E-3,9.0477485E-3,2.7460536E-2,-1.6205441E-3,7.2242725E-3,1.8169615E-2,-2.6335351E-2,3.3428393E-2,-1.8060836E-3,3.4157867E-5,-1.3542802E-2,-2.7027411E-2,6.962678E-3,-1.6198661E-3,-1.2448725E-2],"categories":[],"categories_nodes":[],"categories_segments":[],"categories_sizes":[],"default_left":[1,0,1,0,1,0,0,0,0,0,0,0,0,0,0,0,0,0,0,0,0,0,0,0,0,0,0,0,0,0,0],"id":42,"left_children":[1,3,5,7,9,11,13,15,17,19,21,23,25,27,29,-1,-1,-1,-1,-1,-1,-1,-1,-1,-1,-1,-1,-1,-1,-1,-1],"loss_changes":[1.3675452E2,1.1263971E2,5.4694572E1,9.147914E1,9.275784E1,2.9764473E1,5.942569E1,1.0729964E2,2.7806747E1,4.0132748E1,2.2242111E1,7.7000504E0,2.093808E1,1.603543E1,2.5652836E1,0E0,0E0,0E0,0E0,0E0,0E0,0E0,0E0,0E0,0E0,0E0,0E0,0E0,0E0,0E0,0E0],"parents":[2147483647,0,0,1,1,2,2,3,3,4,4,5,5,6,6,7,7,8,8,9,9,10,10,11,11,12,12,13,13,14,14],"right_children":[2,4,6,8,10,12,14,16,18,20,22,24,26,28,30,-1,-1,-1,-1,-1,-1,-1,-1,-1,-1,-1,-1,-1,-1,-1,-1],"split_conditions":[-2.8E1,3.5219413E-4,-3.205997E-2,5.067017E-5,5.839273E-1,-3.7857143E1,-1.8854757E-1,-1.9130969E-1,-1.0208805E-2,8.974823E-1,-3.160323E-4,-1.8854757E-1,8.5074496E-1,4.695633E0,1.16414495E-1,1.5997123E-2,1.2166785E-3,9.0477485E-3,2.7460536E-2,-1.6205441E-3,7.2242725E-3,1.8169615E-2,-2.6335351E-2,3.3428393E-2,-1.8060836E-3,3.4157867E-5,-1.3542802E-2,-2.7027411E-2,6.962678E-3,-1.6198661E-3,-1.2448725E-2],"split_indices":[32,21,25,25,8,8,5,28,28,12,24,5,13,34,25,0,0,0,0,0,0,0,0,0,0,0,0,0,0,0,0],"split_type":[0,0,0,0,0,0,0,0,0,0,0,0,0,0,0,0,0,0,0,0,0,0,0,0,0,0,0,0,0,0,0],"sum_hessian":[8.135523E3,6.3531245E3,1.7823986E3,2.760489E3,3.5926353E3,7.515645E2,1.030834E3,2.4232346E3,3.3725455E2,3.4316514E3,1.6098389E2,3.3310238E1,7.182543E2,2.2878224E2,8.0205176E2,5.8064355E2,1.8425911E3,1.1141756E2,2.2583699E2,2.882941E3,5.487106E2,1.0144106E1,1.5083978E2,2.6426077E1,6.8841634E0,5.9585504E2,1.2239923E2,2.1591466E2,1.2867588E1,3.471211E2,4.5493066E2],"tree_param":{"num_deleted":"0","num_feature":"36","num_nodes":"31","size_leaf_vector":"1"}},{"base_weights":[4.2464402E-5,1.1969319E-1,-1.5660676E-1,7.806411E-1,9.0847E-2,-8.814295E-1,-1.07202224E-1,4.0430802E-1,9.321147E-1,2.4004965E-1,-2.1182675E-2,-9.693411E-1,5.3917862E-2,-6.2947E-2,-6.6865665E-1,1.7595608E-2,-1.1709178E-2,9.786552E-3,2.927609E-2,8.824946E-3,-5.074519E-3,-1.8732183E-3,1.0319273E-2,-7.79731E-3,-3.1091426E-2,2.2835528E-2,-2.6328433E-2,2.898121E-4,-8.508252E-3,-1.2944079E-3,-2.4181614E-2],"categories":[],"categories_nodes":[],"categories_segments":[],"categories_sizes":[],"default_left":[1,0,0,1,0,0,1,0,0,1,1,0,0,1,0,0,0,0,0,0,0,0,0,0,0,0,0,0,0,0,0],"id":43,"left_children":[1,3,5,7,9,11,13,15,17,19,21,23,25,27,29,-1,-1,-1,-1,-1,-1,-1,-1,-1,-1,-1,-1,-1,-1,-1,-1],"loss_changes":[1.5280034E2,8.8051E1,1.2632496E2,1.0633736E1,7.40502E1,1.8564804E1,8.210786E1,8.510581E0,3.312439E0,4.2119255E1,3.8152905E1,9.520737E0,1.4035645E1,4.9120872E1,2.0716896E1,0E0,0E0,0E0,0E0,0E0,0E0,0E0,0E0,0E0,0E0,0E0,0E0,0E0,0E0,0E0,0E0],"parents":[2147483647,0,0,1,1,2,2,3,3,4,4,5,5,6,6,7,7,8,8,9,9,10,10,11,11,12,12,13,13,14,14],"right_children":[2,4,6,8,10,12,14,16,18,20,22,24,26,28,30,-1,-1,-1,-1,-1,-1,-1,-1,-1,-1,-1,-1,-1,-1,-1,-1],"split_conditions":[-1.1211268E-2,-1.5326017E1,8.59375E-4,4.4238683E-2,-6.601E3,8.9995843E-1,1.858431E-1,-3.2673976E0,2.080537E-1,9.6590705E-3,4.034784E-2,1.0136482E-2,-2.2824996E-4,-2.8E1,8.648454E-3,1.7595608E-2,-1.1709178E-2,9.786552E-3,2.927609E-2,8.824946E-3,-5.074519E-3,-1.8732183E-3,1.0319273E-2,-7.79731E-3,-3.1091426E-2,2.2835528E-2,-2.6328433E-2,2.898121E-4,-8.508252E-3,-1.2944079E-3,