{"learner":{"attributes":{"best_iteration":"1066","best_score":"0.7356390114451098"},"feature_names":["roa","ocf_to_assets","accruals","current_ratio","cash_ratio","working_cap_to_assets","debt_to_assets","debt_to_equity","total_liab_to_assets","asset_growth","log_size","delta_roa","delta_leverage","delta_curr_ratio","ismod","aco","act","ao","aoloch","ap","apalch","aqc","at","caps","capx","ceq","che","chech","csho","cstk","cstke","dlc","dlcch","dltis","dltr","dltt","do","dp","dpc","dv","dvc","dvp","dvt","esubc","exre","fiao","fincf","fopo","ib","ibadj","ibc","intan","invch","invt","ivaco","ivaeq","ivao","ivch","ivncf","ivstch","lco","lct","lt","mibt","mkvalt","niadj","nopi","oancf","oibdp","ppent","prcc_c","prcc_f","prstkc","pstk","pstkn","pstkr","re","recch","rect","seq","siv","spi","sppe","sppiv","sstk","tstk","txach","txbcof","txdc","txditc","txp","txt","xi","xido","xidoc","xint"],"feature_types":["float","float","float","float","float","float","float","float","float","float","float","float","float","float","float","float","float","float","float","float","float","float","float","float","float","float","float","float","float","float","float","float","float","float","float","float","float","float","float","float","float","float","float","float","float","float","float","float","float","float","float","float","float","float","float","float","float","float","float","float","float","float","float","float","float","float","float","float","float","float","float","float","float","float","float","float","float","float","float","float","float","float","float","float","float","float","float","float","float","float","float","float","float","float","float","float"],"gradient_booster":{"model":{"cats":{"enc":[],"feature_segments":[],"sorted_idx":[]},"gbtree_model_param":{"num_parallel_tree":"1","num_trees":"1117"},"iteration_indptr":[0,1,2,3,4,5,6,7,8,9,10,11,12,13,14,15,16,17,18,19,20,21,22,23,24,25,26,27,28,29,30,31,32,33,34,35,36,37,38,39,40,41,42,43,44,45,46,47,48,49,50,51,52,53,54,55,56,57,58,59,60,61,62,63,64,65,66,67,68,69,70,71,72,73,74,75,76,77,78,79,80,81,82,83,84,85,86,87,88,89,90,91,92,93,94,95,96,97,98,99,100,101,102,103,104,105,106,107,108,109,110,111,112,113,114,115,116,117,118,119,120,121,122,123,124,125,126,127,128,129,130,131,132,133,134,135,136,137,138,139,140,141,142,143,144,145,146,147,148,149,150,151,152,153,154,155,156,157,158,159,160,161,162,163,164,165,166,167,168,169,170,171,172,173,174,175,176,177,178,179,180,181,182,183,184,185,186,187,188,189,190,191,192,193,194,195,196,197,198,199,200,201,202,203,204,205,206,207,208,209,210,211,212,213,214,215,216,217,218,219,220,221,222,223,224,225,226,227,228,229,230,231,232,233,234,235,236,237,238,239,240,241,242,243,244,245,246,247,248,249,250,251,252,253,254,255,256,257,258,259,260,261,262,263,264,265,266,267,268,269,270,271,272,273,274,275,276,277,278,279,280,281,282,283,284,285,286,287,288,289,290,291,292,293,294,295,296,297,298,299,300,301,302,303,304,305,306,307,308,309,310,311,312,313,314,315,316,317,318,319,320,321,322,323,324,325,326,327,328,329,330,331,332,333,334,335,336,337,338,339,340,341,342,343,344,345,346,347,348,349,350,351,352,353,354,355,356,357,358,359,360,361,362,363,364,365,366,367,368,369,370,371,372,373,374,375,376,377,378,379,380,381,382,383,384,385,386,387,388,389,390,391,392,393,394,395,396,397,398,399,400,401,402,403,404,405,406,407,408,409,410,411,412,413,414,415,416,417,418,419,420,421,422,423,424,425,426,427,428,429,430,431,432,433,434,435,436,437,438,439,440,441,442,443,444,445,446,447,448,449,450,451,452,453,454,455,456,457,458,459,460,461,462,463,464,465,466,467,468,469,470,471,472,473,474,475,476,477,478,479,480,481,482,483,484,485,486,487,488,489,490,491,492,493,494,495,496,497,498,499,500,501,502,503,504,505,506,507,508,509,510,511,512,513,514,515,516,517,518,519,520,521,522,523,524,525,526,527,528,529,530,531,532,533,534,535,536,537,538,539,540,541,542,543,544,545,546,547,548,549,550,551,552,553,554,555,556,557,558,559,560,561,562,563,564,565,566,567,568,569,570,571,572,573,574,575,576,577,578,579,580,581,582,583,584,585,586,587,588,589,590,591,592,593,594,595,596,597,598,599,600,601,602,603,604,605,606,607,608,609,610,611,612,613,614,615,616,617,618,619,620,621,622,623,624,625,626,627,628,629,630,631,632,633,634,635,636,637,638,639,640,641,642,643,644,645,646,647,648,649,650,651,652,653,654,655,656,657,658,659,660,661,662,663,664,665,666,667,668,669,670,671,672,673,674,675,676,677,678,679,680,681,682,683,684,685,686,687,688,689,690,691,692,693,694,695,696,697,698,699,700,701,702,703,704,705,706,707,708,709,710,711,712,713,714,715,716,717,718,719,720,721,722,723,724,725,726,727,728,729,730,731,732,733,734,735,736,737,738,739,740,741,742,743,744,745,746,747,748,749,750,751,752,753,754,755,756,757,758,759,760,761,762,763,764,765,766,767,768,769,770,771,772,773,774,775,776,777,778,779,780,781,782,783,784,785,786,787,788,789,790,791,792,793,794,795,796,797,798,799,800,801,802,803,804,805,806,807,808,809,810,811,812,813,814,815,816,817,818,819,820,821,822,823,824,825,826,827,828,829,830,831,832,833,834,835,836,837,838,839,840,841,842,843,844,845,846,847,848,849,850,851,852,853,854,855,856,857,858,859,860,861,862,863,864,865,866,867,868,869,870,871,872,873,874,875,876,877,878,879,880,881,882,883,884,885,886,887,888,889,890,891,892,893,894,895,896,897,898,899,900,901,902,903,904,905,906,907,908,909,910,911,912,913,914,915,916,917,918,919,920,921,922,923,924,925,926,927,928,929,930,931,932,933,934,935,936,937,938,939,940,941,942,943,944,945,946,947,948,949,950,951,952,953,954,955,956,957,958,959,960,961,962,963,964,965,966,967,968,969,970,971,972,973,974,975,976,977,978,979,980,981,982,983,984,985,986,987,988,989,990,991,992,993,994,995,996,997,998,999,1000,1001,1002,1003,1004,1005,1006,1007,1008,1009,1010,1011,1012,1013,1014,1015,1016,1017,1018,1019,1020,1021,1022,1023,1024,1025,1026,1027,1028,1029,1030,1031,1032,1033,1034,1035,1036,1037,1038,1039,1040,1041,1042,1043,1044,1045,1046,1047,1048,1049,1050,1051,1052,1053,1054,1055,1056,1057,1058,1059,1060,1061,1062,1063,1064,1065,1066,1067,1068,1069,1070,1071,1072,1073,1074,1075,1076,1077,1078,1079,1080,1081,1082,1083,1084,1085,1086,1087,1088,1089,1090,1091,1092,1093,1094,1095,1096,1097,1098,1099,1100,1101,1102,1103,1104,1105,1106,1107,1108,1109,1110,1111,1112,1113,1114,1115,1116,1117],"tree_info":[0,0,0,0,0,0,0,0,0,0,0,0,0,0,0,0,0,0,0,0,0,0,0,0,0,0,0,0,0,0,0,0,0,0,0,0,0,0,0,0,0,0,0,0,0,0,0,0,0,0,0,0,0,0,0,0,0,0,0,0,0,0,0,0,0,0,0,0,0,0,0,0,0,0,0,0,0,0,0,0,0,0,0,0,0,0,0,0,0,0,0,0,0,0,0,0,0,0,0,0,0,0,0,0,0,0,0,0,0,0,0,0,0,0,0,0,0,0,0,0,0,0,0,0,0,0,0,0,0,0,0,0,0,0,0,0,0,0,0,0,0,0,0,0,0,0,0,0,0,0,0,0,0,0,0,0,0,0,0,0,0,0,0,0,0,0,0,0,0,0,0,0,0,0,0,0,0,0,0,0,0,0,0,0,0,0,0,0,0,0,0,0,0,0,0,0,0,0,0,0,0,0,0,0,0,0,0,0,0,0,0,0,0,0,0,0,0,0,0,0,0,0,0,0,0,0,0,0,0,0,0,0,0,0,0,0,0,0,0,0,0,0,0,0,0,0,0,0,0,0,0,0,0,0,0,0,0,0,0,0,0,0,0,0,0,0,0,0,0,0,0,0,0,0,0,0,0,0,0,0,0,0,0,0,0,0,0,0,0,0,0,0,0,0,0,0,0,0,0,0,0,0,0,0,0,0,0,0,0,0,0,0,0,0,0,0,0,0,0,0,0,0,0,0,0,0,0,0,0,0,0,0,0,0,0,0,0,0,0,0,0,0,0,0,0,0,0,0,0,0,0,0,0,0,0,0,0,0,0,0,0,0,0,0,0,0,0,0,0,0,0,0,0,0,0,0,0,0,0,0,0,0,0,0,0,0,0,0,0,0,0,0,0,0,0,0,0,0,0,0,0,0,0,0,0,0,0,0,0,0,0,0,0,0,0,0,0,0,0,0,0,0,0,0,0,0,0,0,0,0,0,0,0,0,0,0,0,0,0,0,0,0,0,0,0,0,0,0,0,0,0,0,0,0,0,0,0,0,0,0,0,0,0,0,0,0,0,0,0,0,0,0,0,0,0,0,0,0,0,0,0,0,0,0,0,0,0,0,0,0,0,0,0,0,0,0,0,0,0,0,0,0,0,0,0,0,0,0,0,0,0,0,0,0,0,0,0,0,0,0,0,0,0,0,0,0,0,0,0,0,0,0,0,0,0,0,0,0,0,0,0,0,0,0,0,0,0,0,0,0,0,0,0,0,0,0,0,0,0,0,0,0,0,0,0,0,0,0,0,0,0,0,0,0,0,0,0,0,0,0,0,0,0,0,0,0,0,0,0,0,0,0,0,0,0,0,0,0,0,0,0,0,0,0,0,0,0,0,0,0,0,0,0,0,0,0,0,0,0,0,0,0,0,0,0,0,0,0,0,0,0,0,0,0,0,0,0,0,0,0,0,0,0,0,0,0,0,0,0,0,0,0,0,0,0,0,0,0,0,0,0,0,0,0,0,0,0,0,0,0,0,0,0,0,0,0,0,0,0,0,0,0,0,0,0,0,0,0,0,0,0,0,0,0,0,0,0,0,0,0,0,0,0,0,0,0,0,0,0,0,0,0,0,0,0,0,0,0,0,0,0,0,0,0,0,0,0,0,0,0,0,0,0,0,0,0,0,0,0,0,0,0,0,0,0,0,0,0,0,0,0,0,0,0,0,0,0,0,0,0,0,0,0,0,0,0,0,0,0,0,0,0,0,0,0,0,0,0,0,0,0,0,0,0,0,0,0,0,0,0,0,0,0,0,0,0,0,0,0,0,0,0,0,0,0,0,0,0,0,0,0,0,0,0,0,0,0,0,0,0,0,0,0,0,0,0,0,0,0,0,0,0,0,0,0,0,0,0,0,0,0,0,0,0,0,0,0,0,0,0,0,0,0,0,0,0,0,0,0,0,0,0,0,0,0,0,0,0,0,0,0,0,0,0,0,0,0,0,0,0,0,0,0,0,0,0,0,0,0,0,0,0,0,0,0,0,0,0,0,0,0,0,0,0,0,0,0,0,0,0,0,0,0,0,0,0,0,0,0,0,0,0,0,0,0,0,0,0,0,0,0,0,0,0,0,0,0,0,0,0,0,0,0,0,0,0,0,0,0,0,0,0,0,0,0,0,0,0,0,0,0,0,0,0,0,0,0,0,0,0,0,0,0,0,0,0,0,0,0,0,0,0,0,0,0,0,0,0,0,0,0,0,0,0,0,0,0,0,0,0,0,0,0,0,0,0,0,0,0,0,0,0,0,0,0,0,0,0,0,0,0,0,0,0,0,0,0,0,0,0,0,0,0,0,0,0,0,0,0,0,0,0,0,0,0,0,0,0,0,0,0,0,0,0,0,0,0,0,0,0,0,0,0,0,0,0,0,0,0,0,0,0,0,0,0,0,0,0,0,0,0,0,0,0,0,0,0,0,0,0,0,0,0,0,0,0,0,0,0,0,0,0,0,0,0,0,0,0,0,0,0,0,0,0,0,0,0],"trees":[{"base_weights":[-5.7759574E-3,4.8782626E-1,-3.5148126E-1,3.5971662E-1,1.6590388E0,-2.6522946E-1,-1.5890639E0,1.5014309E-1,5.6006056E-1,1.3390461E0,1.8096832E0,-1.3079848E0,-1.7265365E-1,-7.2914E-2,-1.7684498E0,-2.0002618E-3,1.0772936E-2,1.0176948E-2,2.1615889E-2,2.377264E-2,4.969507E-2,5.468306E-2,3.0548787E-2,-8.177847E-3,-4.1590825E-2,8.157781E-3,-8.693989E-3,2.7520856E-2,-1.0666667E-2,-3.74017E-2,-5.402694E-2],"categories":[],"categories_nodes":[],"categories_segments":[],"categories_sizes":[],"default_left":[0,0,1,0,1,0,0,1,0,1,1,0,0,0,0,0,0,0,0,0,0,0,0,0,0,0,0,0,0,0,0],"id":0,"left_children":[1,3,5,7,9,11,13,15,17,19,21,23,25,27,29,-1,-1,-1,-1,-1,-1,-1,-1,-1,-1,-1,-1,-1,-1,-1,-1],"loss_changes":[1.4799617E3,5.354101E2,5.440372E2,1.3517188E2,1.4542297E1,4.6019217E2,9.0199646E1,7.141586E1,5.8104736E1,1.8903244E1,5.9246826E-1,3.1169556E1,2.2828296E2,1.0452972E1,2.7817383E0,0E0,0E0,0E0,0E0,0E0,0E0,0E0,0E0,0E0,0E0,0E0,0E0,0E0,0E0,0E0,0E0],"parents":[2147483647,0,0,1,1,2,2,3,3,4,4,5,5,6,6,7,7,8,8,9,9,10,10,11,11,12,12,13,13,14,14],"right_children":[2,4,6,8,10,12,14,16,18,20,22,24,26,28,30,-1,-1,-1,-1,-1,-1,-1,-1,-1,-1,-1,-1,-1,-1,-1,-1],"split_conditions":[-1.22E2,4E1,5.6746566E-1,4.4559905E-1,3.8434464E-2,-8.4E1,7.1E1,1.283E3,4.35E0,4.575269E2,8.7098E4,-1.9E1,2.91E2,-2.384E3,6.494328E0,-2.0002618E-3,1.0772936E-2,1.0176948E-2,2.1615889E-2,2.377264E-2,4.969507E-2,5.468306E-2,3.0548787E-2,-8.177847E-3,-4.1590825E-2,8.157781E-3,-8.693989E-3,2.7520856E-2,-1.0666667E-2,-3.74017E-2,-5.402694E-2],"split_indices":[65,8,1,8,7,68,65,47,71,8,39,1,65,81,1,0,0,0,0,0,0,0,0,0,0,0,0,0,0,0,0],"split_type":[0,0,0,0,0,0,0,0,0,0,0,0,0,0,0,0,0,0,0,0,0,0,0,0,0,0,0,0,0,0,0],"sum_hessian":[8.670956E3,3.5713408E3,5.0996147E3,3.2203945E3,3.509462E2,4.7684946E3,3.3112003E2,1.5747976E3,1.645597E3,1.1549829E2,2.354479E2,3.8775632E2,4.3807383E3,3.518095E1,2.959391E2,7.731903E2,8.016073E2,6.938591E2,9.51738E2,4.3717583E1,7.178071E1,2.303361E2,5.1118026E0,2.7601665E1,3.6015466E2,9.1331274E2,3.4674258E3,7.313027E0,2.7867924E1,1.963619E1,2.763029E2],"tree_param":{"num_deleted":"0","num_feature":"96","num_nodes":"31","size_leaf_vector":"1"}},{"base_weights":[-9.498877E-4,2.52378E-1,-8.2164663E-1,1.5509079E0,1.615842E-1,-5.446289E-1,-1.6506555E0,1.1635234E0,5.3740323E-2,3.2792592E-1,-3.6715162E-1,-3.27088E-1,-8.570633E-1,-9.9916965E-1,-1.7475984E0,4.479434E-2,2.4018994E-2,1.7351562E-2,4.2304043E-3,-2.2547584E-2,-2.0759027E-3,-1.5087473E-2,-2.9121574E-3,-4.0497597E-2,-2.113067E-2,-4.0423863E-2,-1.7627256E-2,-4.5302637E-2,-5.3888276E-2],"categories":[],"categories_nodes":[],"categories_segments":[],"categories_sizes":[],"default_left":[0,0,0,0,1,1,0,0,0,0,0,1,0,1,0,0,0,0,0,0,0,0,0,0,0,0,0,0,0],"id":1,"left_children":[1,3,5,7,9,11,13,15,-1,17,19,21,23,25,27,-1,-1,-1,-1,-1,-1,-1,-1,-1,-1,-1,-1,-1,-1],"loss_changes":[1.8112963E3,7.846245E2,4.710111E2,3.8426514E1,5.4746246E2,1.0450641E2,3.072815E1,1.9070175E1,0E0,2.2155865E2,1.7059445E2,3.677491E1,4.6631927E1,9.090691E0,2.4466553E0,0E0,0E0,0E0,0E0,0E0,0E0,0E0,0E0,0E0,0E0,0E0,0E0,0E0,0E0],"parents":[2147483647,0,0,1,1,2,2,3,3,4,4,5,5,6,6,7,7,9,9,10,10,11,11,12,12,13,13,14,14],"right_children":[2,4,6,8,10,12,14,16,-1,18,20,22,24,26,28,-1,-1,-1,-1,-1,-1,-1,-1,-1,-1,-1,-1,-1,-1],"split_conditions":[4.9473416E-2,-1.1965278E1,2.2687949E-1,-1.21E0,-3.6797272E-3,-2.0566374E-2,2.1687576E-1,-8.377698E1,5.3740323E-2,-2.7323232E-3,5.01E0,5.148E1,8E-2,9.63E2,9.102423E-1,4.479434E-2,2.4018994E-2,1.7351562E-2,4.2304043E-3,-2.2547584E-2,-2.0759027E-3,-1.5087473E-2,-2.9121574E-3,-4.0497597E-2,-2.113067E-2,-4.0423863E-2,-1.7627256E-2,-4.5302637E-2,-5.3888276E-2],"split_indices":[0,0,0,79,2,2,11,0,0,11,68,70,91,42,0,0,0,0,0,0,0,0,0,0,0,0,0,0,0],"split_type":[0,0,0,0,0,0,0,0,0,0,0,0,0,0,0,0,0,0,0,0,0,0,0,0,0,0,0,0,0],"sum_hessian":[8.710122E3,6.6562134E3,2.0539084E3,4.339397E2,6.222274E3,1.5407242E3,5.1318427E2,1.68422E2,2.655177E2,4.7334863E3,1.4887877E3,9.095043E2,6.3122003E2,6.79366E1,4.4524768E2,8.662447E1,8.1797516E1,2.0219769E3,2.7115093E3,6.493916E2,8.393961E2,5.1479816E2,3.947061E2,1.4746002E2,4.8376E2,3.556642E1,3.237018E1,8.117847E1,3.640692E2],"tree_param":{"num_deleted":"0","num_feature":"96","num_nodes":"29","size_leaf_vector":"1"}},{"base_weights":[-8.494437E-3,3.675029E-1,-5.33721E-1,1.5143201E0,2.586634E-1,-3.4649336E-1,-1.5664896E0,1.1437849E0,1.7323667E0,3.880744E-1,-6.092194E-1,-1.7759691E-1,-5.730715E-1,-1.0489261E0,-1.6722847E0,4.0396493E-2,1.3003924E-2,2.4356881E-2,5.240581E-2,1.9705953E-2,4.764809E-3,-5.5007446E-3,-2.9842619E-2,-1.402654E-2,-2.2490993E-3,-3.0901922E-2,-1.3510075E-2,-2.1863803E-2,-4.1625496E-2,-2.1294098E-2,-5.0952464E-2],"categories":[],"categories_nodes":[],"categories_segments":[],"categories_sizes":[],"default_left":[0,0,0,0,1,0,0,1,0,0,0,0,0,1,0,0,0,0,0,0,0,0,0,0,0,0,0,0,0,0,0],"id":2,"left_children":[1,3,5,7,9,11,13,15,17,19,21,23,25,27,29,-1,-1,-1,-1,-1,-1,-1,-1,-1,-1,-1,-1,-1,-1,-1,-1],"loss_changes":[1.7144376E3,6.311269E2,6.998063E2,3.3434265E1,5.193642E2,1.17281555E2,2.8665771E1,2.3228973E1,2.2373047E0,2.4778882E2,9.835547E1,5.2302856E1,7.298767E1,9.49987E0,1.0353394E1,0E0,0E0,0E0,0E0,0E0,0E0,0E0,0E0,0E0,0E0,0E0,0E0,0E0,0E0,0E0,0E0],"parents":[2147483647,0,0,1,1,2,2,3,3,4,4,5,5,6,6,7,7,8,8,9,9,10,10,11,11,12,12,13,13,14,14],"right_children":[2,4,6,8,10,12,14,16,18,20,22,24,26,28,30,-1,-1,-1,-1,-1,-1,-1,-1,-1,-1,-1,-1,-1,-1,-1,-1],"split_conditions":[9.026271E-3,-1.1965278E1,2.0405063E-1,2.9393E2,8.298707E-3,-1.9657936E-2,2.5532264E-1,-4.581917E-1,9E-2,-2.1170522E-4,-2.4828495E-2,1.74E1,1.86E0,-7.483372E-3,2.2687949E-1,4.0396493E-2,1.3003924E-2,2.4356881E-2,5.240581E-2,1.9705953E-2,4.764809E-3,-5.5007446E-3,-2.9842619E-2,-1.402654E-2,-2.2490993E-3,-3.0901922E-2,-1.3510075E-2,-2.1863803E-2,-4.1625496E-2,-2.1294098E-2,-5.0952464E-2],"split_indices":[0,0,0,16,2,2,11,9,8,11,0,71,91,2,0,0,0,0,0,0,0,0,0,0,0,0,0,0,0,0,0],"split_type":[0,0,0,0,0,0,0,0,0,0,0,0,0,0,0,0,0,0,0,0,0,0,0,0,0,0,0,0,0,0,0],"sum_hessian":[8.679416E3,5.0584736E3,3.6209421E3,4.3734598E2,4.621128E3,3.066382E3,5.5456006E2,1.6433336E2,2.730126E2,4.0219612E3,5.991665E2,1.7578354E3,1.3085465E3,9.597121E1,4.5858887E2,1.2714378E2,3.718958E1,5.116094E0,2.678965E2,1.850454E3,2.1715073E3,2.85395E2,3.1377148E2,4.5859622E2,1.2992393E3,2.7547028E2,1.0330763E3,5.0950573E1,4.5020634E1,1.2865716E1,4.4572314E2],"tree_param":{"num_deleted":"0","num_feature":"96","num_nodes":"31","size_leaf_vector":"1"}},{"base_weights":[-4.0497202E-3,3.5366943E-1,-5.4708856E-1,1.4945785E0,2.4923791E-1,-3.6719838E-1,-1.5754716E0,1.6325926E0,1.0168195E0,3.7563765E-1,-5.92704E-1,-1.9410487E-1,-6.208383E-1,-9.944476E-1,-1.6553267E0,3.937756E-2,5.04171E-2,2.012245E-2,4.719206E-2,1.9577062E-2,4.718787E-3,-2.193508E-2,8.67574E-3,-1.3812494E-2,-2.9268586E-3,-1.3783759E-2,-2.98724E-2,-4.257685E-2,-1.8644672E-2,-2.3811812E-2,-5.060846E-2],"categories":[],"categories_nodes":[],"categories_segments":[],"categories_sizes":[],"default_left":[0,0,0,1,1,1,0,0,0,0,0,0,0,0,0,0,0,0,0,0,0,0,0,0,0,0,0,0,0,0,0],"id":3,"left_children":[1,3,5,7,9,11,13,15,17,19,21,23,25,27,29,-1,-1,-1,-1,-1,-1,-1,-1,-1,-1,-1,-1,-1,-1,-1,-1],"loss_changes":[1.6842103E3,6.223995E2,6.3639197E2,2.7228394E1,5.0996017E2,1.2859723E2,2.212439E1,2.987732E0,1.8358162E1,2.5175214E2,7.6606125E1,4.4795914E1,7.146619E1,9.322044E0,1.0891968E1,0E0,0E0,0E0,0E0,0E0,0E0,0E0,0E0,0E0,0E0,0E0,0E0,0E0,0E0,0E0,0E0],"parents":[2147483647,0,0,1,1,2,2,3,3,4,4,5,5,6,6,7,7,8,8,9,9,10,10,11,11,12,12,13,13,14,14],"right_children":[2,4,6,8,10,12,14,16,18,20,22,24,26,28,30,-1,-1,-1,-1,-1,-1,-1,-1,-1,-1,-1,-1,-1,-1,-1,-1],"split_conditions":[1.0672764E-2,-1.1965278E1,2.2687949E-1,-9.6892416E-1,8.298707E-3,-1.9657936E-2,1.7464823E-1,3E-1,6.608063E-2,-1.4854803E-3,1E0,1.77E1,8.10135E-2,2.81E2,1E-1,3.937756E-2,5.04171E-2,2.012245E-2,4.719206E-2,1.9577062E-2,4.718787E-3,-2.193508E-2,8.67574E-3,-1.3812494E-2,-2.9268586E-3,-1.3783759E-2,-2.98724E-2,-4.257685E-2,-1.8644672E-2,-2.3811812E-2,-5.060846E-2],"split_indices":[0,0,0,9,2,2,11,15,4,11,5,71,0,42,19,0,0,0,0,0,0,0,0,0,0,0,0,0,0,0,0],"split_type":[0,0,0,0,0,0,0,0,0,0,0,0,0,0,0,0,0,0,0,0,0,0,0,0,0,0,0,0,0,0,0],"sum_hessian":[8.668087E3,5.2259287E3,3.4421577E3,4.371186E2,4.7888105E3,2.9308374E3,5.113205E2,3.3727118E2,9.984742E1,4.164198E3,6.246122E2,1.7430671E3,1.1877701E3,6.340928E1,4.4791122E2,4.7670395E1,2.8960077E2,6.29123E1,3.693512E1,1.83493E3,2.329268E3,5.399986E2,8.461362E1,4.6276642E2,1.2803008E3,8.319025E2,3.5586755E2,2.8333523E1,3.5075756E1,1.6781021E1,4.311302E2],"tree_param":{"num_deleted":"0","num_feature":"96","num_nodes":"31","size_leaf_vector":"1"}},{"base_weights":[1.0579287E-3,2.0082185E-1,-8.4861046E-1,5.726379E-1,-8.214762E-2,-5.6007427E-1,-1.509936E0,1.4264804E0,4.4037047E-1,2.3767939E-1,-2.7443105E-1,-3.7821317E-1,-9.503475E-1,-9.4146585E-1,-1.5903437E0,3.264534E-2,4.9624432E-2,2.0684248E-2,7.529649E-3,2.2247462E-3,1.785309E-2,-1.919641E-2,-2.2947215E-3,-3.1167818E-2,-9.302956E-3,-3.1180365E-2,-9.791388E-3,-4.3750633E-2,-1.608138E-2,-2.7281694E-2,-4.843484E-2],"categories":[],"categories_nodes":[],"categories_segments":[],"categories_sizes":[],"default_left":[0,1,0,0,0,0,0,0,0,0,0,0,0,0,0,0,0,0,0,0,0,0,0,0,0,0,0,0,0,0,0],"id":4,"left_children":[1,3,5,7,9,11,13,15,17,19,21,23,25,27,29,-1,-1,-1,-1,-1,-1,-1,-1,-1,-1,-1,-1,-1,-1,-1,-1],"loss_changes":[1.4728035E3,7.39211E2,3.143329E2,3.4226764E2,2.4545384E2,8.137485E1,2.1410034E1,2.9532043E1,1.23918884E2,8.7552666E1,1.8024918E2,3.5105125E1,1.9951416E1,1.2745743E1,5.7285156E0,0E0,0E0,0E0,0E0,0E0,0E0,0E0,0E0,0E0,0E0,0E0,0E0,0E0,0E0,0E0,0E0],"parents":[2147483647,0,0,1,1,2,2,3,3,4,4,5,5,6,6,7,7,8,8,9,9,10,10,11,11,12,12,13,13,14,14],"right_children":[2,4,6,8,10,12,14,16,18,20,22,24,26,28,30,-1,-1,-1,-1,-1,-1,-1,-1,-1,-1,-1,-1,-1,-1,-1,-1],"split_conditions":[6.348382E-2,-7.728291E-2,2.2687949E-1,-1.1965278E1,-2.1170522E-4,-2.6377619E-3,1.6276567E-1,1.1716862E-4,-1.55815035E-2,9.9060065E-1,5.01E0,8E-2,1.82914E5,2.81E2,1E-1,3.264534E-2,4.9624432E-2,2.0684248E-2,7.529649E-3,2.2247462E-3,1.785309E-2,-1.919641E-2,-2.2947215E-3,-3.1167818E-2,-9.302956E-3,-3.1180365E-2,-9.791388E-3,-4.3750633E-2,-1.608138E-2,-2.7281694E-2,-4.843484E-2],"split_indices":[0,2,0,0,11,2,11,7,11,5,68,91,53,42,19,0,0,0,0,0,0,0,0,0,0,0,0,0,0,0,0],"split_type":[0,0,0,0,0,0,0,0,0,0,0,0,0,0,0,0,0,0,0,0,0,0,0,0,0,0,0,0,0,0,0],"sum_hessian":[8.675171E3,7.024433E3,1.6507374E3,3.0352083E3,3.989225E3,1.1505846E3,5.0015286E2,4.0580167E2,2.6294065E3,1.4977559E3,2.491469E3,7.8619794E2,3.6438666E2,6.355279E1,4.3660007E2,1.6556297E2,2.4023868E2,1.1344988E3,1.4949077E3,1.0284485E3,4.6930737E2,8.745639E2,1.6169052E3,7.2144226E1,7.140537E2,3.1831842E2,4.6068222E1,2.679432E1,3.6758472E1,1.627825E1,4.203218E2],"tree_param":{"num_deleted":"0","num_feature":"96","num_nodes":"31","size_leaf_vector":"1"}},{"base_weights":[4.2133187E-3,1.856496E-1,-9.005514E-1,5.7173437E-1,-6.5306395E-2,-5.81813E-1,-1.4788243E0,1.4196913E0,4.4853756E-1,2.363951E-1,-2.3801737E-1,-3.7162945E-1,-9.361763E-1,-1.0247389E0,-1.5523438E0,3.2923244E-2,4.8329934E-2,2.1307793E-2,7.7374075E-3,1.32337455E-2,-1.6387901E-3,-3.4730078E-3,-1.8441504E-2,-1.3353633E-2,7.443296E-3,-3.7189797E-2,-2.2442047E-2,-4.044391E-2,-1.6982079E-2,-2.529224E-2,-4.733772E-2],"categories":[],"categories_nodes":[],"categories_segments":[],"categories_sizes":[],"default_left":[0,1,0,0,0,0,0,0,0,0,0,0,0,1,0,0,0,0,0,0,0,0,0,0,0,0,0,0,0,0,0],"id":5,"left_children":[1,3,5,7,9,11,13,15,17,19,21,23,25,27,29,-1,-1,-1,-1,-1,-1,-1,-1,-1,-1,-1,-1,-1,-1,-1,-1],"loss_changes":[1.4235232E3,6.998943E2,2.6612415E2,2.9663135E2,2.2821172E2,6.932553E1,1.5570557E1,2.045758E1,1.2384903E2,9.502769E1,1.2818497E2,2.6929321E1,1.8917175E1,1.0298332E1,6.661377E0,0E0,0E0,0E0,0E0,0E0,0E0,0E0,0E0,0E0,0E0,0E0,0E0,0E0,0E0,0E0,0E0],"parents":[2147483647,0,0,1,1,2,2,3,3,4,4,5,5,6,6,7,7,8,8,9,9,10,10,11,11,12,12,13,13,14,14],"right_children":[2,4,6,8,10,12,14,16,18,20,22,24,26,28,30,-1,-1,-1,-1,-1,-1,-1,-1,-1,-1,-1,-1,-1,-1,-1,-1],"split_conditions":[7.5316794E-2,-8.569705E-2,2.2687949E-1,-1.7595745E1,-7.3400507E-4,-1.10377E-2,2.5532264E-1,5.98E1,-2.2475228E-2,8.3425855E-3,1.2098596E-2,5.45E2,1.01E2,9.63E2,1E-1,3.2923244E-2,4.8329934E-2,2.1307793E-2,7.7374075E-3,1.32337455E-2,-1.6387901E-3,-3.4730078E-3,-1.8441504E-2,-1.3353633E-2,7.443296E-3,-3.7189797E-2,-2.2442047E-2,-4.044391E-2,-1.6982079E-2,-2.529224E-2,-4.733772E-2],"split_indices":[0,2,0,0,11,2,11,69,11,0,2,44,91,42,19,0,0,0,0,0,0,0,0,0,0,0,0,0,0,0,0],"split_type":[0,0,0,0,0,0,0,0,0,0,0,0,0,0,0,0,0,0,0,0,0,0,0,0,0,0,0,0,0,0,0],"sum_hessian":[8.669691E3,7.22219E3,1.4475015E3,2.8446077E3,4.3775825E3,9.344486E2,5.130529E2,3.5952103E2,2.4850867E3,1.5935348E3,2.7840476E3,5.878349E2,3.4661374E2,7.357343E1,4.3947946E2,1.3643579E2,2.2308525E2,1.0460956E3,1.4389911E3,9.351519E2,6.583829E2,2.1029E3,6.811476E2,5.257685E2,6.2066406E1,1.3049306E2,2.1612067E2,4.201263E1,3.1560804E1,1.6480408E1,4.2299905E2],"tree_param":{"num_deleted":"0","num_feature":"96","num_nodes":"31","size_leaf_vector":"1"}},{"base_weights":[6.064263E-3,3.48E-1,-4.7454762E-1,1.3850479E0,2.532407E-1,-3.0333433E-1,-1.3675293E0,1.0551535E0,1.6060951E0,3.657719E-1,-5.545024E-1,-1.3490891E-1,-5.262694E-1,-1.0017955E0,-1.5671111E0,4.448243E-2,2.4699638E-2,3.3166043E-2,4.863773E-2,1.7683074E-2,5.4114102E-3,-3.512653E-3,-2.9035902E-2,1.258614E-3,-8.840886E-3,-1.2369683E-2,-2.6116595E-2,-4.000134E-2,-1.746702E-2,-3.0876925E-2,-4.775855E-2],"categories":[],"categories_nodes":[],"categories_segments":[],"categories_sizes":[],"default_left":[0,0,0,0,1,1,0,0,0,0,0,0,0,0,0,0,0,0,0,0,0,0,0,0,0,0,0,0,0,0,0],"id":6,"left_children":[1,3,5,7,9,11,13,15,17,19,21,23,25,27,29,-1,-1,-1,-1,-1,-1,-1,-1,-1,-1,-1,-1,-1,-1,-1,-1],"loss_changes":[1.4172058E3,4.948111E2,5.476829E2,2.9052551E1,4.1997556E2,1.12927E2,4.0509155E1,1.58381195E1,1.09313965E-1,1.6799622E2,1.0206325E2,4.8497143E1,5.043573E1,2.792305E1,3.3208618E0,0E0,0E0,0E0,0E0,0E0,0E0,0E0,0E0,0E0,0E0,0E0,0E0,0E0,0E0,0E0,0E0],"parents":[2147483647,0,0,1,1,2,2,3,3,4,4,5,5,6,6,7,7,8,8,9,9,10,10,11,11,12,12,13,13,14,14],"right_children":[2,4,6,8,10,12,14,16,18,20,22,24,26,28,30,-1,-1,-1,-1,-1,-1,-1,-1,-1,-1,-1,-1,-1,-1,-1,-1],"split_conditions":[9.026271E-3,-1.1965278E1,1.8591926E-1,1.1716862E-4,1.0677682E-2,-2.0566374E-2,9.102423E-1,-9.6892416E-1,-5.52E2,-7.3400507E-4,-2.4828495E-2,-3.5E1,8.10135E-2,2.3714797E-1,1E-1,4.448243E-2,2.4699638E-2,3.3166043E-2,4.863773E-2,1.7683074E-2,5.4114102E-3,-3.512653E-3,-2.9035902E-2,1.258614E-3,-8.840886E-3,-1.2369683E-2,-2.6116595E-2,-4.000134E-2,-1.746702E-2,-3.0876925E-2,-4.775855E-2],"split_indices":[0,0,0,7,2,2,0,9,32,11,0,81,0,1,19,0,0,0,0,0,0,0,0,0,0,0,0,0,0,0,0],"split_type":[0,0,0,0,0,0,0,0,0,0,0,0,0,0,0,0,0,0,0,0,0,0,0,0,0,0,0,0,0,0,0],"sum_hessian":[8.621701E3,5.0377935E3,3.5839082E3,4.2064355E2,4.61715E3,3.0084343E3,5.7547394E2,1.710858E2,2.4955775E2,4.0530447E3,5.6410504E2,1.7146426E3,1.2937917E3,2.0529338E2,3.7018054E2,5.825106E1,1.1283474E2,9.510225E0,2.4004753E2,1.8359274E3,2.2171174E3,2.7470184E2,2.8940317E2,8.141867E2,9.0045593E2,9.7372003E2,3.2007166E2,1.1345278E2,9.18406E1,1.8214256E1,3.5196628E2],"tree_param":{"num_deleted":"0","num_feature":"96","num_nodes":"31","size_leaf_vector":"1"}},{"base_weights":[-6.3218945E-4,3.211682E-1,-4.5699236E-1,1.3364363E0,2.260051E-1,-3.0156818E-1,-1.4111174E0,9.9880797E-1,1.5419757E0,-3.130361E-2,5.13324E-1,-7.1313137E-1,-2.260791E-1,-8.976561E-1,-1.489734E0,2.078175E-2,4.2161584E-2,3.6233697E-2,4.702341E-2,3.4093652E-3,-2.6596127E-2,2.3152282E-2,8.826419E-3,-6.8031535E-3,-2.714765E-2,-2.2075523E-3,-1.173028E-2,-3.882626E-2,-1.6412264E-2,-3.622839E-2,-4.6592727E-2],"categories":[],"categories_nodes":[],"categories_segments":[],"categories_sizes":[],"default_left":[0,0,0,0,0,0,0,0,0,0,0,0,1,1,0,0,0,0,0,0,0,0,0,0,0,0,0,0,0,0,0],"id":7,"left_children":[1,3,5,7,9,11,13,15,17,19,21,23,25,27,29,-1,-1,-1,-1,-1,-1,-1,-1,-1,-1,-1,-1,-1,-1,-1,-1],"loss_changes":[1.2700936E3,4.8973553E2,5.29949E2,2.8609863E1,3.429422E2,9.542987E1,1.8875122E1,1.9839386E1,3.899536E-1,3.0356964E2,1.2386218E2,4.4234024E1,6.539801E1,8.884911E0,5.859009E0,0E0,0E0,0E0,0E0,0E0,0E0,0E0,0E0,0E0,0E0,0E0,0E0,0E0,0E0,0E0,0E0],"parents":[2147483647,0,0,1,1,2,2,3,3,4,4,5,5,6,6,7,7,8,8,9,9,10,10,11,11,12,12,13,13,14,14],"right_children":[2,4,6,8,10,12,14,16,18,20,22,24,26,28,30,-1,-1,-1,-1,-1,-1,-1,-1,-1,-1,-1,-1,-1,-1,-1,-1],"split_conditions":[9.026271E-3,-1.1965278E1,2.2687949E-1,-1.21E0,-1.08645045E-5,8E-2,2.1687576E-1,7.68621E2,5E-2,-1.14872E-2,-3.4660168E-3,3.1125767E-3,-3E0,2.81E2,9.102423E-1,2.078175E-2,4.2161584E-2,3.6233697E-2,4.702341E-2,3.4093652E-3,-2.6596127E-2,2.3152282E-2,8.826419E-3,-6.8031535E-3,-2.714765E-2,-2.2075523E-3,-1.173028E-2,-3.882626E-2,-1.6412264E-2,-3.622839E-2,-4.6592727E-2],"split_indices":[0,0,0,79,1,91,11,8,15,0,11,11,81,42,0,0,0,0,0,0,0,0,0,0,0,0,0,0,0,0,0],"split_type":[0,0,0,0,0,0,0,0,0,0,0,0,0,0,0,0,0,0,0,0,0,0,0,0,0,0,0,0,0,0,0],"sum_hessian":[8.646513E3,5.0710093E3,3.575504E3,4.3346375E2,4.6375454E3,3.0757837E3,4.9972015E2,1.6624374E2,2.6722E2,2.4470125E3,2.190533E3,4.754118E2,2.6003718E3,6.800218E1,4.31718E2,9.6385765E1,6.985798E1,2.235384E1,2.4486617E2,2.0931265E3,3.538859E2,1.00395044E3,1.1865826E3,1.3507039E2,3.4034143E2,1.3518766E3,1.2484952E3,3.0645962E1,3.7356216E1,8.285116E1,3.4886682E2],"tree_param":{"num_deleted":"0","num_feature":"96","num_nodes":"31","size_leaf_vector":"1"}},{"base_weights":[5.0009377E-3,3.0963683E-1,-4.593411E-1,1.3020124E0,2.2083703E-1,-3.0035895E-1,-1.3783417E0,9.69918E-1,1.5029117E0,5.269312E-1,-4.2815395E-3,-6.5213543E-1,-2.1424542E-1,-7.8107274E-1,-1.469235E0,4.17456E-2,2.119434E-2,1.8584646E-2,4.5525935E-2,7.667417E-3,2.2456786E-2,-5.9177713E-3,8.3273025E-3,-1.3910088E-2,-2.988494E-2,-4.4530723E-3,-2.0052964E-2,-3.5268333E-2,-1.12328995E-2,-2.70779E-2,-4.4651683E-2],"categories":[],"categories_nodes":[],"categories_segments":[],"categories_sizes":[],"default_left":[0,0,0,0,0,0,0,0,0,0,0,0,1,1,0,0,0,0,0,0,0,0,0,0,0,0,0,0,0,0,0],"id":8,"left_children":[1,3,5,7,9,11,13,15,17,19,21,23,25,27,29,-1,-1,-1,-1,-1,-1,-1,-1,-1,-1,-1,-1,-1,-1,-1,-1],"loss_changes":[1.2224412E3,4.5956683E2,4.9978253E2,2.7123474E1,3.3013428E2,8.831253E1,2.624768E1,1.7264267E1,2.4837036E0,1.2191052E2,1.5026562E2,3.6737427E1,7.005801E1,1.0595772E1,3.3979492E0,0E0,0E0,0E0,0E0,0E0,0E0,0E0,0E0,0E0,0E0,0E0,0E0,0E0,0E0,0E0,0E0],"parents":[2147483647,0,0,1,1,2,2,3,3,4,4,5,5,6,6,7,7,8,8,9,9,10,10,11,11,12,12,13,13,14,14],"right_children":[2,4,6,8,10,12,14,16,18,20,22,24,26,28,30,-1,-1,-1,-1,-1,-1,-1,-1,-1,-1,-1,-1,-1,-1,-1,-1],"split_conditions":[1.0672764E-2,-1.1965278E1,2.2687949E-1,2.9393E2,-7.3400507E-4,9E0,2.1687576E-1,-7.450083E1,9E-2,1.29E0,5.01E0,6.348382E-2,1.7E1,9.63E2,1E-1,4.17456E-2,2.119434E-2,1.8584646E-2,4.5525935E-2,7.667417E-3,2.2456786E-2,-5.9177713E-3,8.3273025E-3,-1.3910088E-2,-2.988494E-2,-4.4530723E-3,-2.0052964E-2,-3.5268333E-2,-1.12328995E-2,-2.70779E-2,-4.4651683E-2],"split_indices":[0,0,0,16,11,91,11,11,8,67,68,0,81,42,19,0,0,0,0,0,0,0,0,0,0,0,0,0,0,0,0],"split_type":[0,0,0,0,0,0,0,0,0,0,0,0,0,0,0,0,0,0,0,0,0,0,0,0,0,0,0,0,0,0,0],"sum_hessian":[8.639887E3,5.217338E3,3.4225493E3,4.2739163E2,4.7899463E3,2.918919E3,5.036305E2,1.6329167E2,2.6409995E2,2.0293263E3,2.7606199E3,5.7272906E2,2.34619E3,6.778723E1,4.3584326E2,6.1148758E1,1.0214292E2,5.005472E0,2.5909448E2,9.132913E2,1.1160349E3,1.6388575E3,1.1217623E3,3.7154004E2,2.0118904E2,2.0504197E3,2.957701E2,3.344589E1,3.434134E1,1.5824868E1,4.200184E2],"tree_param":{"num_deleted":"0","num_feature":"96","num_nodes":"31","size_leaf_vector":"1"}},{"base_weights":[-3.6745754E-3,3.8407883E-1,-2.7634993E-1,1.257452E0,2.696768E-1,-1.3672717E-1,-1.1642085E0,9.1112626E-1,1.4447521E0,5.052967E-1,8.748567E-2,1.1256951E-1,-3.6328784E-1,-1.4595548E0,-9.61764E-1,3.242692E-2,1.0266054E-2,2.3608005E-2,4.390003E-2,1.8659165E-2,5.720517E-3,8.229685E-3,-3.066017E-3,1.3032885E-2,-7.7954587E-4,-7.584257E-3,-2.2487866E-2,-2.9294984E-2,-4.488654E-2,-1.7142944E-2,-4.094675E-2],"categories":[],"categories_nodes":[],"categories_segments":[],"categories_sizes":[],"default_left":[0,0,1,0,0,0,0,1,0,1,1,0,1,0,1,0,0,0,0,0,0,0,0,0,0,0,0,0,0,0,0],"id":9,"left_children":[1,3,5,7,9,11,13,15,17,19,21,23,25,27,29,-1,-1,-1,-1,-1,-1,-1,-1,-1,-1,-1,-1,-1,-1,-1,-1],"loss_changes":[9.112941E2,3.552193E2,6.271565E2,2.5400696E1,1.3508029E2,2.4708209E2,3.9703857E1,1.385482E1,2.0950928E0,5.025836E1,6.2981804E1,9.2912766E1,9.761685E1,3.456665E0,6.3868317E1,0E0,0E0,0E0,0E0,0E0,0E0,0E0,0E0,0E0,0E0,0E0,0E0,0E0,0E0,0E0,0E0],"parents":[2147483647,0,0,1,1,2,2,3,3,4,4,5,5,6,6,7,7,8,8,9,9,10,10,11,11,12,12,13,13,14,14],"right_children":[2,4,6,8,10,12,14,16,18,20,22,24,26,28,30,-1,-1,-1,-1,-1,-1,-1,-1,-1,-1,-1,-1,-1,-1,-1,-1],"split_conditions":[-1.22E2,-5.5186768E0,1.20553866E-1,2.9393E2,-1E0,3.5131236E-3,-3.9844406E-1,-4.581917E-1,-1.211E3,-5.9879545E-2,-9.747094E-2,5.73E2,1.2098596E-2,-3.7E-1,4.2079855E-2,3.242692E-2,1.0266054E-2,2.3608005E-2,4.390003E-2,1.8659165E-2,5.720517E-3,8.229685E-3,-3.066017E-3,1.3032885E-2,-7.7954587E-4,-7.584257E-3,-2.2487866E-2,-2.9294984E-2,-4.488654E-2,-1.7142944E-2,-4.094675E-2],"split_indices":[65,2,11,16,81,11,9,9,47,2,2,65,2,65,2,0,0,0,0,0,0,0,0,0,0,0,0,0,0,0,0],"split_type":[0,0,0,0,0,0,0,0,0,0,0,0,0,0,0,0,0,0,0,0,0,0,0,0,0,0,0,0,0,0,0],"sum_hessian":[8.617E3,3.557586E3,5.059414E3,4.1087488E2,3.146711E3,4.3728955E3,6.8651825E2,1.4627354E2,2.6460132E2,1.371385E3,1.775326E3,2.082221E3,2.2906748E3,2.7667203E2,4.0984622E2,1.1196308E2,3.4310463E1,8.460101E0,2.5614124E2,9.9967444E2,3.717106E2,8.94155E2,8.81171E2,6.2596857E2,1.4562524E3,1.7825436E3,5.081312E2,2.1467115E1,2.5520491E2,2.0945592E2,2.003903E2],"tree_param":{"num_deleted":"0","num_feature":"96","num_nodes":"31","size_leaf_vector":"1"}},{"base_weights":[6.0022884E-4,1.987222E-1,-6.5010506E-1,4.8137403E-1,-6.785455E-2,-4.261002E-1,-1.282261E0,1.2331033E0,3.7969485E-1,-4.342911E-1,1.1398421E-1,-5.8160955E-1,-1.4261913E-1,-9.4436616E-1,-1.4377217E0,2.6830502E-2,4.3161634E-2,1.6285423E-2,6.372243E-3,-4.9320497E-3,-3.3259142E-2,1.2484771E-2,-4.251976E-3,-1.3301941E-2,-2.4162289E-2,9.721788E-4,-1.2827658E-2,-1.594669E-2,-3.8419846E-2,-4.3921135E-2,-1.594463E-2],"categories":[],"categories_nodes":[],"categories_segments":[],"categories_sizes":[],"default_left":[0,1,0,0,0,1,0,0,0,0,0,0,0,1,0,0,0,0,0,0,0,0,0,0,0,0,0,0,0,0,0],"id":10,"left_children":[1,3,5,7,9,11,13,15,17,19,21,23,25,27,29,-1,-1,-1,-1,-1,-1,-1,-1,-1,-1,-1,-1,-1,-1,-1,-1],"loss_changes":[1.1094011E3,4.9709464E2,2.83878E2,2.4427795E2,2.2632239E2,6.536151E1,2.6221191E1,2.5255371E1,7.6905E1,2.0483217E2,1.7549402E2,2.9285614E1,2.6309578E1,2.2690948E1,7.751831E0,0E0,0E0,0E0,0E0,0E0,0E0,0E0,0E0,0E0,0E0,0E0,0E0,0E0,0E0,0E0,0E0],"parents":[2147483647,0,0,1,1,2,2,3,3,4,4,5,5,6,6,7,7,8,8,9,9,10,10,11,11,12,12,13,13,14,14],"right_children":[2,4,6,8,10,12,14,16,18,20,22,24,26,28,30,-1,-1,-1,-1,-1,-1,-1,-1,-1,-1,-1,-1,-1,-1,-1,-1],"split_conditions":[4.9473416E-2,-6.379876E-2,2.0405063E-1,-1.1965278E1,1.69E0,5.5E1,9.102423E-1,2.9393E2,-5E-1,-1.14872E-2,8.3425855E-3,9.198831E-2,-2.8290765E-2,8.317911E-2,1.8262626E3,2.6830502E-2,4.3161634E-2,1.6285423E-2,6.372243E-3,-4.9320497E-3,-3.3259142E-2,1.2484771E-2,-4.251976E-3,-1.3301941E-2,-2.4162289E-2,9.721788E-4,-1.2827658E-2,-1.594669E-2,-3.8419846E-2,-4.3921135E-2,-1.594463E-2],"split_indices":[0,2,0,0,68,70,0,16,81,0,0,0,2,2,1,0,0,0,0,0,0,0,0,0,0,0,0,0,0,0,0],"split_type":[0,0,0,0,0,0,0,0,0,0,0,0,0,0,0,0,0,0,0,0,0,0,0,0,0,0,0,0,0,0,0],"sum_hessian":[8.603409E3,6.595848E3,2.0075608E3,3.2010078E3,3.3948403E3,1.4835411E3,5.2401965E2,3.8005768E2,2.8209502E3,1.1254585E3,2.2693818E3,9.5732776E2,5.262134E2,1.673525E2,3.5666718E2,1.4557463E2,2.3448303E2,1.4269849E3,1.3939652E3,8.0465894E2,3.2079956E2,1.0399127E3,1.2294691E3,5.9367505E2,3.636527E2,3.2654147E2,1.9967188E2,7.6287994E1,9.106451E1,3.4600403E2,1.0663132E1],"tree_param":{"num_deleted":"0","num_feature":"96","num_nodes":"31","size_leaf_vector":"1"}},{"base_weights":[1.396394E-3,1.9807547E-1,-6.428137E-1,1.1987181E0,1.2426324E-1,-4.4114435E-1,-1.3315668E0,8.4431446E-1,1.4330177E0,2.636779E-1,-3.0605027E-1,-2.5118464E-1,-6.588762E-1,-7.746367E-1,-1.3961587E0,4.0826898E-2,1.8629305E-2,4.377708E-2,3.0821875E-2,1.3612539E-2,3.5826412E-3,-1.9602863E-2,-1.6460766E-3,-2.7855126E-2,-6.2531484E-3,-2.8003767E-2,-1.4310567E-2,-1.00660445E-2,-3.783104E-2,-3.5480935E-2,-4.2967003E-2],"categories":[],"categories_nodes":[],"categories_segments":[],"categories_sizes":[],"default_left":[0,0,0,0,1,1,0,0,0,0,0,0,0,1,0,0,0,0,0,0,0,0,0,0,0,0,0,0,0,0,0],"id":11,"left_children":[1,3,5,7,9,11,13,15,17,19,21,23,25,27,29,-1,-1,-1,-1,-1,-1,-1,-1,-1,-1,-1,-1,-1,-1,-1,-1],"loss_changes":[1.0830546E3,4.835335E2,2.7712012E2,3.613678E1,3.6602643E2,6.386026E1,1.5190063E1,2.0087555E1,1.3649292E0,1.262879E2,1.3024736E2,2.3789398E1,3.554077E1,1.009659E1,1.4176636E0,0E0,0E0,0E0,0E0,0E0,0E0,0E0,0E0,0E0,0E0,0E0,0E0,0E0,0E0,0E0,0E0],"parents":[2147483647,0,0,1,1,2,2,3,3,4,4,5,5,6,6,7,7,8,8,9,9,10,10,11,11,12,12,13,13,14,14],"right_children":[2,4,6,8,10,12,14,16,18,20,22,24,26,28,30,-1,-1,-1,-1,-1,-1,-1,-1,-1,-1,-1,-1,-1,-1,-1,-1],"split_conditions":[4.9473416E-2,-8.324111E0,2.6675513E-1,-8E0,-4.057392E-3,-2.7380016E-2,2.5532264E-1,-9.6892416E-1,3.8875E4,-2.7323232E-3,-3E-2,-2.5E-1,1.96E2,-4.622E3,9.102423E-1,4.0826898E-2,1.8629305E-2,4.377708E-2,3.0821875E-2,1.3612539E-2,3.5826412E-3,-1.9602863E-2,-1.6460766E-3,-2.7855126E-2,-6.2531484E-3,-2.8003767E-2,-1.4310567E-2,-1.00660445E-2,-3.783104E-2,-3.5480935E-2,-4.2967003E-2],"split_indices":[0,0,0,79,2,2,11,9,31,11,68,91,91,46,0,0,0,0,0,0,0,0,0,0,0,0,0,0,0,0,0],"split_type":[0,0,0,0,0,0,0,0,0,0,0,0,0,0,0,0,0,0,0,0,0,0,0,0,0,0,0,0,0,0,0],"sum_hessian":[8.545998E3,6.5476694E3,1.9983287E3,4.487608E2,6.0989087E3,1.5470017E3,4.5132706E2,1.8043578E2,2.68325E2,4.606775E3,1.4921337E3,8.273423E2,7.196594E2,4.8254593E1,4.0307245E2,5.2925373E1,1.275104E2,2.4959445E2,1.8730572E1,1.9868033E3,2.6199714E3,6.254907E2,8.6664294E2,4.7884636E1,7.7945764E2,2.850839E2,4.345755E2,2.6248379E1,2.2006216E1,6.3155434E1,3.3991702E2],"tree_param":{"num_deleted":"0","num_feature":"96","num_nodes":"31","size_leaf_vector":"1"}},{"base_weights":[-7.51413E-4,1.6357799E-1,-7.3805857E-1,4.8413804E-1,-7.491607E-2,-4.907979E-1,-1.2885144E0,1.2780905E0,3.897413E-1,-3.8355896E-1,5.990851E-2,-3.1849384E-1,-8.03269E-1,-7.414165E-1,-1.371935E0,3.1929944E-2,4.3225035E-2,1.8281328E-2,7.01372E-3,-3.5259821E-3,-3.0780304E-2,1.2185227E-2,-5.23011E-3,-1.312245E-2,-2.3309889E-3,-5.402574E-4,-2.6701372E-2,-3.891639E-3,-2.774445E-2,-3.3890884E-2,-4.2719603E-2],"categories":[],"categories_nodes":[],"categories_segments":[],"categories_sizes":[],"default_left":[0,1,0,0,0,1,0,1,0,0,0,1,0,0,0,0,0,0,0,0,0,0,0,0,0,0,0,0,0,0,0],"id":12,"left_children":[1,3,5,7,9,11,13,15,17,19,21,23,25,27,29,-1,-1,-1,-1,-1,-1,-1,-1,-1,-1,-1,-1,-1,-1,-1,-1],"loss_changes":[1.0413997E3,5.37387E2,2.1258112E2,2.2423419E2,1.6776622E2,5.8030273E1,2.1115417E1,9.535706E0,9.17012E1,2.0935794E2,2.277005E2,1.9995255E1,2.6159164E1,7.3219337E0,3.682129E0,0E0,0E0,0E0,0E0,0E0,0E0,0E0,0E0,0E0,0E0,0E0,0E0,0E0,0E0,0E0,0E0],"parents":[2147483647,0,0,1,1,2,2,3,3,4,4,5,5,6,6,7,7,8,8,9,9,10,10,11,11,12,12,13,13,14,14],"right_children":[2,4,6,8,10,12,14,16,18,20,22,24,26,28,30,-1,-1,-1,-1,-1,-1,-1,-1,-1,-1,-1,-1,-1,-1,-1,-1],"split_conditions":[6.6561975E-2,-7.728291E-2,2.2687949E-1,-2.6964922E1,5.01E0,-9.597833E-3,2.1687576E-1,3.6E1,-2.2475228E-2,-1.3210118E-2,8.3425855E-3,7.5E1,-3.6918E4,1.615E3,9.102423E-1,3.1929944E-2,4.3225035E-2,1.8281328E-2,7.01372E-3,-3.5259821E-3,-3.0780304E-2,1.2185227E-2,-5.23011E-3,-1.312245E-2,-2.3309889E-3,-5.402574E-4,-2.6701372E-2,-3.891639E-3,-2.774445E-2,-3.3890884E-2,-4.2719603E-2],"split_indices":[0,2,0,0,68,2,11,78,11,0,0,70,52,62,0,0,0,0,0,0,0,0,0,0,0,0,0,0,0,0,0],"split_type":[0,0,0,0,0,0,0,0,0,0,0,0,0,0,0,0,0,0,0,0,0,0,0,0,0,0,0,0,0,0,0],"sum_hessian":[8.593158E3,7.0276333E3,1.5655253E3,2.9975686E3,4.0300645E3,1.0815795E3,4.8394583E2,3.1719177E2,2.680377E3,1.224674E3,2.8053904E3,6.9845435E2,3.8312515E2,6.533657E1,4.1860925E2,1.403658E2,1.7682597E2,1.1117346E3,1.5686423E3,8.6689355E2,3.5778036E2,1.1317235E3,1.673667E3,4.6700018E2,2.3145416E2,3.824507E1,3.4488007E2,1.5464529E1,4.9872044E1,7.8055756E1,3.405535E2],"tree_param":{"num_deleted":"0","num_feature":"96","num_nodes":"31","size_leaf_vector":"1"}},{"base_weights":[-3.3780825E-3,1.9510211E-1,-5.982519E-1,1.1751835E0,1.2855165E-1,-4.0186435E-1,-1.2677402E0,8.8931376E-1,1.3723433E0,3.86461E-1,-5.029316E-2,-8.9412194E-1,-3.1242055E-1,-9.064061E-1,-1.37429E0,4.0039264E-2,2.0136606E-2,2.4161348E-2,4.1829966E-2,1.46110505E-2,4.6375964E-4,7.824126E-3,-5.0075175E-3,-8.99192E-3,-2.9444475E-2,-1.39575945E-2,-2.4596662E-3,-3.5397034E-2,-1.2981998E-2,-2.615383E-2,-4.174896E-2],"categories":[],"categories_nodes":[],"categories_segments":[],"categories_sizes":[],"default_left":[0,0,0,0,0,0,0,0,0,0,0,0,1,1,0,0,0,0,0,0,0,0,0,0,0,0,0,0,0,0,0],"id":13,"left_children":[1,3,5,7,9,11,13,15,17,19,21,23,25,27,29,-1,-1,-1,-1,-1,-1,-1,-1,-1,-1,-1,-1,-1,-1,-1,-1],"loss_changes":[1.008665E3,4.1765704E2,2.8049408E2,2.1729248E1,2.7674957E2,7.254379E1,1.7399231E1,1.5522125E1,1.8583679E0,9.1664215E1,1.286125E2,1.2883728E1,4.9308105E1,1.4156883E1,2.0289307E0,0E0,0E0,0E0,0E0,0E0,0E0,0E0,0E0,0E0,0E0,0E0,0E0,0E0,0E0,0E0,0E0],"parents":[2147483647,0,0,1,1,2,2,3,3,4,4,5,5,6,6,7,7,8,8,9,9,10,10,11,11,12,12,13,13,14,14],"right_children":[2,4,6,8,10,12,14,16,18,20,22,24,26,28,30,-1,-1,-1,-1,-1,-1,-1,-1,-1,-1,-1,-1,-1,-1,-1,-1],"split_conditions":[4.4498783E-2,-1.1965278E1,2.2687949E-1,1.1716862E-4,-7.3400507E-4,8E-2,1.27575E0,-9.6892416E-1,-2.1443747E-2,8.3425855E-3,-5.201E3,-2.3619376E-2,5.148E1,9.557E2,3.264133E-1,4.0039264E-2,2.0136606E-2,2.4161348E-2,4.1829966E-2,1.46110505E-2,4.6375964E-4,7.824126E-3,-5.0075175E-3,-8.99192E-3,-2.9444475E-2,-1.39575945E-2,-2.4596662E-3,-3.5397034E-2,-1.2981998E-2,-2.615383E-2,-4.174896E-2],"split_indices":[0,0,0,7,11,91,11,9,12,0,65,11,70,40,0,0,0,0,0,0,0,0,0,0,0,0,0,0,0,0,0],"split_type":[0,0,0,0,0,0,0,0,0,0,0,0,0,0,0,0,0,0,0,0,0,0,0,0,0,0,0,0,0,0,0],"sum_hessian":[8.540904E3,6.4046562E3,2.1362476E3,4.0618314E2,5.998473E3,1.6529668E3,4.8328064E2,1.6804239E2,2.3814076E2,2.455817E3,3.5426565E3,2.527808E2,1.400186E3,1.1222107E2,3.7105957E2,5.3559284E1,1.144831E2,1.0295898E1,2.2784486E2,1.9318137E3,5.240031E2,9.656165E2,2.57704E3,3.2959465E1,2.1982135E2,8.412273E2,5.5895874E2,7.0198204E1,4.2022865E1,1.4089037E1,3.5697055E2],"tree_param":{"num_deleted":"0","num_feature":"96","num_nodes":"31","size_leaf_vector":"1"}},{"base_weights":[1.0075819E-2,1.5305686E-1,-7.29574E-1,5.5750245E-1,-1.3092385E-2,-4.813503E-1,-1.2611188E0,1.1427833E0,4.288116E-1,1.9553038E-1,-1.9475898E-1,-3.1987938E-1,-8.094301E-1,-8.284075E-1,-1.3254209E0,2.533831E-2,3.9973065E-2,1.8729687E-2,7.7616796E-3,1.0158254E-2,-6.456196E-5,-1.5365934E-3,-1.3625623E-2,-1.54618975E-2,-4.69202E-3,-1.1539961E-2,-2.8891638E-2,-3.436718E-2,-1.227053E-2,-2.0220404E-2,-4.0514294E-2],"categories":[],"categories_nodes":[],"categories_segments":[],"categories_sizes":[],"default_left":[0,0,0,0,0,0,0,0,0,0,1,0,0,0,0,0,0,0,0,0,0,0,0,0,0,0,0,0,0,0,0],"id":14,"left_children":[1,3,5,7,9,11,13,15,17,19,21,23,25,27,29,-1,-1,-1,-1,-1,-1,-1,-1,-1,-1,-1,-1,-1,-1,-1,-1],"loss_changes":[9.072343E2,4.8308487E2,1.8275018E2,1.5717865E2,1.9319519E2,5.0010513E1,1.11936035E1,2.0177368E1,5.6956085E1,6.7111916E1,1.0144187E2,2.0298523E1,2.001065E1,7.4884987E0,5.3398438E0,0E0,0E0,0E0,0E0,0E0,0E0,0E0,0E0,0E0,0E0,0E0,0E0,0E0,0E0,0E0,0E0],"parents":[2147483647,0,0,1,1,2,2,3,3,4,4,5,5,6,6,7,7,8,8,9,9,10,10,11,11,12,12,13,13,14,14],"right_children":[2,4,6,8,10,12,14,16,18,20,22,24,26,28,30,-1,-1,-1,-1,-1,-1,-1,-1,-1,-1,-1,-1,-1,-1,-1,-1],"split_conditions":[7.5316794E-2,-1.2874678E-1,2.6675513E-1,-1.1965278E1,3.5131236E-3,-2.6377619E-3,3.741413E-1,2.9393E2,-1E0,8.3425855E-3,-4.057392E-3,4.6E1,-1.839E3,9.63E2,1E-1,2.533831E-2,3.9973065E-2,1.8729687E-2,7.7616796E-3,1.0158254E-2,-6.456196E-5,-1.5365934E-3,-1.3625623E-2,-1.54618975E-2,-4.69202E-3,-1.1539961E-2,-2.8891638E-2,-3.436718E-2,-1.227053E-2,-2.0220404E-2,-4.0514294E-2],"split_indices":[0,2,0,0,11,2,11,16,81,0,2,84,52,42,19,0,0,0,0,0,0,0,0,0,0,0,0,0,0,0,0],"split_type":[0,0,0,0,0,0,0,0,0,0,0,0,0,0,0,0,0,0,0,0,0,0,0,0,0,0,0,0,0,0,0],"sum_hessian":[8.576513E3,7.1878325E3,1.3886803E3,2.0923105E3,5.095522E3,9.479206E2,4.4075967E2,3.7571115E2,1.7165994E3,2.371759E3,2.7237632E3,6.3658685E2,3.1133374E2,5.8820354E1,3.8193933E2,1.481857E2,2.2752544E2,7.973745E2,9.1922485E2,1.3754944E3,9.9626465E2,1.7543152E3,9.694479E2,2.889071E2,3.4767975E2,8.362324E1,2.2771051E2,3.2506023E1,2.631433E1,1.5180142E1,3.667592E2],"tree_param":{"num_deleted":"0","num_feature":"96","num_nodes":"31","size_leaf_vector":"1"}},{"base_weights":[3.832964E-3,1.8159802E-1,-5.8800596E-1,9.998633E-1,1.0839672E-1,-3.9868003E-1,-1.1925533E0,6.667566E-1,1.3279278E0,2.3673038E-1,-2.842998E-1,-7.512817E-1,-2.8622374E-1,-7.1160173E-1,-1.2970867E0,3.4107026E-2,1.3104614E-2,3.333477E-2,4.2018E-2,1.3963442E-2,3.95501E-3,-1.5544789E-2,1.942811E-3,-8.005663E-3,-2.6570043E-2,-4.717017E-3,-1.4003271E-2,-3.408728E-2,-1.0152072E-2,-2.0369314E-2,-3.9578475E-2],"categories":[],"categories_nodes":[],"categories_segments":[],"categories_sizes":[],"default_left":[0,0,0,0,1,0,0,0,0,0,0,1,1,0,0,0,0,0,0,0,0,0,0,0,0,0,0,0,0,0,0],"id":15,"left_children":[1,3,5,7,9,11,13,15,17,19,21,23,25,27,29,-1,-1,-1,-1,-1,-1,-1,-1,-1,-1,-1,-1,-1,-1,-1,-1],"loss_changes":[8.993426E2,3.936441E2,2.2551752E2,5.808972E1,3.0421027E2,5.946588E1,2.2725708E1,2.8667915E1,2.710907E0,1.0907962E2,1.2141335E2,2.3416992E1,2.6541016E1,1.3275806E1,4.388794E0,0E0,0E0,0E0,0E0,0E0,0E0,0E0,0E0,0E0,0E0,0E0,0E0,0E0,0E0,0E0,0E0],"parents":[2147483647,0,0,1,1,2,2,3,3,4,4,5,5,6,6,7,7,8,8,9,9,10,10,11,11,12,12,13,13,14,14],"right_children":[2,4,6,8,10,12,14,16,18,20,22,24,26,28,30,-1,-1,-1,-1,-1,-1,-1,-1,-1,-1,-1,-1,-1,-1,-1,-1],"split_conditions":[4.9473416E-2,-3.9696453E0,2.2687949E-1,1.1716862E-4,-4.057392E-3,4.8E1,3.741413E-1,-8.377698E1,1.26E0,-2.5855072E-2,4.00339E5,-5.819321E-2,-2.7380016E-2,1.89E1,1E-1,3.4107026E-2,1.3104614E-2,3.333477E-2,4.2018E-2,1.3963442E-2,3.95501E-3,-1.5544789E-2,1.942811E-3,-8.005663E-3,-2.6570043E-2,-4.717017E-3,-1.4003271E-2,-3.408728E-2,-1.0152072E-2,-2.0369314E-2,-3.9578475E-2],"split_indices":[0,0,0,7,2,91,11,0,70,11,61,2,2,39,19,0,0,0,0,0,0,0,0,0,0,0,0,0,0,0,0],"split_type":[0,0,0,0,0,0,0,0,0,0,0,0,0,0,0,0,0,0,0,0,0,0,0,0,0,0,0,0,0,0,0],"sum_hessian":[8.546195E3,6.572707E3,1.9734885E3,5.386674E2,6.0340396E3,1.504107E3,4.6938144E2,2.6878433E2,2.698831E2,4.5481094E3,1.48593E3,3.6233652E2,1.1417705E3,8.5198074E1,3.8418335E2,8.6984665E1,1.8179967E2,7.185173E1,1.9803137E2,1.4289585E3,3.119151E3,8.895044E2,5.9642566E2,7.933634E1,2.8300018E2,6.6707214E2,4.7469843E2,3.8896027E1,4.6302048E1,1.4412599E1,3.6977075E2],"tree_param":{"num_deleted":"0","num_feature":"96","num_nodes":"31","size_leaf_vector":"1"}},{"base_weights":[5.6727226E-3,1.708515E-1,-6.0059685E-1,1.0692891E0,1.0964593E-1,-3.9909932E-1,-1.2094733E0,7.8377366E-1,1.2997792E0,3.4426653E-1,-5.1149946E-2,-8.4022766E-1,-3.2153732E-1,-6.9786394E-1,-1.2591115E0,3.7634425E-2,1.6655643E-2,2.437254E-2,3.989536E-2,1.35130575E-2,6.7804597E-4,7.412927E-3,-4.78681E-3,-2.7508156E-2,2.3921595E-3,-1.7075064E-2,-6.5147397E-3,-2.9185412E-2,-1.5801141E-3,-2.0443287E-2,-3.835791E-2],"categories":[],"categories_nodes":[],"categories_segments":[],"categories_sizes":[],"default_left":[0,0,0,0,0,0,0,0,0,0,0,1,1,0,0,0,0,0,0,0,0,0,0,0,0,0,0,0,0,0,0],"id":16,"left_children":[1,3,5,7,9,11,13,15,17,19,21,23,25,27,29,-1,-1,-1,-1,-1,-1,-1,-1,-1,-1,-1,-1,-1,-1,-1,-1],"loss_changes":[8.5397876E2,3.6840436E2,2.2353052E2,2.7102264E1,2.3676239E2,4.6719788E1,1.0638428E1,2.0112007E1,2.361969E0,8.714276E1,1.2045984E2,1.4522446E1,3.010859E1,7.462944E0,3.7680054E0,0E0,0E0,0E0,0E0,0E0,0E0,0E0,0E0,0E0,0E0,0E0,0E0,0E0,0E0,0E0,0E0],"parents":[2147483647,0,0,1,1,2,2,3,3,4,4,5,5,6,6,7,7,8,8,9,9,10,10,11,11,12,12,13,13,14,14],"right_children":[2,4,6,8,10,12,14,16,18,20,22,24,26,28,30,-1,-1,-1,-1,-1,-1,-1,-1,-1,-1,-1,-1,-1,-1,-1,-1],"split_conditions":[5.420504E-2,-8.324111E0,2.2687949E-1,2.59E2,-7.3400507E-4,8E-2,5.1229138E-2,-9.6892416E-1,2E-2,8.3425855E-3,-5.201E3,3.64889E5,1.946E1,4.5584E4,1E-1,3.7634425E-2,1.6655643E-2,2.437254E-2,3.989536E-2,1.35130575E-2,6.7804597E-4,7.412927E-3,-4.78681E-3,-2.7508156E-2,2.3921595E-3,-1.7075064E-2,-6.5147397E-3,-2.9185412E-2,-1.5801141E-3,-2.0443287E-2,-3.835791E-2],"split_indices":[0,0,0,26,11,91,11,9,29,0,65,61,71,72,19,0,0,0,0,0,0,0,0,0,0,0,0,0,0,0,0],"split_type":[0,0,0,0,0,0,0,0,0,0,0,0,0,0,0,0,0,0,0,0,0,0,0,0,0,0,0,0,0,0,0],"sum_hessian":[8.525579E3,6.7006875E3,1.824891E3,4.2631607E2,6.2743716E3,1.3723801E3,4.5251096E2,1.9239313E2,2.3392294E2,2.5510056E3,3.723366E3,2.037476E2,1.1686324E3,4.1353146E1,4.111578E2,6.142262E1,1.309705E2,1.5220772E1,2.1870218E2,1.9176619E3,6.333437E2,9.922661E2,2.7310999E3,1.8806888E2,1.567872E1,3.4520602E2,8.2342645E2,2.8639202E1,1.2713944E1,1.45901575E1,3.9656766E2],"tree_param":{"num_deleted":"0","num_feature":"96","num_nodes":"31","size_leaf_vector":"1"}},{"base_weights":[-6.008596E-3,1.3061006E-1,-7.1585876E-1,4.353183E-1,-6.516262E-2,-5.2762187E-1,-1.2961938E0,1.0906669E0,3.5004944E-1,-3.8506716E-1,5.615267E-2,-3.3430767E-1,-8.284125E-1,-1.3211985E0,-4.6223235E-1,3.6404118E-2,1.8878756E-2,1.6392525E-2,6.321015E-3,3.8338784E-2,-1.2662656E-2,7.7797705E-3,-3.5863402E-3,-1.2850837E-2,1.7428133E-3,1.6713996E-3,-2.6326625E-2,-2.2000603E-2,-4.0270682E-2,6.039428E-3,-3.1456806E-2],"categories":[],"categories_nodes":[],"categories_segments":[],"categories_sizes":[],"default_left":[0,1,0,0,0,1,0,1,0,0,0,0,0,0,0,0,0,0,0,0,0,0,0,0,0,0,0,0,0,0,0],"id":17,"left_children":[1,3,5,7,9,11,13,15,17,19,21,23,25,27,29,-1,-1,-1,-1,-1,-1,-1,-1,-1,-1,-1,-1,-1,-1,-1,-1],"loss_changes":[8.222904E2,4.242011E2,1.488125E2,1.5505518E2,1.6806693E2,5.9906616E1,6.364197E0,1.7354431E1,6.7276215E1,7.3846985E1,1.12131546E2,2.3340927E1,1.761325E1,3.0479736E0,4.5977077E0,0E0,0E0,0E0,0E0,0E0,0E0,0E0,0E0,0E0,0E0,0E0,0E0,0E0,0E0,0E0,0E0],"parents":[2147483647,0,0,1,1,2,2,3,3,4,4,5,5,6,6,7,7,8,8,9,9,10,10,11,11,12,12,13,13,14,14],"right_children":[2,4,6,8,10,12,14,16,18,20,22,24,26,28,30,-1,-1,-1,-1,-1,-1,-1,-1,-1,-1,-1,-1,-1,-1,-1,-1],"split_conditions":[7.5316794E-2,-8.446994E-2,9.102423E-1,-1.7595745E1,7.04E0,-7.483372E-3,1.8262626E3,-9.6892416E-1,-2.2475228E-2,-4.8768864E0,8.3425855E-3,1.1E1,-7.2135E4,1.586E1,2.61E2,3.6404118E-2,1.8878756E-2,1.6392525E-2,6.321015E-3,3.8338784E-2,-1.2662656E-2,7.7797705E-3,-3.5863402E-3,-1.2850837E-2,1.7428133E-3,1.6713996E-3,-2.6326625E-2,-2.2000603E-2,-4.0270682E-2,6.039428E-3,-3.1456806E-2],"split_indices":[0,2,0,0,71,2,1,9,11,0,0,44,52,28,78,0,0,0,0,0,0,0,0,0,0,0,0,0,0,0,0],"split_type":[0,0,0,0,0,0,0,0,0,0,0,0,0,0,0,0,0,0,0,0,0,0,0,0,0,0,0,0,0,0,0],"sum_hessian":[8.477111E3,7.1096035E3,1.3675074E3,2.7805789E3,4.329025E3,1.0340222E3,3.334852E2,3.1877643E2,2.4618025E3,1.1896862E3,3.1393386E3,6.3075543E2,4.0326678E2,3.2321017E2,1.0275033E1,2.504771E2,6.829934E1,1.0206288E3,1.4411737E3,2.5177437E1,1.1645087E3,1.4556162E3,1.6837224E3,5.0872818E2,1.2202722E2,2.1227188E1,3.820396E2,1.246769E1,3.107425E2,5.1281567E0,5.146877E0],"tree_param":{"num_deleted":"0","num_feature":"96","num_nodes":"31","size_leaf_vector":"1"}},{"base_weights":[-7.3987017E-3,1.3054356E-1,-6.497089E-1,4.9316478E-1,-2.142263E-2,-4.509965E-1,-1.2012596E0,1.1049806E0,3.8873473E-1,-3.086319E-1,1.03906594E-1,-2.7916464E-1,-7.481196E-1,-1.285875E0,-8.7186795E-1,2.5453782E-2,3.856842E-2,7.0321504E-3,1.7415984E-2,-3.3604142E-3,-2.7547915E-2,1.1560672E-2,-3.4242135E-3,-1.2054418E-2,-9.0871076E-4,-1.7114088E-2,-3.0026328E-2,-3.885971E-2,-2.0405397E-2,5.436883E-3,-3.116767E-2],"categories":[],"categories_nodes":[],"categories_segments":[],"categories_sizes":[],"default_left":[0,1,0,0,0,1,1,0,0,0,0,1,0,1,1,0,0,0,0,0,0,0,0,0,0,0,0,0,0,0,0],"id":18,"left_children":[1,3,5,7,9,11,13,15,17,19,21,23,25,27,29,-1,-1,-1,-1,-1,-1,-1,-1,-1,-1,-1,-1,-1,-1,-1,-1],"loss_changes":[7.550965E2,3.8662036E2,1.6459064E2,1.3194836E2,1.780246E2,5.642305E1,9.984375E0,1.2881653E1,5.2296326E1,1.7999265E2,2.1135852E2,2.1488708E1,1.7652328E1,9.2126465E-1,1.5061386E1,0E0,0E0,0E0,0E0,0E0,0E0,0E0,0E0,0E0,0E0,0E0,0E0,0E0,0E0,0E0,0E0],"parents":[2147483647,0,0,1,1,2,2,3,3,4,4,5,5,6,6,7,7,8,8,9,9,10,10,11,11,12,12,13,13,14,14],"right_children":[2,4,6,8,10,12,14,16,18,20,22,24,26,28,30,-1,-1,-1,-1,-1,-1,-1,-1,-1,-1,-1,-1,-1,-1,-1,-1],"split_conditions":[6.809407E-2,-1.2874678E-1,3.264133E-1,-2.6964922E1,5.01E0,-9.597833E-3,-3.7228388E-1,1.65E2,3.682756E2,-1.3210118E-2,8.3425855E-3,7.5E1,-2E1,7.6291E4,-3.24837E5,2.5453782E-2,3.856842E-2,7.0321504E-3,1.7415984E-2,-3.3604142E-3,-2.7547915E-2,1.1560672E-2,-3.4242135E-3,-1.2054418E-2,-9.0871076E-4,-1.7114088E-2,-3.0026328E-2,-3.885971E-2,-2.0405397E-2,5.436883E-3,-3.116767E-2],"split_indices":[0,2,0,0,68,2,9,69,64,0,0,70,77,52,46,0,0,0,0,0,0,0,0,0,0,0,0,0,0,0,0],"split_type":[0,0,0,0,0,0,0,0,0,0,0,0,0,0,0,0,0,0,0,0,0,0,0,0,0,0,0,0,0,0,0],"sum_hessian":[8.52041E3,7.014727E3,1.5056829E3,2.070902E3,4.943825E3,1.1082285E3,3.974544E2,3.0054468E2,1.7703574E3,1.5014901E3,3.442335E3,7.0338654E2,4.0484198E2,3.1391187E2,8.354254E1,1.2653994E2,1.7400473E2,9.822307E2,7.881267E2,1.1362207E3,3.652694E2,1.5023612E3,1.9399739E3,4.7076923E2,2.3261731E2,2.3965695E2,1.6518503E2,3.0796896E2,5.9429E0,1.1426425E1,7.211612E1],"tree_param":{"num_deleted":"0","num_feature":"96","num_nodes":"31","size_leaf_vector":"1"}},{"base_weights":[2.6469114E-3,1.1395278E-1,-7.485009E-1,4.0449902E-1,-6.727265E-2,-4.883343E-1,-1.1232532E0,1.0756756E0,3.2485297E-1,-1.750155E-1,2.6075938E-1,-7.168052E-1,-2.4339758E-1,-4.0126938E-1,-1.1607827E0,2.4280714E-2,3.8337268E-2,1.4754574E-2,4.5279665E-3,-4.6254296E-4,-1.1206588E-2,1.9993808E-2,-2.7114924E-3,-2.4819085E-3,-2.4998154E-2,-1.9842485E-2,-3.4643358E-3,-3.0127715E-2,7.077331E-3,-2.7618235E-2,-3.750764E-2],"categories":[],"categories_nodes":[],"categories_segments":[],"categories_sizes":[],"default_left":[0,1,0,0,0,1,0,1,1,0,0,0,1,0,0,0,0,0,0,0,0,0,0,0,0,0,0,0,0,0,0],"id":19,"left_children":[1,3,5,7,9,11,13,15,17,19,21,23,25,27,29,-1,-1,-1,-1,-1,-1,-1,-1,-1,-1,-1,-1,-1,-1,-1,-1],"loss_changes":[7.085203E2,3.8865298E2,1.06083435E2,1.5121854E2,1.6072766E2,3.6049057E1,1.165625E1,1.5141357E1,7.3568695E1,1.0845204E2,1.6024947E2,2.4625504E1,1.6709135E1,9.317606E0,7.9763794E0,0E0,0E0,0E0,0E0,0E0,0E0,0E0,0E0,0E0,0E0,0E0,0E0,0E0,0E0,0E0,0E0],"parents":[2147483647,0,0,1,1,2,2,3,3,4,4,5,5,6,6,7,7,8,8,9,9,10,10,11,11,12,12,13,13,14,14],"right_children":[2,4,6,8,10,12,14,16,18,20,22,24,26,28,30,-1,-1,-1,-1,-1,-1,-1,-1,-1,-1,-1,-1,-1,-1,-1,-1],"split_conditions":[9.198831E-2,-8.569705E-2,2.2687949E-1,-2.6964922E1,1E0,1.5573837E-1,1E-1,2.6E1,-1.5E-1,-1.9657936E-2,7.6312777E-3,-1.5183E4,1.454E1,7.221105E0,9.102423E-1,2.4280714E-2,3.8337268E-2,1.4754574E-2,4.5279665E-3,-4.6254296E-4,-1.1206588E-2,1.9993808E-2,-2.7114924E-3,-2.4819085E-3,-2.4998154E-2,-1.9842485E-2,-3.4643358E-3,-3.0127715E-2,7.077331E-3,-2.7618235E-2,-3.750764E-2],"split_indices":[0,2,0,0,5,1,19,78,81,2,0,52,71,10,0,0,0,0,0,0,0,0,0,0,0,0,0,0,0,0,0],"split_type":[0,0,0,0,0,0,0,0,0,0,0,0,0,0,0,0,0,0,0,0,0,0,0,0,0,0,0,0,0,0,0],"sum_hessian":[8.472377E3,7.379695E3,1.0926825E3,2.834348E3,4.5453467E3,6.463005E2,4.4638205E2,2.9933646E2,2.5350115E3,3.421887E3,1.12346E3,3.333931E2,3.1290738E2,2.263458E1,4.2374747E2,1.313567E2,1.6797977E2,1.292432E3,1.2425795E3,1.897572E3,1.524315E3,5.2082E2,6.0263995E2,5.200029E1,2.8139282E2,7.234064E1,2.4056674E2,1.133333E1,1.1301251E1,1.1807661E2,3.0567087E2],"tree_param":{"num_deleted":"0","num_feature":"96","num_nodes":"31","size_leaf_vector":"1"}},{"base_weights":[-7.026636E-3,2.812628E-1,-2.1027787E-1,2.0309149E-1,1.0974159E0,-1.234862E-1,-8.828095E-1,4.7375062E-1,5.91626E-2,7.7044797E-1,1.2504061E0,-6.793724E-2,-1.0345062E0,-1.649048E-1,-9.438988E-1,1.0986869E-2,2.3685137E-2,-3.6212106E-3,1.0635919E-2,9.554702E-3,3.0820759E-2,3.842957E-2,2.4088178E-2,-1.1718291E-2,7.817651E-4,-8.122156E-4,-3.5578575E-2,1.4772201E-2,-3.133623E-2,-1.7500106E-2,-3.3647962E-2],"categories":[],"categories_nodes":[],"categories_segments":[],"categories_sizes":[],"default_left":[0,0,1,0,0,1,0,0,0,0,1,1,0,0,0,0,0,0,0,0,0,0,0,0,0,0,0,0,0,0,0],"id":20,"left_children":[1,3,5,7,9,11,13,15,17,19,21,23,25,27,29,-1,-1,-1,-1,-1,-1,-1,-1,-1,-1,-1,-1,-1,-1,-1,-1],"loss_changes":[4.9513293E2,2.2269968E2,2.891709E2,1.2423711E2,1.4302887E1,2.2212369E2,2.4680603E1,3.7303116E1,1.10741905E2,1.1270779E1,1.794342E0,1.2555752E2,3.845584E1,2.6892817E1,3.277121E1,0E0,0E0,0E0,0E0,0E0,0E0,0E0,0E0,0E0,0E0,0E0,0E0,0E0,0E0,0E0,0E0],"parents":[2147483647,0,0,1,1,2,2,3,3,4,4,5,5,6,6,7,7,8,8,9,9,10,10,11,11,12,12,13,13,14,14],"right_children":[2,4,6,8,10,12,14,16,18,20,22,24,26,28,30,-1,-1,-1,-1,-1,-1,-1,-1,-1,-1,-1,-1,-1,-1,-1,-1],"split_conditions":[-1.22E2,4E1,7.6356225E-2,-2.0087916E-1,-4.5893285E-3,5.6746566E-1,-1.9E1,1.1194E4,-3E-2,4.575269E2,1.9052502E1,7.75E0,7.1E1,-3.7E-1,1.4749087E-1,1.0986869E-2,2.3685137E-2,-3.6212106E-3,1.0635919E-2,9.554702E-3,3.0820759E-2,3.842957E-2,2.4088178E-2,-1.1718291E-2,7.817651E-4,-8.122156E-4,-3.5578575E-2,1.4772201E-2,-3.133623E-2,-1.7500106E-2,-3.3647962E-2],"split_indices":[65,8,2,2,7,1,1,47,68,8,4,70,65,65,2,0,0,0,0,0,0,0,0,0,0,0,0,0,0,0,0],"split_type":[0,0,0,0,0,0,0,0,0,0,0,0,0,0,0,0,0,0,0,0,0,0,0,0,0,0,0,0,0,0,0],"sum_hessian":[8.448054E3,3.4930972E3,4.9549565E3,3.1889116E3,3.0418567E2,4.3896465E3,5.653098E2,1.1062709E3,2.0826406E3,9.888539E1,2.053003E2,4.1383853E3,2.5126125E2,4.4622116E1,5.206877E2,8.268641E2,2.794068E2,1.2947631E3,7.878776E2,3.6650112E1,6.223528E1,1.9042407E2,1.4876222E1,9.328647E2,3.2055208E3,3.2989735E1,2.1827151E2,2.5790377E1,1.8831741E1,1.7331194E2,3.4737573E2],"tree_param":{"num_deleted":"0","num_feature":"96","num_nodes":"31","size_leaf_vector":"1"}},{"base_weights":[-8.3523495E-3,1.3414307E-1,-5.436192E-1,1.0007753E0,7.697228E-2,-3.8563165E-1,-1.1324586E0,6.6184205E-1,1.2370603E0,2.9504275E-1,-7.185192E-2,-5.3584677E-1,-2.4053556E-1,-5.4661816E-1,-1.1886673E0,1.27364425E-2,3.2241344E-2,1.7809313E-2,3.7654944E-2,1.3685685E-2,3.603122E-3,-8.390918E-3,1.2925669E-3,-2.0618305E-2,-1.1935568E-2,-9.558287E-3,3.1515122E-3,-3.127737E-2,-2.453454E-3,-2.011271E-2,-3.6418106E-2],"categories":[],"categories_nodes":[],"categories_segments":[],"categories_sizes":[],"default_left":[0,0,0,0,0,1,0,0,0,0,0,0,1,0,0,0,0,0,0,0,0,0,0,0,0,0,0,0,0,0,0],"id":21,"left_children":[1,3,5,7,9,11,13,15,17,19,21,23,25,27,29,-1,-1,-1,-1,-1,-1,-1,-1,-1,-1,-1,-1,-1,-1,-1,-1],"loss_changes":[6.448346E2,3.3073566E2,1.6491919E2,3.2266205E1,2.0333836E2,3.0449585E1,1.1715057E1,1.6380257E1,2.0770874E0,7.158864E1,8.8984375E1,1.4113968E1,1.9337395E1,7.920142E0,3.6619263E0,0E0,0E0,0E0,0E0,0E0,0E0,0E0,0E0,0E0,0E0,0E0,0E0,0E0,0E0,0E0,0E0],"parents":[2147483647,0,0,1,1,2,2,3,3,4,4,5,5,6,6,7,7,8,8,9,9,10,10,11,11,12,12,13,13,14,14],"right_children":[2,4,6,8,10,12,14,16,18,20,22,24,26,28,30,-1,-1,-1,-1,-1,-1,-1,-1,-1,-1,-1,-1,-1,-1,-1,-1],"split_conditions":[5.5371687E-2,-8.324111E0,3.264133E-1,-8E0,-7.3400507E-4,3.523E1,3.741413E-1,7.68621E2,-1.1056111E0,-1.2E0,7.04E0,-3E0,6.882E3,-2.9437494E-1,9.3E-1,1.27364425E-2,3.2241344E-2,1.7809313E-2,3.7654944E-2,1.3685685E-2,3.603122E-3,-8.390918E-3,1.2925669E-3,-2.0618305E-2,-1.1935568E-2,-9.558287E-3,3.1515122E-3,-3.127737E-2,-2.453454E-3,-2.011271E-2,-3.6418106E-2],"split_indices":[0,0,0,79,11,71,11,8,12,81,71,18,20,11,19,0,0,0,0,0,0,0,0,0,0,0,0,0,0,0,0],"split_type":[0,0,0,0,0,0,0,0,0,0,0,0,0,0,0,0,0,0,0,0,0,0,0,0,0,0,0,0,0,0,0],"sum_hessian":[8.452332E3,6.6758726E3,1.7764598E3,4.1212387E2,6.2637485E3,1.4019633E3,3.7449655E2,1.708513E2,2.4127257E2,2.540378E3,3.7233706E3,6.8750745E2,7.144558E2,3.3724495E1,3.4077206E2,1.09782715E2,6.1068592E1,7.527947E0,2.3374461E2,1.321477E3,1.218901E3,1.3253184E3,2.3980522E3,3.2589816E2,3.6160928E2,5.8285626E2,1.3159956E2,1.5714687E1,1.8009808E1,1.7123537E1,3.2364853E2],"tree_param":{"num_deleted":"0","num_feature":"96","num_nodes":"31","size_leaf_vector":"1"}},{"base_weights":[6.245031E-4,1.16444916E-1,-6.372335E-1,4.8473004E-1,-1.2382446E-2,-4.5209378E-1,-1.1071723E0,1.0070728E0,3.656017E-1,-2.970825E-1,1.03645876E-1,-2.9064357E-1,-7.417114E-1,-3.772701E-1,-1.1511588E0,1.8881265E-2,3.5406187E-2,7.5901356E-3,1.8929688E-2,-3.3124976E-3,-2.7882308E-2,1.1866732E-2,-3.4655815E-3,-1.0992445E-2,9.62951E-3,-7.853062E-3,-2.55777E-2,6.5907505E-3,-3.270167E-2,-1.9379687E-2,-3.5432868E-2],"categories":[],"categories_nodes":[],"categories_segments":[],"categories_sizes":[],"default_left":[0,1,0,0,0,1,0,0,1,0,0,1,0,0,0,0,0,0,0,0,0,0,0,0,0,0,0,0,0,0,0],"id":22,"left_children":[1,3,5,7,9,11,13,15,17,19,21,23,25,27,29,-1,-1,-1,-1,-1,-1,-1,-1,-1,-1,-1,-1,-1,-1,-1,-1],"loss_changes":[6.247688E2,3.3958447E2,1.1257019E2,1.15050995E2,1.7522058E2,4.3456833E1,1.1335876E1,2.174524E1,4.502025E1,1.8117805E2,2.4114923E2,2.7985725E1,1.7532608E1,9.738788E0,4.4588013E0,0E0,0E0,0E0,0E0,0E0,0E0,0E0,0E0,0E0,0E0,0E0,0E0,0E0,0E0,0E0,0E0],"parents":[2147483647,0,0,1,1,2,2,3,3,4,4,5,5,6,6,7,7,8,8,9,9,10,10,11,11,12,12,13,13,14,14],"right_children":[2,4,6,8,10,12,14,16,18,20,22,24,26,28,30,-1,-1,-1,-1,-1,-1,-1,-1,-1,-1,-1,-1,-1,-1,-1,-1],"split_conditions":[7.711238E-2,-1.4990631E-1,3.264133E-1,-1.1965278E1,-3E-2,-5.7834988E-3,1E-1,-5.37E2,1.0813E4,-1.495601E-2,8.3425855E-3,3.87E2,-7.111E3,7.8348804E0,1.4339888E-1,1.8881265E-2,3.5406187E-2,7.5901356E-3,1.8929688E-2,-3.3124976E-3,-2.7882308E-2,1.1866732E-2,-3.4655815E-3,-1.0992445E-2,9.62951E-3,-7.853062E-3,-2.55777E-2,6.5907505E-3,-3.270167E-2,-1.9379687E-2,-3.5432868E-2],"split_indices":[0,2,0,0,68,2,19,79,47,0,0,44,52,0,11,0,0,0,0,0,0,0,0,0,0,0,0,0,0,0,0],"split_type":[0,0,0,0,0,0,0,0,0,0,0,0,0,0,0,0,0,0,0,0,0,0,0,0,0,0,0,0,0,0,0],"sum_hessian":[8.454877E3,7.156278E3,1.2985989E3,1.853843E3,5.3024346E3,9.3299347E2,3.6560535E2,3.428951E2,1.5109479E3,1.5348341E3,3.7676008E3,6.003346E2,3.326589E2,2.1324755E1,3.442806E2,1.0923339E2,2.3366171E2,1.0622263E3,4.487216E2,1.1859199E3,3.4891412E2,1.6153156E3,2.1522852E3,5.34517E2,6.581756E1,6.30604E1,2.695985E2,1.1981754E1,9.343001E0,2.0524132E1,3.2375647E2],"tree_param":{"num_deleted":"0","num_feature":"96","num_nodes":"31","size_leaf_vector":"1"}},{"base_weights":[-1.7295091E-3,2.2071357E-1,-3.158621E-1,-7.214217E-2,3.8085997E-1,-2.0373388E-1,-9.9976814E-1,2.6223105E-1,-3.004023E-1,6.462471E-1,1.6771354E-1,-5.201682E-1,-1.2797013E-1,-7.14222E-1,-1.1727052E0,6.5634702E-3,3.4559164E-2,-1.3257096E-2,3.2978812E-3,1.5981752E-2,3.0730844E-2,-2.331585E-3,9.6911555E-3,-3.1397358E-2,-1.3310691E-2,-2.058977E-3,-1.648858E-2,-2.8004548E-2,-6.332157E-3,-1.7093753E-2,-3.6209576E-2],"categories":[],"categories_nodes":[],"categories_segments":[],"categories_sizes":[],"default_left":[0,0,0,0,0,0,0,0,0,0,0,0,1,0,0,0,0,0,0,0,0,0,0,0,0,0,0,0,0,0,0],"id":23,"left_children":[1,3,5,7,9,11,13,15,17,19,21,23,25,27,29,-1,-1,-1,-1,-1,-1,-1,-1,-1,-1,-1,-1,-1,-1,-1,-1],"loss_changes":[5.892847E2,2.3157846E2,2.6789355E2,1.3335829E2,1.8044635E2,7.197318E1,2.3467804E1,2.715577E1,6.033188E1,6.046588E1,6.755931E1,2.2891846E1,6.0653217E1,2.0566826E1,5.615753E0,0E0,0E0,0E0,0E0,0E0,0E0,0E0,0E0,0E0,0E0,0E0,0E0,0E0,0E0,0E0,0E0],"parents":[2147483647,0,0,1,1,2,2,3,3,4,4,5,5,6,6,7,7,8,8,9,9,10,10,11,11,12,12,13,13,14,14],"right_children":[2,4,6,8,10,12,14,16,18,20,22,24,26,28,30,-1,-1,-1,-1,-1,-1,-1,-1,-1,-1,-1,-1,-1,-1,-1,-1],"split_conditions":[9.026271E-3,3.6395475E-1,1.8591926E-1,-9.444499E-2,-3.1195125E-3,9E0,9.102423E-1,1.2863E4,1.69E0,9.7127974E-1,7.04E0,8.54E1,1.7E1,2.910335E-1,1E-1,6.5634702E-3,3.4559164E-2,-1.3257096E-2,3.2978812E-3,1.5981752E-2,3.0730844E-2,-2.331585E-3,9.6911555E-3,-3.1397358E-2,-1.3310691E-2,-2.058977E-3,-1.648858E-2,-2.8004548E-2,-6.332157E-3,-1.7093753E-2,-3.6209576E-2],"split_indices":[0,8,0,2,11,91,0,91,68,5,71,68,81,1,19,0,0,0,0,0,0,0,0,0,0,0,0,0,0,0,0],"split_type":[0,0,0,0,0,0,0,0,0,0,0,0,0,0,0,0,0,0,0,0,0,0,0,0,0,0,0,0,0,0,0],"sum_hessian":[8.43122E3,4.936143E3,3.4950767E3,1.7452314E3,3.1909116E3,3.0038804E3,4.9119623E2,7.079794E2,1.0372521E3,1.4203776E3,1.7705339E3,5.7914825E2,2.4247322E3,1.8721121E2,3.0398502E2,6.7620416E2,3.1775175E1,7.712228E2,2.6602936E2,1.094256E3,3.261216E2,6.864136E2,1.0841204E3,7.185776E1,5.0729053E2,2.1266213E3,2.981109E2,1.297942E2,5.741702E1,1.730223E1,2.866828E2],"tree_param":{"num_deleted":"0","num_feature":"96","num_nodes":"31","size_leaf_vector":"1"}},{"base_weights":[-8.69798E-3,2.0263098E-1,-3.0795413E-1,9.8973596E-1,1.4008269E-1,-2.0622209E-1,-9.943031E-1,6.930563E-1,1.2143772E0,2.2823998E-1,-4.6213254E-1,-1.4753771E-1,-6.0822004E-1,-7.08957E-1,-1.1791533E0,1.3784316E-2,3.1604167E-2,2.2627596E-2,3.704696E-2,3.6285054E-3,1.7069267E-2,-1.6984379E-2,1.2227392E-2,-1.910678E-2,-2.9278167E-3,-2.2915844E-2,-9.483899E-3,-1.1489856E-2,-3.1369336E-2,-1.9378273E-2,-3.591908E-2],"categories":[],"categories_nodes":[],"categories_segments":[],"categories_sizes":[],"default_left":[0,0,0,0,1,1,0,0,0,1,0,0,0,1,0,0,0,0,0,0,0,0,0,0,0,0,0,0,0,0,0],"id":24,"left_children":[1,3,5,7,9,11,13,15,17,19,21,23,25,27,29,-1,-1,-1,-1,-1,-1,-1,-1,-1,-1,-1,-1,-1,-1,-1,-1],"loss_changes":[5.3256366E2,2.4285489E2,2.4316196E2,2.3363098E1,2.4291077E2,7.155098E1,2.2882385E1,1.2886902E1,1.0075989E0,1.4580089E2,5.3091553E1,6.473526E1,1.7330338E1,1.927591E1,1.8529053E0,0E0,0E0,0E0,0E0,0E0,0E0,0E0,0E0,0E0,0E0,0E0,0E0,0E0,0E0,0E0,0E0],"parents":[2147483647,0,0,1,1,2,2,3,3,4,4,5,5,6,6,7,7,8,8,9,9,10,10,11,11,12,12,13,13,14,14],"right_children":[2,4,6,8,10,12,14,16,18,20,22,24,26,28,30,-1,-1,-1,-1,-1,-1,-1,-1,-1,-1,-1,-1,-1,-1,-1,-1],"split_conditions":[9.026271E-3,-1.1965278E1,2.0405063E-1,1.1716862E-4,8.298707E-3,1.7E1,4.080883E0,7.68621E2,-2.1443747E-2,7E0,1E0,-5.32E0,9.5037E4,8.317911E-2,1.586E1,1.3784316E-2,3.1604167E-2,2.2627596E-2,3.704696E-2,3.6285054E-3,1.7069267E-2,-1.6984379E-2,1.2227392E-2,-1.910678E-2,-2.9278167E-3,-2.2915844E-2,-9.483899E-3,-1.1489856E-2,-3.1369336E-2,-1.9378273E-2,-3.591908E-2],"split_indices":[0,0,0,7,2,81,0,8,12,39,5,91,67,2,28,0,0,0,0,0,0,0,0,0,0,0,0,0,0,0,0],"split_type":[0,0,0,0,0,0,0,0,0,0,0,0,0,0,0,0,0,0,0,0,0,0,0,0,0,0,0,0,0,0,0],"sum_hessian":[8.419125E3,4.9346753E3,3.4844502E3,3.6218106E2,4.572494E3,3.035781E3,4.486692E2,1.5782697E2,2.043541E2,3.9891501E3,5.833442E2,2.6502585E3,3.8552246E2,1.782881E2,2.703811E2,9.714433E1,6.068263E1,1.0337007E1,1.9401709E2,3.0348884E3,9.542616E2,5.213431E2,6.2001072E1,2.4434886E2,2.4059097E3,2.5045258E2,1.3506989E2,9.167303E1,8.661507E1,1.0104716E1,2.6027637E2],"tree_param":{"num_deleted":"0","num_feature":"96","num_nodes":"31","size_leaf_vector":"1"}},{"base_weights":[-4.5003514E-3,1.9704583E-1,-3.121326E-1,9.4607115E-1,1.3372655E-1,-2.1010886E-1,-1.017754E0,6.6289127E-1,1.1873981E0,2.1170774E-1,-4.3816075E-1,-4.6578562E-1,-9.609472E-2,-5.0723565E-1,-1.0963845E0,3.365687E-2,1.4609201E-2,2.246791E-2,3.6392048E-2,4.5405884E-4,1.0848269E-2,-3.4406697E-3,-2.1773927E-2,-1.1720331E-2,-2.3992902E-2,-1.1413011E-3,-1.6124459E-2,-8.034173E-3,-3.576225E-2,-9.269273E-3,-3.3886936E-2],"categories":[],"categories_nodes":[],"categories_segments":[],"categories_sizes":[],"default_left":[0,0,0,0,1,0,0,0,0,0,0,0,1,1,0,0,0,0,0,0,0,0,0,0,0,0,0,0,0,0,0],"id":25,"left_children":[1,3,5,7,9,11,13,15,17,19,21,23,25,27,29,-1,-1,-1,-1,-1,-1,-1,-1,-1,-1,-1,-1,-1,-1,-1,-1],"loss_changes":[5.196398E2,2.400284E2,2.3860727E2,2.6174225E1,2.0836136E2,8.4481125E1,1.6255615E1,1.42938E1,1.4747314E0,1.2111221E2,5.2086807E1,2.2112747E1,5.13954E1,9.151149E0,9.109924E0,0E0,0E0,0E0,0E0,0E0,0E0,0E0,0E0,0E0,0E0,0E0,0E0,0E0,0E0,0E0,0E0],"parents":[2147483647,0,0,1,1,2,2,3,3,4,4,5,5,6,6,7,7,8,8,9,9,10,10,11,11,12,12,13,13,14,14],"right_children":[2,4,6,8,10,12,14,16,18,20,22,24,26,28,30,-1,-1,-1,-1,-1,-1,-1,-1,-1,-1,-1,-1,-1,-1,-1,-1],"split_conditions":[1.0672764E-2,-8.324111E0,2.2687949E-1,1.1716862E-4,1.0677682E-2,1.849E1,1.6276567E-1,-9.6892416E-1,5.198E1,8.25E0,-2.8967762E-2,9.198831E-2,1.7E1,1.5075535E0,1E-1,3.365687E-2,1.4609201E-2,2.246791E-2,3.6392048E-2,4.5405884E-4,1.0848269E-2,-3.4406697E-3,-2.1773927E-2,-1.1720331E-2,-2.3992902E-2,-1.1413011E-3,-1.6124459E-2,-8.034173E-3,-3.576225E-2,-9.269273E-3,-3.3886936E-2],"split_indices":[0,0,0,7,2,70,11,9,28,71,0,0,81,7,19,0,0,0,0,0,0,0,0,0,0,0,0,0,0,0,0],"split_type":[0,0,0,0,0,0,0,0,0,0,0,0,0,0,0,0,0,0,0,0,0,0,0,0,0,0,0,0,0,0,0],"sum_hessian":[8.37901E3,5.0625947E3,3.3164146E3,3.9352408E2,4.669071E3,2.8986106E3,4.1780396E2,1.8278539E2,2.1073871E2,4.109358E3,5.597126E2,8.9299146E2,2.0056191E3,5.675651E1,3.6104745E2,4.9154427E1,1.3363095E2,1.3324295E1,1.9741441E2,1.7783829E3,2.330975E3,2.6410413E2,2.9560846E2,7.308101E2,1.6218138E2,1.7734595E3,2.3215956E2,4.3084568E1,1.3671944E1,1.5015687E1,3.4603177E2],"tree_param":{"num_deleted":"0","num_feature":"96","num_nodes":"31","size_leaf_vector":"1"}},{"base_weights":[-1.6125535E-3,1.4170676E-1,-3.9417422E-1,4.6465275E-1,1.8618392E-2,-2.7722362E-1,-1.0425051E0,9.853884E-1,3.7815732E-1,-2.606281E-1,1.755219E-1,-8.381676E-1,-2.1419147E-1,-1.1327906E0,-7.3953974E-1,2.3799201E-2,3.522548E-2,8.00571E-3,2.073038E-2,-2.7611514E-3,-2.6724648E-2,1.0718359E-2,-1.3550321E-3,5.798507E-3,-2.6617592E-2,-2.5368913E-3,-1.3079184E-2,-3.440495E-2,-1.1804592E-2,1.0071457E-2,-2.7225237E-2],"categories":[],"categories_nodes":[],"categories_segments":[],"categories_sizes":[],"default_left":[0,0,0,0,0,0,1,0,1,0,0,0,1,1,1,0,0,0,0,0,0,0,0,0,0,0,0,0,0,0,0],"id":26,"left_children":[1,3,5,7,9,11,13,15,17,19,21,23,25,27,29,-1,-1,-1,-1,-1,-1,-1,-1,-1,-1,-1,-1,-1,-1,-1,-1],"loss_changes":[4.7052396E2,2.4352344E2,1.6930261E2,7.577518E1,1.9444438E2,6.686676E1,8.502045E0,7.7789E0,5.0355743E1,1.6954079E2,1.1398558E2,9.852264E0,4.9010056E1,2.2598877E0,1.4983273E1,0E0,0E0,0E0,0E0,0E0,0E0,0E0,0E0,0E0,0E0,0E0,0E0,0E0,0E0,0E0,0E0],"parents":[2147483647,0,0,1,1,2,2,3,3,4,4,5,5,6,6,7,7,8,8,9,9,10,10,11,11,12,12,13,13,14,14],"right_children":[2,4,6,8,10,12,14,16,18,20,22,24,26,28,30,-1,-1,-1,-1,-1,-1,-1,-1,-1,-1,-1,-1,-1,-1,-1,-1],"split_conditions":[3.8133524E-2,-1.6078156E-1,3.264133E-1,-3.890518E1,5.01E0,-2.5E-1,-4.9194002E-1,1.03E2,1.2915E4,-1.14872E-2,7.6312777E-3,-5.0116E4,-1.9657936E-2,6.5987366E2,-3.65296E5,2.3799201E-2,3.522548E-2,8.00571E-3,2.073038E-2,-2.7611514E-3,-2.6724648E-2,1.0718359E-2,-1.3550321E-3,5.798507E-3,-2.6617592E-2,-2.5368913E-3,-1.3079184E-2,-3.440495E-2,-1.1804592E-2,1.0071457E-2,-2.7225237E-2],"split_indices":[0,2,0,0,68,91,9,24,47,0,0,77,2,7,46,0,0,0,0,0,0,0,0,0,0,0,0,0,0,0,0],"split_type":[0,0,0,0,0,0,0,0,0,0,0,0,0,0,0,0,0,0,0,0,0,0,0,0,0,0,0,0,0,0,0],"sum_hessian":[8.361143E3,6.125455E3,2.2356875E3,1.6896249E3,4.4358306E3,1.8952384E3,3.404491E2,2.3919388E2,1.450431E3,1.5955372E3,2.840293E3,1.9020895E2,1.7050294E3,2.6017612E2,8.027298E1,1.21143265E2,1.1805061E2,1.0711984E3,3.7923267E2,1.2596902E3,3.3584702E2,1.557193E3,1.2831E3,8.507164E0,1.817018E2,1.0769481E3,6.2808136E2,2.5478595E2,5.390166E0,1.0710516E1,6.956246E1],"tree_param":{"num_deleted":"0","num_feature":"96","num_nodes":"31","size_leaf_vector":"1"}},{"base_weights":[5.359091E-3,1.209174E-1,-5.1332664E-1,9.347249E-1,7.689342E-2,-3.7523583E-1,-1.1015598E0,6.2689525E-1,1.13855E0,1.7010276E-1,-2.2214836E-1,-7.809701E-1,-2.8937826E-1,-1.1316296E0,-5.401914E-3,2.9544698E-2,1.1011495E-2,1.6882436E-2,3.4990612E-2,9.570668E-3,1.538826E-3,-1.468545E-2,-6.171544E-4,-2.7321605E-2,-1.0156649E-2,-1.6317138E-2,-5.6285867E-3,-1.8994607E-2,-3.4520064E-2],"categories":[],"categories_nodes":[],"categories_segments":[],"categories_sizes":[],"default_left":[0,0,0,0,1,0,0,0,0,0,1,0,1,0,0,0,0,0,0,0,0,0,0,0,0,0,0,0,0],"id":27,"left_children":[1,3,5,7,9,11,13,15,17,19,21,23,25,27,-1,-1,-1,-1,-1,-1,-1,-1,-1,-1,-1,-1,-1,-1,-1],"loss_changes":[5.0113803E2,2.4489563E2,1.2332706E2,2.1297363E1,1.8087231E2,4.2803894E1,7.8071594E0,1.284314E1,2.7029724E0,8.7503555E1,8.31002E1,1.2041885E1,2.6344406E1,1.9267273E0,0E0,0E0,0E0,0E0,0E0,0E0,0E0,0E0,0E0,0E0,0E0,0E0,0E0,0E0,0E0],"parents":[2147483647,0,0,1,1,2,2,3,3,4,4,5,5,6,6,7,7,8,8,9,9,10,10,11,11,12,12,13,13],"right_children":[2,4,6,8,10,12,14,16,18,20,22,24,26,28,-1,-1,-1,-1,-1,-1,-1,-1,-1,-1,-1,-1,-1,-1,-1],"split_conditions":[6.348382E-2,-1.1965278E1,9.102423E-1,2.71E2,-3.6797272E-3,8E-2,1.8262626E3,-2.7890268E1,-2.92E2,-1.8E1,5.01E0,1.6928174E-1,1.8E1,1.586E1,-5.401914E-3,2.9544698E-2,1.1011495E-2,1.6882436E-2,3.4990612E-2,9.570668E-3,1.538826E-3,-1.468545E-2,-6.171544E-4,-2.7321605E-2,-1.0156649E-2,-1.6317138E-2,-5.6285867E-3,-1.8994607E-2,-3.4520064E-2],"split_indices":[0,0,0,16,2,91,1,11,32,81,68,1,71,28,0,0,0,0,0,0,0,0,0,0,0,0,0,0,0],"split_type":[0,0,0,0,0,0,0,0,0,0,0,0,0,0,0,0,0,0,0,0,0,0,0,0,0,0,0,0,0],"sum_hessian":[8.358843E3,6.836501E3,1.5223414E3,3.498115E2,6.4866895E3,1.234236E3,2.8810547E2,1.4097606E2,2.0883542E2,4.9456074E3,1.5410819E3,2.1414793E2,1.020088E3,2.7878036E2,9.325096E0,5.812326E1,8.2852806E1,1.0597917E1,1.982375E2,2.193943E3,2.7516643E3,6.6182434E2,8.7925757E2,1.6476707E2,4.9380863E1,2.9010672E2,7.299813E2,1.1516466E1,2.6726392E2],"tree_param":{"num_deleted":"0","num_feature":"96","num_nodes":"29","size_leaf_vector":"1"}},{"base_weights":[-1.8722616E-3,8.352913E-2,-6.1500293E-1,2.943706E-1,-9.648383E-2,-4.322476E-1,-1.0843382E0,9.074901E-1,2.3053747E-1,-2.1322434E-1,2.1424264E-1,-6.93646E-1,-1.7027138E-1,-1.1074374E0,-1.0975728E-2,1.7454866E-2,3.3871967E-2,1.10342335E-2,2.2739305E-3,-1.1764993E-2,-2.9020833E-3,2.7686112E-2,1.082411E-3,-1.1943165E-2,-2.6726099E-2,-3.145769E-2,-3.7412231E-3,-3.3519376E-2,-1.590308E-2],"categories":[],"categories_nodes":[],"categories_segments":[],"categories_sizes":[],"default_left":[0,1,0,0,0,0,0,0,1,0,0,0,0,1,0,0,0,0,0,0,0,0,0,0,0,0,0,0,0],"id":28,"left_children":[1,3,5,7,9,11,13,15,17,19,21,23,25,27,-1,-1,-1,-1,-1,-1,-1,-1,-1,-1,-1,-1,-1,-1,-1],"loss_changes":[4.3521957E2,2.7692532E2,8.669226E1,1.313042E2,1.4283057E2,5.0080933E1,4.310425E0,2.2182648E1,6.464702E1,5.9614563E1,1.3574701E2,2.1013687E1,1.4574171E1,9.743042E-1,0E0,0E0,0E0,0E0,0E0,0E0,0E0,0E0,0E0,0E0,0E0,0E0,0E0,0E0,0E0],"parents":[2147483647,0,0,1,1,2,2,3,3,4,4,5,5,6,6,7,7,8,8,9,9,10,10,11,11,12,12,13,13],"right_children":[2,4,6,8,10,12,14,16,18,20,22,24,26,28,-1,-1,-1,-1,-1,-1,-1,-1,-1,-1,-1,-1,-1,-1,-1],"split_conditions":[9.198831E-2,-6.2804595E-2,9.102423E-1,-1.1965278E1,2.7961409E1,1.5573837E-1,1.8262626E3,2.9393E2,-1.5E-1,8.54E1,2.5724104E-4,-4.26E2,2.468E1,7.6291E4,-1.0975728E-2,1.7454866E-2,3.3871967E-2,1.10342335E-2,2.2739305E-3,-1.1764993E-2,-2.9020833E-3,2.7686112E-2,1.082411E-3,-1.1943165E-2,-2.6726099E-2,-3.145769E-2,-3.7412231E-3,-3.3519376E-2,-1.590308E-2],"split_indices":[0,2,0,0,5,1,1,16,81,68,0,77,26,52,0,0,0,0,0,0,0,0,0,0,0,0,0,0,0],"split_type":[0,0,0,0,0,0,0,0,0,0,0,0,0,0,0,0,0,0,0,0,0,0,0,0,0,0,0,0,0],"sum_hessian":[8.30973E3,7.2945547E3,1.015176E3,3.3593071E3,3.9352476E3,7.3204474E2,2.831313E2,3.1551895E2,3.043788E3,2.860766E3,1.0744813E3,3.6560168E2,3.6644305E2,2.737876E2,9.343662E0,1.2922136E2,1.8629758E2,1.6122114E3,1.4315767E3,1.1270674E3,1.7336989E3,2.1503096E2,8.594504E2,1.475365E2,2.1806519E2,1.6986544E1,3.494565E2,2.6826373E2,5.523877E0],"tree_param":{"num_deleted":"0","num_feature":"96","num_nodes":"29","size_leaf_vector":"1"}},{"base_weights":[1.7739399E-3,1.9190612E-1,-2.6049453E-1,3.354823E-1,-9.82129E-2,-1.6502853E-1,-8.937172E-1,3.430218E-2,5.0331795E-1,3.6869776E-2,-5.1360637E-1,-5.116674E-1,-1.0277435E-1,-6.620207E-1,-1.0820876E0,-1.325926E-3,2.4053985E-2,2.8925579E-2,1.2765122E-2,-5.3919526E-3,5.3636716E-3,5.6205865E-4,-2.0431515E-2,-1.8303553E-2,5.394183E-6,-1.5571534E-3,-1.4020488E-2,-2.271846E-2,5.1809223E-3,-3.337425E-2,-2.1772677E-2],"categories":[],"categories_nodes":[],"categories_segments":[],"categories_sizes":[],"default_left":[0,1,0,0,1,0,0,0,0,1,0,1,1,0,0,0,0,0,0,0,0,0,0,0,0,0,0,0,0,0,0],"id":29,"left_children":[1,3,5,7,9,11,13,15,17,19,21,23,25,27,29,-1,-1,-1,-1,-1,-1,-1,-1,-1,-1,-1,-1,-1,-1,-1,-1],"loss_changes":[4.165234E2,2.0173889E2,2.1206734E2,1.6373691E2,9.001565E1,6.58049E1,1.9346619E1,6.994323E1,7.418982E1,3.726497E1,3.510109E1,2.3401611E1,4.797995E1,1.6726921E1,1.92099E0,0E0,0E0,0E0,0E0,0E0,0E0,0E0,0E0,0E0,0E0,0E0,0E0,0E0,0E0,0E0,0E0],"parents":[2147483647,0,0,1,1,2,2,3,3,4,4,5,5,6,6,7,7,8,8,9,9,10,10,11,11,12,12,13,13,14,14],"right_children":[2,4,6,8,10,12,14,16,18,20,22,24,26,28,30,-1,-1,-1,-1,-1,-1,-1,-1,-1,-1,-1,-1,-1,-1,-1,-1],"split_conditions":[8.3425855E-3,-7.3400507E-4,1.8591926E-1,4.000614E-1,-6.2559143E-4,8E-2,4.080883E0,4.073E3,-1.1965278E1,1.52E2,-1.05868995E-1,5.97508E5,1.7E1,1.19E2,1.2956E4,-1.325926E-3,2.4053985E-2,2.8925579E-2,1.2765122E-2,-5.3919526E-3,5.3636716E-3,5.6205865E-4,-2.0431515E-2,-1.8303553E-2,5.394183E-6,-1.5571534E-3,-1.4020488E-2,-2.271846E-2,5.1809223E-3,-3.337425E-2,-2.1772677E-2],"split_indices":[0,11,0,8,2,91,0,91,0,24,0,56,81,87,58,0,0,0,0,0,0,0,0,0,0,0,0,0,0,0,0],"split_type":[0,0,0,0,0,0,0,0,0,0,0,0,0,0,0,0,0,0,0,0,0,0,0,0,0,0,0,0,0,0,0],"sum_hessian":[8.350904E3,4.841393E3,3.5095115E3,3.2385298E3,1.6028633E3,3.0508235E3,4.5868808E2,1.1593275E3,2.0792024E3,1.2102205E3,3.9264288E2,4.6339035E2,2.587433E3,2.0771365E2,2.5097444E2,1.052609E3,1.0671856E2,2.9870032E2,1.780502E3,4.7895627E2,7.3126416E2,9.416375E1,2.9847913E2,3.884769E2,7.4913445E1,2.2716165E3,3.1581662E2,1.8652003E2,2.119363E1,2.2929822E2,2.1676222E1],"tree_param":{"num_deleted":"0","num_feature":"96","num_nodes":"31","size_leaf_vector":"1"}},{"base_weights":[-4.213184E-3,1.9192678E-1,-2.7365005E-1,-4.4846103E-2,3.7068373E-1,-1.8416569E-1,-9.16577E-1,8.259484E-2,-4.9471888E-1,5.191719E-1,5.5594325E-2,-5.380428E-1,-1.2120409E-1,-6.8571395E-1,-1.1166054E0,1.1970622E-3,2.7008148E-2,-1.7124731E-2,1.1039401E-2,1.2263867E-2,2.6083909E-2,4.261431E-3,-1.6694406E-2,-3.7963386E-3,-2.0368395E-2,-2.1616004E-3,-1.4206195E-2,-1.1302628E-2,-2.987035E-2,-1.789865E-2,-3.4160167E-2],"categories":[],"categories_nodes":[],"categories_segments":[],"categories_sizes":[],"default_left":[0,0,0,0,1,0,0,1,0,0,1,0,1,1,0,0,0,0,0,0,0,0,0,0,0,0,0,0,0,0,0],"id":30,"left_children":[1,3,5,7,9,11,13,15,17,19,21,23,25,27,29,-1,-1,-1,-1,-1,-1,-1,-1,-1,-1,-1,-1,-1,-1,-1,-1],"loss_changes":[4.3773505E2,2.0290161E2,2.0058829E2,1.18318405E2,1.2777017E2,6.821178E1,1.8910675E1,5.611396E1,3.011979E1,7.142255E1,4.6435825E1,2.6734863E1,4.5040585E1,1.8815468E1,1.9218445E0,0E0,0E0,0E0,0E0,0E0,0E0,0E0,0E0,0E0,0E0,0E0,0E0,0E0,0E0,0E0,0E0],"parents":[2147483647,0,0,1,1,2,2,3,3,4,4,5,5,6,6,7,7,8,8,9,9,10,10,11,11,12,12,13,13,14,14],"right_children":[2,4,6,8,10,12,14,16,18,20,22,24,26,28,30,-1,-1,-1,-1,-1,-1,-1,-1,-1,-1,-1,-1,-1,-1,-1,-1],"split_conditions":[8.3425855E-3,4.682061E-1,2.0405063E-1,-3.6797272E-3,-2.043624E-3,8E-2,2.42454E1,1.2863E4,7.93E0,1E0,3.19812E-2,6.050935E-4,1.7E1,8.317911E-2,-4E-1,1.1970622E-3,2.7008148E-2,-1.7124731E-2,1.1039401E-2,1.2263867E-2,2.6083909E-2,4.261431E-3,-1.6694406E-2,-3.7963386E-3,-2.0368395E-2,-2.1616004E-3,-1.4206195E-2,-1.1302628E-2,-2.987035E-2,-1.789865E-2,-3.4160167E-2],"split_indices":[0,8,0,2,11,91,8,91,40,5,2,11,81,2,94,0,0,0,0,0,0,0,0,0,0,0,0,0,0,0,0],"split_type":[0,0,0,0,0,0,0,0,0,0,0,0,0,0,0,0,0,0,0,0,0,0,0,0,0,0,0,0,0,0,0],"sum_hessian":[8.281017E3,4.7925254E3,3.4884917E3,2.0620208E3,2.7305046E3,3.0634048E3,4.2508673E2,1.6074696E3,4.5455112E2,1.8554586E3,8.75046E2,4.615737E2,2.6018313E3,1.9938937E2,2.2569736E2,1.5287014E3,7.8768196E1,4.1801318E2,3.6537937E1,1.4125375E3,4.429211E2,7.6741876E2,1.0762728E2,1.1821992E2,3.433538E2,2.2843672E3,3.1746408E2,1.0096606E2,9.842331E1,1.0329506E1,2.1536786E2],"tree_param":{"num_deleted":"0","num_feature":"96","num_nodes":"31","size_leaf_vector":"1"}},{"base_weights":[-5.9411344E-3,1.796026E-1,-2.5868687E-1,3.2144335E-1,-1.0392311E-1,-1.7963392E-1,-9.178025E-1,2.24492E-1,7.8093183E-1,1.8570004E-2,-4.6912915E-1,-4.0711892E-1,-7.8664795E-2,-1.498372E-1,-9.64032E-1,1.1716873E-2,-5.347899E-4,2.996101E-2,1.1908591E-2,2.514216E-3,-1.1243079E-2,-2.4485858E-2,-6.9118775E-3,-2.556584E-2,-9.978864E-3,-9.3315076E-4,-1.3925419E-2,1.064517E-2,-2.6062282E-2,-2.1387693E-2,-3.204812E-2],"categories":[],"categories_nodes":[],"categories_segments":[],"categories_sizes":[],"default_left":[0,1,0,0,1,0,0,0,0,1,1,1,1,0,0,0,0,0,0,0,0,0,0,0,0,0,0,0,0,0,0],"id":31,"left_children":[1,3,5,7,9,11,13,15,17,19,21,23,25,27,29,-1,-1,-1,-1,-1,-1,-1,-1,-1,-1,-1,-1,-1,-1,-1,-1],"loss_changes":[3.8891818E2,1.9236295E2,1.8276808E2,1.4184277E2,7.138364E1,7.2001E1,1.3195496E1,1.0600104E2,4.6016327E1,3.0714155E1,3.3018387E1,3.1670792E1,3.98328E1,8.478351E0,8.5104065E0,0E0,0E0,0E0,0E0,0E0,0E0,0E0,0E0,0E0,0E0,0E0,0E0,0E0,0E0,0E0,0E0],"parents":[2147483647,0,0,1,1,2,2,3,3,4,4,5,5,6,6,7,7,8,8,9,9,10,10,11,11,12,12,13,13,14,14],"right_children":[2,4,6,8,10,12,14,16,18,20,22,24,26,28,30,-1,-1,-1,-1,-1,-1,-1,-1,-1,-1,-1,-1,-1,-1,-1,-1],"split_conditions":[8.3425855E-3,-7.3400507E-4,2.2687949E-1,1E0,-1.0762434E-3,1.849E1,1E-1,-8.569705E-2,1.2630975E-4,6.110098E-1,1.21E2,-1.509E3,2.5E1,7.8348804E0,9.102423E-1,1.1716873E-2,-5.347899E-4,2.996101E-2,1.1908591E-2,2.514216E-3,-1.1243079E-2,-2.4485858E-2,-6.9118775E-3,-2.556584E-2,-9.978864E-3,-9.3315076E-4,-1.3925419E-2,1.064517E-2,-2.6062282E-2,-2.1387693E-2,-3.204812E-2],"split_indices":[0,11,0,5,2,70,19,2,0,5,78,47,81,0,0,0,0,0,0,0,0,0,0,0,0,0,0,0,0,0,0],"split_type":[0,0,0,0,0,0,0,0,0,0,0,0,0,0,0,0,0,0,0,0,0,0,0,0,0,0,0,0,0,0,0],"sum_hessian":[8.291323E3,4.781474E3,3.509849E3,3.1869766E3,1.5944974E3,3.1351038E3,3.747453E2,2.6329226E3,5.540539E2,1.1947257E3,3.9977173E2,9.628209E2,2.172283E3,2.1518633E1,3.5322668E2,1.5618872E3,1.0710355E3,3.5252374E2,2.0153017E2,1.0254387E3,1.6928697E2,1.6193484E2,2.378369E2,1.365427E2,8.2627826E2,1.9346877E3,2.3759512E2,1.294064E1,8.577992E0,1.0591616E2,2.4731052E2],"tree_param":{"num_deleted":"0","num_feature":"96","num_nodes":"31","size_leaf_vector":"1"}},{"base_weights":[-5.4450985E-3,6.971894E-2,-4.1480154E-1,1.857897E-1,-1.0175318E-1,4.3126482E-1,-4.6527314E-1,1.2932512E-1,7.134479E-1,-4.6120115E-2,-1.0082554E0,8.1347317E-1,-8.434692E-1,-2.9435536E-1,-8.198963E-1,7.421201E-3,-5.0364756E-3,2.3724161E-2,-5.7102093E-3,-3.0935258E-3,7.286953E-3,-3.1120194E-2,-1.20088095E-2,1.6502852E-3,2.8731707E-2,-6.3774195E-3,-3.3674844E-2,-1.3128184E-2,-2.19116E-3,-8.500064E-3,-2.892921E-2],"categories":[],"categories_nodes":[],"categories_segments":[],"categories_sizes":[],"default_left":[1,0,0,0,1,0,0,1,0,1,1,1,0,1,0,0,0,0,0,0,0,0,0,0,0,0,0,0,0,0,0],"id":32,"left_children":[1,3,5,7,9,11,13,15,17,19,21,23,25,27,29,-1,-1,-1,-1,-1,-1,-1,-1,-1,-1,-1,-1,-1,-1,-1,-1],"loss_changes":[2.5408856E2,1.388808E2,5.4905045E1,1.23879684E2,1.4201894E2,3.6076324E1,7.306363E1,1.3195944E2,2.8256332E1,4.376432E1,2.464096E0,6.117035E0,2.7973318E0,2.589074E1,3.0160828E1,0E0,0E0,0E0,0E0,0E0,0E0,0E0,0E0,0E0,0E0,0E0,0E0,0E0,0E0,0E0,0E0],"parents":[2147483647,0,0,1,1,2,2,3,3,4,4,5,5,6,6,7,7,8,8,9,9,10,10,11,11,12,12,13,13,14,14],"right_children":[2,4,6,8,10,12,14,16,18,20,22,24,26,28,30,-1,-1,-1,-1,-1,-1,-1,-1,-1,-1,-1,-1,-1,-1,-1,-1],"split_conditions":[1.3589085E-2,5.2813E2,-1.9E1,1E0,6.494328E0,-2.5E-1,1.4749087E-1,-5.5541374E-2,2.11E2,8.904486E-1,7.29E2,3.3E1,5.2813E2,6.345E3,-2.77E2,7.421201E-3,-5.0364756E-3,2.3724161E-2,-5.7102093E-3,-3.0935258E-3,7.286953E-3,-3.1120194E-2,-1.20088095E-2,1.6502852E-3,2.8731707E-2,-6.3774195E-3,-3.3674844E-2,-1.3128184E-2,-2.19116E-3,-8.500064E-3,-2.892921E-2],"split_indices":[2,48,1,5,1,48,2,2,48,8,70,16,48,53,48,0,0,0,0,0,0,0,0,0,0,0,0,0,0,0,0],"split_type":[0,0,0,0,0,0,0,0,0,0,0,0,0,0,0,0,0,0,0,0,0,0,0,0,0,0,0,0,0,0,0],"sum_hessian":[8.256031E3,6.975968E3,1.2800636E3,4.1599697E3,2.815998E3,7.163786E1,1.2084258E3,3.7589685E3,4.0100125E2,2.65416E3,1.6183794E2,5.5391476E1,1.6246387E1,8.166533E2,3.9177243E2,2.690495E3,1.0684734E3,3.6949985E2,3.1501394E1,2.2174912E3,4.366687E2,1.5377518E2,8.062759E0,9.072092E0,4.6319386E1,5.522241E0,1.0724147E1,4.9516962E2,3.2148373E2,8.3709625E1,3.080628E2],"tree_param":{"num_deleted":"0","num_feature":"96","num_nodes":"31","size_leaf_vector":"1"}},{"base_weights":[-2.7208189E-3,6.79071E-2,-6.12865E-1,2.7394822E-1,-1.0188936E-1,-4.354818E-1,-1.0284485E0,8.7853473E-1,2.1946053E-1,-1.0840181E-2,-4.1538936E-1,-2.3475042E-1,-7.338266E-1,-1.0560904E0,-8.701259E-3,1.7212683E-2,3.274026E-2,1.11138765E-2,2.2389812E-3,-4.4712373E-3,3.4633768E-3,-3.989269E-3,-1.5861683E-2,-1.1462001E-2,1.009642E-3,-2.3852231E-2,7.873265E-3,-3.466329E-2,-2.770784E-2],"categories":[],"categories_nodes":[],"categories_segments":[],"categories_sizes":[],"default_left":[0,1,0,0,1,1,0,0,0,0,0,1,1,0,0,0,0,0,0,0,0,0,0,0,0,0,0,0,0],"id":33,"left_children":[1,3,5,7,9,11,13,15,17,19,21,23,25,27,-1,-1,-1,-1,-1,-1,-1,-1,-1,-1,-1,-1,-1,-1,-1],"loss_changes":[3.565721E2,2.5947797E2,6.2834625E1,1.1018756E2,1.1606453E2,3.596248E1,4.9202576E0,1.7319016E1,6.7220764E1,5.5031742E1,2.9220993E1,1.4333134E1,1.49882965E1,2.1770325E0,0E0,0E0,0E0,0E0,0E0,0E0,0E0,0E0,0E0,0E0,0E0,0E0,0E0,0E0,0E0],"parents":[2147483647,0,0,1,1,2,2,3,3,4,4,5,5,6,6,7,7,8,8,9,9,10,10,11,11,12,12,13,13],"right_children":[2,4,6,8,10,12,14,16,18,20,22,24,26,28,-1,-1,-1,-1,-1,-1,-1,-1,-1,-1,-1,-1,-1,-1,-1],"split_conditions":[1.0340297E-1,-6.379876E-2,9.102423E-1,-1.7595745E1,2.2389775E-2,-1.8702967E-3,7.776E5,1.9E1,-2E0,5.677488E-1,-8.41E2,3.6E1,2.3636E4,1.186E3,-8.701259E-3,1.7212683E-2,3.274026E-2,1.11138765E-2,2.2389812E-3,-4.4712373E-3,3.4633768E-3,-3.989269E-3,-1.5861683E-2,-1.1462001E-2,1.009642E-3,-2.3852231E-2,7.873265E-3,-3.466329E-2,-2.770784E-2],"split_indices":[0,2,0,0,11,2,2,78,81,8,65,20,20,27,0,0,0,0,0,0,0,0,0,0,0,0,0,0,0],"split_type":[0,0,0,0,0,0,0,0,0,0,0,0,0,0,0,0,0,0,0,0,0,0,0,0,0,0,0,0,0],"sum_hessian":[8.272473E3,7.4150264E3,8.5744604E2,3.3496946E3,4.065332E3,6.023804E2,2.5506566E2,2.7567923E2,3.0740151E3,3.1511765E3,9.1415533E2,3.6116763E2,2.4121274E2,2.4544724E2,9.618422E0,1.1486618E2,1.6081306E2,1.5041663E3,1.569849E3,1.504523E3,1.6466537E3,2.6241672E2,6.517386E2,2.3290976E2,1.2825786E2,2.2743277E2,1.3779977E1,1.3585493E2,1.095923E2],"tree_param":{"num_deleted":"0","num_feature":"96","num_nodes":"29","size_leaf_vector":"1"}},{"base_weights":[5.883291E-3,7.16687E-2,-6.002582E-1,2.766664E-1,-6.56423E-2,-4.1093373E-1,-1.0154945E0,7.984889E-1,2.1799204E-1,1.7388916E-2,-3.46208E-1,-2.0316279E-1,-6.826393E-1,-4.9242175E-1,-1.0454341E0,1.4566266E-2,3.0567473E-2,1.1468513E-2,3.072688E-3,-1.6657771E-3,6.8826173E-3,-1.4014191E-2,-3.1699368E-3,-1.1206297E-3,-1.4687652E-2,-1.1722018E-2,-2.6680147E-2,-2.600976E-2,9.80221E-4,-1.612362E-2,-3.1693485E-2],"categories":[],"categories_nodes":[],"categories_segments":[],"categories_sizes":[],"default_left":[0,1,0,0,1,1,0,0,0,0,0,1,0,1,0,0,0,0,0,0,0,0,0,0,0,0,0,0,0,0,0],"id":34,"left_children":[1,3,5,7,9,11,13,15,17,19,21,23,25,27,29,-1,-1,-1,-1,-1,-1,-1,-1,-1,-1,-1,-1,-1,-1,-1,-1],"loss_changes":[3.2855157E2,2.0923741E2,6.3000336E1,9.1118164E1,1.03719025E2,3.123471E1,3.4308167E0,2.0268982E1,5.0878197E1,5.3138905E1,2.9526176E1,1.50057535E1,1.4157272E1,3.0829525E0,7.6068115E-1,0E0,0E0,0E0,0E0,0E0,0E0,0E0,0E0,0E0,0E0,0E0,0E0,0E0,0E0,0E0,0E0],"parents":[2147483647,0,0,1,1,2,2,3,3,4,4,5,5,6,6,7,7,8,8,9,9,10,10,11,11,12,12,13,13,14,14],"right_children":[2,4,6,8,10,12,14,16,18,20,22,24,26,28,30,-1,-1,-1,-1,-1,-1,-1,-1,-1,-1,-1,-1,-1,-1,-1,-1],"split_conditions":[1.06985874E-1,-7.728291E-2,9.102423E-1,-1.1965278E1,2.1322973E-2,-7.483372E-3,1E-1,2.9393E2,-1.823657E-2,6.17283E5,3.496E3,-1.198E3,-4.26E2,3.92E2,-3.4258554E2,1.4566266E-2,3.0567473E-2,1.1468513E-2,3.072688E-3,-1.6657771E-3,6.8826173E-3,-1.4014191E-2,-3.1699368E-3,-1.1206297E-3,-1.4687652E-2,-1.1722018E-2,-2.6680147E-2,-2.600976E-2,9.80221E-4,-1.612362E-2,-3.1693485E-2],"split_indices":[0,2,0,0,11,2,19,16,11,60,53,46,77,16,5,0,0,0,0,0,0,0,0,0,0,0,0,0,0,0,0],"split_type":[0,0,0,0,0,0,0,0,0,0,0,0,0,0,0,0,0,0,0,0,0,0,0,0,0,0,0,0,0,0,0],"sum_hessian":[8.237404E3,7.431712E3,8.056927E2,2.980691E3,4.451021E3,5.547483E2,2.5094443E2,3.000022E2,2.6806887E3,3.4353071E3,1.0157141E3,3.153503E2,2.3939798E2,1.4530518E1,2.364139E2,1.2530527E2,1.7469691E2,1.106043E3,1.5746459E3,2.556797E3,8.785098E2,6.752795E2,3.404346E2,2.0044527E2,1.1490503E2,1.0044187E2,1.3895612E2,8.100802E0,6.4297156E0,6.074552E0,2.3033936E2],"tree_param":{"num_deleted":"0","num_feature":"96","num_nodes":"31","size_leaf_vector":"1"}},{"base_weights":[-5.9155177E-4,8.111627E-2,-4.6175402E-1,6.825403E-1,3.2129776E-2,-3.3101928E-1,-9.837656E-1,4.695497E-1,1.0721133E0,1.107442E-1,-2.0538047E-1,-4.9394602E-1,-1.04491755E-1,-5.5357486E-1,-1.0257096E0,2.5015164E-2,9.270346E-3,3.3282064E-2,6.207297E-3,-1.8271836E-3,6.2191337E-3,-1.5482002E-2,-1.4899696E-3,-2.2758026E-2,-1.0284167E-2,-5.871226E-3,8.355266E-3,1.2150342E-2,-2.8779436E-2,-2.2866942E-2,-3.2101408E-2],"categories":[],"categories_nodes":[],"categories_segments":[],"categories_sizes":[],"default_left":[0,0,0,1,1,1,1,0,0,0,0,0,0,0,0,0,0,0,0,0,0,0,0,0,0,0,0,0,0,0,0],"id":35,"left_children":[1,3,5,7,9,11,13,15,17,19,21,23,25,27,29,-1,-1,-1,-1,-1,-1,-1,-1,-1,-1,-1,-1,-1,-1,-1,-1],"loss_changes":[3.1044366E2,2.0617426E2,8.4300354E1,4.323076E1,1.2087971E2,3.6604065E1,3.904419E0,1.9775223E1,5.7560577E0,8.062694E1,7.7863594E1,2.28367E1,1.4614359E1,9.797459E0,1.8088226E0,0E0,0E0,0E0,0E0,0E0,0E0,0E0,0E0,0E0,0E0,0E0,0E0,0E0,0E0,0E0,0E0],"parents":[2147483647,0,0,1,1,2,2,3,3,4,4,5,5,6,6,7,7,8,8,9,9,10,10,11,11,12,12,13,13,14,14],"right_children":[2,4,6,8,10,12,14,16,18,20,22,24,26,28,30,-1,-1,-1,-1,-1,-1,-1,-1,-1,-1,-1,-1,-1,-1,-1,-1],"split_conditions":[7.5316794E-2,-2.7675667E0,9.102423E-1,1.03E2,-4.057392E-3,1.5573837E-1,1E-2,-8.377698E1,-3.2617254E0,8.25E0,-2.689E1,1.2E2,1.91559E5,7.8348804E0,-7.405322E1,2.5015164E-2,9.270346E-3,3.3282064E-2,6.207297E-3,-1.8271836E-3,6.2191337E-3,-1.5482002E-2,-1.4899696E-3,-2.2758026E-2,-1.0284167E-2,-5.871226E-3,8.355266E-3,1.2150342E-2,-2.8779436E-2,-2.2866942E-2,-3.2101408E-2],"split_indices":[0,0,0,24,2,1,29,0,0,71,68,91,51,0,2,0,0,0,0,0,0,0,0,0,0,0,0,0,0,0,0],"split_type":[0,0,0,0,0,0,0,0,0,0,0,0,0,0,0,0,0,0,0,0,0,0,0,0,0,0,0,0,0,0,0],"sum_hessian":[8.236829E3,6.997798E3,1.2390314E3,5.260739E2,6.471724E3,9.921798E2,2.4685153E2,3.415462E2,1.8452774E2,4.8627256E3,1.6089984E3,5.764184E2,4.1576138E2,2.3191427E1,2.2366011E2,1.0319184E2,2.3835435E2,1.7663287E2,7.894866E0,1.7507948E3,3.1119307E3,5.3641504E2,1.0725834E3,2.0806555E2,3.6835287E2,3.3618442E2,7.957698E1,6.897479E0,1.629395E1,3.4835922E1,1.8882419E2],"tree_param":{"num_deleted":"0","num_feature":"96","num_nodes":"31","size_leaf_vector":"1"}},{"base_weights":[1.8120452E-3,1.667028E-1,-2.2601517E-1,8.6542785E-2,5.960642E-1,-1.6826567E-1,-9.7406536E-1,2.4943167E-1,-2.2632688E-1,8.535385E-1,2.909111E-1,-2.8371304E-1,1.6154762E-2,-1.0224756E0,-6.357475E-1,2.8773241E-3,1.2708343E-2,2.0294604E-3,-1.0621767E-2,2.0451115E-2,3.795325E-2,1.1887083E-2,-7.863063E-3,-6.5387976E-3,-1.6733821E-2,5.8151656E-3,-4.5053633E-3,-3.1170504E-2,-1.0108054E-2,1.3628998E-2,-2.5989242E-2],"categories":[],"categories_nodes":[],"categories_segments":[],"categories_sizes":[],"default_left":[0,0,0,0,0,1,1,0,0,0,0,0,1,0,1,0,0,0,0,0,0,0,0,0,0,0,0,0,0,0,0],"id":36,"left_children":[1,3,5,7,9,11,13,15,17,19,21,23,25,27,29,-1,-1,-1,-1,-1,-1,-1,-1,-1,-1,-1,-1,-1,-1,-1,-1],"loss_changes":[3.0943658E2,1.6441393E2,1.4924094E2,2.0533124E2,5.880481E1,6.838722E1,3.4059906E0,7.080296E1,5.1827736E1,2.7930847E1,2.0226383E1,3.547754E1,3.66027E1,2.0880585E0,8.849213E0,0E0,0E0,0E0,0E0,0E0,0E0,0E0,0E0,0E0,0E0,0E0,0E0,0E0,0E0,0E0,0E0],"parents":[2147483647,0,0,1,1,2,2,3,3,4,4,5,5,6,6,7,7,8,8,9,9,10,10,11,11,12,12,13,13,14,14],"right_children":[2,4,6,8,10,12,14,16,18,20,22,24,26,28,30,-1,-1,-1,-1,-1,-1,-1,-1,-1,-1,-1,-1,-1,-1,-1,-1],"split_conditions":[8.3425855E-3,1E0,9.102423E-1,-5.378831E-2,1.2630975E-4,3.96E1,-3.1167823E-1,4.114209E2,-3.4660168E-3,1.47034E5,3.932158E9,9.198831E-2,-4.4E1,6.5987366E2,-6.7211E4,2.8773241E-3,1.2708343E-2,2.0294604E-3,-1.0621767E-2,2.0451115E-2,3.795325E-2,1.1887083E-2,-7.863063E-3,-6.5387976E-3,-1.6733821E-2,5.8151656E-3,-4.5053633E-3,-3.1170504E-2,-1.0108054E-2,1.3628998E-2,-2.5989242E-2],"split_indices":[0,5,0,2,0,70,9,64,11,60,64,0,81,7,18,0,0,0,0,0,0,0,0,0,0,0,0,0,0,0,0],"split_type":[0,0,0,0,0,0,0,0,0,0,0,0,0,0,0,0,0,0,0,0,0,0,0,0,0,0,0,0,0,0,0],"sum_hessian":[8.23501E3,4.7775264E3,3.4574832E3,4.0269185E3,7.5060767E2,3.2108318E3,2.4665141E2,2.6483267E3,1.3785918E3,4.0613358E2,3.444741E2,1.9743489E3,1.2364829E3,2.1400674E2,3.264468E1,1.4084655E3,1.2398613E3,4.1770737E2,9.608844E2,2.8838586E2,1.177477E2,2.8960114E2,5.4872944E1,1.593788E3,3.8056088E2,5.977632E2,6.387197E2,2.084612E2,5.545533E0,5.5299063E0,2.7114773E1],"tree_param":{"num_deleted":"0","num_feature":"96","num_nodes":"31","size_leaf_vector":"1"}},{"base_weights":[-3.4916552E-3,7.545858E-2,-4.7626978E-1,2.838789E-1,-6.3240275E-2,-3.300404E-1,-9.1320777E-1,8.5423976E-1,2.2126685E-1,2.8725931E-2,-2.940988E-1,-1.9200583E-1,-5.971576E-1,-2.3432742E-1,-9.6569264E-1,2.7035791E-2,-3.1344768E-2,2.0432211E-3,1.0292258E-2,-7.8869155E-3,2.3091591E-3,-1.2466063E-2,-4.5614355E-4,-7.5086295E-3,9.478261E-3,-1.2369289E-2,-2.4949402E-2,-2.2754326E-2,9.791649E-3,-2.9580958E-2,-6.2823053E-3],"categories":[],"categories_nodes":[],"categories_segments":[],"categories_sizes":[],"default_left":[0,0,0,0,1,1,0,0,0,1,0,1,0,1,1,0,0,0,0,0,0,0,0,0,0,0,0,0,0,0,0],"id":37,"left_children":[1,3,5,7,9,11,13,15,17,19,21,23,25,27,29,-1,-1,-1,-1,-1,-1,-1,-1,-1,-1,-1,-1,-1,-1,-1,-1],"loss_changes":[3.0725342E2,2.0392548E2,7.495929E1,1.0046944E2,8.9945755E1,3.248401E1,1.0277618E1,2.5771622E1,4.7385437E1,4.2654526E1,4.0867752E1,1.7378967E1,1.2692787E1,6.853188E0,3.9977875E0,0E0,0E0,0E0,0E0,0E0,0E0,0E0,0E0,0E0,0E0,0E0,0E0,0E0,0E0,0E0,0E0],"parents":[2147483647,0,0,1,1,2,2,3,3,4,4,5,5,6,6,7,7,8,8,9,9,10,10,11,11,12,12,13,13,14,14],"right_children":[2,4,6,8,10,12,14,16,18,20,22,24,26,28,30,-1,-1,-1,-1,-1,-1,-1,-1,-1,-1,-1,-1,-1,-1,-1,-1],"split_conditions":[7.9001985E-2,-1.4854803E-3,3.264133E-1,-7.129296E-1,-3.6797272E-3,-2.6377619E-3,3.8E-1,3.061404E-2,1.19E1,4E-2,3.9E1,5.45E2,-4.8E1,3.92E2,5.578123E6,2.7035791E-2,-3.1344768E-2,2.0432211E-3,1.0292258E-2,-7.8869155E-3,2.3091591E-3,-1.2466063E-2,-4.5614355E-4,-7.5086295E-3,9.478261E-3,-1.2369289E-2,-2.4949402E-2,-2.2754326E-2,9.791649E-3,-2.9580958E-2,-6.2823053E-3],"split_indices":[0,11,0,9,2,2,19,0,71,47,45,44,77,16,16,0,0,0,0,0,0,0,0,0,0,0,0,0,0,0,0],"split_type":[0,0,0,0,0,0,0,0,0,0,0,0,0,0,0,0,0,0,0,0,0,0,0,0,0,0,0,0,0,0,0],"sum_hessian":[8.229669E3,7.0527544E3,1.1769142E3,2.81766E3,4.2350947E3,8.831178E2,2.937964E2,2.7746503E2,2.5401948E3,3.0292285E3,1.2058662E3,5.833742E2,2.997436E2,2.1475832E1,2.7232056E2,2.7128314E2,6.1818743E0,1.1259752E3,1.4142196E3,4.2938177E2,2.5998467E3,8.3973645E2,3.6612976E2,5.237828E2,5.9591457E1,1.6915608E2,1.3058751E2,1.0917547E1,1.0558284E1,2.648928E2,7.427751E0],"tree_param":{"num_deleted":"0","num_feature":"96","num_nodes":"31","size_leaf_vector":"1"}},{"base_weights":[-2.742457E-4,2.2243887E-1,-1.389837E-1,1.09895706E-1,4.783919E-1,1.2740941E-1,-2.5635192E-1,3.3807507E-1,-2.5138421E-2,5.9704244E-1,2.468504E-1,4.6036807E-1,2.7171709E-2,-1.6363576E-1,-6.593596E-1,4.930008E-3,1.5528209E-2,-4.7370195E-3,4.68589E-3,7.698491E-3,2.2397397E-2,-7.946661E-4,1.7180488E-2,2.2200155E-3,1.8461192E-2,2.8388232E-3,-1.5070585E-2,-1.6368007E-2,-3.097381E-3,-1.5688665E-2,-2.9466763E-2],"categories":[],"categories_nodes":[],"categories_segments":[],"categories_sizes":[],"default_left":[0,0,0,0,0,0,1,0,1,1,1,0,1,0,1,0,0,0,0,0,0,0,0,0,0,0,0,0,0,0,0],"id":38,"left_children":[1,3,5,7,9,11,13,15,17,19,21,23,25,27,29,-1,-1,-1,-1,-1,-1,-1,-1,-1,-1,-1,-1,-1,-1,-1,-1],"loss_changes":[2.5349649E2,9.0664764E1,1.5812982E2,6.744822E1,2.626825E1,5.1623043E1,1.3105832E2,2.5298904E1,3.3149956E1,3.21362E1,2.9182E1,2.1390465E1,4.256093E1,6.580269E1,2.8386475E1,0E0,0E0,0E0,0E0,0E0,0E0,0E0,0E0,0E0,0E0,0E0,0E0,0E0,0E0,0E0,0E0],"parents":[2147483647,0,0,1,1,2,2,3,3,4,4,5,5,6,6,7,7,8,8,9,9,10,10,11,11,12,12,13,13,14,14],"right_children":[2,4,6,8,10,12,14,16,18,20,22,24,26,28,30,-1,-1,-1,-1,-1,-1,-1,-1,-1,-1,-1,-1,-1,-1,-1,-1],"split_conditions":[-7.3400507E-4,7.887829E-1,-9.18E2,-8.994709E-2,3.584E1,-3.6116493E-1,1.20553866E-1,1.015E1,3.75E2,7.75E0,1.033E3,3.1778221E1,7.958309E-1,4.63E0,1.514E3,4.930008E-3,1.5528209E-2,-4.7370195E-3,4.68589E-3,7.698491E-3,2.2397397E-2,-7.946661E-4,1.7180488E-2,2.2200155E-3,1.8461192E-2,2.8388232E-3,-1.5070585E-2,-1.6368007E-2,-3.097381E-3,-1.5688665E-2,-2.9466763E-2],"split_indices":[11,8,65,2,65,2,11,70,33,24,29,11,5,70,46,0,0,0,0,0,0,0,0,0,0,0,0,0,0,0,0],"split_type":[0,0,0,0,0,0,0,0,0,0,0,0,0,0,0,0,0,0,0,0,0,0,0,0,0,0,0,0,0,0,0],"sum_hessian":[8.203783E3,3.1482773E3,5.0555054E3,2.1877483E3,9.60529E2,1.546132E3,3.5093735E3,8.1279376E2,1.3749546E3,6.3404297E2,3.26486E2,3.569296E2,1.1892024E3,2.8541519E3,6.552218E2,4.1403146E2,3.987623E2,7.938646E2,5.8109E2,1.9433965E2,4.3970334E2,1.7804427E2,1.4844174E2,1.02618576E2,2.5431102E2,1.0555571E3,1.3364532E2,3.885489E2,2.465603E3,4.6246136E2,1.9276044E2],"tree_param":{"num_deleted":"0","num_feature":"96","num_nodes":"31","size_leaf_vector":"1"}},{"base_weights":[5.344652E-3,7.951753E-2,-4.3460354E-1,8.333316E-1,4.3703735E-2,-3.0105913E-1,-9.586864E-1,5.612008E-1,1.1022978E0,1.23096235E-1,-1.9776307E-1,-1.5167557E-1,-5.847998E-1,-2.5803185E-1,-9.897083E-1,2.3493527E-2,4.6167388E-3,1.52323805E-2,3.3757277E-2,-5.652088E-4,6.771268E-3,-1.30935125E-2,-1.0576491E-3,-6.5139565E-3,1.3255277E-2,-7.082152E-3,-2.1641908E-2,7.4566742E-3,-2.2682397E-2,-3.0962884E-2,-1.6563555E-2],"categories":[],"categories_nodes":[],"categories_segments":[],"categories_sizes":[],"default_left":[0,0,0,1,0,1,0,1,0,0,1,1,0,0,0,0,0,0,0,0,0,0,0,0,0,0,0,0,0,0,0],"id":39,"left_children":[1,3,5,7,9,11,13,15,17,19,21,23,25,27,29,-1,-1,-1,-1,-1,-1,-1,-1,-1,-1,-1,-1,-1,-1,-1,-1],"loss_changes":[2.6691733E2,1.8892668E2,8.2303055E1,2.2613571E1,1.2814221E2,3.9834717E1,4.943344E0,1.4324684E1,1.5921631E0,7.326378E1,6.414143E1,2.4120049E1,1.528772E1,3.0878012E0,3.6719513E0,0E0,0E0,0E0,0E0,0E0,0E0,0E0,0E0,0E0,0E0,0E0,0E0,0E0,0E0,0E0,0E0],"parents":[2147483647,0,0,1,1,2,2,3,3,4,4,5,5,6,6,7,7,8,8,9,9,10,10,11,11,12,12,13,13,14,14],"right_children":[2,4,6,8,10,12,14,16,18,20,22,24,26,28,30,-1,-1,-1,-1,-1,-1,-1,-1,-1,-1,-1,-1,-1,-1,-1,-1],"split_conditions":[7.711238E-2,-1.1965278E1,9.102423E-1,4.4E1,-4.057392E-3,-2.6377619E-3,1.586E1,9.8E1,2E0,1.131E1,1.69E0,5.45E2,-1.236E3,5.5706345E1,2.0287E4,2.3493527E-2,4.6167388E-3,1.52323805E-2,3.3757277E-2,-5.652088E-4,6.771268E-3,-1.30935125E-2,-1.0576491E-3,-6.5139565E-3,1.3255277E-2,-7.082152E-3,-2.1641908E-2,7.4566742E-3,-2.2682397E-2,-3.0962884E-2,-1.6563555E-2],"split_indices":[0,0,0,78,2,2,28,95,26,70,68,44,52,11,58,0,0,0,0,0,0,0,0,0,0,0,0,0,0,0,0],"split_type":[0,0,0,0,0,0,0,0,0,0,0,0,0,0,0,0,0,0,0,0,0,0,0,0,0,0,0,0,0,0,0],"sum_hessian":[8.1775034E3,6.9984263E3,1.1790774E3,3.1640558E2,6.6820205E3,9.408968E2,2.3818059E2,1.5881177E2,1.5759381E2,5.02901E3,1.6530111E3,6.173889E2,3.2350787E2,1.0493521E1,2.2768707E2,1.0220446E2,5.660731E1,6.7152843E0,1.5087854E2,2.1105117E3,2.9184978E3,6.6888525E2,9.841258E2,5.5663446E2,6.075444E1,9.182075E1,2.3168712E2,5.4505033E0,5.0430174E0,2.0634094E2,2.1346125E1],"tree_param":{"num_deleted":"0","num_feature":"96","num_nodes":"31","size_leaf_vector":"1"}},{"base_weights":[-1.7055986E-3,1.0226442E-1,-3.2743093E-1,1.8903321E-1,-1.817009E-1,-2.4563012E-1,-9.442097E-1,8.1102306E-1,1.5741113E-1,6.276485E-1,-2.3634219E-1,-7.202207E-1,-1.9301158E-1,-9.991966E-3,-9.6879643E-1,1.6503869E-2,3.159475E-2,2.7168714E-4,8.722134E-3,2.522449E-2,-4.7231894E-3,-1.5589386E-2,-1.3657493E-3,-1.4547907E-2,-2.6372995E-2,-9.74075E-3,-1.3117157E-3,-3.0729806E-2,-2.4206165E-2],"categories":[],"categories_nodes":[],"categories_segments":[],"categories_sizes":[],"default_left":[0,1,0,0,0,0,0,1,0,1,0,0,1,0,0,0,0,0,0,0,0,0,0,0,0,0,0,0,0],"id":40,"left_children":[1,3,5,7,9,11,13,15,17,19,21,23,25,-1,27,-1,-1,-1,-1,-1,-1,-1,-1,-1,-1,-1,-1,-1,-1],"loss_changes":[2.7754144E2,1.5310391E2,9.981467E1,9.3473495E1,6.447193E1,4.3615417E1,3.1610413E0,1.3949966E1,8.95975E1,1.5572651E1,7.3672005E1,6.0971985E0,3.1018574E1,0E0,1.1728668E0,0E0,0E0,0E0,0E0,0E0,0E0,0E0,0E0,0E0,0E0,0E0,0E0,0E0,0E0],"parents":[2147483647,0,0,1,1,2,2,3,3,4,4,5,5,6,6,7,7,8,8,9,9,10,10,11,11,12,12,14,14],"right_children":[2,4,6,8,10,12,14,16,18,20,22,24,26,-1,28,-1,-1,-1,-1,-1,-1,-1,-1,-1,-1,-1,-1,-1,-1],"split_conditions":[4.3308526E-2,-4.057392E-3,9.102423E-1,-2.6964922E1,-7.573397E-1,-2.5E-1,1.586E1,3.6E1,1.21E1,-1.0098783E-1,5.01E0,-6.6E1,3.96E1,-9.991966E-3,1.16998E5,1.6503869E-2,3.159475E-2,2.7168714E-4,8.722134E-3,2.522449E-2,-4.7231894E-3,-1.5589386E-2,-1.3657493E-3,-1.4547907E-2,-2.6372995E-2,-9.74075E-3,-1.3117157E-3,-3.0729806E-2,-2.4206165E-2],"split_indices":[0,2,0,0,0,91,28,78,71,9,68,18,70,0,57,0,0,0,0,0,0,0,0,0,0,0,0,0,0],"split_type":[0,0,0,0,0,0,0,0,0,0,0,0,0,0,0,0,0,0,0,0,0,0,0,0,0,0,0,0,0],"sum_hessian":[8.193374E3,6.2114077E3,1.9819666E3,4.757909E3,1.4534984E3,1.751121E3,2.3084563E2,2.2899768E2,4.5289116E3,9.126028E1,1.362238E3,1.7350577E2,1.5776152E3,9.490475E0,2.2135516E2,1.11804E2,1.1719367E2,2.1441484E3,2.3847632E3,7.1716705E1,1.9543573E1,5.4755963E2,8.1467847E2,7.156884E1,1.0193693E2,8.3761615E2,7.399991E2,1.6086273E2,6.049242E1],"tree_param":{"num_deleted":"0","num_feature":"96","num_nodes":"29","size_leaf_vector":"1"}},{"base_weights":[-5.1693683E-3,1.4628577E-1,-2.1384797E-1,7.174305E-2,5.482051E-1,-1.6317376E-1,-9.2406374E-1,2.2202879E-1,-2.1297437E-1,7.9908866E-1,2.5494266E-1,-5.5654895E-1,-1.1835934E-1,-9.57712E-1,-3.3320645E-3,2.3916773E-3,1.2452268E-2,-2.4087229E-3,-1.4569214E-2,1.8338056E-2,3.726976E-2,-2.3204336E-2,9.430828E-3,-1.0224355E-2,-2.2897663E-2,-2.050411E-3,-1.3667182E-2,-1.2576704E-2,-2.941692E-2],"categories":[],"categories_nodes":[],"categories_segments":[],"categories_sizes":[],"default_left":[0,0,0,0,0,0,0,0,0,0,1,0,1,0,0,0,0,0,0,0,0,0,0,0,0,0,0,0,0],"id":41,"left_children":[1,3,5,7,9,11,13,15,17,19,21,23,25,27,-1,-1,-1,-1,-1,-1,-1,-1,-1,-1,-1,-1,-1,-1,-1],"loss_changes":[2.590281E2,1.4224106E2,1.23894745E2,1.7150935E2,5.444986E1,5.6670433E1,6.16716E0,7.2032074E1,5.0064743E1,3.2529526E1,2.1261349E1,1.4405975E1,4.8716515E1,2.2972107E0,0E0,0E0,0E0,0E0,0E0,0E0,0E0,0E0,0E0,0E0,0E0,0E0,0E0,0E0,0E0],"parents":[2147483647,0,0,1,1,2,2,3,3,4,4,5,5,6,6,7,7,8,8,9,9,10,10,11,11,12,12,13,13],"right_children":[2,4,6,8,10,12,14,16,18,20,22,24,26,28,-1,-1,-1,-1,-1,-1,-1,-1,-1,-1,-1,-1,-1,-1,-1],"split_conditions":[8.3425855E-3,1E0,9.102423E-1,-5.4538812E-2,2.5724104E-4,-2.5E-1,7.776E5,1.276E1,-3.198817E-3,3.403E3,4.38E0,-3.03E1,1.7E1,1.586E1,-3.3320645E-3,2.3916773E-3,1.2452268E-2,-2.4087229E-3,-1.4569214E-2,1.8338056E-2,3.726976E-2,-2.3204336E-2,9.430828E-3,-1.0224355E-2,-2.2897663E-2,-2.050411E-3,-1.3667182E-2,-1.2576704E-2,-2.941692E-2],"split_indices":[0,5,0,2,0,91,2,70,0,90,28,81,81,28,0,0,0,0,0,0,0,0,0,0,0,0,0,0,0],"split_type":[0,0,0,0,0,0,0,0,0,0,0,0,0,0,0,0,0,0,0,0,0,0,0,0,0,0,0,0,0],"sum_hessian":[8.193689E3,4.7479863E3,3.4457034E3,4.0061558E3,7.418307E2,3.2173723E3,2.2833113E2,2.6222454E3,1.3839104E3,3.988732E2,3.429575E2,3.278785E2,2.8894937E3,2.1908562E2,9.245512E0,1.5103156E3,1.1119298E3,9.3178406E2,4.521263E2,2.8182843E2,1.1704477E2,1.8076094E1,3.248814E2,1.6173079E2,1.661477E2,2.5173474E3,3.7214645E2,9.706485E0,2.0937914E2],"tree_param":{"num_deleted":"0","num_feature":"96","num_nodes":"29","size_leaf_vector":"1"}},{"base_weights":[5.900484E-3,1.4316458E-1,-1.9142392E-1,-3.8615465E-2,2.9854304E-1,-1.3709113E-1,-8.7421006E-1,-1.1170948E-1,4.8921537E-1,8.834251E-1,2.457817E-1,-2.6215377E-1,2.504975E-2,-9.0828866E-1,-6.924822E-2,6.4654676E-3,-7.569048E-3,1.1235294E-2,2.951328E-2,1.9518282E-2,3.2113925E-2,-1.7010606E-3,1.0975239E-2,-2.215118E-2,-6.075605E-3,2.673643E-3,-1.1769411E-2,-1.6117396E-2,