{"learner":{"attributes":{"best_iteration":"262","best_score":"0.7241492278506831"},"feature_names":["current_ratio","quick_ratio","cash_ratio","working_cap_to_assets","cfo_to_current_liab","cfo_to_total_liab","cfo_to_total_debt","cfo_to_assets","fcf_to_assets","fcf_to_debt","debt_to_assets","debt_to_equity","total_liab_to_assets","equity_to_assets","equity_to_liab","lt_debt_to_assets","st_debt_to_assets","current_liab_to_assets","interest_coverage_ebitda","fixed_assets_to_lt_debt","roa","roa_avg_assets","roe","roe_avg_equity","return_on_fixed_assets","return_on_current_assets","log_assets","log_book_equity","asset_growth","equity_growth","ni_growth","accruals","total_accruals","delta_nwc_to_assets","capx_to_assets","delta_fixed_assets_to_assets"],"feature_types":["float","float","float","float","float","float","float","float","float","float","float","float","float","float","float","float","float","float","float","float","float","float","float","float","float","float","float","float","float","float","float","float","float","float","float","float"],"gradient_booster":{"model":{"cats":{"enc":[],"feature_segments":[],"sorted_idx":[]},"gbtree_model_param":{"num_parallel_tree":"1","num_trees":"313"},"iteration_indptr":[0,1,2,3,4,5,6,7,8,9,10,11,12,13,14,15,16,17,18,19,20,21,22,23,24,25,26,27,28,29,30,31,32,33,34,35,36,37,38,39,40,41,42,43,44,45,46,47,48,49,50,51,52,53,54,55,56,57,58,59,60,61,62,63,64,65,66,67,68,69,70,71,72,73,74,75,76,77,78,79,80,81,82,83,84,85,86,87,88,89,90,91,92,93,94,95,96,97,98,99,100,101,102,103,104,105,106,107,108,109,110,111,112,113,114,115,116,117,118,119,120,121,122,123,124,125,126,127,128,129,130,131,132,133,134,135,136,137,138,139,140,141,142,143,144,145,146,147,148,149,150,151,152,153,154,155,156,157,158,159,160,161,162,163,164,165,166,167,168,169,170,171,172,173,174,175,176,177,178,179,180,181,182,183,184,185,186,187,188,189,190,191,192,193,194,195,196,197,198,199,200,201,202,203,204,205,206,207,208,209,210,211,212,213,214,215,216,217,218,219,220,221,222,223,224,225,226,227,228,229,230,231,232,233,234,235,236,237,238,239,240,241,242,243,244,245,246,247,248,249,250,251,252,253,254,255,256,257,258,259,260,261,262,263,264,265,266,267,268,269,270,271,272,273,274,275,276,277,278,279,280,281,282,283,284,285,286,287,288,289,290,291,292,293,294,295,296,297,298,299,300,301,302,303,304,305,306,307,308,309,310,311,312,313],"tree_info":[0,0,0,0,0,0,0,0,0,0,0,0,0,0,0,0,0,0,0,0,0,0,0,0,0,0,0,0,0,0,0,0,0,0,0,0,0,0,0,0,0,0,0,0,0,0,0,0,0,0,0,0,0,0,0,0,0,0,0,0,0,0,0,0,0,0,0,0,0,0,0,0,0,0,0,0,0,0,0,0,0,0,0,0,0,0,0,0,0,0,0,0,0,0,0,0,0,0,0,0,0,0,0,0,0,0,0,0,0,0,0,0,0,0,0,0,0,0,0,0,0,0,0,0,0,0,0,0,0,0,0,0,0,0,0,0,0,0,0,0,0,0,0,0,0,0,0,0,0,0,0,0,0,0,0,0,0,0,0,0,0,0,0,0,0,0,0,0,0,0,0,0,0,0,0,0,0,0,0,0,0,0,0,0,0,0,0,0,0,0,0,0,0,0,0,0,0,0,0,0,0,0,0,0,0,0,0,0,0,0,0,0,0,0,0,0,0,0,0,0,0,0,0,0,0,0,0,0,0,0,0,0,0,0,0,0,0,0,0,0,0,0,0,0,0,0,0,0,0,0,0,0,0,0,0,0,0,0,0,0,0,0,0,0,0,0,0,0,0,0,0,0,0,0,0,0,0,0,0,0,0,0,0,0,0,0,0,0,0,0,0,0,0,0,0,0,0,0,0,0,0,0,0,0,0,0,0,0,0,0,0,0,0],"trees":[{"base_weights":[-3.1591621E-3,3.8844335E-1,-5.523469E-1,1.6150393E0,2.730016E-1,-3.5554484E-1,-1.6427896E0,1.270341E0,1.8442287E0,4.5603243E-1,-4.4960892E-1,-1.7996399E-1,-5.9548944E-1,-1.2452607E0,-1.8205798E0,9.561565E-1,1.6898636E0,1.7340318E0,1.9115981E0,7.50844E-1,3.4372672E-1,-6.764113E-1,3.5406226E-1,-9.6633977E-1,-1.4089344E-1,-4.5099702E-1,-1.023518E0,-8.165973E-1,-1.6419524E0,-1.8416052E0,-8.573789E-2,1.150265E0,5.6346065E-1,8.0382496E-2,1.8071634E0,1.8780373E0,1.575759E0,1.3313842E-1,1.7501763E0,8.1909037E-1,1.9797309E-1,1.7521556E-1,5.2820826E-1,-2.7477884E-1,-1.2294497E0,9.487929E-2,6.18736E-1,-1.3716387E0,-6.633107E-1,3.9130677E-2,-2.9615897E-1,-9.0895206E-2,-4.2524454E-1,-3.456614E-1,-1.0956851E0,-9.3777215E-1,-1.4426774E-2,-1.5116935E0,-1.863461E0,-1.8115191E0,-1.921157E0,1.0448061E-1,6.581927E-2,7.2912006E-3,7.344362E-2,1.111867E-1,1.2843642E-1,1.1331591E-1,1.3410927E-1,1.1599559E-1,8.680669E-2,1.04779914E-1,1.3544142E-1,4.846221E-2,1.04080625E-1,-2.4302118E-2,2.8487373E-2,3.140478E-2,-9.132814E-5,2.3455162E-2,4.6191998E-2,3.4429625E-2,-2.3061119E-2,-9.354388E-2,-2.1050332E-2,3.2576382E-2,-5.0040907E-3,7.690206E-2,3.0935515E-2,-1.1875159E-1,-5.7300884E-2,-6.329333E-2,-2.2442847E-2,-1.029694E-2,8.87049E-3,-6.281195E-2,-1.7306468E-2,-3.776574E-2,-1.9598532E-2,5.727906E-3,-6.0710974E-2,-9.531799E-2,-6.5383814E-2,-4.7591772E-2,-9.674506E-2,-8.882205E-2,-1.19624406E-1,-1.355081E-1,-1.1474295E-1,-1.1875248E-1,-1.2731367E-1,-1.3362661E-1,-1.2140952E-1],"categories":[],"categories_nodes":[],"categories_segments":[],"categories_sizes":[],"default_left":[0,0,0,0,1,0,0,0,0,0,0,0,0,1,0,1,0,1,1,0,0,0,1,1,0,0,0,0,0,0,0,0,0,0,1,0,1,0,1,1,0,0,0,0,1,0,0,0,1,1,1,0,1,1,0,1,0,1,0,0,0,0,0,0,0,0,0,0,0,0,0,0,0,0,0,0,0,0,0,0,0,0,0,0,0,0,0,0,0,0,0,0,0,0,0,0,0,0,0,0,0,0,0,0,0,0,0,0,0,0,0,0,0],"id":0,"left_children":[1,3,5,7,9,11,13,15,17,19,21,23,25,27,29,31,33,35,37,39,41,43,45,47,49,51,53,55,57,59,-1,61,63,-1,65,67,69,-1,71,73,75,77,79,81,83,85,87,89,91,93,95,-1,97,99,101,103,-1,105,107,109,111,-1,-1,-1,-1,-1,-1,-1,-1,-1,-1,-1,-1,-1,-1,-1,-1,-1,-1,-1,-1,-1,-1,-1,-1,-1,-1,-1,-1,-1,-1,-1,-1,-1,-1,-1,-1,-1,-1,-1,-1,-1,-1,-1,-1,-1,-1,-1,-1,-1,-1,-1,-1],"loss_changes":[2.1163398E3,8.1314215E2,8.787881E2,3.8579224E1,6.9440485E2,1.4609476E2,4.3813232E1,2.5673645E1,1.6594849E0,1.3856207E2,1.93432E2,6.143476E1,9.0471436E1,3.2614777E1,4.649414E0,8.40049E0,4.6078186E0,2.0782166E0,7.7679443E-1,4.3461975E1,9.423007E1,1.8362454E2,1.5922001E1,1.1355354E1,5.3404144E1,2.4745712E1,1.7899261E1,6.6915283E0,2.4047852E0,4.4018555E-1,0E0,4.9736176E0,8.728026E0,0E0,4.3086243E-1,6.2294006E-1,1.6852417E0,0E0,1.5387192E0,7.7779785E1,1.5590811E1,8.0229645E1,3.9892334E1,2.3993843E1,4.629364E1,7.692234E0,9.4622E0,7.61454E0,4.6786175E0,1.535517E1,2.6740768E1,0E0,1.8862503E1,8.507708E0,1.3408813E1,8.661659E0,0E0,2.79982E0,2.8642273E-1,6.621704E-1,9.820557E-2,0E0,0E0,0E0,0E0,0E0,0E0,0E0,0E0,0E0,0E0,0E0,0E0,0E0,0E0,0E0,0E0,0E0,0E0,0E0,0E0,0E0,0E0,0E0,0E0,0E0,0E0,0E0,0E0,0E0,0E0,0E0,0E0,0E0,0E0,0E0,0E0,0E0,0E0,0E0,0E0,0E0,0E0,0E0,0E0,0E0,0E0,0E0,0E0,0E0,0E0,0E0,0E0],"parents":[2147483647,0,0,1,1,2,2,3,3,4,4,5,5,6,6,7,7,8,8,9,9,10,10,11,11,12,12,13,13,14,14,15,15,16,16,17,17,18,18,19,19,20,20,21,21,22,22,23,23,24,24,25,25,26,26,27,27,28,28,29,29,31,31,32,32,34,34,35,35,36,36,38,38,39,39,40,40,41,41,42,42,43,43,44,44,45,45,46,46,47,47,48,48,49,49,50,50,52,52,53,53,54,54,55,55,57,57,58,58,59,59,60,60],"right_children":[2,4,6,8,10,12,14,16,18,20,22,24,26,28,30,32,34,36,38,40,42,44,46,48,50,52,54,56,58,60,-1,62,64,-1,66,68,70,-1,72,74,76,78,80,82,84,86,88,90,92,94,96,-1,98,100,102,104,-1,106,108,110,112,-1,-1,-1,-1,-1,-1,-1,-1,-1,-1,-1,-1,-1,-1,-1,-1,-1,-1,-1,-1,-1,-1,-1,-1,-1,-1,-1,-1,-1,-1,-1,-1,-1,-1,-1,-1,-1,-1,-1,-1,-1,-1,-1,-1,-1,-1,-1,-1,-1,-1,-1,-1],"split_conditions":[9.026271E-3,-1.1965278E1,2.0405063E-1,1.1716862E-4,-7.1E1,-1.9657936E-2,9.102423E-1,4.575269E2,-2.8255157E0,-4.2762E4,-3.751563E-5,-2.7694914E-2,8.10135E-2,8.317911E-2,6.847649E2,-4.581917E-1,2.721617E-1,-1.4064209E2,2.854188E-1,8.5122074E-4,5.29046E-1,-1.14872E-2,1.1145868E1,-3.0257785E-1,4.821939E-2,-4.2744064E-1,-3.011E3,1.4659532E1,4.127442E-1,6.677927E1,-8.573789E-2,2.4489047E-2,4.1242298E-1,8.0382496E-2,-4.3152172E1,7.620215E0,4.1572034E-1,1.3313842E-1,3.683005E-1,1.366011E-4,7.0502035E-2,-1.2874678E-1,9.746821E-1,-2.3855553E0,3.978192E-3,2.9107562E-1,-9.8033917E-1,-2.127337E-1,8.086608E0,-9.587399E-1,3.633215E-2,-9.0895206E-2,5.4271232E-2,9.714391E-2,9.954552E0,2.0231159E0,-1.4426774E-2,4.7534543E-1,-4.4353843E-2,1.0985915E-1,6.68791E-1,1.0448061E-1,6.581927E-2,7.2912006E-3,7.344362E-2,1.111867E-1,1.2843642E-1,1.1331591E-1,1.3410927E-1,1.1599559E-1,8.680669E-2,1.04779914E-1,1.3544142E-1,4.846221E-2,1.04080625E-1,-2.4302118E-2,2.8487373E-2,3.140478E-2,-9.132814E-5,2.3455162E-2,4.6191998E-2,3.4429625E-2,-2.3061119E-2,-9.354388E-2,-2.1050332E-2,3.2576382E-2,-5.0040907E-3,7.690206E-2,3.0935515E-2,-1.1875159E-1,-5.7300884E-2,-6.329333E-2,-2.2442847E-2,-1.029694E-2,8.87049E-3,-6.281195E-2,-1.7306468E-2,-3.776574E-2,-1.9598532E-2,5.727906E-3,-6.0710974E-2,-9.531799E-2,-6.5383814E-2,-4.7591772E-2,-9.674506E-2,-8.882205E-2,-1.19624406E-1,-1.355081E-1,-1.1474295E-1,-1.1875248E-1,-1.2731367E-1,-1.3362661E-1,-1.2140952E-1],"split_indices":[20,20,20,11,32,31,20,12,24,32,4,8,20,31,5,28,22,31,4,20,12,20,27,29,20,4,32,27,31,20,0,10,29,0,18,27,30,0,6,24,9,31,18,20,18,19,30,9,18,30,8,0,28,28,18,6,0,23,7,30,5,0,0,0,0,0,0,0,0,0,0,0,0,0,0,0,0,0,0,0,0,0,0,0,0,0,0,0,0,0,0,0,0,0,0,0,0,0,0,0,0,0,0,0,0,0,0,0,0,0,0,0,0],"split_type":[0,0,0,0,0,0,0,0,0,0,0,0,0,0,0,0,0,0,0,0,0,0,0,0,0,0,0,0,0,0,0,0,0,0,0,0,0,0,0,0,0,0,0,0,0,0,0,0,0,0,0,0,0,0,0,0,0,0,0,0,0,0,0,0,0,0,0,0,0,0,0,0,0,0,0,0,0,0,0,0,0,0,0,0,0,0,0,0,0,0,0,0,0,0,0,0,0,0,0,0,0,0,0,0,0,0,0,0,0,0,0,0,0],"sum_hessian":[9.840395E3,5.7442188E3,4.096176E3,4.9399338E2,5.2502256E3,3.4700535E3,6.2612213E2,1.9756964E2,2.964237E2,4.1892954E3,1.0609303E3,2.0041027E3,1.4659509E3,1.9377248E2,4.3234967E2,1.1318727E2,8.438238E1,1.1343938E2,1.8298434E2,1.1552954E3,3.0339998E3,8.2754767E2,2.3338257E2,9.467895E1,1.9094237E3,1.0962332E3,3.6971777E2,9.3323265E1,1.0044922E2,4.164472E2,1.5902449E1,7.55002E1,3.7687073E1,1.6069149E1,6.8313225E1,5.8831493E1,5.4607887E1,1.4226877E2,4.0715576E1,1.0281447E3,1.2715064E2,1.586011E3,1.4479889E3,4.7954947E2,3.479982E2,1.1816891E2,1.1521367E2,4.028864E1,5.4390305E1,8.8385516E2,1.0255685E3,3.0829285E1,1.0654038E3,3.5754116E1,3.3396365E2,7.755901E1,1.5764251E1,6.3739864E1,3.6709354E1,3.037704E2,1.12676834E2,2.4034624E1,5.1465576E1,2.0142313E1,1.7544762E1,2.231714E1,4.5996086E1,1.8430952E1,4.0400543E1,3.7821255E1,1.6786633E1,2.209153E1,1.8624046E1,8.9387805E2,1.3426666E2,3.6004116E1,9.114653E1,6.052309E2,9.807801E2,6.5313135E2,7.948575E2,3.6235847E1,4.4331363E2,3.004229E2,4.757527E1,3.6243977E1,8.192493E1,2.7768366E1,8.7445305E1,2.3451225E1,1.6837414E1,2.9981733E1,2.4408571E1,2.8581143E2,5.9804376E2,6.392282E1,9.616457E2,5.471084E2,5.182955E2,1.9900442E1,1.5853673E1,1.01987854E2,2.3197581E2,5.218095E1,2.5378061E1,3.504677E1,2.8693094E1,2.075E1,1.5959353E1,1.4494109E2,1.5882928E2,8.497561E1,2.7701225E1],"tree_param":{"num_deleted":"0","num_feature":"36","num_nodes":"113","size_leaf_vector":"1"}},{"base_weights":[2.8779686E-3,2.4429674E-1,-7.8146476E-1,1.4862628E0,1.5811048E-1,-5.15282E-1,-1.578613E0,1.0016301E0,1.6606559E0,3.1960398E-1,-3.568966E-1,-3.1486353E-1,-8.0811596E-1,-1.2315145E0,-1.7024176E0,1.11879386E-1,8.2090217E-1,1.6875526E0,7.715565E-2,4.2863643E-1,-3.524771E-2,1.8890614E-2,-5.6503385E-1,-9.03882E-1,-2.5467172E-1,-5.75264E-1,-9.821881E-1,-7.316342E-1,-1.6040328E0,-7.627298E-2,-1.7248001E0,1.1239953E0,5.415885E-1,9.377935E-2,1.7139633E0,3.006293E-1,7.190564E-1,-7.690045E-1,1.2144801E-2,4.15983E-1,-3.0835652E-1,-2.1619573E-1,-7.467059E-1,-6.95948E-1,-1.247642E0,-4.545377E-2,-3.4851938E-1,-3.8493255E-1,-8.3997864E-1,-2.978449E-1,-1.0615174E0,-5.093549E-1,-7.000437E-2,-1.4316978E0,-1.7626467E0,-1.7445924E0,-1.5910449E0,9.1842465E-2,4.6485152E-2,3.3821904E-3,5.51318E-2,1.19258456E-1,1.0493059E-1,3.6643792E-2,1.067582E-2,5.5218466E-2,2.6366146E-2,-6.1410465E-3,-6.458606E-2,-5.8229007E-2,1.7501196E-3,9.326353E-3,4.2894907E-2,-2.5552016E-2,2.3542542E-2,-2.4832308E-2,8.418981E-3,-7.734298E-2,-1.7638363E-2,-7.317029E-2,-2.5780918E-2,-1.0277411E-1,-6.362247E-2,3.3712764E-3,-3.4093056E-2,-4.1997455E-2,-1.904381E-2,-4.49962E-2,-1.0538998E-2,-7.879109E-2,-4.2055033E-2,-5.322663E-2,4.1414285E-3,-9.165726E-2,-6.3844875E-2,-7.2220187E-3,-5.3869233E-2,-1.2698664E-1,-7.967064E-2,-1.1194494E-1,-1.2840231E-1,-1.1693544E-1,-1.2768658E-1,-8.653596E-2,-1.20003805E-1],"categories":[],"categories_nodes":[],"categories_segments":[],"categories_sizes":[],"default_left":[0,0,0,0,1,1,0,0,0,0,1,1,0,1,1,0,1,0,0,1,0,0,0,0,0,0,0,0,1,0,1,1,0,0,1,1,0,0,0,1,0,0,1,1,0,1,0,0,1,0,0,0,0,0,0,1,1,0,0,0,0,0,0,0,0,0,0,0,0,0,0,0,0,0,0,0,0,0,0,0,0,0,0,0,0,0,0,0,0,0,0,0,0,0,0,0,0,0,0,0,0,0,0,0,0],"id":1,"left_children":[1,3,5,7,9,11,13,15,17,19,21,23,25,27,29,-1,31,33,-1,35,37,39,41,43,45,47,49,51,53,-1,55,57,59,-1,61,63,65,67,69,71,73,75,77,79,81,83,85,87,89,91,93,95,-1,97,99,101,103,-1,-1,-1,-1,-1,-1,-1,-1,-1,-1,-1,-1,-1,-1,-1,-1,-1,-1,-1,-1,-1,-1,-1,-1,-1,-1,-1,-1,-1,-1,-1,-1,-1,-1,-1,-1,-1,-1,-1,-1,-1,-1,-1,-1,-1,-1,-1,-1],"loss_changes":[1.8669585E3,8.0681616E2,4.920923E2,4.096704E1,5.86376E2,1.0195877E2,2.4536255E1,1.4719406E1,4.692566E0,2.0771838E2,1.3169438E2,3.647991E1,2.8433868E1,2.8178848E1,5.162842E0,0E0,8.36454E0,2.345459E0,0E0,1.5251807E2,4.3956367E1,7.7942215E1,6.852579E1,6.5687103E0,1.8360073E1,1.5088318E1,2.1756317E1,4.1247177E0,1.9287109E0,0E0,6.014404E-1,4.5403557E0,6.9023666E0,0E0,1.6072388E0,9.73728E1,3.8331177E1,9.245716E0,1.3854985E1,1.611483E1,1.4445393E1,1.8799349E1,1.351647E2,7.0078163E0,2.597187E0,1.2640522E1,1.181572E1,1.1108875E1,8.672462E0,7.4167237E0,1.2416138E1,4.1881485E0,0E0,4.3786163E0,1.3723755E-1,6.989746E-1,2.5479126E0,0E0,0E0,0E0,0E0,0E0,0E0,0E0,0E0,0E0,0E0,0E0,0E0,0E0,0E0,0E0,0E0,0E0,0E0,0E0,0E0,0E0,0E0,0E0,0E0,0E0,0E0,0E0,0E0,0E0,0E0,0E0,0E0,0E0,0E0,0E0,0E0,0E0,0E0,0E0,0E0,0E0,0E0,0E0,0E0,0E0,0E0,0E0,0E0],"parents":[2147483647,0,0,1,1,2,2,3,3,4,4,5,5,6,6,7,7,8,8,9,9,10,10,11,11,12,12,13,13,14,14,16,16,17,17,19,19,20,20,21,21,22,22,23,23,24,24,25,25,26,26,27,27,28,28,30,30,31,31,32,32,34,34,35,35,36,36,37,37,38,38,39,39,40,40,41,41,42,42,43,43,44,44,45,45,46,46,47,47,48,48,49,49,50,50,51,51,53,53,54,54,55,55,56,56],"right_children":[2,4,6,8,10,12,14,16,18,20,22,24,26,28,30,-1,32,34,-1,36,38,40,42,44,46,48,50,52,54,-1,56,58,60,-1,62,64,66,68,70,72,74,76,78,80,82,84,86,88,90,92,94,96,-1,98,100,102,104,-1,-1,-1,-1,-1,-1,-1,-1,-1,-1,-1,-1,-1,-1,-1,-1,-1,-1,-1,-1,-1,-1,-1,-1,-1,-1,-1,-1,-1,-1,-1,-1,-1,-1,-1,-1,-1,-1,-1,-1,-1,-1,-1,-1,-1,-1,-1,-1],"split_conditions":[4.9473416E-2,-1.1965278E1,2.2687949E-1,-6.7816675E-1,-3.6797272E-3,-2.0566374E-2,9.102423E-1,-1.1301493E3,1.352E2,8.3425855E-3,-8.1211996E-1,3.633215E-2,8.10135E-2,8.317911E-2,-6.629439E6,1.11879386E-1,-1.6167019E1,-2.8499773E-1,7.715565E-2,3.415691E-2,-2.6120236E-2,8.3425855E-3,-2.4828495E-2,3.43807E-1,3.3143505E-1,7.98981E-1,-3.011E3,2.4440704E-1,1.568781E-3,-7.627298E-2,1.2860329E0,-5.3803295E-1,3.765945E-1,9.377935E-2,-9.9794936E-1,-2.0087916E-1,2.5724104E-4,-1.9767673E5,-1.5608696E1,1.1145868E1,2.6745787E-1,7.186002E-1,8.59375E-4,1.1083159E1,1.2747371E-1,4.166102E-2,9.528139E0,1.9350231E0,5.0793467E0,2.597576E-1,9.954552E0,7.7607733E-1,-7.000437E-2,-7.965956E-2,3.3555555E0,2.166891E-1,-1.3711835E1,9.1842465E-2,4.6485152E-2,3.3821904E-3,5.51318E-2,1.19258456E-1,1.0493059E-1,3.6643792E-2,1.067582E-2,5.5218466E-2,2.6366146E-2,-6.1410465E-3,-6.458606E-2,-5.8229007E-2,1.7501196E-3,9.326353E-3,4.2894907E-2,-2.5552016E-2,2.3542542E-2,-2.4832308E-2,8.418981E-3,-7.734298E-2,-1.7638363E-2,-7.317029E-2,-2.5780918E-2,-1.0277411E-1,-6.362247E-2,3.3712764E-3,-3.4093056E-2,-4.1997455E-2,-1.904381E-2,-4.49962E-2,-1.0538998E-2,-7.879109E-2,-4.2055033E-2,-5.322663E-2,4.1414285E-3,-9.165726E-2,-6.3844875E-2,-7.2220187E-3,-5.3869233E-2,-1.2698664E-1,-7.967064E-2,-1.1194494E-1,-1.2840231E-1,-1.1693544E-1,-1.2768658E-1,-8.653596E-2,-1.20003805E-1],"split_indices":[20,20,20,14,31,31,20,20,22,20,1,8,20,31,32,0,18,14,0,9,8,20,20,23,13,30,32,33,19,0,30,28,29,0,28,31,20,32,30,27,15,12,18,18,24,35,26,0,18,23,18,5,0,8,24,30,18,0,0,0,0,0,0,0,0,0,0,0,0,0,0,0,0,0,0,0,0,0,0,0,0,0,0,0,0,0,0,0,0,0,0,0,0,0,0,0,0,0,0,0,0,0,0,0,0],"split_type":[0,0,0,0,0,0,0,0,0,0,0,0,0,0,0,0,0,0,0,0,0,0,0,0,0,0,0,0,0,0,0,0,0,0,0,0,0,0,0,0,0,0,0,0,0,0,0,0,0,0,0,0,0,0,0,0,0,0,0,0,0,0,0,0,0,0,0,0,0,0,0,0,0,0,0,0,0,0,0,0,0,0,0,0,0,0,0,0,0,0,0,0,0,0,0,0,0,0,0,0,0,0,0,0,0],"sum_hessian":[9.859859E3,7.5394204E3,2.320439E3,4.8912488E2,7.050296E3,1.7397156E3,5.807233E2,1.296699E2,3.59455E2,5.3674473E3,1.6828485E3,1.033118E3,7.0659753E2,1.5301877E2,4.2770456E2,2.8267157E1,1.0140275E2,3.4171277E2,1.7742212E1,4.106131E3,1.2613163E3,5.996414E2,1.0832072E3,9.556001E1,9.375581E2,3.026192E2,4.0397833E2,6.5516136E1,8.750263E1,1.6108566E1,4.11596E2,4.8379333E1,5.302341E1,2.7358805E1,3.1435397E2,2.8502983E3,1.2558325E3,7.665684E1,1.1846594E3,2.7107715E2,3.2856424E2,3.7119522E2,7.120119E2,5.9819065E1,3.574095E1,2.9074524E2,6.4681287E2,1.7635374E2,1.2626546E2,4.213992E1,3.618384E2,3.775962E1,2.7756514E1,4.2442917E1,4.5059715E1,3.5744785E2,5.4148167E1,3.177477E1,1.6604563E1,1.8902342E1,3.412107E1,2.5587553E2,5.8478416E1,1.0732263E3,1.777072E3,9.8176624E2,2.7406635E2,1.6230013E1,6.0426826E1,1.8077957E1,1.1665814E3,1.18078476E2,1.5299867E2,2.981652E2,3.0399065E1,2.5846295E2,1.12732285E2,3.954386E2,3.165733E2,2.7027792E1,3.2791275E1,1.9149895E1,1.6591055E1,2.4037508E2,5.037016E1,1.3123415E2,5.155787E2,7.9852425E1,9.650132E1,5.1632664E1,7.46328E1,1.806205E1,2.4077868E1,1.087391E2,2.5309932E2,1.5745146E1,2.2014475E1,1.5682004E1,2.6760914E1,2.387631E1,2.1183405E1,2.9943768E2,5.801017E1,1.932424E1,3.482393E1],"tree_param":{"num_deleted":"0","num_feature":"36","num_nodes":"105","size_leaf_vector":"1"}},{"base_weights":[-7.378203E-4,3.4437558E-1,-4.8194033E-1,1.4191971E0,2.4354255E-1,-3.090036E-1,-1.4508895E0,9.725725E-1,1.5759833E0,3.64379E-1,-5.779685E-1,-1.522279E-1,-5.2286667E-1,-1.1140301E0,-1.6034424E0,1.1245395E-1,7.7991337E-1,1.4108778E0,1.6340983E0,5.5077666E-1,1.7048019E-1,-2.104287E-1,-9.1394097E-1,-7.1473055E-2,-5.3275234E-1,-3.9459136E-1,-8.9384484E-1,-6.090334E-1,-1.3712754E0,-1.630155E0,-7.150751E-2,1.0860037E0,4.962456E-1,7.181831E-2,1.5441663E0,1.6780953E0,1.4197935E0,9.4544506E-1,4.8265293E-1,-2.4744261E-2,3.400847E-1,5.58585E-2,-2.6906532E-1,-1.2511855E0,-8.619335E-2,8.564965E-2,-2.2348756E-1,-7.725171E-1,-3.753757E-1,-1.6971569E-1,-4.725234E-1,-1.3355203E0,-7.8957576E-1,-3.6970517E-1,-6.976333E-2,-1.2531615E0,-1.6534797E0,-1.6444818E0,-9.720399E-2,9.5821664E-2,4.4728726E-2,6.184356E-2,8.744572E-3,9.141483E-2,1.1353415E-1,1.15467414E-1,1.0613398E-1,1.0467841E-1,8.306345E-2,7.8915805E-2,5.2805282E-2,2.3988042E-2,5.288994E-2,4.10838E-3,-3.1315982E-2,8.631269E-3,3.394485E-2,-2.5436461E-2,4.657133E-3,-9.867433E-2,-5.2427277E-2,-3.9894257E-2,2.491317E-2,1.360596E-2,-3.3548556E-3,-2.0014703E-2,9.36674E-3,-5.4544285E-3,-5.981966E-2,-3.729974E-2,-9.460338E-3,1.013668E-2,-2.4152365E-2,-4.2702712E-2,-1.9431606E-2,-1.0628085E-1,-7.1914434E-2,-1.6664607E-2,-5.832671E-2,-4.3688364E-2,-2.7136242E-3,-6.428592E-2,-9.721895E-2,-9.986304E-2,-1.211606E-1,-1.0719107E-1,-1.1467889E-1],"categories":[],"categories_nodes":[],"categories_segments":[],"categories_sizes":[],"default_left":[0,0,0,0,1,1,0,0,1,1,0,0,0,1,0,0,1,0,1,0,0,0,0,0,0,0,0,1,0,1,0,1,0,0,0,1,0,0,0,1,0,0,1,1,0,0,1,0,1,0,1,1,0,0,0,1,0,1,0,0,0,0,0,0,0,0,0,0,0,0,0,0,0,0,0,0,0,0,0,0,0,0,0,0,0,0,0,0,0,0,0,0,0,0,0,0,0,0,0,0,0,0,0,0,0,0,0],"id":2,"left_children":[1,3,5,7,9,11,13,15,17,19,21,23,25,27,29,-1,31,33,35,37,39,41,43,45,47,49,51,53,55,57,-1,59,61,-1,63,65,67,69,71,73,75,-1,77,79,81,83,85,87,89,91,93,95,97,99,-1,101,103,105,-1,-1,-1,-1,-1,-1,-1,-1,-1,-1,-1,-1,-1,-1,-1,-1,-1,-1,-1,-1,-1,-1,-1,-1,-1,-1,-1,-1,-1,-1,-1,-1,-1,-1,-1,-1,-1,-1,-1,-1,-1,-1,-1,-1,-1,-1,-1,-1,-1],"loss_changes":[1.6300546E3,6.192512E2,6.8672437E2,3.3963745E1,5.18729E2,1.1655521E2,3.1515503E1,1.6385086E1,3.0390015E0,1.6456482E2,8.2586E1,6.1619682E1,6.984012E1,2.4913559E1,5.92395E0,0E0,8.441795E0,4.14151E0,2.0733032E0,6.225403E1,7.398666E1,1.92993E1,9.748892E1,3.9583534E1,1.3102753E1,1.9081589E1,1.7104004E1,6.3545074E0,3.85849E0,7.318115E-1,0E0,6.306755E0,7.7550116E0,0E0,1.2853241E0,1.7211914E-2,6.9825745E-1,1.2137726E1,7.579614E1,3.852353E1,4.039171E1,0E0,1.0752663E1,2.3453094E1,2.2970621E1,1.2578002E1,2.1511234E1,1.0125076E1,8.586472E0,1.666502E1,2.34066E1,4.165329E0,1.1117859E1,3.6786366E0,0E0,4.587387E0,4.1155243E-1,5.958252E-1,0E0,0E0,0E0,0E0,0E0,0E0,0E0,0E0,0E0,0E0,0E0,0E0,0E0,0E0,0E0,0E0,0E0,0E0,0E0,0E0,0E0,0E0,0E0,0E0,0E0,0E0,0E0,0E0,0E0,0E0,0E0,0E0,0E0,0E0,0E0,0E0,0E0,0E0,0E0,0E0,0E0,0E0,0E0,0E0,0E0,0E0,0E0,0E0,0E0],"parents":[2147483647,0,0,1,1,2,2,3,3,4,4,5,5,6,6,7,7,8,8,9,9,10,10,11,11,12,12,13,13,14,14,16,16,17,17,18,18,19,19,20,20,21,21,22,22,23,23,24,24,25,25,26,26,27,27,28,28,29,29,31,31,32,32,34,34,35,35,36,36,37,37,38,38,39,39,40,40,42,42,43,43,44,44,45,45,46,46,47,47,48,48,49,49,50,50,51,51,52,52,53,53,55,55,56,56,57,57],"right_children":[2,4,6,8,10,12,14,16,18,20,22,24,26,28,30,-1,32,34,36,38,40,42,44,46,48,50,52,54,56,58,-1,60,62,-1,64,66,68,70,72,74,76,-1,78,80,82,84,86,88,90,92,94,96,98,100,-1,102,104,106,-1,-1,-1,-1,-1,-1,-1,-1,-1,-1,-1,-1,-1,-1,-1,-1,-1,-1,-1,-1,-1,-1,-1,-1,-1,-1,-1,-1,-1,-1,-1,-1,-1,-1,-1,-1,-1,-1,-1,-1,-1,-1,-1,-1,-1,-1,-1,-1,-1],"split_conditions":[9.026271E-3,-1.1965278E1,2.0405063E-1,-6.7816675E-1,8.298707E-3,-1.9657936E-2,9.102423E-1,-1.1301493E3,2.5342113E-1,-5.926E3,-2.4828495E-2,7.9716265E-2,8.10135E-2,-1.102E2,4.1924603E2,1.1245395E-1,-1.6167019E1,4E1,9.097087E0,-4.1201934E-1,4.5081142E-1,-9.987055E-1,-6.338797E-5,4.9473416E-2,1.3139871E-1,1.2809857E-2,5.6530614E0,1.4613454E0,4.127442E-1,4.2602365E2,-7.150751E-2,-6.7837834E-2,-3.890518E1,7.181831E-2,-3.047522E0,2.1678183E0,6.0816485E-1,-3.0257785E-1,5.067017E-5,7.958309E-1,1.0902467E0,5.58585E-2,-4.6264706E0,-2.2953354E-1,1.2404752E1,1.8451275E-2,7.4133223E-1,2.200971E-2,4.016849E-2,1.3811747E-4,5.0793467E0,-7.1908957E-1,-3.011E3,5.5934346E-1,-6.976333E-2,1.5177265E0,4.3729123E-2,3.798771E-2,-9.720399E-2,9.5821664E-2,4.4728726E-2,6.184356E-2,8.744572E-3,9.141483E-2,1.1353415E-1,1.15467414E-1,1.0613398E-1,1.0467841E-1,8.306345E-2,7.8915805E-2,5.2805282E-2,2.3988042E-2,5.288994E-2,4.10838E-3,-3.1315982E-2,8.631269E-3,3.394485E-2,-2.5436461E-2,4.657133E-3,-9.867433E-2,-5.2427277E-2,-3.9894257E-2,2.491317E-2,1.360596E-2,-3.3548556E-3,-2.0014703E-2,9.36674E-3,-5.4544285E-3,-5.981966E-2,-3.729974E-2,-9.460338E-3,1.013668E-2,-2.4152365E-2,-4.2702712E-2,-1.9431606E-2,-1.0628085E-1,-7.1914434E-2,-1.6664607E-2,-5.832671E-2,-4.3688364E-2,-2.7136242E-3,-6.428592E-2,-9.721895E-2,-9.986304E-2,-1.211606E-1,-1.0719107E-1,-1.1467889E-1],"split_indices":[20,20,20,14,31,31,20,20,34,32,20,34,20,32,5,0,18,12,2,31,12,28,25,20,17,20,18,9,31,17,0,30,20,0,24,18,16,29,25,3,18,0,18,5,26,35,12,21,35,35,18,30,32,30,0,24,11,25,0,0,0,0,0,0,0,0,0,0,0,0,0,0,0,0,0,0,0,0,0,0,0,0,0,0,0,0,0,0,0,0,0,0,0,0,0,0,0,0,0,0,0,0,0,0,0,0,0],"split_type":[0,0,0,0,0,0,0,0,0,0,0,0,0,0,0,0,0,0,0,0,0,0,0,0,0,0,0,0,0,0,0,0,0,0,0,0,0,0,0,0,0,0,0,0,0,0,0,0,0,0,0,0,0,0,0,0,0,0,0,0,0,0,0,0,0,0,0,0,0,0,0,0,0,0,0,0,0,0,0,0,0,0,0,0,0,0,0,0,0,0,0,0,0,0,0,0,0,0,0,0,0,0,0,0,0,0,0],"sum_hessian":[9.815343E3,5.71579E3,4.099553E3,4.900934E2,5.2256963E3,3.4788215E3,6.207316E2,1.2759874E2,3.6249466E2,4.555754E3,6.699423E2,2.0076826E3,1.4711389E3,1.9380965E2,4.2692197E2,2.798169E1,9.961705E1,9.5109215E1,2.6738547E2,2.3224563E3,2.2332976E3,3.2013754E2,3.4980478E2,1.656498E3,3.5118463E2,1.0934424E3,3.7769653E2,6.560115E1,1.282085E2,4.0697122E2,1.995073E1,4.766801E1,5.1949043E1,2.6257864E1,6.885135E1,2.2120691E2,4.6178555E1,3.415502E2,1.9809061E3,1.0379054E3,1.1953923E3,1.7090046E1,3.030475E2,2.4842654E2,1.0137825E2,8.141697E2,8.4232837E2,1.388117E2,2.1237292E2,2.818437E2,8.115987E2,7.184735E1,3.0584918E2,4.1871914E1,2.3729235E1,9.079471E1,3.7413788E1,3.7922058E2,2.7750639E1,2.7014318E1,2.0653692E1,2.4304005E1,2.7645037E1,2.6834822E1,4.2016525E1,1.8968004E2,3.1526869E1,2.84405E1,1.7738052E1,1.5041692E2,1.911333E2,1.374339E3,6.0656714E2,8.6798315E2,1.6992227E2,5.105195E2,6.848728E2,2.3154918E2,7.1498314E1,1.754966E2,7.292995E1,4.8272236E1,5.3106014E1,4.4130005E2,3.728696E2,7.048036E2,1.375248E2,1.8679007E1,1.201327E2,1.2236401E2,9.000891E1,1.0335581E2,1.7848787E2,4.4329257E2,3.6830612E2,3.9330246E1,3.251711E1,3.3976475E1,2.718727E2,2.2715683E1,1.915623E1,3.3252472E1,5.7542236E1,1.5725337E1,2.168845E1,1.421996E2,2.37021E2],"tree_param":{"num_deleted":"0","num_feature":"36","num_nodes":"107","size_leaf_vector":"1"}},{"base_weights":[-1.6227157E-3,3.0684763E-1,-4.7200984E-1,1.3357154E0,2.1591397E-1,-3.0428603E-1,-1.3761295E0,8.440307E-1,1.4827632E0,3.58127E-1,-3.4077388E-1,-1.4701912E-1,-5.3823584E-1,-1.0458585E0,-1.5268543E0,1.0448241E-1,6.5385276E-1,1.2826957E0,1.5445095E0,5.2831304E-1,2.0988113E-1,-5.1655257E-1,3.24014E-1,-6.0664058E-2,-5.59905E-1,-4.19407E-1,-8.384813E-1,-1.4157104E0,-7.107656E-1,-6.6469245E-2,-1.5503478E0,8.337366E-1,1.33923795E-2,6.107079E-2,1.4543834E0,1.6252376E0,1.454487E0,9.087794E-1,4.512716E-1,2.5565934E-1,-2.9151326E-1,-2.400175E-1,-8.4328854E-1,8.134106E-2,2.593079E-1,8.4843054E-2,-1.8921798E-1,-3.9778933E-1,-8.626475E-1,-2.3547736E-1,-5.041991E-1,-1.2504704E0,-7.4604994E-1,-1.5246717E0,-7.2271794E-2,-8.666952E-1,-1.841747E-2,-1.502692E0,-1.6213493E0,7.2559044E-2,4.301569E-2,1.05101325E-1,8.610257E-2,1.0067609E-1,1.1235645E-1,1.02739364E-1,8.607314E-2,7.902655E-2,4.78695E-2,2.0581577E-2,4.3719105E-2,1.3288074E-2,3.4365248E-2,7.923606E-4,-5.3957615E-2,-6.118906E-3,-2.922561E-2,-7.773371E-2,-8.278174E-3,-6.3968473E-3,3.3243928E-2,1.43001815E-2,-3.3447656E-3,-5.3599416E-3,-2.317167E-2,-1.3622084E-2,-5.0973915E-2,-3.005707E-2,-7.337617E-2,-3.23576E-2,-1.3062352E-3,-4.401401E-2,-2.5194528E-2,-7.058808E-2,-1.054803E-1,-5.962361E-2,-3.1038754E-2,-1.1261208E-1,-9.223097E-2,-4.5809925E-2,-8.454128E-2,-1.0466292E-1,-8.751135E-2,-1.04986355E-1,-1.1424754E-1],"categories":[],"categories_nodes":[],"categories_segments":[],"categories_sizes":[],"default_left":[0,0,0,0,1,1,0,0,0,0,0,0,0,0,1,0,1,1,1,0,1,0,0,0,1,0,0,0,1,0,0,1,0,0,0,0,1,0,0,0,0,0,1,0,0,0,1,0,0,1,1,0,0,1,0,1,0,1,0,0,0,0,0,0,0,0,0,0,0,0,0,0,0,0,0,0,0,0,0,0,0,0,0,0,0,0,0,0,0,0,0,0,0,0,0,0,0,0,0,0,0,0,0,0,0],"id":3,"left_children":[1,3,5,7,9,11,13,15,17,19,21,23,25,27,29,-1,31,33,35,37,39,41,43,45,47,49,51,53,55,-1,57,59,-1,-1,61,63,65,67,69,71,73,75,77,-1,79,81,83,85,87,89,91,93,95,97,-1,99,-1,101,103,-1,-1,-1,-1,-1,-1,-1,-1,-1,-1,-1,-1,-1,-1,-1,-1,-1,-1,-1,-1,-1,-1,-1,-1,-1,-1,-1,-1,-1,-1,-1,-1,-1,-1,-1,-1,-1,-1,-1,-1,-1,-1,-1,-1,-1,-1],"loss_changes":[1.4209327E3,5.5311053E2,5.879367E2,3.439264E1,4.3020056E2,1.20290985E2,2.984497E1,1.4270683E1,4.159363E0,1.0910919E2,1.2921677E2,6.969551E1,4.6748444E1,2.3318314E1,5.026428E0,0E0,7.027588E0,5.4769135E0,1.6015625E0,5.8874817E1,5.3105186E1,7.8875916E1,1.2839603E1,3.0291792E1,1.6435585E1,1.460321E1,1.3913818E1,3.117157E0,6.7275505E0,0E0,8.9727783E-1,2.6919708E0,0E0,0E0,6.292877E-1,1.0369873E-1,1.0124817E0,1.7324036E1,4.7560944E1,3.1837555E1,2.9490864E1,1.3411856E1,8.630936E1,0E0,1.7484211E1,1.276213E1,1.4317627E1,1.519273E1,1.0481949E1,1.5403812E1,1.21814575E1,3.9773712E0,1.1318314E1,1.0820007E0,0E0,5.10133E0,0E0,1.4396973E0,2.4926758E-1,0E0,0E0,0E0,0E0,0E0,0E0,0E0,0E0,0E0,0E0,0E0,0E0,0E0,0E0,0E0,0E0,0E0,0E0,0E0,0E0,0E0,0E0,0E0,0E0,0E0,0E0,0E0,0E0,0E0,0E0,0E0,0E0,0E0,0E0,0E0,0E0,0E0,0E0,0E0,0E0,0E0,0E0,0E0,0E0,0E0,0E0],"parents":[2147483647,0,0,1,1,2,2,3,3,4,4,5,5,6,6,7,7,8,8,9,9,10,10,11,11,12,12,13,13,14,14,16,16,17,17,18,18,19,19,20,20,21,21,22,22,23,23,24,24,25,25,26,26,27,27,28,28,30,30,31,31,34,34,35,35,36,36,37,37,38,38,39,39,40,40,41,41,42,42,44,44,45,45,46,46,47,47,48,48,49,49,50,50,51,51,52,52,53,53,55,55,57,57,58,58],"right_children":[2,4,6,8,10,12,14,16,18,20,22,24,26,28,30,-1,32,34,36,38,40,42,44,46,48,50,52,54,56,-1,58,60,-1,-1,62,64,66,68,70,72,74,76,78,-1,80,82,84,86,88,90,92,94,96,98,-1,100,-1,102,104,-1,-1,-1,-1,-1,-1,-1,-1,-1,-1,-1,-1,-1,-1,-1,-1,-1,-1,-1,-1,-1,-1,-1,-1,-1,-1,-1,-1,-1,-1,-1,-1,-1,-1,-1,-1,-1,-1,-1,-1,-1,-1,-1,-1,-1,-1],"split_conditions":[1.0672764E-2,-1.1965278E1,2.0405063E-1,-7.947743E-1,-7.1E1,-1.9657936E-2,9.102423E-1,-9.6892416E-1,2.6139048E-1,-1.0385E4,1.2277682E2,7.9716265E-2,8.10135E-2,1.0879811E-1,-1.7284361E2,1.0448241E-1,-1.828401E-1,7.592138E1,1.3067992E0,-3.2431126E-1,7.958309E-1,-1.14872E-2,-3.617228E-1,4.821939E-2,-6.4906165E-2,3.9648958E-2,5.6530614E0,5.704622E-1,3.2822198E-1,-6.6469245E-2,1.7444859E1,-7.736057E-2,1.33923795E-2,6.107079E-2,2.580909E2,5.3597633E-3,-9.9794936E-1,-3.0257785E-1,6.8541665E0,2.8439662E-1,-3.1538463E-1,2.5543942E0,-6.338797E-5,8.134106E-2,9.714391E-2,1.5318812E-2,9.68642E-2,4.085947E-1,1.6366148E-1,2.9961488E0,4.3036945E-2,1.6940452E-2,1.3500437E1,0E0,-7.2271794E-2,1.6083916E0,-1.841747E-2,1.2860329E0,3.6078814E-1,7.2559044E-2,4.301569E-2,1.05101325E-1,8.610257E-2,1.0067609E-1,1.1235645E-1,1.02739364E-1,8.607314E-2,7.902655E-2,4.78695E-2,2.0581577E-2,4.3719105E-2,1.3288074E-2,3.4365248E-2,7.923606E-4,-5.3957615E-2,-6.118906E-3,-2.922561E-2,-7.773371E-2,-8.278174E-3,-6.3968473E-3,3.3243928E-2,1.43001815E-2,-3.3447656E-3,-5.3599416E-3,-2.317167E-2,-1.3622084E-2,-5.0973915E-2,-3.005707E-2,-7.337617E-2,-3.23576E-2,-1.3062352E-3,-4.401401E-2,-2.5194528E-2,-7.058808E-2,-1.054803E-1,-5.962361E-2,-3.1038754E-2,-1.1261208E-1,-9.223097E-2,-4.5809925E-2,-8.454128E-2,-1.0466292E-1,-8.751135E-2,-1.04986355E-1,-1.1424754E-1],"split_indices":[20,20,20,14,32,31,20,28,13,32,17,34,20,8,31,0,6,17,2,31,3,20,20,20,31,6,18,3,17,0,34,29,0,0,30,2,28,29,18,15,20,1,25,0,28,35,30,33,5,18,28,16,26,35,0,9,0,30,6,0,0,0,0,0,0,0,0,0,0,0,0,0,0,0,0,0,0,0,0,0,0,0,0,0,0,0,0,0,0,0,0,0,0,0,0,0,0,0,0,0,0,0,0,0,0],"split_type":[0,0,0,0,0,0,0,0,0,0,0,0,0,0,0,0,0,0,0,0,0,0,0,0,0,0,0,0,0,0,0,0,0,0,0,0,0,0,0,0,0,0,0,0,0,0,0,0,0,0,0,0,0,0,0,0,0,0,0,0,0,0,0,0,0,0,0,0,0,0,0,0,0,0,0,0,0,0,0,0,0,0,0,0,0,0,0,0,0,0,0,0,0,0,0,0,0,0,0,0,0,0,0,0,0],"sum_hessian":[9.792554E3,5.914012E3,3.878542E3,4.8010745E2,5.433905E3,3.2717678E3,6.067743E2,1.10765434E2,3.69342E2,4.3283926E3,1.1055118E3,1.9568779E3,1.3148899E3,1.9046396E2,4.1631033E2,2.3712044E1,8.705339E1,8.771897E1,2.8162305E2,2.0146614E3,2.3137314E3,8.7447974E2,2.3103214E2,1.6186648E3,3.382131E2,9.423937E2,3.724962E2,9.0318954E1,1.00145E2,1.7316736E1,3.989936E2,6.2257183E1,2.4796206E1,2.7317741E1,6.040123E1,1.4750551E2,1.3411752E2,3.389365E2,1.6757249E3,2.1203953E3,1.9333621E2,4.738551E2,4.0062463E2,1.5805051E1,2.152271E2,7.5882184E2,8.5984296E2,2.2057101E2,1.17642105E2,2.978537E2,6.4454E2,6.794914E1,3.0454706E2,6.8707466E1,2.1611496E1,7.371912E1,2.6425884E1,2.4015353E2,1.5884006E2,2.8567232E1,3.3689953E1,4.031883E1,2.0082405E1,2.3246292E1,1.24259224E2,1.0315422E2,3.0963306E1,1.5164062E2,1.8729587E2,9.4276514E2,7.329597E2,1.7074963E3,4.128988E2,1.2035395E2,7.2982254E1,2.647914E2,2.0906369E2,2.8310712E2,1.1751752E2,8.448795E1,1.3073914E2,3.9258963E2,3.6623224E2,4.9752673E2,3.6231622E2,1.4142131E2,7.91497E1,4.0078144E1,7.756396E1,1.4088535E2,1.5696835E2,3.116598E2,3.3288016E2,4.0020397E1,2.7928743E1,2.0984566E2,9.470139E1,3.8278553E1,3.042891E1,4.892798E1,2.4791132E1,2.0577538E2,3.4378166E1,6.846985E1,9.03702E1],"tree_param":{"num_deleted":"0","num_feature":"36","num_nodes":"105","size_leaf_vector":"1"}},{"base_weights":[-3.8127182E-4,1.5499495E-1,-8.0109525E-1,4.841138E-1,-8.608611E-2,-5.1326764E-1,-1.3319491E0,1.245847E0,3.7310857E-1,-2.0240018E-1,2.3144625E-1,-8.0876184E-1,-3.0680394E-1,-1.44996E0,-1.0427848E0,9.262228E-1,1.4549447E0,4.4216007E-1,1.1072658E-2,-1.4455372E-2,-4.0906867E-1,8.438811E-1,-1.0513281E-2,-6.4480567E-1,-9.944337E-1,-2.3060241E-1,-7.8820914E-1,-7.9742745E-2,-1.4706048E0,-7.1262187E-1,-1.3441901E0,1.2086439E0,5.3006935E-1,1.5199792E0,1.373822E0,3.891664E-1,1.0156399E0,-4.5814708E-1,1.1800392E-1,-1.4377049E-1,1.2523533E-1,3.9548904E-1,-4.5660645E-1,1.1360406E0,5.264124E-1,2.901432E-1,-1.9498502E-1,-9.128951E-1,-5.015186E-1,-8.0130124E-1,-1.2006875E0,1.8281326E-1,-2.820534E-1,-5.299744E-1,-1.06629E0,-1.44608E0,-1.07866995E-1,-8.897331E-2,-3.6797932E-1,-1.4520046E0,-7.001174E-2,4.4716887E-2,9.064378E-2,4.797772E-2,1.7756928E-3,8.6444534E-2,1.0587913E-1,1.00243635E-1,7.734678E-2,3.7414618E-2,1.3856814E-2,7.755816E-2,2.2746166E-2,1.3719244E-3,-5.4283857E-2,2.216711E-3,3.766697E-2,-3.3241954E-2,-6.357071E-3,2.4107616E-2,1.7216726E-3,9.901584E-2,1.0865518E-2,-2.4078187E-2,-7.0902504E-2,5.8407146E-2,1.01584025E-1,-1.0221848E-2,4.681373E-2,8.892064E-3,3.8608685E-2,1.1417659E-2,-1.9714385E-2,-5.0234105E-2,-1.0276631E-1,-4.5790784E-2,-1.2625129E-2,-7.5735435E-2,-3.0970734E-2,-9.217324E-2,-5.4931853E-2,-1.2749238E-2,2.9566705E-2,-2.538576E-2,-3.3098322E-3,-5.7082888E-2,-6.5507363E-3,-3.9576218E-2,-9.611709E-2,-9.663872E-2,-1.06284775E-1,5.1729935E-3,-5.6619383E-2,-1.11345604E-1,-8.840487E-2],"categories":[],"categories_nodes":[],"categories_segments":[],"categories_sizes":[],"default_left":[0,1,0,0,0,1,1,0,0,0,0,0,0,0,1,1,0,0,0,0,0,0,0,0,1,1,1,0,1,0,0,0,1,0,0,0,0,1,1,0,1,1,0,0,0,1,0,0,1,1,1,0,0,0,1,1,0,0,1,0,0,0,0,0,0,0,0,0,0,0,0,0,0,0,0,0,0,0,0,0,0,0,0,0,0,0,0,0,0,0,0,0,0,0,0,0,0,0,0,0,0,0,0,0,0,0,0,0,0,0,0,0,0,0,0],"id":4,"left_children":[1,3,5,7,9,11,13,15,17,19,21,23,25,27,29,31,33,35,37,39,41,43,45,47,49,51,53,-1,55,57,59,61,63,65,67,69,71,73,75,77,79,81,83,85,87,89,91,93,95,97,99,101,103,105,107,109,-1,-1,111,113,-1,-1,-1,-1,-1,-1,-1,-1,-1,-1,-1,-1,-1,-1,-1,-1,-1,-1,-1,-1,-1,-1,-1,-1,-1,-1,-1,-1,-1,-1,-1,-1,-1,-1,-1,-1,-1,-1,-1,-1,-1,-1,-1,-1,-1,-1,-1,-1,-1,-1,-1,-1,-1,-1,-1],"loss_changes":[1.2138566E3,6.48333E2,2.4202667E2,2.9190552E2,1.7416905E2,6.259384E1,1.8667969E1,2.9025818E1,7.53284E1,1.3402348E2,1.8741351E2,1.2648285E1,2.2087242E1,1.8962402E0,1.58329315E1,1.9238174E1,9.846802E-1,7.677066E1,2.4210455E1,3.266513E1,6.2878784E1,3.299379E1,5.023623E1,8.4526825E0,7.6066437E0,1.1141495E1,5.714321E0,0E0,5.9558105E-1,1.5675755E1,2.5224457E0,6.6329193E0,6.3176804E0,9.0979004E-1,2.4389954E0,6.900867E1,1.7907562E1,1.4633581E1,1.4581878E1,1.6232586E1,1.9838205E1,2.2675297E1,9.31806E1,1.8131104E1,1.885746E1,1.5131393E1,1.9321606E1,7.8305054E0,7.8492813E0,1.0857727E1,5.472122E0,5.4043484E0,9.836765E0,5.653981E0,6.357044E0,4.8266602E-1,0E0,0E0,1.0245273E1,1.3408966E0,0E0,0E0,0E0,0E0,0E0,0E0,0E0,0E0,0E0,0E0,0E0,0E0,0E0,0E0,0E0,0E0,0E0,0E0,0E0,0E0,0E0,0E0,0E0,0E0,0E0,0E0,0E0,0E0,0E0,0E0,0E0,0E0,0E0,0E0,0E0,0E0,0E0,0E0,0E0,0E0,0E0,0E0,0E0,0E0,0E0,0E0,0E0,0E0,0E0,0E0,0E0,0E0,0E0,0E0,0E0],"parents":[2147483647,0,0,1,1,2,2,3,3,4,4,5,5,6,6,7,7,8,8,9,9,10,10,11,11,12,12,13,13,14,14,15,15,16,16,17,17,18,18,19,19,20,20,21,21,22,22,23,23,24,24,25,25,26,26,28,28,29,29,30,30,31,31,32,32,33,33,34,34,35,35,36,36,37,37,38,38,39,39,40,40,41,41,42,42,43,43,44,44,45,45,46,46,47,47,48,48,49,49,50,50,51,51,52,52,53,53,54,54,55,55,58,58,59,59],"right_children":[2,4,6,8,10,12,14,16,18,20,22,24,26,28,30,32,34,36,38,40,42,44,46,48,50,52,54,-1,56,58,60,62,64,66,68,70,72,74,76,78,80,82,84,86,88,90,92,94,96,98,100,102,104,106,108,110,-1,-1,112,114,-1,-1,-1,-1,-1,-1,-1,-1,-1,-1,-1,-1,-1,-1,-1,-1,-1,-1,-1,-1,-1,-1,-1,-1,-1,-1,-1,-1,-1,-1,-1,-1,-1,-1,-1,-1,-1,-1,-1,-1,-1,-1,-1,-1,-1,-1,-1,-1,-1,-1,-1,-1,-1,-1,-1],"split_conditions":[7.5316794E-2,-7.728291E-2,2.2687949E-1,-1.1965278E1,1.2277682E2,8.262737E-2,-3.9844406E-1,-1.1243005E1,4.351085E-3,-1.9657936E-2,3.8318124E-3,1.0340297E-1,-1.102E2,4.5810845E-1,8.317911E-2,-9.6892416E-1,1.1644305E0,5.067017E-5,4.2802405E-2,5.172702E-1,-7.120365E-1,3.4318272E-2,9.026271E-3,1.4292734E0,2.4943207E-1,6.398595E0,1.3717626E-1,-7.9742745E-2,1.579904E4,-1.1329887E-1,4.493426E2,-9.840834E-1,-1.2861416E-1,-6.664949E2,4.575269E2,2.2745901E-1,2.5724104E-4,7.8120804E-1,-2.029E3,-6.17256E0,-5.369979E-3,-3.7857143E1,1.3202994E-1,7.715286E-5,-8.407162E-3,1.1664423E-1,8.3870985E-2,1.2377077E0,1.2267658E-1,4.1574024E-4,2.7900653E0,-4.894541E-3,1.4249738E1,2.118647E-2,2.8616405E-1,2.8521304E0,-1.07866995E-1,-8.897331E-2,9.344434E0,7.911518E-4,-7.001174E-2,4.4716887E-2,9.064378E-2,4.797772E-2,1.7756928E-3,8.6444534E-2,1.0587913E-1,1.00243635E-1,7.734678E-2,3.7414618E-2,1.3856814E-2,7.755816E-2,2.2746166E-2,1.3719244E-3,-5.4283857E-2,2.216711E-3,3.766697E-2,-3.3241954E-2,-6.357071E-3,2.4107616E-2,1.7216726E-3,9.901584E-2,1.0865518E-2,-2.4078187E-2,-7.0902504E-2,5.8407146E-2,1.01584025E-1,-1.0221848E-2,4.681373E-2,8.892064E-3,3.8608685E-2,1.1417659E-2,-1.9714385E-2,-5.0234105E-2,-1.0276631E-1,-4.5790784E-2,-1.2625129E-2,-7.5735435E-2,-3.0970734E-2,-9.217324E-2,-5.4931853E-2,-1.2749238E-2,2.9566705E-2,-2.538576E-2,-3.3098322E-3,-5.7082888E-2,-6.5507363E-3,-3.9576218E-2,-9.611709E-2,-9.663872E-2,-1.06284775E-1,5.1729935E-3,-5.6619383E-2,-1.11345604E-1,-8.840487E-2],"split_indices":[20,31,20,20,17,8,28,25,20,31,20,20,32,20,31,28,2,25,8,12,20,24,20,0,4,27,30,0,32,31,24,14,6,8,12,28,20,4,32,24,24,8,31,24,28,28,23,24,28,5,1,33,26,34,25,1,0,0,27,4,0,0,0,0,0,0,0,0,0,0,0,0,0,0,0,0,0,0,0,0,0,0,0,0,0,0,0,0,0,0,0,0,0,0,0,0,0,0,0,0,0,0,0,0,0,0,0,0,0,0,0,0,0,0,0],"split_type":[0,0,0,0,0,0,0,0,0,0,0,0,0,0,0,0,0,0,0,0,0,0,0,0,0,0,0,0,0,0,0,0,0,0,0,0,0,0,0,0,0,0,0,0,0,0,0,0,0,0,0,0,0,0,0,0,0,0,0,0,0,0,0,0,0,0,0,0,0,0,0,0,0,0,0,0,0,0,0,0,0,0,0,0,0,0,0,0,0,0,0,0,0,0,0,0,0,0,0,0,0,0,0,0,0,0,0,0,0,0,0,0,0,0,0],"sum_hessian":[9.75606E3,8.170471E3,1.585588E3,3.4546875E3,4.7157837E3,1.0283215E3,5.5726654E2,4.3923096E2,3.0154565E3,3.4517756E3,1.2640082E3,4.2268692E2,6.056346E2,3.9537326E2,1.618933E2,1.7399876E2,2.652322E2,2.53215E3,4.8330676E2,1.8081063E3,1.6436693E3,3.5808478E2,9.0592334E2,2.248887E2,1.9779822E2,5.231262E2,8.250835E1,2.7848064E1,3.6752518E2,7.750056E1,8.439273E1,1.0136597E2,7.263279E1,1.4609769E2,1.1913452E2,2.3181936E3,2.1395618E2,8.946872E1,3.9383804E2,9.39381E2,8.6872534E2,9.154298E1,1.5521263E3,1.86236E2,1.718488E2,3.4422018E2,5.617032E2,7.797963E1,1.4690907E2,1.0252696E2,9.527126E1,5.7625835E1,4.655004E2,4.3052464E1,3.9455887E1,3.0393008E2,6.359509E1,2.8268639E1,4.923192E1,6.2523167E1,2.1869564E1,1.875402E1,8.2611946E1,5.3722115E1,1.8910677E1,1.8974604E1,1.27123085E2,8.349438E1,3.564014E1,1.2419325E3,1.0762611E3,1.8081326E2,3.314292E1,3.700772E1,5.2461002E1,3.2951913E2,6.431889E1,1.19364815E2,8.200162E2,2.634954E2,6.052299E2,1.6542461E1,7.500051E1,1.3205637E3,2.3156267E2,1.049767E2,8.1259285E1,3.2975742E1,1.3887306E2,2.1883484E2,1.25385345E2,1.1603445E2,4.4566873E2,6.0544617E1,1.7435015E1,9.496851E1,5.194056E1,5.372956E1,4.8797398E1,6.821123E1,2.706003E1,2.3127802E1,3.4498035E1,3.3452032E2,1.3098009E2,2.4962587E1,1.8089876E1,1.6620037E1,2.283585E1,2.4958234E2,5.4347763E1,2.50364E1,2.4195518E1,2.7854118E1,3.466905E1],"tree_param":{"num_deleted":"0","num_feature":"36","num_nodes":"115","size_leaf_vector":"1"}},{"base_weights":[-4.0911013E-4,1.4694333E-1,-7.5712633E-1,4.7066742E-1,-6.610197E-2,-4.8056287E-1,-1.278739E0,1.1813133E0,3.631579E-1,1.929153E-2,-3.7749043E-1,-7.0218205E-1,-2.0560284E-1,-1.3921523E0,-1.0016937E0,8.288291E-1,1.3590269E0,4.8951668E-1,2.0370805E-1,1.500289E-1,-1.4661464E-1,8.9648247E-1,-4.7525156E-1,-5.3196955E-1,-9.1843987E-1,1.6130672E-1,-2.8612012E-1,-6.498879E-2,-1.4107516E0,-1.2949164E0,-7.128021E-1,1.213303E0,5.723797E-1,1.1562002E0,1.4434073E0,5.708743E-1,6.910001E-2,2.5232294E-1,-3.040393E-1,-7.918792E-3,5.325245E-1,-5.567483E-2,-2.9620758E-1,1.2185298E0,5.087122E-3,-6.9130564E-1,-2.4745572E-1,-6.741143E-1,-3.230986E-1,-7.270882E-1,-1.1406316E0,4.001495E-1,-2.7313128E-2,-9.459173E-2,-4.3316707E-1,-1.270657E0,-1.4373319E0,-6.292492E-2,-1.384003E0,-1.1753746E-2,-9.229847E-1,9.538144E-2,6.1074134E-2,2.5820618E-2,8.324452E-2,4.8865285E-2,8.626621E-2,1.0046297E-1,8.062586E-2,6.3981056E-2,3.314818E-2,-1.9341981E-2,1.4572196E-2,2.044786E-2,-5.08317E-3,-4.904381E-2,2.4271198E-3,-1.4574743E-2,1.66819E-2,7.8265704E-2,2.5098486E-2,-1.3108533E-4,-3.3045515E-2,-2.9026158E-2,-6.075079E-3,9.934278E-2,4.4447478E-2,-1.866602E-2,-7.438738E-2,-1.0459598E-2,-3.8261507E-2,-6.095861E-2,-3.1971503E-2,-6.834879E-2,-1.53583335E-2,-7.8452766E-2,-3.9187677E-2,-5.52473E-2,-8.791767E-2,4.947665E-2,-0E0,-1.8077454E-2,1.8135535E-2,-1.2129833E-2,-3.8560394E-2,-6.7438394E-2,-9.5710665E-2,-9.8767936E-2,-8.131111E-2,-1.06910095E-1,-8.3143145E-2,-2.7375076E-2,-8.568434E-2],"categories":[],"categories_nodes":[],"categories_segments":[],"categories_sizes":[],"default_left":[0,1,0,0,0,1,1,0,0,0,1,0,0,0,0,0,0,0,1,0,0,0,0,0,1,1,0,0,0,1,0,0,0,0,0,0,1,0,0,1,0,1,1,0,0,0,0,0,1,0,0,1,0,0,0,0,1,0,0,0,0,0,0,0,0,0,0,0,0,0,0,0,0,0,0,0,0,0,0,0,0,0,0,0,0,0,0,0,0,0,0,0,0,0,0,0,0,0,0,0,0,0,0,0,0,0,0,0,0,0,0,0,0],"id":5,"left_children":[1,3,5,7,9,11,13,15,17,19,21,23,25,27,29,31,33,35,37,39,41,43,45,47,49,51,53,-1,55,57,59,61,63,65,67,69,71,73,75,77,79,81,83,85,-1,87,89,91,93,95,97,99,-1,101,103,105,107,-1,109,-1,111,-1,-1,-1,-1,-1,-1,-1,-1,-1,-1,-1,-1,-1,-1,-1,-1,-1,-1,-1,-1,-1,-1,-1,-1,-1,-1,-1,-1,-1,-1,-1,-1,-1,-1,-1,-1,-1,-1,-1,-1,-1,-1,-1,-1,-1,-1,-1,-1,-1,-1,-1,-1],"loss_changes":[1.0849772E3,5.617074E2,2.2855487E2,2.4676501E2,1.3063751E2,6.3052673E1,1.6927124E1,2.6296692E1,5.6485565E1,8.359477E1,1.3164005E2,2.0926453E1,1.3692757E1,2.8365479E0,1.3278671E1,1.3822891E1,4.4594727E0,5.348575E1,3.0650707E1,1.303112E2,2.3057537E1,1.975708E1,4.8212036E1,9.414124E0,1.0474899E1,1.116567E1,1.0633314E1,0E0,1.0050659E0,2.289978E0,9.038982E0,3.0636826E0,1.0564936E1,3.8065567E0,1.3168335E0,4.0387848E1,1.3021501E1,1.7887985E1,1.5416818E1,7.963649E1,6.3523148E1,2.4358664E1,1.7239594E1,7.077797E0,0E0,8.423659E1,1.4026978E1,8.4653015E0,8.506375E0,8.521225E0,5.504669E0,7.6864424E0,0E0,1.021934E1,7.2065887E0,1.9639206E0,6.976929E-1,0E0,1.5282211E0,0E0,9.940899E0,0E0,0E0,0E0,0E0,0E0,0E0,0E0,0E0,0E0,0E0,0E0,0E0,0E0,0E0,0E0,0E0,0E0,0E0,0E0,0E0,0E0,0E0,0E0,0E0,0E0,0E0,0E0,0E0,0E0,0E0,0E0,0E0,0E0,0E0,0E0,0E0,0E0,0E0,0E0,0E0,0E0,0E0,0E0,0E0,0E0,0E0,0E0,0E0,0E0,0E0,0E0,0E0],"parents":[2147483647,0,0,1,1,2,2,3,3,4,4,5,5,6,6,7,7,8,8,9,9,10,10,11,11,12,12,13,13,14,14,15,15,16,16,17,17,18,18,19,19,20,20,21,21,22,22,23,23,24,24,25,25,26,26,28,28,29,29,30,30,31,31,32,32,33,33,34,34,35,35,36,36,37,37,38,38,39,39,40,40,41,41,42,42,43,43,45,45,46,46,47,47,48,48,49,49,50,50,51,51,53,53,54,54,55,55,56,56,58,58,60,60],"right_children":[2,4,6,8,10,12,14,16,18,20,22,24,26,28,30,32,34,36,38,40,42,44,46,48,50,52,54,-1,56,58,60,62,64,66,68,70,72,74,76,78,80,82,84,86,-1,88,90,92,94,96,98,100,-1,102,104,106,108,-1,110,-1,112,-1,-1,-1,-1,-1,-1,-1,-1,-1,-1,-1,-1,-1,-1,-1,-1,-1,-1,-1,-1,-1,-1,-1,-1,-1,-1,-1,-1,-1,-1,-1,-1,-1,-1,-1,-1,-1,-1,-1,-1,-1,-1,-1,-1,-1,-1,-1,-1,-1,-1,-1,-1],"split_conditions":[7.5316794E-2,-8.446994E-2,2.2687949E-1,-1.1965278E1,1.2098596E-2,1.0879811E-1,-3.9844406E-1,-3.7830082E-1,2.3360883E-1,9.026271E-3,-1.5326017E1,1.0340297E-1,-9.0918034E-2,3.264133E-1,2.2240962E-1,1.9344158E0,-1.0677425E0,4.889976E-3,8.111548E-1,2.1377414E2,-1.9657936E-2,-3.9822164E-1,-2.1960072E-1,2.4006552E-1,3.2197687E-1,4.365266E-1,-2.6261E4,-6.498879E-2,5.6753755E-1,1.8884387E-2,9.82772E-3,-2.6576492E-1,5.602119E0,2.0798795E-1,-3.945902E-2,-1.43064E5,6.777784E-2,1.6599388E-3,-1.5882413E-1,8.59375E-4,8.439245E-3,7.9716265E-2,8.523581E-2,-1.4062762E-2,5.087122E-3,-2.4828495E-2,2.2733827E-4,6.281351E-2,1.8949648E-3,1.2834863E1,2.4943207E-1,9.382697E-1,-2.7313128E-2,2.6504534E-1,1.2295082E-1,4.2952615E-1,4.2602365E2,-6.292492E-2,7.911518E-4,-1.1753746E-2,5.960891E-1,9.538144E-2,6.1074134E-2,2.5820618E-2,8.324452E-2,4.8865285E-2,8.626621E-2,1.0046297E-1,8.062586E-2,6.3981056E-2,3.314818E-2,-1.9341981E-2,1.4572196E-2,2.044786E-2,-5.08317E-3,-4.904381E-2,2.4271198E-3,-1.4574743E-2,1.66819E-2,7.8265704E-2,2.5098486E-2,-1.3108533E-4,-3.3045515E-2,-2.9026158E-2,-6.075079E-3,9.934278E-2,4.4447478E-2,-1.866602E-2,-7.438738E-2,-1.0459598E-2,-3.8261507E-2,-6.095861E-2,-3.1971503E-2,-6.834879E-2,-1.53583335E-2,-7.8452766E-2,-3.9187677E-2,-5.52473E-2,-8.791767E-2,4.947665E-2,-0E0,-1.8077454E-2,1.8135535E-2,-1.2129833E-2,-3.8560394E-2,-6.7438394E-2,-9.5710665E-2,-9.8767936E-2,-8.131111E-2,-1.06910095E-1,-8.3143145E-2,-2.7375076E-2,-8.568434E-2],"split_indices":[20,31,20,20,31,8,28,14,28,20,8,20,29,20,5,26,21,20,3,25,31,20,4,3,25,5,32,0,13,24,28,28,26,13,24,32,8,20,23,18,24,34,28,24,0,20,7,8,34,18,4,24,0,17,30,10,17,0,4,0,13,0,0,0,0,0,0,0,0,0,0,0,0,0,0,0,0,0,0,0,0,0,0,0,0,0,0,0,0,0,0,0,0,0,0,0,0,0,0,0,0,0,0,0,0,0,0,0,0,0,0,0,0],"split_type":[0,0,0,0,0,0,0,0,0,0,0,0,0,0,0,0,0,0,0,0,0,0,0,0,0,0,0,0,0,0,0,0,0,0,0,0,0,0,0,0,0,0,0,0,0,0,0,0,0,0,0,0,0,0,0,0,0,0,0,0,0,0,0,0,0,0,0,0,0,0,0,0,0,0,0,0,0,0,0,0,0,0,0,0,0,0,0,0,0,0,0,0,0,0,0,0,0,0,0,0,0,0,0,0,0,0,0,0,0,0,0,0,0],"sum_hessian":[9.729645E3,8.1437124E3,1.5859325E3,3.2324792E3,4.9112334E3,1.0366052E3,5.4932733E2,4.245762E2,2.807903E3,3.8539705E3,1.0572626E3,5.737047E2,4.6290054E2,3.893738E2,1.599535E2,1.4259615E2,2.8198004E2,1.566038E3,1.2418651E3,2.155858E3,1.6981125E3,7.524326E1,9.8201935E2,3.2140167E2,2.5230302E2,8.302105E1,3.798795E2,1.622245E1,3.7315137E2,7.9121994E1,8.083151E1,5.6822517E1,8.577363E1,8.339364E1,1.9858641E2,1.3118666E3,2.541713E2,1.1335856E3,1.08279564E2,1.5255868E3,6.302712E2,1.0566324E3,6.4148004E2,5.393981E1,2.130345E1,5.0369217E2,4.7832718E2,1.9086105E2,1.305406E2,1.3592105E2,1.1638197E2,5.844197E1,2.4579077E1,1.6537001E2,2.1450949E2,6.0463226E1,3.1268814E2,1.5677314E1,6.3444683E1,2.282343E1,5.8008083E1,3.5284134E1,2.1538385E1,6.634463E1,1.9428999E1,1.7191586E1,6.620205E1,1.755822E2,2.3004217E1,2.4210472E2,1.069762E3,7.371717E1,1.8045412E2,9.883651E2,1.4522049E2,4.8778328E1,5.9501236E1,8.4078815E2,6.8479865E2,1.3184222E2,4.9842896E2,9.3950116E2,1.1713135E2,3.9317337E2,2.4830669E2,3.7616074E1,1.6323736E1,2.473711E2,2.5632108E2,3.6891293E2,1.0941426E2,9.1185425E1,9.967563E1,1.6135813E1,1.1440479E2,3.535193E1,1.00569115E2,3.7010113E1,7.937186E1,3.222014E1,2.6221834E1,1.1244799E2,5.2922024E1,7.407244E1,1.4043704E2,2.0147316E1,4.0315907E1,2.948367E2,1.7851418E1,2.8988579E1,3.4456104E1,2.292807E1,3.508001E1],"tree_param":{"num_deleted":"0","num_feature":"36","num_nodes":"113","size_leaf_vector":"1"}},{"base_weights":[3.085532E-3,1.7874327E-1,-5.7390785E-1,1.1132449E0,1.1358076E-1,-3.7655875E-1,-1.2068735E0,6.9714445E-1,1.310354E0,2.3224552E-1,-2.5410414E-1,-2.1618631E-1,-5.664084E-1,-8.958111E-1,-1.3228226E0,1.3131264E0,5.223E-1,1.3398618E0,5.128288E-2,3.184522E-1,-2.369166E-2,-4.864726E-1,-2.7306654E-2,-8.780974E-3,-3.1721342E-1,-4.459143E-1,-7.2122633E-1,-4.5767763E-1,-1.2638762E0,-1.345752E0,-5.8858633E-2,7.378958E-2,1.0227107E-1,7.049499E-1,2.7248988E-1,1.2561697E0,1.3975941E0,2.4576579E-1,6.8530875E-1,3.545403E-2,-4.211553E-1,7.54963E-2,-6.273757E-1,2.0790721E-1,-2.5357884E-1,1.4331251E-1,-2.5574192E-1,-1.6065086E-1,-4.901696E-1,-6.14445E-1,-2.629179E-1,-5.217301E-1,-9.02761E-1,-1.96706E-1,-5.491501E-2,-1.0739905E0,-1.4309993E0,-7.685256E-2,-1.3591524E0,3.7019547E-2,7.8715906E-2,-1.7978717E-2,3.960372E-2,9.4791524E-2,7.516413E-2,8.7300934E-2,9.87274E-2,2.4460092E-2,3.128827E-3,6.717309E-2,1.4478475E-2,-1.3927577E-2,6.366941E-3,-6.0323495E-2,-1.8090576E-2,-6.201737E-3,3.6013216E-2,-5.2732777E-2,-7.7925324E-3,-1.5699359E-2,2.5198206E-2,-7.96907E-4,-2.7000526E-2,-1.2557535E-2,1.7993132E-2,-3.393255E-2,1.3542982E-3,-7.5591286E-3,-4.9058054E-2,-2.5157012E-2,-5.998713E-2,-4.764181E-2,-7.6984544E-3,1.293091E-3,-3.1035509E-2,-8.122183E-2,-2.9740663E-2,-2.4377504E-2,-7.190947E-2,-3.3875298E-2,4.081034E-3,-5.242378E-2,-9.344111E-2,-9.000998E-2,-1.0455901E-1,-9.351683E-2,-7.629847E-2],"categories":[],"categories_nodes":[],"categories_segments":[],"categories_sizes":[],"default_left":[0,0,0,0,1,1,0,0,0,0,0,0,1,1,1,0,1,0,0,0,1,0,0,0,0,1,0,1,1,0,0,0,0,0,0,1,0,0,0,0,0,1,1,0,0,1,0,0,1,1,1,0,0,0,0,0,0,0,1,0,0,0,0,0,0,0,0,0,0,0,0,0,0,0,0,0,0,0,0,0,0,0,0,0,0,0,0,0,0,0,0,0,0,0,0,0,0,0,0,0,0,0,0,0,0,0,0],"id":6,"left_children":[1,3,5,7,9,11,13,15,17,19,21,23,25,27,29,31,33,35,-1,37,39,41,43,45,47,49,51,53,55,57,-1,-1,-1,59,61,63,65,67,69,71,73,75,77,79,81,83,85,87,89,91,93,95,97,99,-1,101,103,-1,105,-1,-1,-1,-1,-1,-1,-1,-1,-1,-1,-1,-1,-1,-1,-1,-1,-1,-1,-1,-1,-1,-1,-1,-1,-1,-1,-1,-1,-1,-1,-1,-1,-1,-1,-1,-1,-1,-1,-1,-1,-1,-1,-1,-1,-1,-1,-1,-1],"loss_changes":[9.7868396E2,4.5065195E2,2.8129517E2,3.9295288E1,3.0195642E2,5.2210968E1,1.9006348E1,1.648426E1,5.0877075E0,1.15480835E2,8.891265E1,1.9483402E1,1.4516846E1,2.3279022E1,3.786316E0,1.119297E0,5.403862E0,1.1239014E0,0E0,1.04259186E2,3.10322E1,6.6081024E1,4.5496746E1,1.1494586E1,1.6872993E1,1.3541382E1,1.225769E1,5.95706E0,2.1570892E0,7.25647E-1,0E0,0E0,0E0,4.8409195E0,8.601383E0,2.3019257E0,7.26532E-1,7.41671E1,9.213498E1,1.599363E1,1.220899E1,1.2680136E1,5.034839E1,2.985347E1,1.5049273E1,7.5099044E0,7.8806777E0,9.033492E0,1.38454895E1,9.782196E0,1.163545E1,9.121086E0,1.4874298E1,3.0263321E0,0E0,3.109024E0,6.6581726E-2,0E0,9.058838E-1,0E0,0E0,0E0,0E0,0E0,0E0,0E0,0E0,0E0,0E0,0E0,0E0,0E0,0E0,0E0,0E0,0E0,0E0,0E0,0E0,0E0,0E0,0E0,0E0,0E0,0E0,0E0,0E0,0E0,0E0,0E0,0E0,0E0,0E0,0E0,0E0,0E0,0E0,0E0,0E0,0E0,0E0,0E0,0E0,0E0,0E0,0E0,0E0],"parents":[2147483647,0,0,1,1,2,2,3,3,4,4,5,5,6,6,7,7,8,8,9,9,10,10,11,11,12,12,13,13,14,14,15,15,16,16,17,17,19,19,20,20,21,21,22,22,23,23,24,24,25,25,26,26,27,27,28,28,29,29,33,33,34,34,35,35,36,36,37,37,38,38,39,39,40,40,41,41,42,42,43,43,44,44,45,45,46,46,47,47,48,48,49,49,50,50,51,51,52,52,53,53,55,55,56,56,58,58],"right_children":[2,4,6,8,10,12,14,16,18,20,22,24,26,28,30,32,34,36,-1,38,40,42,44,46,48,50,52,54,56,58,-1,-1,-1,60,62,64,66,68,70,72,74,76,78,80,82,84,86,88,90,92,94,96,98,100,-1,102,104,-1,106,-1,-1,-1,-1,-1,-1,-1,-1,-1,-1,-1,-1,-1,-1,-1,-1,-1,-1,-1,-1,-1,-1,-1,-1,-1,-1,-1,-1,-1,-1,-1,-1,-1,-1,-1,-1,-1,-1,-1,-1,-1,-1,-1,-1,-1,-1,-1,-1],"split_conditions":[4.9473416E-2,-8.324111E0,2.2687949E-1,-5.538918E-1,-4.057392E-3,-2.7380016E-2,9.102423E-1,-9.6892416E-1,1.352E2,6.6581997E-3,1.2327073E1,8.9402366E-1,2.4091762E-1,8.317911E-2,1.2747287E0,6.7436635E-1,-6.6153846E0,-2.8255157E0,5.128288E-2,5.067017E-5,7.9716265E-2,-2.4891669E-1,9.026271E-3,1.0969519E-1,-6.379876E-2,1.1083159E1,4.807018E-1,1.0625615E0,1.568781E-3,3.1923935E-2,-5.8858633E-2,7.378958E-2,1.0227107E-1,9.124281E1,3.9587802E-1,-1.4064209E2,-4.3465126E-1,-9.1342255E-2,2.5724104E-4,4.194366E0,2.5350233E-5,2.7461667E-2,2.8838592E-3,8.1747196E-5,7.4620107E-3,7.003682E0,1.2802128E1,1.9971722E-1,4.2506206E-1,5.58528E-1,6.665418E-2,1.1826523E-4,4.6429474E-2,1.0379069E1,-5.491501E-2,4.127442E-1,3.3555555E0,-7.685256E-2,4.2602365E2,3.7019547E-2,7.8715906E-2,-1.7978717E-2,3.960372E-2,9.4791524E-2,7.516413E-2,8.7300934E-2,9.87274E-2,2.4460092E-2,3.128827E-3,6.717309E-2,1.4478475E-2,-1.3927577E-2,6.366941E-3,-6.0323495E-2,-1.8090576E-2,-6.201737E-3,3.6013216E-2,-5.2732777E-2,-7.7925324E-3,-1.5699359E-2,2.5198206E-2,-7.96907E-4,-2.7000526E-2,-1.2557535E-2,1.7993132E-2,-3.393255E-2,1.3542982E-3,-7.5591286E-3,-4.9058054E-2,-2.5157012E-2,-5.998713E-2,-4.764181E-2,-7.6984544E-3,1.293091E-3,-3.1035509E-2,-8.122183E-2,-2.9740663E-2,-2.4377504E-2,-7.190947E-2,-3.3875298E-2,4.081034E-3,-5.242378E-2,-9.344111E-2,-9.000998E-2,-1.0455901E-1,-9.351683E-2,-7.629847E-2],"split_indices":[20,20,20,14,31,31,20,28,22,20,26,19,25,31,23,23,18,24,0,25,34,20,20,21,31,18,30,5,19,25,0,0,0,17,22,31,30,31,20,18,16,34,18,25,6,18,26,34,25,29,21,5,5,26,0,31,24,0,17,0,0,0,0,0,0,0,0,0,0,0,0,0,0,0,0,0,0,0,0,0,0,0,0,0,0,0,0,0,0,0,0,0,0,0,0,0,0,0,0,0,0,0,0,0,0,0,0],"split_type":[0,0,0,0,0,0,0,0,0,0,0,0,0,0,0,0,0,0,0,0,0,0,0,0,0,0,0,0,0,0,0,0,0,0,0,0,0,0,0,0,0,0,0,0,0,0,0,0,0,0,0,0,0,0,0,0,0,0,0,0,0,0,0,0,0,0,0,0,0,0,0,0,0,0,0,0,0,0,0,0,0,0,0,0,0,0,0,0,0,0,0,0,0,0,0,0,0,0,0,0,0,0,0,0,0,0,0],"sum_hessian":[9.656583E3,7.4030566E3,2.2535264E3,4.8241144E2,6.920645E3,1.7180907E3,5.354356E2,1.5530708E2,3.2710434E2,5.232334E3,1.688311E3,9.317331E2,7.8635754E2,1.457445E2,3.8969113E2,3.4141186E1,1.211659E2,3.103918E2,1.671252E1,3.9143489E3,1.3179851E3,8.336291E2,8.5468195E2,3.0559933E2,6.261338E2,4.427058E2,3.4365173E2,6.672013E1,7.902437E1,3.7079813E2,1.8893019E1,1.5863124E1,1.8278059E1,6.967694E1,5.148896E1,1.2783727E2,1.8255453E2,3.2673594E3,6.4698944E2,1.147015E3,1.7097014E2,1.6694267E2,6.6668646E2,4.1879456E2,4.358874E2,1.8882272E2,1.167766E2,3.2904453E2,2.9708926E2,2.3007683E2,2.1262897E2,1.6410094E2,1.795508E2,3.8417435E1,2.8302698E1,3.7434536E1,4.1589832E1,2.2302631E1,3.4849548E2,5.1625397E1,1.8051544E1,1.8688578E1,3.280038E1,6.6629585E1,6.1207687E1,5.8884842E1,1.236697E2,2.0819211E3,1.1854382E3,3.946171E2,2.5237236E2,2.2307025E2,9.2394476E2,4.2549015E1,1.2842113E2,1.2191883E2,4.5023846E1,5.1751544E2,1.4917102E2,1.1295309E2,3.0584146E2,1.6244212E2,2.7344528E2,5.06572E1,1.3816553E2,6.2298466E1,5.4478138E1,3.0253592E2,2.6508596E1,2.2745096E2,6.963831E1,1.9627043E2,3.3806396E1,8.620562E1,1.26423355E2,1.816096E1,1.4593997E2,3.978383E1,1.3976697E2,1.7887697E1,2.0529737E1,1.883511E1,1.8599426E1,2.1299149E1,2.0290686E1,3.2701205E2,2.1483437E1],"tree_param":{"num_deleted":"0","num_feature":"36","num_nodes":"107","size_leaf_vector":"1"}},{"base_weights":[-1.7480729E-3,1.5384588E-1,-5.712017E-1,1.0981598E0,9.3989536E-2,-3.731766E-1,-1.1665663E0,7.266071E-1,1.2596116E0,3.031481E-1,-8.381477E-2,-5.564537E-1,-1.9313312E-1,-1.2799927E0,-8.944896E-1,1.2529671E0,5.2980316E-1,1.2848356E0,5.2930847E-2,5.4743135E-1,2.424298E-1,-3.2840785E-1,4.3910425E-2,-3.9296073E-1,-7.539981E-1,-1.744358E-2,-3.1975976E-1,-1.0016268E0,-1.3109497E0,-1.1780372E0,-5.71948E-1,9.891851E-2,6.9194674E-2,7.674645E-1,2.9410324E-1,1.3157822E0,1.0619619E0,6.4153725E-1,5.892301E-2,4.7983408E-1,1.640875E-1,-1.2533094E-1,-7.6399577E-1,2.9545724E-1,-1.270007E-1,3.5273597E-2,-4.4619143E-1,-1.0957985E0,-6.777714E-1,-3.9385632E-1,1.1800721E-1,-3.538072E-1,2.8336292E-2,-4.6269704E-2,-9.497168E-2,-7.305503E-2,-1.3251567E0,-1.2957101E0,-5.728816E-2,-1.6907579E-1,-9.3244946E-1,7.202324E-2,2.9443474E-2,4.665388E-2,2.803798E-3,8.140349E-2,9.3180545E-2,8.499058E-2,5.4913618E-2,3.7272997E-2,8.185884E-2,-3.4198113E-2,1.911973E-2,2.2834387E-2,5.3330753E-2,-5.976472E-3,1.360963E-2,-2.216831E-2,7.859268E-3,-6.497038E-2,-1.1669939E-2,3.91404E-3,3.4765787E-2,-3.8477726E-2,-5.616499E-3,2.2861203E-2,-3.6349736E-2,-1.8003836E-2,-4.040341E-2,-9.5331304E-2,-6.332689E-2,-1.4743728E-2,-5.0845377E-2,-3.5373695E-2,9.728921E-3,1.3037797E-2,-2.1121198E-2,-3.387768E-2,-1.2731907E-2,-9.109716E-2,-7.363974E-2,-9.752634E-2,-7.374636E-2,1.5150559E-2,-4.2143438E-2,-9.0089075E-2,-4.3470208E-2],"categories":[],"categories_nodes":[],"categories_segments":[],"categories_sizes":[],"default_left":[0,0,0,0,1,1,1,0,0,0,0,0,0,0,0,0,1,1,0,0,0,0,0,1,0,0,1,1,0,0,1,0,0,1,0,1,0,1,0,1,1,1,1,0,0,1,1,0,0,0,1,0,0,0,0,0,0,1,0,1,0,0,0,0,0,0,0,0,0,0,0,0,0,0,0,0,0,0,0,0,0,0,0,0,0,0,0,0,0,0,0,0,0,0,0,0,0,0,0,0,0,0,0,0,0,0,0],"id":7,"left_children":[1,3,5,7,9,11,13,15,17,19,21,23,25,27,29,31,33,35,-1,37,39,41,43,45,47,49,51,53,55,57,59,-1,-1,61,63,65,67,69,71,73,75,77,79,81,83,85,87,89,91,93,95,97,-1,-1,-1,-1,99,101,-1,103,105,-1,-1,-1,-1,-1,-1,-1,-1,-1,-1,-1,-1,-1,-1,-1,-1,-1,-1,-1,-1,-1,-1,-1,-1,-1,-1,-1,-1,-1,-1,-1,-1,-1,-1,-1,-1,-1,-1,-1,-1,-1,-1,-1,-1,-1,-1],"loss_changes":[8.5517267E2,4.2828537E2,2.4399573E2,2.6825562E1,2.6511877E2,5.1199554E1,1.5649109E1,1.396566E1,3.5407715E0,4.8484314E1,1.203923E2,2.4718277E1,1.7412048E1,2.8182373E0,1.3709938E1,1.4136162E0,5.4655895E0,1.7278748E0,0E0,2.9870651E1,4.8721146E1,1.1682637E2,1.08818634E2,9.6638565E0,8.83551E0,1.6812033E1,1.1414204E1,4.405117E0,7.6867676E-1,2.9065018E0,1.025696E1,0E0,0E0,4.627573E0,4.911985E0,1.313385E0,1.4849968E0,2.8524078E1,1.3130899E1,2.8380768E1,1.7869556E1,4.3563236E1,4.735318E1,5.2429115E1,2.9288485E1,7.9243155E0,9.948746E0,2.8603134E0,9.007523E0,5.954543E0,7.6089783E0,1.0372498E1,0E0,0E0,0E0,0E0,6.793213E-1,1.3838959E0,0E0,6.0501113E0,4.057968E0,0E0,0E0,0E0,0E0,0E0,0E0,0E0,0E0,0E0,0E0,0E0,0E0,0E0,0E0,0E0,0E0,0E0,0E0,0E0,0E0,0E0,0E0,0E0,0E0,0E0,0E0,0E0,0E0,0E0,0E0,0E0,0E0,0E0,0E0,0E0,0E0,0E0,0E0,0E0,0E0,0E0,0E0,0E0,0E0,0E0,0E0],"parents":[2147483647,0,0,1,1,2,2,3,3,4,4,5,5,6,6,7,7,8,8,9,9,10,10,11,11,12,12,13,13,14,14,15,15,16,16,17,17,19,19,20,20,21,21,22,22,23,23,24,24,25,25,26,26,27,27,28,28,29,29,30,30,33,33,34,34,35,35,36,36,37,37,38,38,39,39,40,40,41,41,42,42,43,43,44,44,45,45,46,46,47,47,48,48,49,49,50,50,51,51,56,56,57,57,59,59,60,60],"right_children":[2,4,6,8,10,12,14,16,18,20,22,24,26,28,30,32,34,36,-1,38,40,42,44,46,48,50,52,54,56,58,60,-1,-1,62,64,66,68,70,72,74,76,78,80,82,84,86,88,90,92,94,96,98,-1,-1,-1,-1,100,102,-1,104,106,-1,-1,-1,-1,-1,-1,-1,-1,-1,-1,-1,-1,-1,-1,-1,-1,-1,-1,-1,-1,-1,-1,-1,-1,-1,-1,-1,-1,-1,-1,-1,-1,-1,-1,-1,-1,-1,-1,-1,-1,-1,-1,-1,-1,-1,-1],"split_conditions":[5.420504E-2,-1.1965278E1,2.2687949E-1,-5.538918E-1,-6.2804595E-2,8.262737E-2,-3.5066357E-1,-6.596116E2,1.1062851E2,-9.962802E-1,-3.751563E-5,8.10135E-2,9.198831E-2,9.102423E-1,2.9292598E-1,-4.1551545E-1,-1.6167019E1,1.6897959E1,5.2930847E-2,2.5724104E-4,-7.450267E-2,-1.14872E-2,7.6312777E-3,-6.379876E-2,4.862809E0,8.00532E-3,1.2747287E0,1.778E3,3.1923935E-2,4.493426E2,1.6103688E0,9.891851E-2,6.9194674E-2,-6.7837834E-2,-2.884E3,2.7746704E0,1.0580455E1,2.2167117E-4,1.2185384E-1,1.2363154E0,3.0455944E-6,1.3633532E-2,1.8517914E-3,7.558778E-2,2.5721693E0,3.6264315E-1,1.5531062E-1,-3.8983863E-2,1.8265133E-1,5.046652E-2,1.8686244E0,1.2122544E1,2.8336292E-2,-4.6269704E-2,-9.497168E-2,-7.305503E-2,9.317073E1,4.008444E0,-5.728816E-2,3.987301E-2,2.669132E-1,7.202324E-2,2.9443474E-2,4.665388E-2,2.803798E-3,8.140349E-2,9.3180545E-2,8.499058E-2,5.4913618E-2,3.7272997E-2,8.185884E-2,-3.4198113E-2,1.911973E-2,2.2834387E-2,5.3330753E-2,-5.976472E-3,1.360963E-2,-2.216831E-2,7.859268E-3,-6.497038E-2,-1.1669939E-2,3.91404E-3,3.4765787E-2,-3.8477726E-2,-5.616499E-3,2.2861203E-2,-3.6349736E-2,-1.8003836E-2,-4.040341E-2,-9.5331304E-2,-6.332689E-2,-1.4743728E-2,-5.0845377E-2,-3.5373695E-2,9.728921E-3,1.3037797E-2,-2.1121198E-2,-3.387768E-2,-1.2731907E-2,-9.109716E-2,-7.363974E-2,-9.752634E-2,-7.374636E-2,1.5150559E-2,-4.2143438E-2,-9.0089075E-2,-4.3470208E-2],"split_indices":[20,20,20,14,31,8,28,20,22,30,4,20,20,20,5,26,18,2,0,20,28,20,20,31,18,34,23,32,25,24,24,0,0,30,32,34,27,24,17,30,34,34,18,25,18,5,25,8,13,16,4,27,0,0,0,0,22,18,0,34,7,0,0,0,0,0,0,0,0,0,0,0,0,0,0,0,0,0,0,0,0,0,0,0,0,0,0,0,0,0,0,0,0,0,0,0,0,0,0,0,0,0,0,0,0,0,0],"split_type":[0,0,0,0,0,0,0,0,0,0,0,0,0,0,0,0,0,0,0,0,0,0,0,0,0,0,0,0,0,0,0,0,0,0,0,0,0,0,0,0,0,0,0,0,0,0,0,0,0,0,0,0,0,0,0,0,0,0,0,0,0,0,0,0,0,0,0,0,0,0,0,0,0,0,0,0,0,0,0,0,0,0,0,0,0,0,0,0,0,0,0,0,0,0,0,0,0,0,0,0,0,0,0,0,0,0,0],"sum_hessian":[9.651039E3,7.5797886E3,2.0712507E3,4.5166284E2,7.128126E3,1.5544689E3,5.16782E2,1.3709021E2,3.1457263E2,3.275589E3,3.8525366E3,7.699486E2,7.845202E2,3.6433713E2,1.5244485E2,3.709716E1,9.999304E1,2.986342E2,1.5938459E1,6.5164044E2,2.6239487E3,1.3219438E3,2.5305928E3,4.2167032E2,3.4827826E2,3.2902158E2,4.5549863E2,3.695398E1,3.2738315E2,8.088377E1,7.156108E1,1.969112E1,1.740604E1,4.9497627E1,5.0495415E1,2.6161868E2,3.701552E1,5.4616614E2,1.05474335E2,6.50622E2,1.9733268E3,9.018214E2,4.201224E2,1.02407E3,1.506523E3,4.6364513E1,3.7530582E2,6.3145573E1,2.851327E2,8.729381E1,2.4172778E2,4.3553766E2,1.996098E1,2.0560066E1,1.6393915E1,1.9099611E1,3.0828354E2,5.9580452E1,2.130332E1,3.3975372E1,3.7585712E1,2.625167E1,2.3245956E1,1.9606812E1,3.0888603E1,8.190859E1,1.7971007E2,2.1010265E1,1.6005253E1,4.6823077E2,7.7935356E1,2.9723936E1,7.57504E1,4.415042E2,2.0911778E2,2.4580716E2,1.7275197E3,4.9244495E2,4.0937646E2,3.1761703E2,1.02505356E2,4.869334E2,5.371365E2,1.3841676E2,1.3681062E3,3.0492008E1,1.5872505E1,1.6865749E2,2.0664835E2,2.1838732E1,4.130684E1,3.756888E1,2.475638E2,7.088783E1,1.6405972E1,2.065486E2,3.5179188E1,2.3321341E2,2.0232425E2,2.913523E2,1.6931236E1,3.5685062E1,2.3895388E1,1.8029484E1,1.5945888E1,1.5886702E1,2.169901E1],"tree_param":{"num_deleted":"0","num_feature":"36","num_nodes":"107","size_leaf_vector":"1"}},{"base_weights":[3.5771066E-3,1.2302866E-1,-6.4563096E-1,1.0199938E0,6.719293E-2,-4.2450923E-1,-1.1801877E0,6.741038E-1,1.211641E0,2.7544826E-1,-9.157498E-2,-2.6785094E-1,-7.2594464E-1,-1.2640048E0,-8.888418E-1,1.1109669E0,4.6279916E-1,1.0782155E0,1.3001571E0,3.3604294E-1,2.865756E-2,-1.882854E-1,1.5622984E-1,-9.1620314E-1,-2.3143438E-1,-9.80041E-3,-7.732572E-1,-1.2355398E0,-1.3900508E0,-1.322569E0,-6.704285E-1,5.478838E-2,9.0469986E-2,3.5994628E-1,6.161986E-2,4.7935095E-2,1.1849163E0,6.914786E-2,1.3260108E0,2.1161526E-1,5.528649E-1,-6.6140133E-1,6.645894E-2,-1.3932377E-1,-7.122575E-1,6.5344834E-1,-1.4194309E-2,-8.6782746E-2,-2.9493816E-2,8.5396886E-2,-2.8268787E-1,-6.135364E-1,-9.558157E-1,-1.2816361E0,-9.9423784E-1,-8.498792E-2,-9.764992E-2,-9.767463E-2,-8.112101E-2,-5.646923E-3,-8.751382E-1,3.7099525E-2,6.20288E-3,8.621717E-2,6.701649E-2,7.370574E-2,9.191503E-2,4.6575055E-2,1.0947568E-2,5.785648E-2,3.27422E-2,-8.1342466E-2,-6.811139E-3,1.0381614E-2,-1.0525337E-2,-5.351403E-3,-2.427329E-2,-5.684681E-3,-6.517602E-2,5.8245644E-2,1.38480365E-2,1.4298193E-2,-1.0420915E-2,-5.1692678E-3,4.495254E-2,-1.5984358E-2,-3.9042324E-2,-5.0583284E-2,-6.460441E-3,-4.5306444E-2,-7.8979164E-2,-8.454953E-2,-9.534092E-2,-5.3459726E-2,-9.2720136E-2,-2.2849783E-2,-8.306406E-2],"categories":[],"categories_nodes":[],"categories_segments":[],"categories_sizes":[],"default_left":[0,0,0,0,1,1,1,0,0,0,0,0,1,1,0,1,0,0,0,1,0,0,0,1,0,0,0,1,1,1,1,0,0,1,0,0,1,0,0,0,0,1,1,0,0,0,0,0,0,1,1,1,0,1,1,0,0,0,0,0,0,0,0,0,0,0,0,0,0,0,0,0,0,0,0,0,0,0,0,0,0,0,0,0,0,0,0,0,0,0,0,0,0,0,0,0,0],"id":8,"left_children":[1,3,5,7,9,11,13,15,17,19,21,23,25,27,29,31,33,35,37,39,41,43,45,47,49,-1,51,53,55,57,59,-1,-1,61,-1,-1,63,-1,65,67,69,71,73,75,77,79,81,-1,-1,83,85,87,89,91,93,-1,-1,-1,-1,-1,95,-1,-1,-1,-1,-1,-1,-1,-1,-1,-1,-1,-1,-1,-1,-1,-1,-1,-1,-1,-1,-1,-1,-1,-1,-1,-1,-1,-1,-1,-1,-1,-1,-1,-1,-1,-1],"loss_changes":[7.4487573E2,4.0620612E2,1.7622205E2,3.1253784E1,2.525723E2,4.9742752E1,1.0364807E1,1.5462334E1,3.276947E0,4.937033E1,1.0386291E2,1.6267632E1,9.819321E0,8.435669E-1,9.00975E0,3.3919525E0,5.05608E0,4.6331635E0,1.017456E0,7.146744E1,1.6931112E1,7.987089E1,1.0313632E2,6.151495E0,1.0717926E1,0E0,9.515488E0,2.7685547E0,8.865356E-3,1.08169556E-1,7.744255E0,0E0,0E0,4.5667896E0,0E0,0E0,1.2494812E0,0E0,6.6482544E-1,4.0332825E1,2.0437256E1,9.933698E0,1.1771517E1,3.755915E1,4.096614E1,2.8169739E1,2.8219843E1,0E0,0E0,8.554943E0,7.7845917E0,1.1901283E1,8.974915E0,7.112427E-1,3.1655807E0,0E0,0E0,0E0,0E0,0E0,8.805767E0,0E0,0E0,0E0,0E0,0E0,0E0,0E0,0E0,0E0,0E0,0E0,0E0,0E0,0E0,0E0,0E0,0E0,0E0,0E0,0E0,0E0,0E0,0E0,0E0,0E0,0E0,0E0,0E0,0E0,0E0,0E0,0E0,0E0,0E0,0E0,0E0],"parents":[2147483647,0,0,1,1,2,2,3,3,4,4,5,5,6,6,7,7,8,8,9,9,10,10,11,11,12,12,13,13,14,14,15,15,16,16,17,17,18,18,19,19,20,20,21,21,22,22,23,23,24,24,26,26,27,27,28,28,29,29,30,30,33,33,36,36,38,38,39,39,40,40,41,41,42,42,43,43,44,44,45,45,46,46,49,49,50,50,51,51,52,52,53,53,54,54,60,60],"right_children":[2,4,6,8,10,12,14,16,18,20,22,24,26,28,30,32,34,36,38,40,42,44,46,48,50,-1,52,54,56,58,60,-1,-1,62,-1,-1,64,-1,66,68,70,72,74,76,78,80,82,-1,-1,84,86,88,90,92,94,-1,-1,-1,-1,-1,96,-1,-1,-1,-1,-1,-1,-1,-1,-1,-1,-1,-1,-1,-1,-1,-1,-1,-1,-1,-1,-1,-1,-1,-1,-1,-1,-1,-1,-1,-1,-1,-1,-1,-1,-1,-1],"split_conditions":[7.711238E-2,-8.324111E0,3.264133E-1,-3.7830082E-1,-6.4906165E-2,-2.6377619E-3,-3.9844406E-1,-1.8221622E2,-2.8255157E0,3.2178138E-3,2.7961409E1,3.633215E-2,2.085211E-3,2.8521304E0,-1.4649412E-2,3.3250865E-1,6.0063534E0,4E1,4.1553304E-1,-4.0993854E-2,-3.690549E-2,1.3202994E-1,3.8318124E-3,5.9640247E-1,-1.5109727E-1,-9.80041E-3,3.033008E-1,8.4706134E-1,2.0396526E-1,-1.522697E0,7.217153E-2,5.478838E-2,9.0469986E-2,-5.3803295E-1,6.161986E-2,4.7935095E-2,-6.6661066E-1,6.914786E-2,1.8412537E-3,-1.3884652E-1,-2.54199E5,2.7997646E-2,1.0751269E0,3.216144E0,-2.4891669E-1,4.4121072E-1,9.026271E-3,-8.6782746E-2,-2.9493816E-2,1.497584E0,4.8607636E-2,1.3056973E1,2.4943207E-1,1.0421773E0,-2.24E2,-8.498792E-2,-9.764992E-2,-9.767463E-2,-8.112101E-2,-5.646923E-3,6.505263E-1,3.7099525E-2,6.20288E-3,8.621717E-2,6.701649E-2,7.370574E-2,9.191503E-2,4.6575055E-2,1.0947568E-2,5.785648E-2,3.27422E-2,-8.1342466E-2,-6.811139E-3,1.0381614E-2,-1.0525337E-2,-5.351403E-3,-2.427329E-2,-5.684681E-3,-6.517602E-2,5.8245644E-2,1.38480365E-2,1.4298193E-2,-1.0420915E-2,-5.1692678E-3,4.495254E-2,-1.5984358E-2,-3.9042324E-2,-5.0583284E-2,-6.460441E-3,-4.5306444E-2,-7.8979164E-2,-8.454953E-2,-9.534092E-2,-5.3459726E-2,-9.2720136E-2,-2.2849783E-2,-8.306406E-2],"split_indices":[20,20,20,14,31,31,28,20,24,20,3,8,0,1,8,23,26,12,17,9,8,31,20,2,29,0,25,2,24,6,24,0,0,28,0,0,9,0,2,35,32,23,4,2,20,24,20,0,0,2,35,27,4,1,32,0,0,0,0,0,21,0,0,0,0,0,0,0,0,0,0,0,0,0,0,0,0,0,0,0,0,0,0,0,0,0,0,0,0,0,0,0,0,0,0,0,0],"split_type":[0,0,0,0,0,0,0,0,0,0,0,0,0,0,0,0,0,0,0,0,0,0,0,0,0,0,0,0,0,0,0,0,0,0,0,0,0,0,0,0,0,0,0,0,0,0,0,0,0,0,0,0,0,0,0,0,0,0,0,0,0,0,0,0,0,0,0,0,0,0,0,0,0,0,0,0,0,0,0,0,0,0,0,0,0,0,0,0,0,0,0,0,0,0,0,0,0],"sum_hessian":[9.606015E3,8.1133965E3,1.4926183E3,4.7530118E2,7.638095E3,1.0560564E3,4.3656195E2,1.6973235E2,3.0556882E2,3.3044355E3,4.3336597E3,6.952113E2,3.608451E2,3.386268E2,9.7935135E1,5.510455E1,1.146278E2,1.2256996E2,1.8299886E2,2.6526248E3,6.518109E2,3.1175017E3,1.216158E3,3.675622E1,6.584551E2,2.7336819E1,3.335083E2,2.7728458E2,6.1342224E1,3.256422E1,6.537091E1,2.3257515E1,3.1847033E1,9.3286064E1,2.1341732E1,2.7523264E1,9.50467E1,1.5761714E1,1.6723714E2,1.6858114E3,9.6681335E2,3.3658558E1,6.1815234E2,2.8513345E3,2.6616727E2,3.1060443E2,9.055535E2,2.0904184E1,1.5852036E1,9.134793E1,5.671071E2,1.7830513E2,1.5520316E2,2.3228102E2,4.5003555E1,1.5688284E1,4.565394E1,1.6803925E1,1.5760297E1,1.7059118E1,4.831179E1,5.493493E1,3.8351135E1,6.68447E1,2.8201992E1,1.6047062E1,1.5119008E2,1.6307712E2,1.5227343E3,1.8740651E2,7.7940686E2,1.7120281E1,1.6538275E1,4.4531885E2,1.7283351E2,2.2295952E3,6.2173926E2,7.491013E1,1.9125714E2,2.1398831E2,9.661611E1,3.4602847E2,5.595251E2,7.1187416E1,2.0160517E1,4.8754233E2,7.956482E1,1.4240504E2,3.590009E1,6.454618E1,9.0656975E1,1.7601152E2,5.6269512E1,2.9001505E1,1.600205E1,1.9026684E1,2.9285109E1],"tree_param":{"num_deleted":"0","num_feature":"36","num_nodes":"97","size_leaf_vector":"1"}},{"base_weights":[1.4033766E-3,1.6272259E-1,-4.4274414E-1,9.801249E-1,1.0564939E-1,-2.838993E-1,-1.0417056E0,7.2947073E-1,1.2216916E0,1.9550048E-1,-2.6323774E-1,-4.6272385E-1,-1.5560915E-1,-7.487217E-1,-1.1893542E0,1.1073375E0,5.5880475E-1,1.256048E0,6.5273255E-2,2.5806388E-1,-3.225167E-2,-4.3843502E-1,3.2617212E-3,-6.075523E-1,-2.9704642E-1,4.4466658E-3,-2.7881342E-1,-9.7585136E-1,-2.966293E-1,-5.0663587E-2,-1.2145338E0,5.750721E-2,1.226139E0,4.414226E-1,7.981015E-2,1.1973152E0,9.2176504E-2,1.3414536E-1,4.3935207E-1,1.717601E-2,-3.792498E-1,-1.6924588E-1,-7.075015E-1,5.815543E-1,-6.344626E-2,-7.7494785E-2,-5.697534E-1,-1.1226445E-1,-4.3722245E-1,1.6447318E-1,-2.0675886E-1,-4.3904343E-1,-1.4005026E-1,-7.326681E-1,-1.1263435E0,-9.780099E-2,-5.2515518E-2,-1.156114E0,-1.2903473E0,7.602802E-2,9.3712784E-2,4.205797E-2,8.919436E-3,8.695883E-2,7.1517564E-2,1.2009024E-2,-2.1167118E-2,5.4361645E-2,2.5865965E-2,-7.841923E-3,1.4690759E-2,-4.506452E-2,-5.9186574E-3,-1.6102422E-2,3.683369E-2,-6.579265E-2,-1.9864865E-2,6.0106274E-2,2.0480106E-2,3.0680697E-3,-2.3187965E-2,-2.1664208E-2,-4.4002507E-2,3.564713E-2,-1.2253327E-2,-1.1947174E-2,-3.6375057E-2,-1.462034E-2,2.025047E-2,-4.297061E-2,-3.6544157E-3,-3.919811E-2,-1.21535715E-2,1.9675637E-2,-1.5358688E-2,-7.574007E-2,-1.9098746E-2,-8.7650016E-2,-5.9084248E-2,-3.1265568E-2,7.3746936E-3,-5.9565492E-2,-8.111933E-2,-8.072312E-2,-9.092955E-2],"categories":[],"categories_nodes":[],"categories_segments":[],"categories_sizes":[],"default_left":[0,0,0,1,1,1,0,0,1,0,0,1,0,0,1,0,0,0,0,1,1,0,0,0,1,0,0,1,1,0,0,0,0,1,0,0,0,1,0,1,0,1,0,1,0,0,1,1,0,0,1,0,0,1,0,1,0,0,0,0,0,0,0,0,0,0,0,0,0,0,0,0,0,0,0,0,0,0,0,0,0,0,0,0,0,0,0,0,0,0,0,0,0,0,0,0,0,0,0,0,0,0,0,0,0],"id":9,"left_children":[1,3,5,7,9,11,13,15,17,19,21,23,25,27,29,31,33,35,-1,37,39,41,43,45,47,49,51,53,55,-1,57,-1,59,61,-1,63,-1,65,67,69,71,73,75,77,79,-1,81,83,85,87,89,91,93,95,97,99,-1,101,103,-1,-1,-1,-1,-1,-1,-1,-1,-1,-1,-1,-1,-1,-1,-1,-1,-1,-1,-1,-1,-1,-1,-1,-1,-1,-1,-1,-1,-1,-1,-1,-1,-1,-1,-1,-1,-1,-1,-1,-1,-1,-1,-1,-1,-1,-1],"loss_changes":[6.846497E2,3.2689844E2,2.4204828E2,2.742868E1,2.1718468E2,4.608989E1,2.2813538E1,1.4273491E1,1.7907715E0,7.511447E1,5.996678E1,2.0044586E1,2.314976E1,1.822686E1,3.7024841E0,1.8866272E0,1.0968292E1,8.280945E-1,0E0,9.280734E1,1.9515156E1,5.5985977E1,1.9690022E1,8.766174E0,1.0093723E1,1.7214502E1,1.4663628E1,4.1037292E0,5.5697017E0,0E0,1.1410217E0,0E0,4.3180084E-1,7.0568542E0,0E0,1.2040405E0,0E0,4.6282654E1,3.5584747E1,2.615293E1,1.1639471E1,1.8518337E1,4.1562546E1,4.3176594E0,1.37603245E1,0E0,7.9638214E0,7.278756E0,5.5821304E0,1.4666153E1,1.4169787E1,1.0864662E1,1.306925E1,7.709955E0,2.7565842E0,3.2210042E0,0E0,1.6409454E0,3.3647156E-1,0E0,0E0,0E0,0E0,0E0,0E0,0E0,0E0,0E0,0E0,0E0,0E0,0E0,0E0,0E0,0E0,0E0,0E0,0E0,0E0,0E0,0E0,0E0,0E0,0E0,0E0,0E0,0E0,0E0,0E0,0E0,0E0,0E0,0E0,0E0,0E0,0E0,0E0,0E0,0E0,0E0,0E0,0E0,0E0,0E0,0E0],"parents":[2147483647,0,0,1,1,2,2,3,3,4,4,5,5,6,6,7,7,8,8,9,9,10,10,11,11,12,12,13,13,14,14,15,15,16,16,17,17,19,19,20,20,21,21,22,22,23,23,24,24,25,25,26,26,27,27,28,28,30,30,32,32,33,33,35,35,37,37,38,38,39,39,40,40,41,41,42,42,43,43,44,44,46,46,47,47,48,48,49,49,50,50,51,51,52,52,53,53,54,54,55,55,57,57,58,58],"right_children":[2,4,6,8,10,12,14,16,18,20,22,24,26,28,30,32,34,36,-1,38,40,42,44,46,48,50,52,54,56,-1,58,-1,60,62,-1,64,-1,66,68,70,72,74,76,78,80,-1,82,84,86,88,90,92,94,96,98,100,-1,102,104,-1,-1,-1,-1,-1,-1,-1,-1,-1,-1,-1,-1,-1,-1,-1,-1,-1,-1,-1,-1,-1,-1,-1,-1,-1,-1,-1,-1,-1,-1,-1,-1,-1,-1,-1,-1,-1,-1,-1,-1,-1,-1,-1,-1,-1,-1],"split_conditions":[3.925053E-2,-8.324111E0,2.0405063E-1,8.9995843E-1,-2.8E1,5.9692435E-2,9.102423E-1,-9.6892416E-1,1.9052502E1,8.3425855E-3,1.2163285E1,9.954552E0,7.711238E-2,2.910335E-1,-2.5525926E2,5.4898577E0,4.5188633E-1,3.683005E-1,6.5273255E-2,-3.321212E-2,7.3869854E-2,-1.3210118E-2,8.7E2,-2.1960072E-1,1.5531062E-1,4.7103772E-1,1.5573837E-1,1.5177265E0,1.3094892E-1,-5.0663587E-2,1.40917845E1,5.750721E-2,-1.5025485E-1,-4.581917E-1,7.981015E-2,1.336638E0,9.2176504E-2,8.263276E-1,-2.8794044E5,4.5973454E0,1.5240078E-1,2.5342113E-1,5.067017E-5,-2.9686064E-2,3.121529E-2,-7.7494785E-2,2.2733827E-4,2.788041E-4,1.6283162E-2,8.00532E-3,6.965897E-2,1.298946E1,-1.5109727E-1,-7.905668E-3,9.933661E-2,7.620215E0,-5.2515518E-2,-1.43064E5,1.0505812E-1,7.602802E-2,9.3712784E-2,4.205797E-2,8.919436E-3,8.695883E-2,7.1517564E-2,1.2009024E-2,-2.1167118E-2,5.4361645E-2,2.5865965E-2,-7.841923E-3,1.4690759E-2,-4.506452E-2,-5.9186574E-3,-1.6102422E-2,3.683369E-2,-6.579265E-2,-1.9864865E-2,6.0106274E-2,2.0480106E-2,3.0680697E-3,-2.3187965E-2,-2.1664208E-2,-4.4002507E-2,3.564713E-2,-1.2253327E-2,-1.1947174E-2,-3.6375057E-2,-1.462034E-2,2.025047E-2,-4.297061E-2,-3.6544157E-3,-3.919811E-2,-1.21535715E-2,1.9675637E-2,-1.5358688E-2,-7.574007E-2,-1.9098746E-2,-8.7650016E-2,-5.9084248E-2,-3.1265568E-2,7.3746936E-3,-5.9565492E-2,-8.111933E-2,-8.072312E-2,-9.092955E-2],"split_indices":[20,20,20,34,32,8,20,28,2,20,26,18,20,7,8,19,3,6,0,9,34,20,32,4,25,13,7,24,29,0,34,0,4,28,0,29,0,3,32,18,17,34,25,9,6,0,7,17,7,34,3,27,29,29,8,27,0,32,25,0,0,0,0,0,0,0,0,0,0,0,0,0,0,0,0,0,0,0,0,0,0,0,0,0,0,0,0,0,0,0,0,0,0,0,0,0,0,0,0,0,0,0,0,0,0],"split_type":[0,0,0,0,0,0,0,0,0,0,0,0,0,0,0,0,0,0,0,0,0,0,0,0,0,0,0,0,0,0,0,0,0,0,0,0,0,0,0,0,0,0,0,0,0,0,0,0,0,0,0,0,0,0,0,0,0,0,0,0,0,0,0,0,0,0,0,0,0,0,0,0,0,0,0,0,0,0,0,0,0,0,0,0,0,0,0,0,0,0,0,0,0,0,0,0,0,0,0,0,0,0,0,0,0],"sum_hessian":[9.555964E3,7.010111E3,2.5458533E3,4.573491E2,6.5527617E3,2.0124084E3,5.3344476E2,2.2475793E2,2.3259117E2,5.2695796E3,1.2831818E3,8.402058E2,1.1722026E3,1.790846E2,3.543602E2,6.965722E1,1.5510072E2,2.0515948E2,2.7431686E1,4.1344004E3,1.1351794E3,7.7448145E2,5.0870032E2,4.4787415E2,3.923317E2,5.0942664E2,6.62776E2,1.18996315E2,6.008828E1,1.9292557E1,3.3506763E2,2.2112568E1,4.7544647E1,1.3041902E2,2.4681692E1,1.295663E2,7.559318E1,2.4562046E3,1.6781958E3,9.933532E2,1.4182628E2,3.8740417E2,3.8707727E2,5.2780697E1,4.5591962E2,2.947712E1,4.18397E2,1.6964001E2,2.2269167E2,2.9016467E2,2.1926196E2,3.071548E2,3.5562122E2,4.5864677E1,7.3131645E1,4.256786E1,1.7520418E1,1.9041536E2,1.4465228E2,2.8242254E1,1.9302395E1,8.283988E1,4.7579144E1,8.285484E1,4.6711456E1,2.2431848E3,2.1301971E2,2.3701979E2,1.441176E3,5.9575116E2,3.9760202E2,7.1822266E1,7.0004005E1,3.54019E2,3.3385166E1,2.3812157E2,1.489557E2,2.519025E1,2.7590445E1,3.2737408E2,1.2854552E2,9.841904E1,3.1997797E2,1.6147764E1,1.5349226E2,6.0747307E1,1.6194437E2,7.5132935E1,2.1503174E2,5.784574E1,1.6141621E2,2.0094066E2,1.0621412E2,5.8915047E1,2.9670618E2,2.473477E1,2.1129906E1,4.459265E1,2.8538988E1,1.56607895E1,2.6907072E1,2.211142E1,1.6830394E2,4.535184E1,9.930044E1],"tree_param":{"num_deleted":"0","num_feature":"36","num_nodes":"105","size_leaf_vector":"1"}},{"base_weights":[-1.4737778E-3,1.21966116E-1,-4.809293E-1,9.314647E-1,7.080404E-2,-3.215392E-1,-1.0834072E0,5.7969874E-1,1.1150974E0,1.6558464E-1,-2.2437482E-1,-2.0257294E-1,-5.5228704E-1,-8.400857E-1,-1.1901928E0,8.1299305E-2,4.3727082E-1,1.1499549E0,3.785077E-2,2.3359375E-1,-2.5587048E-2,-4.0939686E-1,-4.6412796E-2,-8.4367174E-1,-1.7839895E-1,-1.9578491E-1,-6.419929E-1,-1.1387581E0,-5.283463E-1,-1.1412731E0,-1.2793032E0,6.246189E-2,3.3460048E-1,9.8535836E-1,1.206245E0,5.7923996E-1,1.6992155E-1,-4.5306608E-1,1.646121E-2,1.0424734E-1,-5.410021E-1,3.9723217E-2,-3.889E-1,-3.6545582E-2,-7.468897E-2,-1.1873237E-2,-2.5010356E-1,-1.5845418E-2,-6.504724E-2,-8.451054E-1,-5.295174E-1,-8.862612E-2,-6.0468007E-2,-8.419236E-2,-7.138497E-2,-1.0834323E0,-1.2739402E0,-9.1095716E-2,-1.1561292E0,4.1243386E-2,1.0830899E-2,4.1184925E-2,7.883171E-2,8.437922E-2,5.7206128E-2,8.486159E-2,3.6151472E-2,1.6198682E-2,-4.693295E-3,-7.3055523E-3,-5.789623E-2,5.607961E-3,-6.861393E-3,-2.3935272E-3,3.1100288E-2,-2.6565708E-2,-6.307784E-2,-1.6742662E-2,8.259203E-3,-8.715186E-3,-3.73413E-2,-4.1736748E-2,2.5886171E-3,-9.3077095E-3,-3.2077808E-2,1.8505443E-2,-4.3213878E-2,-2.7567418E-2,-6.26768E-2,-2.4046043E-2,-5.301613E-2,2.1273712E-2,-3.354886E-2,-6.863204E-2,-8.610591E-2,-7.601469E-2,-9.084316E-2,-6.7000434E-2,-8.8557206E-2],"categories":[],"categories_nodes":[],"categories_segments":[],"categories_sizes":[],"default_left":[0,0,0,0,1,1,0,0,0,0,0,0,1,0,1,0,0,0,0,0,0,0,0,0,1,1,0,1,1,0,1,0,1,1,1,0,1,0,0,1,0,0,0,0,0,1,0,0,0,0,1,0,0,0,0,0,0,0,0,0,0,0,0,0,0,0,0,0,0,0,0,0,0,0,0,0,0,0,0,0,0,0,0,0,0,0,0,0,0,0,0,0,0,0,0,0,0,0,0],"id":10,"left_children":[1,3,5,7,9,11,13,15,17,19,21,23,25,27,29,-1,31,33,-1,35,37,39,41,43,45,47,49,51,53,55,57,-1,59,61,63,65,67,69,71,73,75,77,79,-1,-1,81,83,85,-1,87,89,-1,-1,91,-1,93,95,-1,97,-1,-1,-1,-1,-1,-1,-1,-1,-1,-1,-1,-1,-1,-1,-1,-1,-1,-1,-1,-1,-1,-1,-1,-1,-1,-1,-1,-1,-1,-1,-1,-1,-1,-1,-1,-1,-1,-1,-1,-1],"loss_changes":[5.618574E2,3.1251617E2,1.8647632E2,2.8750488E1,1.9864078E2,4.2105164E1,1.02836E1,1.3287983E1,5.508209E0,6.9907074E1,5.6756706E1,1.5596245E1,1.6606064E1,1.1362831E1,8.906555E-1,0E0,6.0239697E0,2.2627563E0,0E0,8.716675E1,2.5397089E1,5.72164E1,2.6000185E1,2.6379108E0,1.164674E1,1.4293431E1,9.350113E0,2.2899704E0,1.3996996E1,1.0772552E0,3.7294006E-1,0E0,4.835537E0,4.4545517E0,2.2542114E0,1.9510147E1,5.4523003E1,1.7278177E1,9.926367E0,8.527571E0,3.8966003E1,1.638429E1,7.2992E0,0E0,0E0,8.9267645E0,1.7056183E1,1.5263139E1,0E0,4.7827682E0,1.1679344E1,0E0,0E0,5.404879E0,0E0,1.433136E0,1.8148041E-1,0E0,5.059929E-1,0E0,0E0,0E0,0E0,0E0,0E0,0E0,0E0,0E0,0E0,0E0,0E0,0E0,0E0,0E0,0E0,0E0,0E0,0E0,0E0,0E0,0E0,0E0,0E0,0E0,0E0,0E0,0E0,0E0,0E0,0E0,0E0,0E0,0E0,0E0,0E0,0E0,0E0,0E0,0E0],"parents":[2147483647,0,0,1,1,2,2,3,3,4,4,5,5,6,6,7,7,8,8,9,9,10,10,11,11,12,12,13,13,14,14,16,16,17,17,19,19,20,20,21,21,22,22,23,23,24,24,25,25,26,26,27,27,28,28,29,29,30,30,32,32,33,33,34,34,35,35,36,36,37,37,38,38,39,39,40,40,41,41,42,42,45,45,46,46,47,47,49,49,50,50,53,53,55,55,56,56,58,58],"right_children":[2,4,6,8,10,12,14,16,18,20,22,24,26,28,30,-1,32,34,-1,36,38,40,42,44,46,48,50,52,54,56,58,-1,60,62,64,66,68,70,72,74,76,78,80,-1,-1,82,84,86,-1,88,90,-1,-1,92,-1,94,96,-1,98,-1,-1,-1,-1,-1,-1,-1,-1,-1,-1,-1,-1,-1,-1,-1,-1,-1,-1,-1,-1,-1,-1,-1,-1,-1,-1,-1,-1,-1,-1,-1,-1,-1,-1,-1,-1,-1,-1,-1,-1],"split_conditions":[5.6632034E-2,-8.324111E0,3.264133E-1,-5.538918E-1,-4.057392E-3,-8.789182E-3,8.7202054E-1,6.931472E-1,1.352E2,8.3425855E-3,1.2327073E1,-1.4082142E-2,1.1976407E-1,2.0930573E-1,3.6078814E-1,8.1299305E-2,-1.3884652E-1,-1.5747573E1,3.785077E-2,-1.24647E5,-1.4082142E-2,-2.4891669E-1,1.2179646E-2,-4.452E4,-7.6061815E-2,6.583929E-1,9.954552E0,-1.21119246E-1,1.9178591E0,1.5231064E1,1.8222097E0,6.246189E-2,-4.3152172E1,2.8381962E-1,4.1342335E1,-5.3691936E-1,3.4968152E0,7.6865673E-1,4.431092E-1,2.330389E-2,1.1930424E-1,1.6453477E-4,3.8580922E-4,-3.6545582E-2,-7.468897E-2,8.951396E-2,3.9117657E-2,5.480563E-1,-6.504724E-2,1.8925816E-1,3.05854E-1,-8.862612E-2,-6.0468007E-2,3.6792767E-1,-7.138497E-2,6.8546767E0,1.0726E4,-9.1095716E-2,3.370933E0,4.1243386E-2,1.0830899E-2,4.1184925E-2,7.883171E-2,8.437922E-2,5.7206128E-2,8.486159E-2,3.6151472E-2,1.6198682E-2,-4.693295E-3,-7.3055523E-3,-5.789623E-2,5.607961E-3,-6.861393E-3,-2.3935272E-3,3.1100288E-2,-2.6565708E-2,-6.307784E-2,-1.6742662E-2,8.259203E-3,-8.715186E-3,-3.73413E-2,-4.1736748E-2,2.5886171E-3,-9.3077095E-3,-3.2077808E-2,1.8505443E-2,-4.3213878E-2,-2.7567418E-2,-6.26768E-2,-2.4046043E-2,-5.301613E-2,2.1273712E-2,-3.354886E-2,-6.863204E-2,-8.610591E-2,-7.601469E-2,-9.084316E-2,-6.7000434E-2,-8.8557206E-2],"split_indices":[20,20,20,14,31,31,13,26,22,20,26,9,25,5,6,0,35,24,0,32,9,20,7,32,31,3,18,23,5,31,1,0,18,34,2,20,2,4,13,34,31,4,35,0,0,25,34,12,0,24,6,0,0,3,0,11,32,0,1,0,0,0,0,0,0,0,0,0,0,0,0,0,0,0,0,0,0,0,0,0,0,0,0,0,0,0,0,0,0,0,0,0,0,0,0,0,0,0,0],"split_type":[0,0,0,0,0,0,0,0,0,0,0,0,0,0,0,0,0,0,0,0,0,0,0,0,0,0,0,0,0,0,0,0,0,0,0,0,0,0,0,0,0,0,0,0,0,0,0,0,0,0,0,0,0,0,0,0,0,0,0,0,0,0,0,0,0,0,0,0,0,0,0,0,0,0,0,0,0,0,0,0,0,0,0,0,0,0,0,0,0,0,0,0,0,0,0,0,0,0,0],"sum_hessian":[9.492606E3,7.5488535E3,1.9437533E3,4.4857092E2,7.1002827E3,1.5372969E3,4.0645642E2,1.5412209E2,2.9444882E2,5.374867E3,1.7254154E3,1.0147241E3,5.225728E2,1.2439986E2,2.8205655E2,2.8777721E1,1.2534437E2,2.7692587E2,1.7522945E1,3.9649724E3,1.4098948E3,8.455705E2,8.79845E2,3.6652473E1,9.7807166E2,1.0535254E2,4.1722028E2,6.329186E1,6.1107994E1,1.8323203E2,9.8824524E1,2.1811436E1,1.0353293E2,7.12598E1,2.0566609E2,6.164415E2,3.3485308E3,1.26501045E2,1.2833938E3,1.7227266E2,6.7329785E2,7.027631E2,1.7708185E2,1.6863722E1,1.9788754E1,2.949161E2,6.831555E2,8.5341156E1,2.0011381E1,1.4824207E2,2.689782E2,3.7889133E1,2.5402727E1,3.3123623E1,2.7984373E1,1.2842426E2,5.480778E1,6.5803925E1,3.3020603E1,4.033599E1,6.319694E1,2.2562527E1,4.8697273E1,1.879003E2,1.7765795E1,4.1085682E1,5.7535583E2,2.6058647E3,7.42666E2,6.786442E1,5.8636623E1,8.2216754E2,4.6122626E2,1.2324313E2,4.9029522E1,4.84598E2,1.8869984E2,1.5582715E2,5.46936E2,6.7603874E1,1.09477974E2,2.2764324E1,2.721518E2,4.52207E2,2.3094852E2,5.8136734E1,2.7204426E1,2.2095505E1,1.2614656E2,1.5802296E2,1.10955246E2,1.6658787E1,1.6464836E1,9.16108E1,3.681345E1,1.6076473E1,3.8731308E1,1.563231E1,1.7388294E1],"tree_param":{"num_deleted":"0","num_feature":"36","num_nodes":"99","size_leaf_vector":"1"}},{"base_weights":[-4.747898E-5,8.777218E-2,-6.2248325E-1,8.087349E-1,3.6188647E-2,-3.9501238E-1,-1.0695328E0,5.654096E-1,1.1617197E0,1.3093594E-1,-2.1596345E-1,-5.8208185E-1,-2.0971023E-1,-1.1536019E0,-7.8078973E-1,7.63698E-1,1.8291542E-1,1.2065061E0,9.374097E-1,2.4037632E-1,-7.921626E-2,-1.3573718E-1,-4.5410636E-1,-5.2645516E-1,-1.1903203E0,2.895549E-2,-3.4996447E-1,-1.090391E0,-1.2435302E0,-1.0510414E0,-4.3913248E-1,1.0380692E0,6.344864E-1,-1.9823004E-2,6.631508E-1,1.2512997E0,1.0725666E0,7.9389006E-2,5.1380947E-2,1.2750229E-1,3.9108235E-1,-4.4160086E-1,-5.069539E-2,-2.7642685E-1,-3.0771628E-2,-2.13862E-1,-6.389762E-1,-7.7080406E-2,-4.8836473E-1,-6.088714E-2,-1.0025171E-1,1.4953053E-1,-5.614599E-2,-2.2801603E-1,-7.705722E-1,-1.0371788E0,-1.2736704E0,-1.1622704E0,-8.968564E-2,-4.9890824E-2,-8.576465E-2,-2.322624E-3,-6.776543E-2,5.73818E-2,8.689694E-2,5.649379E-2,2.5348902E-2,-1.7000716E-2,3.9481923E-2,6.329636E-2,2.5902828E-2,7.1888335E-2,8.7099664E-2,6.2431887E-2,8.361292E-2,2.6538178E-2,2.828389E-3,3.1264912E-2,1.0652461E-2,-5.8069057E-3,-5.2277215E-2,3.3646065E-4,-1.5090141E-2,-9.736359E-3,-3.335642E-2,7.0020617E-3,-1.3522996E-2,-2.2883462E-2,2.8423345E-2,-2.7345674E-2,-5.8433525E-2,-4.234202E-2,-2.1415638E-2,2.1104865E-2,-2.121773E-2,1.8201232E-2,-2.4395153E-2,-2.8287513E-2,-7.060853E-2,-7.523455E-2,-4.363597E-2,-7.786936E-2,-9.196095E-2,-8.861064E-2,-6.923691E-2],"categories":[],"categories_nodes":[],"categories_segments":[],"categories_sizes":[],"default_left":[0,0,0,0,1,0,1,1,0,0,1,0,0,1,0,0,1,1,0,1,0,0,0,0,0,0,1,1,1,1,1,0,1,0,0,1,1,0,0,0,0,1,0,0,0,0,0,0,0,0,0,1,0,1,1,1,0,0,0,0,0,0,0,0,0,0,0,0,0,0,0,0,0,0,0,0,0,0,0,0,0,0,0,0,0,0,0,0,0,0,0,0,0,0,0,0,0,0,0,0,0,0,0,0,0],"id":11,"left_children":[1,3,5,7,9,11,13,15,17,19,21,23,25,27,29,31,33,35,37,39,41,43,45,47,49,51,53,55,57,59,61,63,65,67,69,71,73,-1,-1,75,77,79,81,83,85,87,89,-1,91,-1,-1,93,-1,95,97,99,101,103,-1,-1,-1,-1,-1,-1,-1,-1,-1,-1,-1,-1,-1,-1,-1,-1,-1,-1,-1,-1,-1,-1,-1,-1,-1,-1,-1,-1,-1,-1,-1,-1,-1,-1,-1,-1,-1,-1,-1,-1,-1,-1,-1,-1,-1,-1,-1],"loss_changes":[5.152094E2,3.0703506E2,1.18320404E2,4.7118256E1,1.8412727E2,2.6681671E1,9.271881E0,2.464927E1,1.9617004E0,1.2887836E2,4.013772E1,1.2767761E1,1.3045279E1,1.4017639E0,8.020809E0,7.39283E0,1.0960159E1,7.966919E-1,1.3262978E0,6.2611572E1,1.9764412E1,2.3217962E1,2.3429611E1,7.9181213E0,2.3456573E0,1.4698432E1,1.2440729E1,1.4286041E0,4.0457153E-1,3.0201912E0,8.790766E0,2.8944092E0,7.3524284E0,1.0787396E1,2.3445873E0,4.5220947E-1,8.59169E-1,0E0,0E0,4.7481068E1,2.5219604E1,1.614306E1,1.6955853E1,1.9086552E1,2.0273804E1,1.784029E1,1.5425087E1,0E0,7.5883026E0,0E0,0E0,9.332292E0,0E0,1.2313881E1,5.006111E0,3.552414E0,4.8942566E-2,9.033432E-1,0E0,0E0,0E0,0E0,0E0,0E0,0E0,0E0,0E0,0E0,0E0,0E0,0E0,0E0,0E0,0E0,0E0,0E0,0E0,0E0,0E0,0E0,0E0,0E0,0E0,0E0,0E0,0E0,0E0,0E0,0E0,0E0,0E0,0E0,0E0,0E0,0E0,0E0,0E0,0E0,0E0,0E0,0E0,0E0,0E0,0E0,0E0],"parents":[2147483647,0,0,1,1,2,2,3,3,4,4,5,5,6,6,7,7,8,8,9,9,10,10,11,11,12,12,13,13,14,14,15,15,16,16,17,17,18,18,19,19,20,20,21,21,22,22,23,23,24,24,25,25,26,26,27,27,28,28,29,29,30,30,31,31,32,32,33,33,34,34,35,35,36,36,39,39,40,40,41,41,42,42,43,43,44,44,45,45,46,46,48,48,51,51,53,53,54,54,55,55,56,56,57,57],"right_children":[2,4,6,8,10,12,14,16,18,20,22,24,26,28,30,32,34,36,38,40,42,44,46,48,50,52,54,56,58,60,62,64,66,68,70,72,74,-1,-1,76,78,80,82,84,86,88,90,-1,92,-1,-1,94,-1,96,98,100,102,104,-1,-1,-1,-1,-1,-1,-1,-1,-1,-1,-1,-1,-1,-1,-1,-1,-1,-1,-1,-1,-1,-1,-1,-1,-1,-1,-1,-1,-1,-1,-1,-1,-1,-1,-1,-1,-1,-1,-1,-1,-1,-1,-1,-1,-1,-1,-1],"split_conditions":[9.198831E-2,-3.9696453E0,3.264133E-1,8.9995843E-1,-2.77E2,1.5573837E-1,-3.9844406E-1,-5.3803295E-1,1.0940651E2,8.3425855E-3,1.7524753E0,9.0906344E-2,1.2295082E-1,1.2784378E1,2.0930573E-1,-9.6892416E-1,1.00962915E-1,4.4805193E0,3.6315186E0,-3.7130084E-2,-1.4082142E-2,1.3088705E-1,1.7518668E-1,-2.0544504E-1,-9.681214E-2,5.874044E-1,3.1081362E0,3.1287062E0,-1.0747124E-1,6.978649E-2,9.716314E0,-1.4148405E-1,-1.7565218E1,7.436979E-1,6.62267E-1,-1.1700231E2,-3.269399E0,7.9389006E-2,5.1380947E-2,-6.47993E-2,2.5724104E-4,6.725721E-1,-1.9657936E-2,2.925452E-2,1.2343651E-2,1.2784378E1,-1.6678028E-2,-7.7080406E-2,1.2122544E1,-6.088714E-2,-1.0025171E-1,3.5847463E-2,-5.614599E-2,-1.04151756E-1,6.68791E-1,8.4706134E-1,1.4473954E-1,1.4071075E1,-8.968564E-2,-4.9890824E-2,-8.576465E-2,-2.322624E-3,-6.776543E-2,5.73818E-2,8.689694E-2,5.649379E-2,2.5348902E-2,-1.7000716E-2,3.9481923E-2,6.329636E-2,2.5902828E-2,7.1888335E-2,8.7099664E-2,6.2431887E-2,8.361292E-2,2.6538178E-2,2.828389E-3,3.1264912E-2,1.0652461E-2,-5.8069057E-3,-5.2277215E-2,3.3646065E-4,-1.5090141E-2,-9.736359E-3,-3.335642E-2,7.0020617E-3,-1.3522996E-2,-2.2883462E-2,2.8423345E-2,-2.7345674E-2,-5.8433525E-2,-4.234202E-2,-2.1415638E-2,2.1104865E-2,-2.121773E-2,1.8201232E-2,-2.4395153E-2,-2.8287513E-2,-7.060853E-2,-7.523455E-2,-4.363597E-2,-7.786936E-2,-9.196095E-2,-8.861064E-2,-6.923691E-2],"split_indices":[20,20,20,34,32,7,28,28,16,20,2,34,30,27,5,28,2,2,35,9,9,3,28,4,9,29,9,0,30,2,27,5,18,29,33,24,24,0,0,28,20,4,31,31,20,27,20,0,27,0,0,35,0,31,5,2,5,27,0,0,0,0,0,0,0,0,0,0,0,0,0,0,0,0,0,0,0,0,0,0,0,0,0,0,0,0,0,0,0,0,0,0,0,0,0,0,0,0,0,0,0,0,0,0,0],"split_type":[0,0,0,0,0,0,0,0,0,0,0,0,0,0,0,0,0,0,0,0,0,0,0,0,0,0,0,0,0,0,0,0,0,0,0,0,0,0,0,0,0,0,0,0,0,0,0,0,0,0,0,0,0,0,0,0,0,0,0,0,0,0,0,0,0,0,0,0,0,0,0,0,0,0,0,0,0,0,0,0,0,0,0,0,0,0,0,0,0,0,0,0,0,0,0,0,0,0,0,0,0,0,0,0,0],"sum_hessian":[9.424088E3,8.258691E3,1.165396E3,5.512527E2,7.707439E3,7.7260284E2,3.9279318E2,3.265626E2,2.2469011E2,5.6027017E3,2.1047375E3,3.8410712E2,3.8849573E2,3.0382324E2,8.896994E1,2.1483833E2,1.1172424E2,1.8673492E2,3.7955177E1,3.6845117E3,1.91819E3,1.574782E3,5.2995557E2,3.52155E2,3.1952118E1,1.4348103E2,2.4501468E2,1.7943336E2,1.2438986E2,4.9442383E1,3.9527557E1,6.8414955E1,1.4642339E2,7.839719E1,3.3327053E1,1.3907289E2,4.766203E1,1.644689E1,2.150829E1,2.1071743E3,1.5773372E3,1.3960826E2,1.7785818E3,6.7236395E2,9.024181E2,2.307785E2,2.9917703E2,2.0577578E1,3.3157742E2,1.5898393E1,1.6053726E1,1.25877266E2,1.7603764E1,1.9020406E2,5.4810627E1,1.3972386E2,3.9709515E1,6.049684E1,6.3893017E1,1.991623E1,2.9526155E1,2.302727E1,1.6500288E1,3.804329E1,3.0371664E1,8.350113E1,6.2922256E1,5.683297E1,2.1564219E1,1.6874777E1,1.6452276E1,1.8542397E1,1.205305E2,2.4408142E1,2.3253887E1,5.193278E2,1.5878467E3,1.2208363E3,3.5650085E2,6.697519E1,7.2633064E1,1.3415455E3,4.3703625E2,4.1446268E2,2.579013E2,5.0209576E2,4.003223E2,1.9348055E2,3.7297962E1,1.4421335E2,1.549637E2,1.8678055E2,1.4479688E2,9.357453E1,3.2302734E1,3.9445904E1,1.5075815E2,2.3765873E1,3.1044752E1,1.1881835E2,2.0905502E1,1.5671744E1,2.403777E1,3.0217003E1,3.0279839E1],"tree_param":{"num_deleted":"0","num_feature":"36","num_nodes":"105","size_leaf_vector":"1"}},{"base_weights":[-2.2177908E-3,8.190181E-2,-6.0676587E-1,3.2326433E-1,-6.522663E-2,-4.192622E-1,-1.0975924E0,9.5600355E-1,2.5721663E-1,-1.5774285E-2,-3.1759042E-1,-6.601917E-1,-2.2920881E-1,-1.1304904E0,-8.677816E-1,3.969377E-1,1.0320534E0,5.145099E-1,2.0152253E-1,1.1005552E-1,-1.3352774E-1,6.4871386E-2,-3.4234586E-1,-7.6697826E-1,-2.269574E-1,-1.183149E-1,-4.2128032E-1,-1.0776969E0,-1.1995122E0,-7.7169046E-2,-3.257388E-2,5.7659134E-2,-8.46743E-3,1.0972191E0,8.014162E-1,6.826403E-1,2.5667152E-1,3.5039297E-1,1.0411857E-1,-5.0128568E-2,3.3769208E-1,-8.452434E-2,-2.9523188E-1,-2.3475702E-1,-7.4938405E-1,-8.8024184E-2,-7.122254E-1,-4.4672146E-2,4.2183302E-2,9.789356E-2,-2.74872E-1,-2.0660287E-2,-5.4247123E-1,-1.1159134E0,-5.2926447E-2,-1.0900787E0,-1.2726232E0,8.138079E-2,6.61155E-2,6.8625875E-2,2.0451656E-2,8.772984E-2,4.2540297E-2,4.0534377E-2,-2.3544896E-3,4.5440055E-2,1.6906947E-2,1.6159475E-2,2.4038689E-4,6.598498E-2,-5.107234E-3,6.640762E-3,3.2496672E-2,4.2918706E-3,-1.1701944E-2,-6.0314583E-3,-2.8146064E-2,-1.1751593E-2,-4.610274E-2,-6.3635014E-2,-1.8270781E-2,-1.4984219E-2,-5.32512E-2,2.559193E-2,-2.780336E-2,4.2527996E-2,-2.0803197E-3,9.145728E-3,-2.4874397E-2,-3.3285283E-2,3.5904203E-2,-2.4115227E-2,-5.7103224E-2,-7.3412225E-2,-8.913784E-2,-5.60665E-2,-8.281781E-2,-8.962038E-2,-7.869008E-2],"categories":[],"categories_nodes":[],"categories_segments":[],"categories_sizes":[],"default_left":[0,1,0,0,1,0,1,0,0,0,0,1,1,0,0,0,0,0,0,0,1,0,0,0,0,0,0,1,0,0,0,0,0,1,0,0,0,0,0,0,0,0,0,0,0,0,1,0,0,1,1,0,0,1,0,0,1,0,0,0,0,0,0,0,0,0,0,0,0,0,0,0,0,0,0,0,0,0,0,0,0,0,0,0,0,0,0,0,0,0,0,0,0,0,0,0,0,0,0],"id":12,"left_children":[1,3,5,7,9,11,13,15,17,19,21,23,25,27,29,31,33,35,37,39,41,-1,43,45,47,49,51,53,55,-1,-1,-1,-1,57,59,61,63,65,67,69,71,73,75,77,79,-1,81,-1,83,85,87,89,91,93,-1,95,97,-1,-1,-1,-1,-1,-1,-1,-1,-1,-1,-1,-1,-1,-1,-1,-1,-1,-1,-1,-1,-1,-1,-1,-1,-1,-1,-1,-1,-1,-1,-1,-1,-1,-1,-1,-1,-1,-1,-1,-1,-1,-1],"loss_changes":[4.778311E2,2.9289618E2,1.0542847E2,1.3038303E2,6.389937E1,3.7923706E1,2.123413E0,1.2357025E1,4.044191E1,6.3485107E1,2.6332573E1,1.6806015E1,9.830223E0,6.9189453E-1,3.9605026E0,8.44491E0,3.6417236E0,2.1681091E1,3.3667084E1,7.5541115E1,1.7494373E1,0E0,3.5921654E1,8.186798E0,8.474965E0,1.0010092E1,8.168425E0,1.5545502E0,6.198273E-1,0E0,0E0,0E0,0E0,2.203598E0,5.81411E0,1.0344574E1,1.9704144E1,2.9624176E1,1.8835785E1,3.078108E1,2.8661674E1,2.1949116E1,1.2515694E1,1.7788502E1,1.5196442E1,0E0,9.079575E0,0E0,6.70007E0,8.443979E0,6.393792E0,1.0193572E1,7.1009445E0,6.716461E-1,0E0,1.3566093E0,1.5716553E-2,0E0,0E0,0E0,0E0,0E0,0E0,0E0,0E0,0E0,0E0,0E0,0E0,0E0,0E0,0E0,0E0,0E0,0E0,0E0,0E0,0E0,0E0,0E0,0E0,0E0,0E0,0E0,0E0,0E0,0E0,0E0,0E0,0E0,0E0,0E0,0E0,0E0,0E0,0E0,0E0,0E0,0E0],"parents":[2147483647,0,0,1,1,2,2,3,3,4,4,5,5,6,6,7,7,8,8,9,9,10,10,11,11,12,12,13,13,14,14,15,15,16,16,17,17,18,18,19,19,20,20,22,22,23,23,24,24,25,25,26,26,27,27,28,28,33,33,34,34,35,35,36,36,37,37,38,38,39,39,40,40,41,41,42,42,43,43,44,44,46,46,48,48,49,49,50,50,51,51,52,52,53,53,55,55,56,56],"right_children":[2,4,6,8,10,12,14,16,18,20,22,24,26,28,30,32,34,36,38,40,42,-1,44,46,48,50,52,54,56,-1,-1,-1,-1,58,60,62,64,66,68,70,72,74,76,78,80,-1,82,-1,84,86,88,90,92,94,-1,96,98,-1,-1,-1,-1,-1,-1,-1,-1,-1,-1,-1,-1,-1,-1,-1,-1,-1,-1,-1,-1,-1,-1,-1,-1,-1,-1,-1,-1,-1,-1,-1,-1,-1,-1,-1,-1,-1,-1,-1,-1,-1,-1],"split_conditions":[9.198831E-2,-8.569705E-2,9.102423E-1,-2.6964922E1,3.216144E0,1.0165161E-1,-3.317675E-1,-9.840834E-1,-1.9130969E-1,8.3425855E-3,-1.649164E0,5.243827E1,1.2713795E0,1.7444859E1,6.41852E7,-2.5225285E-1,1.1197947E0,-2.7087695E-4,1.9379348E0,1.3001699E1,4.0607363E-2,6.4871386E-2,3.8259774E-2,-1.3940102E-1,1.244455E1,9.382697E-1,-7.905668E-3,2.1690266E1,3.6078814E-1,-7.7169046E-2,-3.257388E-2,5.7659134E-2,-8.46743E-3,1.1644305E0,-8.377698E1,-9.987055E-1,-1.5772034E-1,-7.8894323E-1,-2.134541E-1,-4.8768864E0,6.395171E0,-2.7380016E-2,1.2975131E-1,8.9071035E-1,-4.7008207E-1,-8.8024184E-2,1.2048192E-2,-4.4672146E-2,3.033008E-1,6.3099184E0,-9.3219E4,2.3836477E0,-3.373E3,2.94316E1,-5.2926447E-2,-4.4294117E1,3.5795395E2,8.138079E-2,6.61155E-2,6.8625875E-2,2.0451656E-2,8.772984E-2,4.2540297E-2,4.0534377E-2,-2.3544896E-3,4.5440055E-2,1.6906947E-2,1.6159475E-2,2.4038689E-4,6.598498E-2,-5.107234E-3,6.640762E-3,3.2496672E-2,4.2918706E-3,-1.1701944E-2,-6.0314583E-3,-2.8146064E-2,-1.1751593E-2,-4.610274E-2,-6.3635014E-2,-1.8270781E-2,-1.4984219E-2,-5.32512E-2,2.559193E-2,-2.780336E-2,4.2527996E-2,-2.0803197E-3,9.145728E-3,-2.4874397E-2,-3.3285283E-2,3.5904203E-2,-2.4115227E-2,-5.7103224E-2,-7.3412225E-2,-8.913784E-2,-5.60665E-2,-8.281781E-2,-8.962038E-2,-7.869008E-2],"split_indices":[20,31,20,20,2,8,28,14,28,20,20,18,4,34,18,28,22,22,19,26,34,0,31,8,26,24,29,18,6,0,0,0,0,2,20,28,29,30,31,20,18,31,25,3,5,0,2,0,25,27,32,2,32,33,0,31,3,0,0,0,0,0,0,0,0,0,0,0,0,0,0,0,0,0,0,0,0,0,0,0,0,0,0,0,0,0,0,0,0,0,0,0,0,0,0,0,0,0,0],"split_type":[0,0,0,0,0,0,0,0,0,0,0,0,0,0,0,0,0,0,0,0,0,0,0,0,0,0,0,0,0,0,0,0,0,0,0,0,0,0,0,0,0,0,0,0,0,0,0,0,0,0,0,0,0,0,0,0,0,0,0,0,0,0,0,0,0,0,0,0,0,0,0,0,0,0,0,0,0,0,0,0,0,0,0,0,0,0,0,0,0,0,0,0,0,0,0,0,0,0,0],"sum_hessian":[9.394743E3,8.247033E3,1.1477104E3,3.1236035E3,5.1234297E3,8.306798E2,3.1703058E2,2.950239E2,2.8285796E3,4.284393E3,8.390366E2,3.6599393E2,4.646859E2,2.7676556E2,4.026502E1,3.5541523E1,2.5948236E2,5.028928E2,2.3256868E3,2.070663E3,2.21373E3,1.5915662E1,8.231209E2,2.933748E2,7.261915E1,2.9503336E2,1.6965256E2,1.5809099E2,1.1867457E2,2.3685196E1,1.6579823E1,1.9186174E1,1.6355349E1,2.0182E2,5.7662357E1,3.0408316E2,1.9880965E2,9.193027E2,1.4063842E3,1.215098E3,8.5556506E2,1.6995096E3,5.142203E2,6.513121E2,1.7180888E2,2.7359016E1,2.6601578E2,2.813529E1,4.448386E1,1.23583755E2,1.7144958E2,3.9645924E1,1.3000664E2,1.3979065E2,1.8300339E1,4.8382313E1,7.029225E1,1.12309395E2,8.951061E1,4.0600418E1,1.7061941E1,2.6080349E1,2.780028E2,9.205774E1,1.0675191E2,2.2314058E2,6.961621E2,6.0414075E2,8.022434E2,2.8847427E1,1.1862506E3,3.1528677E2,5.4027826E2,6.3176526E2,1.0677444E3,1.8773265E2,3.2648758E2,5.71524E2,7.9788055E1,1.2372553E2,4.8083363E1,3.3509087E1,2.3250668E2,2.5714376E1,1.8769484E1,2.4385357E1,9.91984E1,3.0846962E1,1.4060263E2,2.1501835E1,1.8144089E1,7.986077E1,5.0145863E1,1.1805939E2,2.173126E1,1.601009E1,3.2372223E1,4.9878136E1,2.0414118E1],"tree_param":{"num_deleted":"0","num_feature":"36","num_nodes":"99","size_leaf_vector":"1"}},{"base_weights":[-1.9239037E-3,1.17666505E-1,-3.7590966E-1,8.5282326E-1,7.661359E-2,-2.4161206E-1,-9.3904966E-1,4.9470195E-1,1.0251764E0,1.601661E-1,-1.8841149E-1,-3.7035698E-1,-9.2192754E-2,-1.0659162E0,-6.6888493E-1,8.8773704E-1,2.5316536E-1,9.04913E-1,1.1503533E0,3.8638577E-1,1.214129E-1,-4.1934744E-1,-4.0733024E-2,-3.0399597E-1,-6.591638E-1,-5.1800597E-2,-4.5092985E-1,-8.9367723E-1,-1.1184434E0,-3.8701004E-1,-9.69632E-1,3.481389E-2,7.623886E-2,4.3615377E-1,-2.8179554E-2,4.0710643E-2,9.9403465E-1,6.258662E-2,1.1995718E0,5.7921773E-1,7.3655926E-2,2.3535507E-2,2.2454005E-1,5.431333E-2,-5.1046896E-1,-1.5355065E-1,1.4334905E-1,-5.1541346E-1,-2.4088407E-1,-5.0699353E-1,-9.920908E-1,-1.09931745E-1,1.23804495E-1,-2.861212E-1,-6.412601E-2,-6.5570396E-1,-1.1443937E0,-9.6443295E-1,-1.1583312E0,-6.377904E-2,-1.0401306E-1,-8.257436E-2,-7.930574E-1,5.599573E-2,1.7442927E-2,7.406057E-2,5.3755432E-2,8.6355254E-2,7.613623E-2,3.0686595E-2,6.181708E-2,1.4939994E-2,-1.9930104E-2,1.2846218E-2,-4.3575894E-3,1.9868173E-2,1.1266177E-3,-6.4325985E-3,3.506183E-2,-2.3724655E-2,-5.7552703E-2,-3.5172687E-3,-3.2395445E-2,1.5093437E-2,-2.6806323E-2,-3.0877657E-2,-7.682079E-2,-6.7190446E-2,-1.5040498E-2,-2.7152961E-2,-8.384741E-2,-4.3248545E-2,-9.128787E-2,5.11282E-4,-1.6362462E-2,-1.4409777E-3,3.6664188E-2,3.8710475E-4,-4.4993788E-2,-6.83224E-2,-1.9216446E-2,-6.439737E-2,-8.932963E-2,-8.400344E-2,-5.4307003E-2,-7.658659E-2,-8.799413E-2,-3.6893543E-2,1.3042549E-2,-3.8781844E-2,-7.530856E-2],"categories":[],"categories_nodes":[],"categories_segments":[],"categories_sizes":[],"default_left":[0,0,0,0,1,1,1,0,1,0,1,0,0,0,1,1,1,0,0,0,0,0,1,1,0,0,0,0,0,0,0,0,0,0,0,0,1,0,1,0,1,0,1,1,0,0,1,0,0,1,0,0,0,1,0,0,1,0,1,0,0,0,1,0,0,0,0,0,0,0,0,0,0,0,0,0,0,0,0,0,0,0,0,0,0,0,0,0,0,0,0,0,0,0,0,0,0,0,0,0,0,0,0,0,0,0,0,0,0,0,0],"id":13,"left_children":[1,3,5,7,9,11,13,15,17,19,21,23,25,27,29,31,33,35,37,39,41,43,45,47,49,51,53,55,57,59,61,-1,-1,63,-1,-1,65,-1,67,69,71,73,75,77,79,81,83,85,87,89,91,93,95,97,-1,99,101,103,105,-1,107,-1,109,-1,-1,-1,-1,-1,-1,-1,-1,-1,-1,-1,-1,-1,-1,-1,-1,-1,-1,-1,-1,-1,-1,-1,-1,-1,-1,-1,-1,-1,-1,-1,-1,-1,-1,-1,-1,-1,-1,-1,-1,-1,-1,-1,-1,-1,-1,-1,-1],"loss_changes":[4.1731155E2,2.1322989E2,1.7083011E2,2.2865234E1,1.4825632E2,3.5062782E1,1.4681091E1,1.1406908E1,3.5117798E0,4.4566513E1,5.466335E1,1.8662415E1,1.2188463E1,2.3997803E0,1.164238E1,3.8185272E0,9.240704E0,3.3170776E0,1.1027069E0,4.4789574E1,4.384539E1,2.705449E1,2.0334011E1,1.0544083E1,9.061096E0,7.75947E0,6.7458878E0,3.9217834E0,1.095398E0,1.1117308E1,2.620697E0,0E0,0E0,3.998847E0,0E0,0E0,1.6644363E0,0E0,2.3095703E-1,1.9245651E1,1.5185215E1,3.2299377E1,2.96418E1,6.964084E0,2.8320328E1,1.9890472E1,1.5647188E1,6.7060966E0,8.953896E0,9.630852E0,6.8406677E0,8.793251E0,1.1409714E1,7.093864E0,0E0,4.5315228E0,8.1059647E-1,1.846344E0,4.5225525E-1,0E0,6.249426E0,0E0,2.5308533E0,0E0,0E0,0E0,0E0,0E0,0E0,0E0,0E0,0E0,0E0,0E0,0E0,0E0,0E0,0E0,0E0,0E0,0E0,0E0,0E0,0E0,0E0,0E0,0E0,0E0,0E0,0E0,0E0,0E0,0E0,0E0,0E0,0E0,0E0,0E0,0E0,0E0,0E0,0E0,0E0,0E0,0E0,0E0,0E0,0E0,0E0,0E0,0E0],"parents":[2147483647,0,0,1,1,2,2,3,3,4,4,5,5,6,6,7,7,8,8,9,9,10,10,11,11,12,12,13,13,14,14,15,15,16,16,17,17,18,18,19,19,20,20,21,21,22,22,23,23,24,24,25,25,26,26,27,27,28,28,29,29,30,30,33,33,36,36,38,38,39,39,40,40,41,41,42,42,43,43,44,44,45,45,46,46,47,47,48,48,49,49,50,50,51,51,52,52,53,53,55,55,56,56,57,57,58,58,60,60,62,62],"right_children":[2,4,6,8,10,12,14,16,18,20,22,24,26,28,30,32,34,36,38,40,42,44,46,48,50,52,54,56,58,60,62,-1,-1,64,-1,-1,66,-1,68,70,72,74,76,78,80,82,84,86,88,90,92,94,96,98,-1,100,102,104,106,-1,108,-1,110,-1,-1,-1,-1,-1,-1,-1,-1,-1,-1,-1,-1,-1,-1,-1,-1,-1,-1,-1,-1,-1,-1,-1,-1,-1,-1,-1,-1,-1,-1,-1,-1,-1,-1,-1,-1,-1,-1,-1,-1,-1,-1,-1,-1,-1,-1,-1,-1],"split_conditions":[4.4498783E-2,-1.1965278E1,2.2687949E-1,-5.538918E-1,-4.057392E-3,8.262737E-2,-3.9844406E-1,1.9344158E0,-2.8255157E0,-1.644851E5,5.1882416E-1,1.0340297E-1,-1.102E2,2.9988005E-6,8.317911E-2,1.5425344E-1,-1.9148937E-1,4E1,-3.109091E1,2.58248E-3,5.3666246E-1,-3.439532E-1,1.02591954E-1,1.2747371E-1,1.9115178E-1,3.0815995E-1,4.2506206E-1,3.5137334E0,-1.24647E5,-1.1329887E-1,4.5062485E0,3.481389E-2,7.623886E-2,-4.91E3,-2.8179554E-2,4.0710643E-2,-6.6661066E-1,6.258662E-2,3.237984E1,5.067017E-5,3.9267576E0,-1.2874678E-1,-1.2903226E-3,-3.6120553E0,7.6356225E-2,1.1704153E-2,2.0189752E-1,8.10135E-2,-2.981964E-1,1.0372396E0,6.7135376E-1,2.5424108E-1,1.4071075E1,2.4777833E-2,-6.412601E-2,8.1856525E2,5.6029372E-2,3.758112E-2,3.0045166E0,-6.377904E-2,1.6299438E-1,-8.257436E-2,1.5775043E0,5.599573E-2,1.7442927E-2,7.406057E-2,5.3755432E-2,8.6355254E-2,7.613623E-2,3.0686595E-2,6.181708E-2,1.4939994E-2,-1.9930104E-2,1.2846218E-2,-4.3575894E-3,1.9868173E-2,1.1266177E-3,-6.4325985E-3,3.506183E-2,-2.3724655E-2,-5.7552703E-2,-3.5172687E-3,-3.2395445E-2,1.5093437E-2,-2.6806323E-2,-3.0877657E-2,-7.682079E-2,-6.7190446E-2,-1.5040498E-2,-2.7152961E-2,-8.384741E-2,-4.3248545E-2,-9.128787E-2,5.11282E-4,-1.6362462E-2,-1.4409777E-3,3.6664188E-2,3.8710475E-4,-4.4993788E-2,-6.83224E-2,-1.9216446E-2,-6.439737E-2,-8.932963E-2,-8.400344E-2,-5.4307003E-2,-7.658659E-2,-8.799413E-2,-3.6893543E-2,1.3042549E-2,-3.8781844E-2,-7.530856E-2],"split_indices":[20,20,20,14,31,8,28,26,24,32,11,20,32,15,31,23,9,12,35,20,12,20,28,24,15,17,25,0,32,31,18,0,0,32,0,0,9,0,34,25,11,31,25,24,31,5,33,20,6,25,19,25,27,33,0,29,5,29,0,0,17,0,2,0,0,0,0,0,0,0,0,0,0,0,0,0,0,0,0,0,0,0,0,0,0,0,0,0,0,0,0,0,0,0,0,0,0,0,0,0,0,0,0,0,0,0,0,0,0,0,0],"split_type":[0,0,0,0,0,0,0,0,0,0,0,0,0,0,0,0,0,0,0,0,0,0,0,0,0,0,0,0,0,0,0,0,0,0,0,0,0,0,0,0,0,0,0,0,0,0,0,0,0,0,0,0,0,0,0,0,0,0,0,0,0,0,0,0,0,0,0,0,0,0,0,0,0,0,0,0,0,0,0,0,0,0,0,0,0,0,0,0,0,0,0,0,0,0,0,0,0,0,0,0,0,0,0,0,0,0,0,0,0,0,0],"sum_hessian":[9.329819E3,7.0690273E3,2.2607925E3,3.7368558E2,6.695342E3,1.8256663E3,4.3512625E2,1.2167924E2,2.5200635E2,5.0908604E3,1.6044814E3,9.802134E2,8.4545294E2,2.957208E2,1.3940544E2,4.6092094E1,7.558714E1,1.2914424E2,1.228621E2,7.4405396E2,4.346806E3,6.254819E2,9.7899963E2,7.9745984E2,1.827535E2,7.602301E2,8.5222824E1,6.977442E1,2.2594638E2,7.2204926E1,6.7200516E1,1.785155E1,2.8240547E1,5.947263E1,1.6114511E1,2.944207E1,9.970217E1,2.214809E1,1.00714005E2,4.5999738E2,2.840566E2,2.2307986E3,2.1160076E3,1.0069803E2,5.247838E2,6.0741235E2,3.715873E2,1.8283401E2,6.1462585E2,1.2572772E2,5.702578E1,5.7169354E2,1.8853653E2,6.404141E1,2.1181408E1,3.6100662E1,3.3673756E1,4.726002E1,1.7868636E2,2.4352535E1,4.7852394E1,2.7860914E1,3.9339603E1,1.8626165E1,4.0846462E1,6.768353E1,3.2018642E1,5.307134E1,4.764267E1,3.3135794E2,1.2863943E2,2.034308E2,8.062581E1,7.7318677E2,1.4576118E3,1.5974316E3,5.18576E2,7.593271E1,2.4765324E1,3.542536E2,1.7053021E2,4.619368E2,1.4547554E2,3.2445276E2,4.7134552E1,1.6636836E2,1.6465656E1,1.5724591E1,5.9890125E2,1.0962191E2,1.610581E1,2.8441168E1,2.8584612E1,3.0044366E2,2.712499E2,1.3952338E2,4.9013165E1,3.584998E1,2.8191435E1,1.8479311E1,1.7621353E1,1.5895571E1,1.7778185E1,1.7663631E1,2.959639E1,1.4463968E2,3.404668E1,1.9439615E1,2.8412779E1,2.3262766E1,1.6076836E1],"tree_param":{"num_deleted":"0","num_feature":"36","num_nodes":"111","size_leaf_vector":"1"}},{"base_weights":[2.7990306E-3,1.5245396E-1,-1.9393358E-1,8.7649906E-1,1.1869798E-1,-6.8599087E-1,-1.368841E-1,1.0147207E0,3.6732924E-1,2.3666878E-1,-2.566585E-2,-6.1485267E-1,-1.1812825E0,-1.02127865E-1,-8.7846446E-1,8.578585E-1,1.132881E0,5.2337676E-2,-1.4223621E-2,2.846682E-1,-1.242428E-1,-6.8635896E-2,2.9426503E-1,5.5465517E-3,-6.745092E-1,-8.566554E-2,-6.7503236E-2,2.4095776E-2,-2.3502728E-1,1.0740199E-2,-1.0651783E0,9.873434E-1,3.0096905E-2,1.0658015E0,8.584243E-2,6.6210514E-1,2.246217E-1,-2.3965303E-2,-9.7936636E-1,-5.6470014E-2,-7.273229E-2,9.304881E-1,1.8330207E-1,-8.4521204E-1,-3.770432E-1,-4.184683E-1,8.074543E-2,-1.690838E-1,-4.6803084E-1,-9.229867E-1,-1.158889E0,4.7755457E-2,7.916316E-2,8.056899E-2,5.4193202E-2,4.7976658E-2,-1.3929076E-2,3.4647763E-2,1.110374E-2,6.535809E-3,-3.1828694E-2,-4.8498977E-2,-8.360761E-2,-1.2712538E-2,1.7757796E-3,8.0381215E-2,4.400865E-2,2.1858469E-2,-2.0855146E-2,-1.1586903E-2,-6.135085E-2,-1.4398469E-2,-5.824001E-2,8.069113E-4,-5.6826103E-2,4.1928656E-2,-2.9864983E-4,-8.142999E-3,-2.8630821E-2,-1.9172657E-2,-4.4630967E-2,-4.0505134E-2,-7.2678424E-2,-7.412953E-2,-8.79957E-2],"categories":[],"categories_nodes":[],"categories_segments":[],"categories_sizes":[],"default_left":[1,0,0,0,0,1,1,0,0,1,1,0,0,1,0,1,0,0,0,0,0,1,0,0,1,0,0,0,1,0,1,0,0,0,0,0,0,1,0,1,0,0,0,0,0,1,0,0,0,0,0,0,0,0,0,0,0,0,0,0,0,0,0,0,0,0,0,0,0,0,0,0,0,0,0,0,0,0,0,0,0,0,0,0,0],"id":14,"left_children":[1,3,5,7,9,11,13,15,17,19,21,23,25,27,29,31,33,-1,-1,35,37,39,41,-1,43,-1,-1,45,47,-1,49,51,-1,53,-1,55,57,59,61,63,-1,65,67,69,71,73,75,77,79,81,83,-1,-1,-1,-1,-1,-1,-1,-1,-1,-1,-1,-1,-1,-1,-1,-1,-1,-1,-1,-1,-1,-1,-1,-1,-1,-1,-1,-1,-1,-1,-1,-1,-1,-1],"loss_changes":[2.7388577E2,1.2901704E2,1.12711105E2,1.6372238E1,8.600941E1,1.44617E1,9.270506E1,3.1523285E0,1.1757436E1,