{"learner":{"attributes":{"best_iteration":"806","best_score":"0.7385429069780735"},"feature_names":["roa","ocf_to_assets","accruals","current_ratio","cash_ratio","working_cap_to_assets","debt_to_assets","debt_to_equity","total_liab_to_assets","asset_growth","log_size","delta_roa","delta_leverage","delta_curr_ratio","ismod","aco","act","ao","aoloch","ap","apalch","aqc","at","caps","capx","ceq","che","chech","csho","cstk","cstke","dlc","dlcch","dltis","dltr","dltt","do","dp","dpc","dv","dvc","dvp","dvt","esubc","exre","fiao","fincf","fopo","ib","ibadj","ibc","intan","invch","invt","ivaco","ivaeq","ivao","ivch","ivncf","ivstch","lco","lct","lt","mibt","mkvalt","niadj","nopi","oancf","oibdp","ppent","prcc_c","prcc_f","prstkc","pstk","pstkn","pstkr","re","recch","rect","seq","siv","spi","sppe","sppiv","sstk","tstk","txach","txbcof","txdc","txditc","txp","txt","xi","xido","xidoc","xint"],"feature_types":["float","float","float","float","float","float","float","float","float","float","float","float","float","float","float","float","float","float","float","float","float","float","float","float","float","float","float","float","float","float","float","float","float","float","float","float","float","float","float","float","float","float","float","float","float","float","float","float","float","float","float","float","float","float","float","float","float","float","float","float","float","float","float","float","float","float","float","float","float","float","float","float","float","float","float","float","float","float","float","float","float","float","float","float","float","float","float","float","float","float","float","float","float","float","float","float"],"gradient_booster":{"model":{"cats":{"enc":[],"feature_segments":[],"sorted_idx":[]},"gbtree_model_param":{"num_parallel_tree":"1","num_trees":"857"},"iteration_indptr":[0,1,2,3,4,5,6,7,8,9,10,11,12,13,14,15,16,17,18,19,20,21,22,23,24,25,26,27,28,29,30,31,32,33,34,35,36,37,38,39,40,41,42,43,44,45,46,47,48,49,50,51,52,53,54,55,56,57,58,59,60,61,62,63,64,65,66,67,68,69,70,71,72,73,74,75,76,77,78,79,80,81,82,83,84,85,86,87,88,89,90,91,92,93,94,95,96,97,98,99,100,101,102,103,104,105,106,107,108,109,110,111,112,113,114,115,116,117,118,119,120,121,122,123,124,125,126,127,128,129,130,131,132,133,134,135,136,137,138,139,140,141,142,143,144,145,146,147,148,149,150,151,152,153,154,155,156,157,158,159,160,161,162,163,164,165,166,167,168,169,170,171,172,173,174,175,176,177,178,179,180,181,182,183,184,185,186,187,188,189,190,191,192,193,194,195,196,197,198,199,200,201,202,203,204,205,206,207,208,209,210,211,212,213,214,215,216,217,218,219,220,221,222,223,224,225,226,227,228,229,230,231,232,233,234,235,236,237,238,239,240,241,242,243,244,245,246,247,248,249,250,251,252,253,254,255,256,257,258,259,260,261,262,263,264,265,266,267,268,269,270,271,272,273,274,275,276,277,278,279,280,281,282,283,284,285,286,287,288,289,290,291,292,293,294,295,296,297,298,299,300,301,302,303,304,305,306,307,308,309,310,311,312,313,314,315,316,317,318,319,320,321,322,323,324,325,326,327,328,329,330,331,332,333,334,335,336,337,338,339,340,341,342,343,344,345,346,347,348,349,350,351,352,353,354,355,356,357,358,359,360,361,362,363,364,365,366,367,368,369,370,371,372,373,374,375,376,377,378,379,380,381,382,383,384,385,386,387,388,389,390,391,392,393,394,395,396,397,398,399,400,401,402,403,404,405,406,407,408,409,410,411,412,413,414,415,416,417,418,419,420,421,422,423,424,425,426,427,428,429,430,431,432,433,434,435,436,437,438,439,440,441,442,443,444,445,446,447,448,449,450,451,452,453,454,455,456,457,458,459,460,461,462,463,464,465,466,467,468,469,470,471,472,473,474,475,476,477,478,479,480,481,482,483,484,485,486,487,488,489,490,491,492,493,494,495,496,497,498,499,500,501,502,503,504,505,506,507,508,509,510,511,512,513,514,515,516,517,518,519,520,521,522,523,524,525,526,527,528,529,530,531,532,533,534,535,536,537,538,539,540,541,542,543,544,545,546,547,548,549,550,551,552,553,554,555,556,557,558,559,560,561,562,563,564,565,566,567,568,569,570,571,572,573,574,575,576,577,578,579,580,581,582,583,584,585,586,587,588,589,590,591,592,593,594,595,596,597,598,599,600,601,602,603,604,605,606,607,608,609,610,611,612,613,614,615,616,617,618,619,620,621,622,623,624,625,626,627,628,629,630,631,632,633,634,635,636,637,638,639,640,641,642,643,644,645,646,647,648,649,650,651,652,653,654,655,656,657,658,659,660,661,662,663,664,665,666,667,668,669,670,671,672,673,674,675,676,677,678,679,680,681,682,683,684,685,686,687,688,689,690,691,692,693,694,695,696,697,698,699,700,701,702,703,704,705,706,707,708,709,710,711,712,713,714,715,716,717,718,719,720,721,722,723,724,725,726,727,728,729,730,731,732,733,734,735,736,737,738,739,740,741,742,743,744,745,746,747,748,749,750,751,752,753,754,755,756,757,758,759,760,761,762,763,764,765,766,767,768,769,770,771,772,773,774,775,776,777,778,779,780,781,782,783,784,785,786,787,788,789,790,791,792,793,794,795,796,797,798,799,800,801,802,803,804,805,806,807,808,809,810,811,812,813,814,815,816,817,818,819,820,821,822,823,824,825,826,827,828,829,830,831,832,833,834,835,836,837,838,839,840,841,842,843,844,845,846,847,848,849,850,851,852,853,854,855,856,857],"tree_info":[0,0,0,0,0,0,0,0,0,0,0,0,0,0,0,0,0,0,0,0,0,0,0,0,0,0,0,0,0,0,0,0,0,0,0,0,0,0,0,0,0,0,0,0,0,0,0,0,0,0,0,0,0,0,0,0,0,0,0,0,0,0,0,0,0,0,0,0,0,0,0,0,0,0,0,0,0,0,0,0,0,0,0,0,0,0,0,0,0,0,0,0,0,0,0,0,0,0,0,0,0,0,0,0,0,0,0,0,0,0,0,0,0,0,0,0,0,0,0,0,0,0,0,0,0,0,0,0,0,0,0,0,0,0,0,0,0,0,0,0,0,0,0,0,0,0,0,0,0,0,0,0,0,0,0,0,0,0,0,0,0,0,0,0,0,0,0,0,0,0,0,0,0,0,0,0,0,0,0,0,0,0,0,0,0,0,0,0,0,0,0,0,0,0,0,0,0,0,0,0,0,0,0,0,0,0,0,0,0,0,0,0,0,0,0,0,0,0,0,0,0,0,0,0,0,0,0,0,0,0,0,0,0,0,0,0,0,0,0,0,0,0,0,0,0,0,0,0,0,0,0,0,0,0,0,0,0,0,0,0,0,0,0,0,0,0,0,0,0,0,0,0,0,0,0,0,0,0,0,0,0,0,0,0,0,0,0,0,0,0,0,0,0,0,0,0,0,0,0,0,0,0,0,0,0,0,0,0,0,0,0,0,0,0,0,0,0,0,0,0,0,0,0,0,0,0,0,0,0,0,0,0,0,0,0,0,0,0,0,0,0,0,0,0,0,0,0,0,0,0,0,0,0,0,0,0,0,0,0,0,0,0,0,0,0,0,0,0,0,0,0,0,0,0,0,0,0,0,0,0,0,0,0,0,0,0,0,0,0,0,0,0,0,0,0,0,0,0,0,0,0,0,0,0,0,0,0,0,0,0,0,0,0,0,0,0,0,0,0,0,0,0,0,0,0,0,0,0,0,0,0,0,0,0,0,0,0,0,0,0,0,0,0,0,0,0,0,0,0,0,0,0,0,0,0,0,0,0,0,0,0,0,0,0,0,0,0,0,0,0,0,0,0,0,0,0,0,0,0,0,0,0,0,0,0,0,0,0,0,0,0,0,0,0,0,0,0,0,0,0,0,0,0,0,0,0,0,0,0,0,0,0,0,0,0,0,0,0,0,0,0,0,0,0,0,0,0,0,0,0,0,0,0,0,0,0,0,0,0,0,0,0,0,0,0,0,0,0,0,0,0,0,0,0,0,0,0,0,0,0,0,0,0,0,0,0,0,0,0,0,0,0,0,0,0,0,0,0,0,0,0,0,0,0,0,0,0,0,0,0,0,0,0,0,0,0,0,0,0,0,0,0,0,0,0,0,0,0,0,0,0,0,0,0,0,0,0,0,0,0,0,0,0,0,0,0,0,0,0,0,0,0,0,0,0,0,0,0,0,0,0,0,0,0,0,0,0,0,0,0,0,0,0,0,0,0,0,0,0,0,0,0,0,0,0,0,0,0,0,0,0,0,0,0,0,0,0,0,0,0,0,0,0,0,0,0,0,0,0,0,0,0,0,0,0,0,0,0,0,0,0,0,0,0,0,0,0,0,0,0,0,0,0,0,0,0,0,0,0,0,0,0,0,0,0,0,0,0,0,0,0,0,0,0,0,0,0,0,0,0,0,0,0,0,0,0,0,0,0,0,0,0,0,0,0,0,0,0,0,0,0,0,0,0,0,0,0,0,0,0,0,0,0,0,0,0,0,0,0,0,0,0,0,0,0,0,0,0,0,0,0,0,0,0,0,0,0,0,0,0,0,0,0,0,0,0,0,0,0,0,0,0,0,0,0,0,0,0,0,0,0,0,0,0,0,0,0,0,0,0,0,0,0,0,0,0,0,0,0,0,0,0,0,0,0,0,0,0,0,0,0,0,0,0,0,0,0],"trees":[{"base_weights":[-3.1285598E-3,4.9139827E-1,-3.501457E-1,3.6252663E-1,1.6384723E0,-2.439728E-1,-1.3685366E0,1.5362035E-1,5.7082295E-1,5.713372E-1,1.6681885E0,-1.1991953E0,-1.4947529E-1,-3.61009E-1,-1.7409856E0,-4.8707324E-1,2.1977986E-1,3.6126652E-1,7.30114E-1,7.113783E-1,-4.4515643E-2,1.6744188E0,3.3850821E-3,-4.6901414E-1,-1.2962828E0,3.913208E-1,-2.7695647E-1,-8.0756265E-1,2.9098772E-2,-2.6628965E-1,-1.7640697E0,-2.8468842E-2,-3.659447E-4,2.602127E-2,4.746355E-3,3.4857888E-2,1.039409E-2,3.8115636E-2,2.2596132E-2,3.471629E-2,1.3893913E-3,-1.0726114E-2,9.06833E-3,7.367435E-2,5.070196E-3,6.9925324E-3,-3.307787E-2,-5.8075313E-2,3.0557178E-3,4.9475376E-3,4.4328727E-2,-1.7083028E-2,2.0052916E-3,-5.654538E-5,-4.5371477E-2,2.156584E-2,-1.8623197E-2,-2.329416E-2,9.330737E-3,-3.9649066E-3,-7.7523716E-2],"categories":[],"categories_nodes":[],"categories_segments":[],"categories_sizes":[],"default_left":[0,0,1,0,0,0,0,0,0,1,0,0,0,0,0,0,0,0,1,0,0,0,0,1,0,0,0,0,0,0,0,0,0,0,0,0,0,0,0,0,0,0,0,0,0,0,0,0,0,0,0,0,0,0,0,0,0,0,0,0,0],"id":0,"left_children":[1,3,5,7,9,11,13,15,17,19,21,23,25,27,29,31,33,35,37,39,41,43,-1,45,47,49,51,53,55,57,59,-1,-1,-1,-1,-1,-1,-1,-1,-1,-1,-1,-1,-1,-1,-1,-1,-1,-1,-1,-1,-1,-1,-1,-1,-1,-1,-1,-1,-1,-1],"loss_changes":[1.6391078E3,5.763411E2,6.0357214E2,1.5375925E2,3.0847168E0,4.5811746E2,1.9181726E2,7.6836334E1,5.665973E1,2.5370302E0,2.4726562E0,2.639087E1,3.214806E2,2.7224619E1,8.372803E0,1.3183716E1,6.7184944E1,4.0500114E1,2.544226E1,9.293356E-1,1.2095532E0,1.6506348E0,0E0,1.3605351E1,1.6363037E1,1.5259497E2,1.371755E2,1.3289684E1,2.1445705E1,3.350141E0,1.0744629E0,0E0,0E0,0E0,0E0,0E0,0E0,0E0,0E0,0E0,0E0,0E0,0E0,0E0,0E0,0E0,0E0,0E0,0E0,0E0,0E0,0E0,0E0,0E0,0E0,0E0,0E0,0E0,0E0,0E0,0E0],"parents":[2147483647,0,0,1,1,2,2,3,3,4,4,5,5,6,6,7,7,8,8,9,9,10,10,11,11,12,12,13,13,14,14,15,15,16,16,17,17,18,18,19,19,20,20,21,21,23,23,24,24,25,25,26,26,27,27,28,28,29,29,30,30],"right_children":[2,4,6,8,10,12,14,16,18,20,22,24,26,28,30,32,34,36,38,40,42,44,-1,46,48,50,52,54,56,58,60,-1,-1,-1,-1,-1,-1,-1,-1,-1,-1,-1,-1,-1,-1,-1,-1,-1,-1,-1,-1,-1,-1,-1,-1,-1,-1,-1,-1,-1,-1],"split_conditions":[-1.22E2,4E1,2.2675874E0,4.6382153E-1,8.598E-1,-3E-2,8.5E1,-1.9E-1,5E0,-4.581917E-1,1.69951E5,5.26E2,2.91E2,6.489189E1,3.9773567E0,4.986E3,-8.80148E-2,-2.4164298E-1,-1.6E0,2.197E1,-1.2438419E0,-1.49E2,3.3850821E-3,2.7E1,2.3527E4,3.88073E5,6.17283E5,-5.09E1,-2E0,3.33E2,-3.5152E4,-2.8468842E-2,-3.659447E-4,2.602127E-2,4.746355E-3,3.4857888E-2,1.039409E-2,3.8115636E-2,2.2596132E-2,3.471629E-2,1.3893913E-3,-1.0726114E-2,9.06833E-3,7.367435E-2,5.070196E-3,6.9925324E-3,-3.307787E-2,-5.8075313E-2,3.0557178E-3,4.9475376E-3,4.4328727E-2,-1.7083028E-2,2.0052916E-3,-5.654538E-5,-4.5371477E-2,2.156584E-2,-1.8623197E-2,-2.329416E-2,9.330737E-3,-3.9649066E-3,-7.7523716E-2],"split_indices":[65,8,8,8,64,68,65,47,70,9,22,22,65,8,8,78,9,9,81,22,1,65,0,16,85,22,60,65,65,34,36,0,0,0,0,0,0,0,0,0,0,0,0,0,0,0,0,0,0,0,0,0,0,0,0,0,0,0,0,0,0],"split_type":[0,0,0,0,0,0,0,0,0,0,0,0,0,0,0,0,0,0,0,0,0,0,0,0,0,0,0,0,0,0,0,0,0,0,0,0,0,0,0,0,0,0,0,0,0,0,0,0,0,0,0,0,0,0,0,0,0,0,0,0,0],"sum_hessian":[9.531573E3,3.9287156E3,5.6028574E3,3.543625E3,3.850906E2,5.084991E3,5.178661E2,1.7778163E3,1.7658087E3,1.5859795E1,3.6923083E2,4.4733972E2,4.6376514E3,1.4503271E2,3.728334E2,1.605002E2,1.617316E3,7.765625E2,9.8924615E2,1.16748295E1,4.184966E0,3.6727148E2,1.9593537E0,5.9276497E1,3.8806323E2,8.807701E2,3.7568813E3,6.268908E1,8.2343636E1,7.6605783E0,3.6517282E2,1.172237E2,4.3276497E1,3.6181583E2,1.2555002E3,1.6090486E2,6.1565765E2,5.816539E2,4.0759232E2,8.973605E0,2.7012243E0,2.4837415E0,1.7012243E0,3.6507025E2,2.2012243E0,1.9876053E1,3.940044E1,3.8045142E2,7.6118026E0,6.15808E2,2.6496207E2,2.7828777E3,9.740037E2,1.5981734E1,4.6707348E1,4.036391E1,4.197973E1,4.241871E0,3.4187074E0,1.4837415E0,3.636891E2],"tree_param":{"num_deleted":"0","num_feature":"96","num_nodes":"61","size_leaf_vector":"1"}},{"base_weights":[-5.65874E-4,2.495765E-1,-8.0863345E-1,1.5027301E0,1.6001205E-1,-5.327674E-1,-1.6108066E0,1.0924728E0,1.6900371E0,3.2800892E-1,-3.741163E-1,-3.2326025E-1,-8.2684046E-1,-8.659966E-1,-1.6924629E0,1.2684424E0,5.972871E-1,3.0726208E-3,1.6979115E0,5.821747E-1,1.365823E-1,-7.511561E-1,-7.758691E-2,-5.0272703E-1,-8.29848E-2,-1.139055E0,-6.304811E-1,-9.556677E-1,-5.9291583E-2,-1.6973034E0,-1.6887095E-4,5.6406505E-2,4.1570445E-3,-8.656388E-3,3.2041587E-2,3.1780016E-3,7.467014E-2,3.0698016E-2,4.1808616E-3,9.787527E-3,-4.7583207E-3,-1.2088205E-2,-5.3806286E-2,1.2383885E-2,-1.6357768E-2,5.093625E-3,-2.368626E-2,9.563845E-3,-9.272416E-3,-5.1264767E-2,7.189617E-3,3.2792E-3,-3.0519536E-2,3.7508288E-3,-4.3447167E-2,-1.4937097E-2,9.880233E-3,-7.454816E-2,-3.5789388E-3],"categories":[],"categories_nodes":[],"categories_segments":[],"categories_sizes":[],"default_left":[0,0,0,0,1,1,0,1,0,0,0,1,0,0,0,1,0,0,0,0,0,0,0,1,0,1,0,0,0,1,0,0,0,0,0,0,0,0,0,0,0,0,0,0,0,0,0,0,0,0,0,0,0,0,0,0,0,0,0],"id":1,"left_children":[1,3,5,7,9,11,13,15,17,19,21,23,25,27,29,31,33,-1,35,37,39,41,43,45,47,49,51,53,55,57,-1,-1,-1,-1,-1,-1,-1,-1,-1,-1,-1,-1,-1,-1,-1,-1,-1,-1,-1,-1,-1,-1,-1,-1,-1,-1,-1,-1,-1],"loss_changes":[1.9373661E3,8.19087E2,4.9286877E2,1.9141235E1,6.151507E2,1.0212958E2,2.0447632E1,8.237122E0,2.85083E0,2.5270435E2,1.8296515E2,4.311152E1,3.587271E1,5.0111923E0,4.079712E0,1.4450226E0,8.444983E0,0E0,1.4854736E0,1.2778534E2,6.365104E1,1.5999634E2,1.00004395E2,1.4007324E1,1.7618507E1,1.210257E1,2.1480576E1,3.3716087E0,2.2237127E0,1.1854248E0,0E0,0E0,0E0,0E0,0E0,0E0,0E0,0E0,0E0,0E0,0E0,0E0,0E0,0E0,0E0,0E0,0E0,0E0,0E0,0E0,0E0,0E0,0E0,0E0,0E0,0E0,0E0,0E0,0E0],"parents":[2147483647,0,0,1,1,2,2,3,3,4,4,5,5,6,6,7,7,8,8,9,9,10,10,11,11,12,12,13,13,14,14,15,15,16,16,18,18,19,19,20,20,21,21,22,22,23,23,24,24,25,25,26,26,27,27,28,28,29,29],"right_children":[2,4,6,8,10,12,14,16,18,20,22,24,26,28,30,32,34,-1,36,38,40,42,44,46,48,50,52,54,56,58,-1,-1,-1,-1,-1,-1,-1,-1,-1,-1,-1,-1,-1,-1,-1,-1,-1,-1,-1,-1,-1,-1,-1,-1,-1,-1,-1,-1,-1],"split_conditions":[4.9473416E-2,-1.1965278E1,2.2687949E-1,-4.7E1,-3.6797272E-3,-2.0566374E-2,1.7464823E-1,-3.5581436E1,-1.4842192E2,-2.7323232E-3,5.01E0,5.148E1,1.01E2,3.6148E4,6.367382E6,2.53199E5,1E-2,3.0726208E-3,-2.3023E4,7.6312777E-3,8.721702E-3,-1.6678028E-2,9.026271E-3,4.644295E-5,-9.084789E-3,7.29E2,-7.2135E4,-4E-1,4.53E2,7.627571E3,-1.6887095E-4,5.6406505E-2,4.1570445E-3,-8.656388E-3,3.2041587E-2,3.1780016E-3,7.467014E-2,3.0698016E-2,4.1808616E-3,9.787527E-3,-4.7583207E-3,-1.2088205E-2,-5.3806286E-2,1.2383885E-2,-1.6357768E-2,5.093625E-3,-2.368626E-2,9.563845E-3,-9.272416E-3,-5.1264767E-2,7.189617E-3,3.2792E-3,-3.0519536E-2,3.7508288E-3,-4.3447167E-2,-1.4937097E-2,9.880233E-3,-7.454816E-2,-3.5789388E-3],"split_indices":[0,0,0,79,2,2,11,11,12,11,68,70,91,88,22,29,70,0,32,0,0,0,0,7,11,70,52,94,62,7,0,0,0,0,0,0,0,0,0,0,0,0,0,0,0,0,0,0,0,0,0,0,0,0,0,0,0,0,0],"split_type":[0,0,0,0,0,0,0,0,0,0,0,0,0,0,0,0,0,0,0,0,0,0,0,0,0,0,0,0,0,0,0,0,0,0,0,0,0,0,0,0,0,0,0,0,0,0,0,0,0,0,0,0,0,0,0,0,0,0,0],"sum_hessian":[9.564871E3,7.3091235E3,2.2557478E3,4.771268E2,6.8319966E3,1.6907705E3,5.6497723E2,1.7075938E2,3.063674E2,5.2002207E3,1.6317756E3,9.994905E2,6.912801E2,6.717397E1,4.9780325E2,1.14579575E2,5.617981E1,1.95799E0,3.0440942E2,2.2253296E3,2.9748914E3,7.116809E2,9.2009467E2,5.659476E2,4.3354288E2,2.4854851E2,4.4273157E2,5.880566E1,8.368315E0,4.9632767E2,1.4755927E0,1.11889885E2,2.689692E0,7.3995323E0,4.8780277E1,1.4654934E0,3.0294394E2,1.7875295E3,4.3780002E2,2.1984478E3,7.764437E2,3.6394064E2,3.477403E2,4.1495752E2,5.0513712E2,3.11865E1,5.347611E2,1.2760951E2,3.0593335E2,2.4389673E2,4.6517806E0,3.7589794E1,4.0514178E2,1.4670156E0,5.7338646E1,3.2335057E0,5.1348085E0,4.948458E2,1.4818599E0],"tree_param":{"num_deleted":"0","num_feature":"96","num_nodes":"59","size_leaf_vector":"1"}},{"base_weights":[-3.314267E-3,3.6159202E-1,-5.1035E-1,1.4618632E0,2.5596184E-1,-3.2757732E-1,-1.5024239E0,1.07335E0,1.6538128E0,3.8421145E-1,-6.005067E-1,-1.5457904E-1,-5.5854285E-1,-9.608345E-1,-1.5951697E0,1.2602617E0,5.8486986E-1,3.1107306E-3,1.659106E0,6.455726E-1,1.6491567E-1,-2.1604863E-1,-9.260366E-1,-4.1975012E-1,-4.4646256E-2,-4.145824E-1,-9.5267355E-1,-1.0472399E0,-9.920897E-2,-4.2166772E-1,-1.6198997E0,5.601198E-2,5.172878E-3,3.7737705E-2,2.2998054E-3,3.1344804E-3,7.29694E-2,2.1716436E-2,4.3453965E-2,-1.8707727E-3,1.3707535E-2,-2.3021417E-2,-2.238289E-3,-5.630219E-2,4.519913E-3,-3.731277E-2,-1.4531605E-2,6.3337055E-3,-1.0696101E-2,-4.113048E-2,-1.5278009E-2,-1.2524603E-2,-4.7553863E-2,-4.71234E-2,1.7962804E-3,1.1835367E-2,-2.048964E-2,5.006044E-3,-2.4468359E-2,-7.1223386E-2,-1.6791059E-4],"categories":[],"categories_nodes":[],"categories_segments":[],"categories_sizes":[],"default_left":[0,0,0,0,1,0,0,0,0,0,0,0,0,0,0,1,1,0,1,0,0,0,1,1,0,0,0,0,0,0,0,0,0,0,0,0,0,0,0,0,0,0,0,0,0,0,0,0,0,0,0,0,0,0,0,0,0,0,0,0,0],"id":2,"left_children":[1,3,5,7,9,11,13,15,17,19,21,23,25,27,29,31,33,-1,35,37,39,41,43,45,47,49,51,53,55,57,59,-1,-1,-1,-1,-1,-1,-1,-1,-1,-1,-1,-1,-1,-1,-1,-1,-1,-1,-1,-1,-1,-1,-1,-1,-1,-1,-1,-1,-1,-1],"loss_changes":[1.7685786E3,6.423124E2,7.20478E2,1.857434E1,5.6067755E2,1.3462216E2,1.5942505E1,9.910721E0,1.3945312E0,2.5271185E2,8.1361465E1,5.6724293E1,7.82594E1,7.5656586E0,8.148926E0,1.0383911E0,9.9284725E0,0E0,1.3913574E0,9.983588E1,7.4383736E1,1.5961898E1,1.3314175E2,1.8947823E1,5.2793846E1,3.4075943E1,3.0376892E1,3.5651398E0,4.1665654E0,2.3865032E0,3.7318115E0,0E0,0E0,0E0,0E0,0E0,0E0,0E0,0E0,0E0,0E0,0E0,0E0,0E0,0E0,0E0,0E0,0E0,0E0,0E0,0E0,0E0,0E0,0E0,0E0,0E0,0E0,0E0,0E0,0E0,0E0],"parents":[2147483647,0,0,1,1,2,2,3,3,4,4,5,5,6,6,7,7,8,8,9,9,10,10,11,11,12,12,13,13,14,14,15,15,16,16,18,18,19,19,20,20,21,21,22,22,23,23,24,24,25,25,26,26,27,27,28,28,29,29,30,30],"right_children":[2,4,6,8,10,12,14,16,18,20,22,24,26,28,30,32,34,-1,36,38,40,42,44,46,48,50,52,54,56,58,60,-1,-1,-1,-1,-1,-1,-1,-1,-1,-1,-1,-1,-1,-1,-1,-1,-1,-1,-1,-1,-1,-1,-1,-1,-1,-1,-1,-1,-1,-1],"split_conditions":[9.026271E-3,-1.1965278E1,2.0405063E-1,2.9393E2,8.298707E-3,-1.9657936E-2,2.5532264E-1,-3.890518E1,-3.7236E4,-7.3400507E-4,-2.8967762E-2,1.946E1,8.10135E-2,3.0197E4,2.2687949E-1,6.2376E4,6.2E1,3.1107306E-3,1.21951215E-2,2.17E0,7.04E0,0E0,5.01E0,-6E1,5.6632034E-2,-9E0,-1.0267E4,2.37461E5,1.987E3,-1.07804954E-1,1.519499E1,5.601198E-2,5.172878E-3,3.7737705E-2,2.2998054E-3,3.1344804E-3,7.29694E-2,2.1716436E-2,4.3453965E-2,-1.8707727E-3,1.3707535E-2,-2.3021417E-2,-2.238289E-3,-5.630219E-2,4.519913E-3,-3.731277E-2,-1.4531605E-2,6.3337055E-3,-1.0696101E-2,-4.113048E-2,-1.5278009E-2,-1.2524603E-2,-4.7553863E-2,-4.71234E-2,1.7962804E-3,1.1835367E-2,-2.048964E-2,5.006044E-3,-2.4468359E-2,-7.1223386E-2,-1.6791059E-4],"split_indices":[0,0,0,16,2,2,11,0,32,11,0,71,0,31,0,64,95,0,8,40,71,47,68,47,0,91,52,91,33,2,10,0,0,0,0,0,0,0,0,0,0,0,0,0,0,0,0,0,0,0,0,0,0,0,0,0,0,0,0,0,0],"split_type":[0,0,0,0,0,0,0,0,0,0,0,0,0,0,0,0,0,0,0,0,0,0,0,0,0,0,0,0,0,0,0,0,0,0,0,0,0,0,0,0,0,0,0,0,0,0,0,0,0,0,0,0,0,0,0,0,0,0,0,0,0],"sum_hessian":[9.539051E3,5.5486216E3,3.9904294E3,4.748935E2,5.073728E3,3.3807532E3,6.0967645E2,1.7862102E2,2.9627246E2,4.4176763E3,6.560518E2,1.9423937E3,1.4383594E3,1.0558536E2,5.040911E2,1.1787307E2,6.074795E1,1.4646547E0,2.948078E2,2.0067437E3,2.4109324E3,3.083548E2,3.4769702E2,5.610792E2,1.3813145E3,1.068424E3,3.6993552E2,9.402083E1,1.1564531E1,1.4093955E1,4.8999713E2,1.1494951E2,2.9235637E0,3.5986713E1,2.4761238E1,1.464327E0,2.9334348E2,1.4155562E3,5.911875E2,1.0053973E3,1.4055352E3,9.979453E1,2.0856027E2,2.5610382E2,9.15932E1,8.0789604E1,4.802896E2,7.102064E2,6.71108E2,1.0510351E2,9.6332043E2,6.630589E1,3.036296E2,9.181279E1,2.2080376E0,7.088219E0,4.476312E0,3.18369E0,1.0910265E1,4.8852155E2,1.4755925E0],"tree_param":{"num_deleted":"0","num_feature":"96","num_nodes":"61","size_leaf_vector":"1"}},{"base_weights":[-7.084234E-4,3.3479398E-1,-5.1159984E-1,1.406025E0,2.3583253E-1,-3.2888815E-1,-1.4539412E0,1.5325272E0,8.841742E-1,3.5437414E-1,-5.495202E-1,-1.5713114E-1,-5.8075005E-1,-7.7559626E-1,-1.5302341E0,2.0933962E-1,1.5398914E0,-6.2435746E-2,9.9011856E-1,6.1122745E-1,1.4116447E-1,-6.793526E-1,2.5626224E-1,-4.0215975E-1,-4.0451165E-2,-9.615284E-1,-4.4967303E-1,7.9346016E-2,-8.8327587E-1,-5.724681E-1,-1.5560429E0,1.5977513E-2,-6.480581E-3,4.61447E-3,6.7674845E-2,-1.1603906E-2,1.2022279E-2,1.8619992E-3,4.532194E-2,1.8132932E-2,3.660176E-2,8.0651725E-3,-2.202049E-2,-1.12583395E-2,-4.6679005E-2,1.626146E-2,-2.3085376E-2,-1.1276442E-2,-2.5554625E-2,7.414538E-3,-8.477568E-3,-1.8281981E-2,-4.7562394E-2,-1.4350504E-2,-3.155252E-2,-6.9234464E-3,1.4913424E-2,-4.1903332E-2,4.6906067E-4,-3.2302655E-2,1.3841577E-2,-6.844987E-2,-5.1793167E-3],"categories":[],"categories_nodes":[],"categories_segments":[],"categories_sizes":[],"default_left":[0,0,0,1,1,1,0,0,0,0,0,1,0,1,0,0,0,0,0,0,1,0,0,1,0,0,0,1,1,0,0,0,0,0,0,0,0,0,0,0,0,0,0,0,0,0,0,0,0,0,0,0,0,0,0,0,0,0,0,0,0,0,0],"id":3,"left_children":[1,3,5,7,9,11,13,15,17,19,21,23,25,27,29,31,33,35,37,39,41,43,45,47,49,51,53,55,57,59,61,-1,-1,-1,-1,-1,-1,-1,-1,-1,-1,-1,-1,-1,-1,-1,-1,-1,-1,-1,-1,-1,-1,-1,-1,-1,-1,-1,-1,-1,-1,-1,-1],"loss_changes":[1.6339586E3,6.067027E2,6.458616E2,1.8572205E1,4.9341663E2,1.3656317E2,1.9854248E1,4.729004E-1,1.2444344E1,2.5067242E2,7.456253E1,5.4242344E1,5.984021E1,8.228882E0,4.4958496E0,1.2841167E0,4.0270996E-1,2.1606014E0,3.9768143E0,8.852344E1,7.038783E1,9.5378784E1,1.124983E1,1.4565285E1,4.1990387E1,1.7033875E1,2.9853989E1,1.6606177E0,4.869732E0,6.6543207E0,2.119995E0,0E0,0E0,0E0,0E0,0E0,0E0,0E0,0E0,0E0,0E0,0E0,0E0,0E0,0E0,0E0,0E0,0E0,0E0,0E0,0E0,0E0,0E0,0E0,0E0,0E0,0E0,0E0,0E0,0E0,0E0,0E0,0E0],"parents":[2147483647,0,0,1,1,2,2,3,3,4,4,5,5,6,6,7,7,8,8,9,9,10,10,11,11,12,12,13,13,14,14,15,15,16,16,17,17,18,18,19,19,20,20,21,21,22,22,23,23,24,24,25,25,26,26,27,27,28,28,29,29,30,30],"right_children":[2,4,6,8,10,12,14,16,18,20,22,24,26,28,30,32,34,36,38,40,42,44,46,48,50,52,54,56,58,60,62,-1,-1,-1,-1,-1,-1,-1,-1,-1,-1,-1,-1,-1,-1,-1,-1,-1,-1,-1,-1,-1,-1,-1,-1,-1,-1,-1,-1,-1,-1,-1,-1],"split_conditions":[1.0672764E-2,-1.1965278E1,2.0405063E-1,-9.6892416E-1,8.298707E-3,-1.9657936E-2,8.225877E-2,2.678E-1,1E-2,-7.3400507E-4,1E0,1.77E1,8E0,-1.4953271E-3,1E-1,9.323E1,7.1534007E-3,2.733E3,-1.2E1,1.312E1,8.4222454E-1,-2.4828495E-2,2.58803E5,7.371E3,4.821939E-2,6.050935E-4,7.711238E-2,6E0,3.33333E5,1.1137723E1,1.5666699E1,1.5977513E-2,-6.480581E-3,4.61447E-3,6.7674845E-2,-1.1603906E-2,1.2022279E-2,1.8619992E-3,4.532194E-2,1.8132932E-2,3.660176E-2,8.0651725E-3,-2.202049E-2,-1.12583395E-2,-4.6679005E-2,1.626146E-2,-2.3085376E-2,-1.1276442E-2,-2.5554625E-2,7.414538E-3,-8.477568E-3,-1.8281981E-2,-4.7562394E-2,-1.4350504E-2,-3.155252E-2,-6.9234464E-3,1.4913424E-2,-4.1903332E-2,4.6906067E-4,-3.2302655E-2,1.3841577E-2,-6.844987E-2,-5.1793167E-3],"split_indices":[0,0,0,9,2,2,11,64,71,11,5,71,91,7,19,60,8,47,63,71,5,0,48,24,0,11,0,58,28,10,10,0,0,0,0,0,0,0,0,0,0,0,0,0,0,0,0,0,0,0,0,0,0,0,0,0,0,0,0,0,0,0,0],"split_type":[0,0,0,0,0,0,0,0,0,0,0,0,0,0,0,0,0,0,0,0,0,0,0,0,0,0,0,0,0,0,0,0,0,0,0,0,0,0,0,0,0,0,0,0,0,0,0,0,0,0,0,0,0,0,0,0,0,0,0,0,0,0,0],"sum_hessian":[9.512927E3,5.7441494E3,3.7687778E3,4.7471582E2,5.2694336E3,3.167905E3,6.008728E2,3.6665817E2,1.0805764E2,4.583094E3,6.863392E2,1.8930361E3,1.2748688E3,7.192527E1,5.289475E2,3.6437728E0,3.630144E2,1.1282645E1,9.6775E1,2.0703975E3,2.5126968E3,5.9243896E2,9.390027E1,6.0283484E2,1.2902013E3,3.1040588E2,9.644628E2,8.333679E0,6.359159E1,1.990341E1,5.0904413E2,2.405889E0,1.2378838E0,1.703469E0,3.613109E2,8.376241E0,2.9064045E0,5.126747E0,9.1648254E1,1.114169E3,9.562286E2,2.3626113E3,1.5008545E2,2.9046774E2,3.019712E2,8.645028E1,7.449984E0,3.478654E2,2.5496947E2,5.43827E2,7.463743E2,6.534932E1,2.4505656E2,6.788315E2,2.8563138E2,6.4024987E0,1.9311807E0,5.8189007E1,5.402586E0,1.8222006E1,1.6814041E0,5.063277E2,2.716414E0],"tree_param":{"num_deleted":"0","num_feature":"96","num_nodes":"63","size_leaf_vector":"1"}},{"base_weights":[2.6899469E-4,1.9118617E-1,-8.0770457E-1,5.436839E-1,-7.7639766E-2,-5.277572E-1,-1.4271156E0,1.3415387E0,4.1855362E-1,2.2316097E-1,-2.5843635E-1,-3.525322E-1,-8.897491E-1,-7.537098E-1,-1.494875E0,9.6354026E-1,1.5257143E0,6.6955125E-1,2.3605701E-1,6.608362E-2,5.5422556E-1,-5.969815E-1,-7.3301144E-2,-5.1725745E-1,-1.60836E-1,-4.5161217E-1,-1.0139753E0,-8.638219E-1,3.559408E-2,-1.4992216E0,-1.3749608E-4,5.128391E-2,2.0495867E-2,5.762051E-4,6.726725E-2,1.6274966E-2,3.45207E-2,1.9081349E-2,4.678352E-3,-5.121646E-3,1.2230043E-2,4.503564E-2,7.171817E-3,-1.2663613E-2,-4.9356814E-2,1.1204336E-2,-1.2375668E-2,7.934713E-4,-2.5072487E-2,1.0993716E-2,-1.2357941E-2,9.4805015E-3,-2.3425194E-2,-7.021571E-3,-4.7403328E-2,-4.1234557E-2,-2.5573852E-3,-1.0224989E-2,9.2379395E-3,-2.6841378E-3,-6.585868E-2],"categories":[],"categories_nodes":[],"categories_segments":[],"categories_sizes":[],"default_left":[0,1,0,0,0,0,0,0,0,0,0,1,0,0,0,1,0,1,0,0,0,0,0,0,0,0,0,1,0,1,0,0,0,0,0,0,0,0,0,0,0,0,0,0,0,0,0,0,0,0,0,0,0,0,0,0,0,0,0,0,0],"id":4,"left_children":[1,3,5,7,9,11,13,15,17,19,21,23,25,27,29,31,33,35,37,39,41,43,45,47,49,51,53,55,57,59,-1,-1,-1,-1,-1,-1,-1,-1,-1,-1,-1,-1,-1,-1,-1,-1,-1,-1,-1,-1,-1,-1,-1,-1,-1,-1,-1,-1,-1,-1,-1],"loss_changes":[1.470716E3,7.312107E2,3.0852563E2,3.276842E2,2.3898503E2,7.7495544E1,1.4457886E1,1.663263E1,1.3126239E2,8.549591E1,1.7147076E2,2.6730904E1,1.766858E1,6.5032616E0,3.190918E0,1.2346863E1,3.5142822E0,3.983783E1,4.319053E1,4.4363007E1,9.625902E1,1.5455228E2,1.2335586E2,1.3703926E1,2.1510616E1,7.1095715E0,1.6087585E1,3.3454132E0,1.3446556E0,1.2436523E0,0E0,0E0,0E0,0E0,0E0,0E0,0E0,0E0,0E0,0E0,0E0,0E0,0E0,0E0,0E0,0E0,0E0,0E0,0E0,0E0,0E0,0E0,0E0,0E0,0E0,0E0,0E0,0E0,0E0,0E0,0E0],"parents":[2147483647,0,0,1,1,2,2,3,3,4,4,5,5,6,6,7,7,8,8,9,9,10,10,11,11,12,12,13,13,14,14,15,15,16,16,17,17,18,18,19,19,20,20,21,21,22,22,23,23,24,24,25,25,26,26,27,27,28,28,29,29],"right_children":[2,4,6,8,10,12,14,16,18,20,22,24,26,28,30,32,34,36,38,40,42,44,46,48,50,52,54,56,58,60,-1,-1,-1,-1,-1,-1,-1,-1,-1,-1,-1,-1,-1,-1,-1,-1,-1,-1,-1,-1,-1,-1,-1,-1,-1,-1,-1,-1,-1,-1,-1],"split_conditions":[6.348382E-2,-7.728291E-2,2.2687949E-1,-1.1965278E1,-2.1170522E-4,-2.6377619E-3,1.20553866E-1,2.9393E2,-2.1329334E-2,9.7127974E-1,5.01E0,5.148E1,8.10135E-2,1.841E3,1.5666699E1,-5.21219E1,6.231E-1,-9.678717E-2,-7.378E3,2.1259072E3,4.889976E-3,-1.14872E-2,9.026271E-3,5.074932E-4,-7.6061815E-2,3E0,-4.2594E4,1.63E2,2.17E2,-2.9028684E3,-1.3749608E-4,5.128391E-2,2.0495867E-2,5.762051E-4,6.726725E-2,1.6274966E-2,3.45207E-2,1.9081349E-2,4.678352E-3,-5.121646E-3,1.2230043E-2,4.503564E-2,7.171817E-3,-1.2663613E-2,-4.9356814E-2,1.1204336E-2,-1.2375668E-2,7.934713E-4,-2.5072487E-2,1.0993716E-2,-1.2357941E-2,9.4805015E-3,-2.3425194E-2,-7.021571E-3,-4.7403328E-2,-4.1234557E-2,-2.5573852E-3,-1.0224989E-2,9.2379395E-3,-2.6841378E-3,-6.585868E-2],"split_indices":[0,2,0,0,11,2,11,16,11,5,68,70,0,87,10,11,64,1,65,64,0,0,0,7,2,15,52,70,60,7,0,0,0,0,0,0,0,0,0,0,0,0,0,0,0,0,0,0,0,0,0,0,0,0,0,0,0,0,0,0,0],"split_type":[0,0,0,0,0,0,0,0,0,0,0,0,0,0,0,0,0,0,0,0,0,0,0,0,0,0,0,0,0,0,0,0,0,0,0,0,0,0,0,0,0,0,0,0,0,0,0,0,0,0,0,0,0,0,0,0,0,0,0,0,0],"sum_hessian":[9.514459E3,7.7020825E3,1.8123759E3,3.3280596E3,4.374023E3,1.2608583E3,5.5151746E2,4.3814114E2,2.8899185E3,1.641176E3,2.7328472E3,8.6277264E2,3.9808566E2,6.1396076E1,4.901214E2,1.6375406E2,2.743871E2,1.2054977E3,1.6844209E3,1.1211276E3,5.200484E2,9.583451E2,1.774502E3,4.549801E2,4.0779254E2,9.807812E1,3.0000757E2,5.3063015E1,8.333058E0,4.8864584E2,1.4755765E0,1.0616233E2,5.7591736E1,1.7037625E0,2.7268332E2,3.5303882E2,8.524588E2,6.539365E2,1.0304844E3,6.05412E2,5.157156E2,2.2791699E2,2.9213138E2,6.1521045E2,3.4313467E2,6.8862695E2,1.085875E3,4.2747097E1,4.1223303E2,9.025691E1,3.175356E2,9.043267E0,8.903485E1,2.4364931E1,2.7564264E2,4.692859E1,6.134428E0,1.9844484E0,6.3486104E0,1.464585E0,4.8718124E2],"tree_param":{"num_deleted":"0","num_feature":"96","num_nodes":"61","size_leaf_vector":"1"}},{"base_weights":[1.2143983E-3,1.6210653E-1,-8.8225436E-1,5.1094717E-1,-8.911672E-2,-5.620268E-1,-1.3853521E0,1.2910228E0,3.932311E-1,1.9186911E-1,-2.565735E-1,-3.499051E-1,-9.5425653E-1,-5.104588E-1,-1.4217291E0,9.6010375E-1,1.4879935E0,6.225795E-1,2.2852139E-1,3.8694996E-1,-7.083054E-2,-1.3960628E-1,-5.866767E-1,-4.3898124E-1,8.812917E-2,-1.6251467E-1,-1.0187614E0,-2.0622903E-2,-7.351902E-1,-8.9143145E-1,-1.4782139E0,5.293186E-2,2.8781295E-2,2.984167E-3,6.5646574E-2,1.8287614E-2,3.526037E-2,3.638096E-3,1.6729668E-2,5.303211E-3,3.397837E-2,-1.1311298E-2,6.237225E-3,-1.7245363E-2,-2.6920142E-3,2.1733884E-2,-2.840373E-2,-1.3033592E-2,-2.8934404E-2,1.7416637E-2,-1.0254489E-2,1.861912E-2,-1.811434E-2,-4.6310488E-2,-1.053419E-3,-1.5392958E-2,1.2934841E-2,-3.5379514E-2,3.4571334E-4,-4.4843394E-2,-8.8736005E-3,-6.499497E-2,-1.9970103E-3],"categories":[],"categories_nodes":[],"categories_segments":[],"categories_sizes":[],"default_left":[0,1,0,0,0,0,0,0,0,0,0,0,0,0,0,0,0,0,0,0,1,0,0,1,0,1,1,0,1,1,0,0,0,0,0,0,0,0,0,0,0,0,0,0,0,0,0,0,0,0,0,0,0,0,0,0,0,0,0,0,0,0,0],"id":5,"left_children":[1,3,5,7,9,11,13,15,17,19,21,23,25,27,29,31,33,35,37,39,41,43,45,47,49,51,53,55,57,59,61,-1,-1,-1,-1,-1,-1,-1,-1,-1,-1,-1,-1,-1,-1,-1,-1,-1,-1,-1,-1,-1,-1,-1,-1,-1,-1,-1,-1,-1,-1,-1,-1],"loss_changes":[1.3533837E3,7.063142E2,2.2860193E2,3.0475287E2,2.2120166E2,7.265073E1,1.0752563E1,1.4400391E1,1.0985596E2,9.03284E1,1.1283479E2,2.4113556E1,1.4430084E1,4.025201E0,2.9958496E0,6.512207E0,2.4110107E0,4.2419434E1,3.8226433E1,1.0332416E2,3.056755E1,4.314532E1,5.3996826E1,1.3932671E1,1.1971861E1,6.960808E0,1.0552734E1,3.333585E0,1.4382944E0,4.8760834E0,2.2287598E0,0E0,0E0,0E0,0E0,0E0,0E0,0E0,0E0,0E0,0E0,0E0,0E0,0E0,0E0,0E0,0E0,0E0,0E0,0E0,0E0,0E0,0E0,0E0,0E0,0E0,0E0,0E0,0E0,0E0,0E0,0E0,0E0],"parents":[2147483647,0,0,1,1,2,2,3,3,4,4,5,5,6,6,7,7,8,8,9,9,10,10,11,11,12,12,13,13,14,14,15,15,16,16,17,17,18,18,19,19,20,20,21,21,22,22,23,23,24,24,25,25,26,26,27,27,28,28,29,29,30,30],"right_children":[2,4,6,8,10,12,14,16,18,20,22,24,26,28,30,32,34,36,38,40,42,44,46,48,50,52,54,56,58,60,62,-1,-1,-1,-1,-1,-1,-1,-1,-1,-1,-1,-1,-1,-1,-1,-1,-1,-1,-1,-1,-1,-1,-1,-1,-1,-1,-1,-1,-1,-1,-1,-1],"split_conditions":[8.10135E-2,-7.728291E-2,2.2687949E-1,-1.1965278E1,-2.1170522E-4,-2.6377619E-3,1E-1,1.1716862E-4,-2.1329334E-2,8.721702E-3,1.2098596E-2,2.3E1,-4.2594E4,2.0431035E0,2.1687576E-1,-1.1673471E2,-1.09714516E2,3.215895E2,1.352E1,2.40982E5,3.523E1,7.24E0,-1.1428572E0,-9E0,1.2355607E-2,7.71436E-2,3.4006E2,-5.9030354E-1,4.068553E0,2.4415E4,1.5666699E1,5.293186E-2,2.8781295E-2,2.984167E-3,6.5646574E-2,1.8287614E-2,3.526037E-2,3.638096E-3,1.6729668E-2,5.303211E-3,3.397837E-2,-1.1311298E-2,6.237225E-3,-1.7245363E-2,-2.6920142E-3,2.1733884E-2,-2.840373E-2,-1.3033592E-2,-2.8934404E-2,1.7416637E-2,-1.0254489E-2,1.861912E-2,-1.811434E-2,-4.6310488E-2,-1.053419E-3,-1.5392958E-2,1.2934841E-2,-3.5379514E-2,3.4571334E-4,-4.4843394E-2,-8.8736005E-3,-6.499497E-2,-1.9970103E-3],"split_indices":[0,2,0,0,11,2,19,7,11,0,2,44,52,11,11,2,12,64,71,61,71,71,0,77,11,4,70,11,7,42,10,0,0,0,0,0,0,0,0,0,0,0,0,0,0,0,0,0,0,0,0,0,0,0,0,0,0,0,0,0,0,0,0],"split_type":[0,0,0,0,0,0,0,0,0,0,0,0,0,0,0,0,0,0,0,0,0,0,0,0,0,0,0,0,0,0,0,0,0,0,0,0,0,0,0,0,0,0,0,0,0,0,0,0,0,0,0,0,0,0,0,0,0,0,0,0,0,0,0],"sum_hessian":[9.50143E3,8.0444985E3,1.4569313E3,3.3636377E3,4.680861E3,9.0307526E2,5.538561E2,4.2809225E2,2.9355454E3,1.7473743E3,2.9334868E3,5.982643E2,3.0481097E2,2.8052485E1,5.258036E2,1.8143492E2,2.4665733E2,1.2154998E3,1.7200457E3,1.0000599E3,7.473144E2,2.176404E3,7.5708276E2,4.9715207E2,1.011122E2,2.5590752E1,2.7922025E2,1.2225532E1,1.5826954E1,6.6610054E1,4.5919354E2,8.374997E1,9.768495E1,2.1610942E0,2.4449623E2,5.8581323E2,6.296865E2,8.895874E2,8.304582E2,6.010896E2,3.9897028E2,3.9675223E2,3.5056216E2,5.0329855E2,1.6731053E3,3.6757675E1,7.203251E2,3.1709552E2,1.8005655E2,5.041367E1,5.069853E1,5.596442E0,1.999431E1,2.6846225E2,1.0757992E1,5.4344215E0,6.79111E0,1.3659507E1,2.1674464E0,5.190733E1,1.4702729E1,4.57468E2,1.7255399E0],"tree_param":{"num_deleted":"0","num_feature":"96","num_nodes":"63","size_leaf_vector":"1"}},{"base_weights":[3.808702E-3,3.1577757E-1,-4.3404186E-1,1.2414204E0,2.2364347E-1,-2.7362415E-1,-1.2701364E0,9.040478E-1,1.457978E0,3.323614E-1,-5.0868237E-1,-1.2919603E-1,-4.6344113E-1,-6.56465E-1,-1.3614931E0,1.0553567E0,3.7610424E-1,1.9787475E-3,6.416076E-2,5.46087E-1,1.6816701E-1,-7.336928E-1,-9.501612E-3,3.3578996E-2,-2.7443397E-1,-3.5024324E-1,-7.914309E-1,-7.480726E-1,-2.0296048E-2,-9.1779196E-1,-1.4275677E0,2.4784256E-2,5.0410125E-2,2.8308311E-2,1.899301E-4,1.2164856E-2,3.2187343E-2,3.5136167E-3,2.1024756E-2,-1.4429357E-2,-4.8452504E-2,1.5426043E-2,-1.0159933E-2,5.775859E-3,-8.5351905E-3,-6.771429E-3,-1.8922037E-2,-1.2246838E-2,-3.3539437E-2,-1.0192506E-2,-4.0321823E-2,-3.5174556E-2,7.5658807E-4,1.26915695E-2,-1.4907751E-2,-8.246194E-3,-4.497601E-2,-6.273144E-2,-2.1428897E-3],"categories":[],"categories_nodes":[],"categories_segments":[],"categories_sizes":[],"default_left":[0,0,0,0,1,1,0,1,0,0,1,0,0,1,0,0,0,0,0,0,0,0,0,0,0,1,0,1,0,1,1,0,0,0,0,0,0,0,0,0,0,0,0,0,0,0,0,0,0,0,0,0,0,0,0,0,0,0,0],"id":6,"left_children":[1,3,5,7,9,11,13,15,17,19,21,23,25,27,29,31,33,-1,-1,35,37,39,41,43,45,47,49,51,53,55,57,-1,-1,-1,-1,-1,-1,-1,-1,-1,-1,-1,-1,-1,-1,-1,-1,-1,-1,-1,-1,-1,-1,-1,-1,-1,-1,-1,-1],"loss_changes":[1.2939001E3,4.6897522E2,5.25158E2,2.3369934E1,4.0315433E2,9.04043E1,2.6563171E1,1.3717712E1,1.5856323E0,1.53384E2,7.3583084E1,4.4980907E1,5.036203E1,5.731987E0,2.8741455E0,1.2589874E0,6.4457083E0,0E0,0E0,9.427649E1,6.816721E1,6.4309525E1,1.7975834E1,2.0514004E1,1.8281418E1,2.9674835E1,2.363704E1,3.79311E0,3.241778E0,5.801262E0,1.3834839E0,0E0,0E0,0E0,0E0,0E0,0E0,0E0,0E0,0E0,0E0,0E0,0E0,0E0,0E0,0E0,0E0,0E0,0E0,0E0,0E0,0E0,0E0,0E0,0E0,0E0,0E0,0E0,0E0],"parents":[2147483647,0,0,1,1,2,2,3,3,4,4,5,5,6,6,7,7,8,8,9,9,10,10,11,11,12,12,13,13,14,14,15,15,16,16,19,19,20,20,21,21,22,22,23,23,24,24,25,25,26,26,27,27,28,28,29,29,30,30],"right_children":[2,4,6,8,10,12,14,16,18,20,22,24,26,28,30,32,34,-1,-1,36,38,40,42,44,46,48,50,52,54,56,58,-1,-1,-1,-1,-1,-1,-1,-1,-1,-1,-1,-1,-1,-1,-1,-1,-1,-1,-1,-1,-1,-1,-1,-1,-1,-1,-1,-1],"split_conditions":[9.026271E-3,-8.324111E0,1.8591926E-1,1.1716862E-4,8.298707E-3,-2.0566374E-2,8.225877E-2,-4.581917E-1,-2.9373E4,-2.7323232E-3,9.38E2,-3.5E1,8.10135E-2,1.91577E5,3.264133E-1,2.4386E0,3.4E1,1.9787475E-3,6.416076E-2,-1.08645045E-5,1.582E3,-2.4828495E-2,-4.162622E-2,6.6561975E-2,1.1E1,1.1E1,-7.818E3,7.9E1,4.3232E4,-7.6061815E-2,7.627571E3,2.4784256E-2,5.0410125E-2,2.8308311E-2,1.899301E-4,1.2164856E-2,3.2187343E-2,3.5136167E-3,2.1024756E-2,-1.4429357E-2,-4.8452504E-2,1.5426043E-2,-1.0159933E-2,5.775859E-3,-8.5351905E-3,-6.771429E-3,-1.8922037E-2,-1.2246838E-2,-3.3539437E-2,-1.0192506E-2,-4.0321823E-2,-3.5174556E-2,7.5658807E-4,1.26915695E-2,-1.4907751E-2,-8.246194E-3,-4.497601E-2,-6.273144E-2,-2.1428897E-3],"split_indices":[0,0,0,7,2,2,11,9,32,11,53,81,0,60,0,64,32,0,0,1,90,0,0,0,77,81,52,83,95,2,7,0,0,0,0,0,0,0,0,0,0,0,0,0,0,0,0,0,0,0,0,0,0,0,0,0,0,0,0],"split_type":[0,0,0,0,0,0,0,0,0,0,0,0,0,0,0,0,0,0,0,0,0,0,0,0,0,0,0,0,0,0,0,0,0,0,0,0,0,0,0,0,0,0,0,0,0,0,0,0,0,0,0,0,0,0,0,0,0,0,0],"sum_hessian":[9.45265E3,5.5214087E3,3.9312415E3,4.886446E2,5.032764E3,3.3094192E3,6.218222E2,2.1106403E2,2.7758057E2,4.386912E3,6.458519E2,1.8888677E3,1.4205514E3,9.107834E1,5.307439E2,1.563577E2,5.4706318E1,1.4371145E0,2.7614346E2,1.8959653E3,2.4909468E3,4.4197232E2,2.0387961E2,8.942393E2,9.9462836E2,1.0712963E3,3.4925516E2,7.808774E1,1.2990597E1,8.790193E1,4.4284195E2,3.6455704E1,1.19902E2,2.747775E1,2.7228567E1,7.9098303E2,1.1049823E3,1.95173E3,5.392167E2,2.205142E2,2.2145811E2,7.543547E1,1.2844414E2,6.282525E2,2.6598682E2,5.752026E2,4.1942578E2,9.2907574E2,1.4222055E2,7.040619E1,2.7884897E2,7.247529E1,5.6124487E0,7.068734E0,5.921863E0,1.4845876E1,7.305606E1,4.413977E2,1.4442447E0],"tree_param":{"num_deleted":"0","num_feature":"96","num_nodes":"59","size_leaf_vector":"1"}},{"base_weights":[7.422971E-4,3.612463E-1,-2.561774E-1,2.6092747E-1,1.279288E0,-1.7626812E-1,-1.065106E0,6.7469366E-2,4.5225874E-1,6.370518E-1,1.3549474E0,-6.1234736E-1,-5.382674E-2,-2.4561544E-1,-1.3809065E0,3.8425833E-1,-4.4117387E-2,6.1515355E-1,2.7599737E-1,7.8588396E-1,3.577543E-2,1.739677E-1,1.3693129E0,-1.0142685E0,-4.3026352E-1,2.6210994E-1,-1.5117623E-1,-6.593594E-1,6.99138E-2,-1.5413146E-1,-1.3960389E0,3.0503733E-2,1.2573496E-2,-1.124131E-2,4.812511E-3,3.3894185E-2,1.9835727E-2,4.5682233E-2,9.812678E-3,3.6097E-2,-2.2977914E-3,-1.1348178E-2,1.6814198E-2,1.1816117E-2,-3.828788E-3,3.4989256E-3,6.062491E-2,2.509272E-3,-4.5718014E-2,-2.9094286E-2,-1.1273146E-2,-1.0403264E-3,4.0390983E-2,-1.1391885E-2,2.7825306E-3,2.2736923E-3,-3.641253E-2,2.0777589E-2,-1.5184316E-2,9.482364E-3,-1.6483644E-2,-6.1578542E-2,-6.37242E-3],"categories":[],"categories_nodes":[],"categories_segments":[],"categories_sizes":[],"default_left":[0,0,1,0,0,0,0,0,0,1,0,0,0,0,0,1,0,0,0,0,1,0,0,0,1,1,0,0,0,0,1,0,0,0,0,0,0,0,0,0,0,0,0,0,0,0,0,0,0,0,0,0,0,0,0,0,0,0,0,0,0,0,0],"id":7,"left_children":[1,3,5,7,9,11,13,15,17,19,21,23,25,27,29,31,33,35,37,39,41,43,45,47,49,51,53,55,57,59,61,-1,-1,-1,-1,-1,-1,-1,-1,-1,-1,-1,-1,-1,-1,-1,-1,-1,-1,-1,-1,-1,-1,-1,-1,-1,-1,-1,-1,-1,-1,-1,-1],"loss_changes":[8.795673E2,3.6062305E2,3.5656134E2,1.3201544E2,1.0241943E1,2.6975037E2,1.2513806E2,6.341448E1,4.9869965E1,5.0387383E0,3.357666E0,7.6757416E1,1.2219234E2,2.0061424E1,4.479065E0,1.2202713E1,4.3795116E1,2.0310333E1,3.286898E1,1.9120064E0,3.2544374E0,6.179305E-1,4.6935425E0,1.0940491E1,2.980954E1,1.7666888E2,7.0926674E1,8.456005E0,1.745721E1,2.076822E0,1.7307129E0,0E0,0E0,0E0,0E0,0E0,0E0,0E0,0E0,0E0,0E0,0E0,0E0,0E0,0E0,0E0,0E0,0E0,0E0,0E0,0E0,0E0,0E0,0E0,0E0,0E0,0E0,0E0,0E0,0E0,0E0,0E0,0E0],"parents":[2147483647,0,0,1,1,2,2,3,3,4,4,5,5,6,6,7,7,8,8,9,9,10,10,11,11,12,12,13,13,14,14,15,15,16,16,17,17,18,18,19,19,20,20,21,21,22,22,23,23,24,24,25,25,26,26,27,27,28,28,29,29,30,30],"right_children":[2,4,6,8,10,12,14,16,18,20,22,24,26,28,30,32,34,36,38,40,42,44,46,48,50,52,54,56,58,60,62,-1,-1,-1,-1,-1,-1,-1,-1,-1,-1,-1,-1,-1,-1,-1,-1,-1,-1,-1,-1,-1,-1,-1,-1,-1,-1,-1,-1,-1,-1,-1,-1],"split_conditions":[-1.22E2,4E1,2.7083333E0,4.6382153E-1,5E-2,8E-2,8.5E1,-6.1756372E-2,-1E0,-4.581917E-1,1E-2,-1.3E-1,6.337E2,6.489189E1,3.9773567E0,-1.805E3,7.58E2,4.7281384E-2,-7.129296E-1,4.85E2,1.59E0,2E-2,6.231E-1,3.4137845E0,-3.66E2,3.944E3,2.712583E6,2.19E2,-2E0,2.7185105E-2,1.22647E5,3.0503733E-2,1.2573496E-2,-1.124131E-2,4.812511E-3,3.3894185E-2,1.9835727E-2,4.5682233E-2,9.812678E-3,3.6097E-2,-2.2977914E-3,-1.1348178E-2,1.6814198E-2,1.1816117E-2,-3.828788E-3,3.4989256E-3,6.062491E-2,2.509272E-3,-4.5718014E-2,-2.9094286E-2,-1.1273146E-2,-1.0403264E-3,4.0390983E-2,-1.1391885E-2,2.7825306E-3,2.2736923E-3,-3.641253E-2,2.0777589E-2,-1.5184316E-2,9.482364E-3,-1.6483644E-2,-6.1578542E-2,-6.37242E-3],"split_indices":[65,8,8,8,15,91,65,9,81,9,70,67,65,8,8,81,47,9,9,81,70,66,64,10,88,67,61,62,65,13,52,0,0,0,0,0,0,0,0,0,0,0,0,0,0,0,0,0,0,0,0,0,0,0,0,0,0,0,0,0,0,0,0],"split_type":[0,0,0,0,0,0,0,0,0,0,0,0,0,0,0,0,0,0,0,0,0,0,0,0,0,0,0,0,0,0,0,0,0,0,0,0,0,0,0,0,0,0,0,0,0,0,0,0,0,0,0,0,0,0,0,0,0,0,0,0,0,0,0],"sum_hessian":[9.476666E3,3.9417222E3,5.534944E3,3.564885E3,3.7683725E2,5.0483096E3,4.8663397E2,1.7792559E3,1.7856292E3,4.9546078E1,3.2729117E2,1.0980251E3,3.9502844E3,1.4026302E2,3.4637097E2,4.5718185E2,1.322074E3,9.1518335E2,8.7044586E2,3.7275234E1,1.2270843E1,5.4954605E0,3.217957E2,3.2823767E2,7.697875E2,9.2653534E2,3.0237493E3,5.6024235E1,8.4238785E1,5.5720387E0,3.4079892E2,9.445351E1,3.6272833E2,5.5284076E2,7.692332E2,4.4549066E2,4.696927E2,4.352461E1,8.2692126E2,3.5852005E1,1.4232306E0,8.007823E0,4.26302E0,3.8046823E0,1.6907783E0,4.0548487E0,3.1774084E2,8.259958E0,3.199777E2,3.158926E2,4.538949E2,6.529468E2,2.7358853E2,2.0060463E3,1.0177029E3,1.2204887E1,4.3819347E1,4.2056137E1,4.218265E1,2.174913E0,3.3971255E0,3.3726868E2,3.530234E0],"tree_param":{"num_deleted":"0","num_feature":"96","num_nodes":"63","size_leaf_vector":"1"}},{"base_weights":[3.940085E-3,1.5302324E-1,-7.7983075E-1,1.166854E0,8.3864346E-2,-4.968981E-1,-1.2689961E0,8.321867E-1,1.3566189E0,3.419491E-1,-7.9603046E-2,-7.1722025E-1,-2.7574846E-1,-7.004557E-1,-1.3452039E0,1.1026756E0,5.261276E-1,1.6344916E-3,1.361524E0,4.7864965E-1,-5.751793E-3,2.08283E-1,-1.6943233E-1,-8.539064E-1,-4.5459384E-1,-4.4065687E-1,-5.618852E-2,-9.768515E-1,-2.7674738E-1,-4.9514613E-1,-1.3668509E0,-2.261674E-3,4.9540564E-2,3.539031E-3,2.9176377E-2,6.013545E-3,5.9991404E-2,9.262993E-3,3.1177009E-2,-6.6634635E-3,1.1061735E-2,2.5689349E-2,3.8117007E-3,-2.0095663E-2,-2.0619873E-3,-3.8667507E-2,3.1398858E-3,1.958564E-3,-2.4113068E-2,-3.279338E-2,-1.2340605E-2,6.6684783E-3,-1.2972871E-2,3.5958586E-3,-4.5811605E-2,7.680568E-3,-2.085194E-2,1.2810099E-2,-3.0950863E-2,-6.0036663E-2,-3.2309499E-3],"categories":[],"categories_nodes":[],"categories_segments":[],"categories_sizes":[],"default_left":[0,0,0,0,0,1,0,0,0,0,0,1,0,1,0,0,0,0,0,0,1,0,0,0,0,0,0,0,0,0,0,0,0,0,0,0,0,0,0,0,0,0,0,0,0,0,0,0,0,0,0,0,0,0,0,0,0,0,0,0,0],"id":8,"left_children":[1,3,5,7,9,11,13,15,17,19,21,23,25,27,29,31,33,-1,35,37,39,41,43,45,47,49,51,53,55,57,59,-1,-1,-1,-1,-1,-1,-1,-1,-1,-1,-1,-1,-1,-1,-1,-1,-1,-1,-1,-1,-1,-1,-1,-1,-1,-1,-1,-1,-1,-1],"loss_changes":[1.1073806E3,5.5731415E2,2.0337415E2,2.1061829E1,3.1518967E2,4.5586685E1,1.4438293E1,1.1581375E1,1.4881592E0,1.3769995E2,1.1873977E2,1.3479477E1,1.7969147E1,7.3337517E0,1.9995728E0,3.8020935E0,6.7381783E0,0E0,7.210083E-1,1.2775314E2,3.1597013E1,4.9592613E1,1.2338298E2,8.589523E0,9.124691E0,1.1896969E1,1.1788004E1,4.3008995E0,5.101678E0,6.570258E0,5.180664E-1,0E0,0E0,0E0,0E0,0E0,0E0,0E0,0E0,0E0,0E0,0E0,0E0,0E0,0E0,0E0,0E0,0E0,0E0,0E0,0E0,0E0,0E0,0E0,0E0,0E0,0E0,0E0,0E0,0E0,0E0],"parents":[2147483647,0,0,1,1,2,2,3,3,4,4,5,5,6,6,7,7,8,8,9,9,10,10,11,11,12,12,13,13,14,14,15,15,16,16,18,18,19,19,20,20,21,21,22,22,23,23,24,24,25,25,26,26,27,27,28,28,29,29,30,30],"right_children":[2,4,6,8,10,12,14,16,18,20,22,24,26,28,30,32,34,-1,36,38,40,42,44,46,48,50,52,54,56,58,60,-1,-1,-1,-1,-1,-1,-1,-1,-1,-1,-1,-1,-1,-1,-1,-1,-1,-1,-1,-1,-1,-1,-1,-1,-1,-1,-1,-1,-1,-1],"split_conditions":[7.711238E-2,-8.324111E0,2.2687949E-1,-8E0,-1.7858989E-3,3.752E1,2.1687576E-1,-8.377698E1,-2.9373E4,8.3425855E-3,-5.152E3,1.5573837E-1,1.5573837E-1,9.63E2,1E-1,9E-1,2.4386E0,1.6344916E-3,-1.09714516E2,1.29E0,4.422E1,-5.6882185E-1,5.01E0,6.59496E5,5.0205E2,1.96E2,2.1322973E-2,-5.393E3,1.306E3,2.0431035E0,1.519499E1,-2.261674E-3,4.9540564E-2,3.539031E-3,2.9176377E-2,6.013545E-3,5.9991404E-2,9.262993E-3,3.1177009E-2,-6.6634635E-3,1.1061735E-2,2.5689349E-2,3.8117007E-3,-2.0095663E-2,-2.0619873E-3,-3.8667507E-2,3.1398858E-3,1.958564E-3,-2.4113068E-2,-3.279338E-2,-1.2340605E-2,6.6684783E-3,-1.2972871E-2,3.5958586E-3,-4.5811605E-2,7.680568E-3,-2.085194E-2,1.2810099E-2,-3.0950863E-2,-6.0036663E-2,-3.2309499E-3],"split_indices":[0,0,0,79,11,70,11,0,32,0,49,1,1,42,19,62,64,0,12,67,70,0,68,84,79,91,11,81,60,11,10,0,0,0,0,0,0,0,0,0,0,0,0,0,0,0,0,0,0,0,0,0,0,0,0,0,0,0,0,0,0],"split_type":[0,0,0,0,0,0,0,0,0,0,0,0,0,0,0,0,0,0,0,0,0,0,0,0,0,0,0,0,0,0,0,0,0,0,0,0,0,0,0,0,0,0,0,0,0,0,0,0,0,0,0,0,0,0,0,0,0,0,0,0,0],"sum_hessian":[9.457192E3,7.952496E3,1.504696E3,4.9780496E2,7.4546914E3,9.6595056E2,5.3874554E2,1.9942409E2,2.983809E2,2.8865596E3,4.5681313E3,4.7275122E2,4.931993E2,7.560668E1,4.631389E2,9.218215E1,1.07241936E2,1.4229357E0,2.9695795E2,2.0692888E3,8.1727094E2,1.083293E3,3.4848386E3,2.9626233E2,1.764889E2,2.7595306E2,2.1724625E2,3.793288E1,3.76738E1,1.73728E1,4.4576608E2,1.9273096E0,9.0254845E1,2.9292112E1,7.794982E1,2.8191812E0,2.9413876E2,9.712723E2,1.0980165E3,5.242642E2,2.930067E2,2.541797E2,8.291133E2,1.0288396E3,2.455999E3,2.879883E2,8.273992E0,2.9158669E1,1.4733023E2,8.164883E1,1.9430424E2,1.1817103E2,9.907522E1,2.167474E0,3.5765404E1,1.1868121E1,2.580568E1,2.8596725E0,1.4513128E1,4.4429257E2,1.4735011E0],"tree_param":{"num_deleted":"0","num_feature":"96","num_nodes":"61","size_leaf_vector":"1"}},{"base_weights":[9.424248E-4,3.4324184E-1,-2.4465694E-1,1.1267682E0,2.4110411E-1,-1.1114546E-1,-1.0369056E0,6.702521E-2,1.169067E0,4.0375775E-1,1.525899E-2,1.0579042E-1,-3.1246707E-1,-6.9992894E-1,-1.2061464E0,4.1066307E-1,-3.2736647E-1,8.507754E-1,1.294057E0,5.7861024E-1,2.3859538E-1,-1.8371068E-1,3.2514828E-1,4.0135074E-1,-1.8221283E-2,-2.2514552E-1,-6.676574E-1,-3.2032531E-1,-9.6712977E-1,-5.8791373E-2,-1.2184929E0,-5.6853914E-3,2.3088794E-2,5.024314E-3,-2.0371579E-2,3.913192E-2,2.878899E-3,5.7078384E-2,-5.95036E-4,3.4196902E-2,1.9952849E-2,2.440613E-2,7.2280355E-3,-1.3649944E-2,3.3266698E-3,1.0836903E-2,5.0267335E-2,5.920655E-3,4.2818196E-2,-1.7775955E-2,1.7902697E-3,-8.475038E-3,-4.0035103E-2,-3.6945716E-2,-1.7088154E-2,-3.259064E-2,-5.100301E-3,-4.4931892E-2,6.9994637E-4,9.282592E-3,-1.0486122E-2,3.668479E-3,-5.37345E-2],"categories":[],"categories_nodes":[],"categories_segments":[],"categories_sizes":[],"default_left":[0,0,1,0,1,0,0,1,0,0,1,0,1,1,1,0,0,1,1,0,1,0,0,0,1,1,0,0,0,0,1,0,0,0,0,0,0,0,0,0,0,0,0,0,0,0,0,0,0,0,0,0,0,0,0,0,0,0,0,0,0,0,0],"id":9,"left_children":[1,3,5,7,9,11,13,15,17,19,21,23,25,27,29,31,33,35,37,39,41,43,45,47,49,51,53,55,57,59,61,-1,-1,-1,-1,-1,-1,-1,-1,-1,-1,-1,-1,-1,-1,-1,-1,-1,-1,-1,-1,-1,-1,-1,-1,-1,-1,-1,-1,-1,-1,-1,-1],"loss_changes":[7.9407526E2,3.1309204E2,5.8057465E2,1.9498108E1,1.286368E2,2.0636234E2,3.68031E1,5.107503E0,6.3775024E0,5.7436768E1,9.166812E1,8.357315E1,7.447786E1,2.6177979E1,6.560974E0,1.886014E0,1.6495728E0,4.3875046E0,3.20401E0,2.0911316E1,2.404261E1,3.025057E1,3.4406403E1,1.0192031E2,3.708229E1,4.1634056E1,2.0013062E1,1.0699343E1,9.49704E0,1.2758303E0,5.769409E0,0E0,0E0,0E0,0E0,0E0,0E0,0E0,0E0,0E0,0E0,0E0,0E0,0E0,0E0,0E0,0E0,0E0,0E0,0E0,0E0,0E0,0E0,0E0,0E0,0E0,0E0,0E0,0E0,0E0,0E0,0E0,0E0],"parents":[2147483647,0,0,1,1,2,2,3,3,4,4,5,5,6,6,7,7,8,8,9,9,10,10,11,11,12,12,13,13,14,14,15,15,16,16,17,17,18,18,19,19,20,20,21,21,22,22,23,23,24,24,25,25,26,26,27,27,28,28,29,29,30,30],"right_children":[2,4,6,8,10,12,14,16,18,20,22,24,26,28,30,32,34,36,38,40,42,44,46,48,50,52,54,56,58,60,62,-1,-1,-1,-1,-1,-1,-1,-1,-1,-1,-1,-1,-1,-1,-1,-1,-1,-1,-1,-1,-1,-1,-1,-1,-1,-1,-1,-1,-1,-1,-1,-1],"split_conditions":[-9.84E1,-5.5186768E0,1.00630246E-1,1E-2,-8.446994E-2,3.5131236E-3,3.741413E-1,-2.7890268E1,2.714E1,-1E0,4.9287587E-1,5.73E2,1.9300746E-2,-6.84049E-3,3.3E-1,1.25742145E-2,-4.539E3,3.8018868E0,1.131797E6,-7.450267E-2,-4.43E2,4.329E3,2.4251184E0,3.62989E5,7.39E0,5.6746566E-1,2.63848E5,2.431243E2,8.8557E4,-3.294E1,-2.9028684E3,-5.6853914E-3,2.3088794E-2,5.024314E-3,-2.0371579E-2,3.913192E-2,2.878899E-3,5.7078384E-2,-5.95036E-4,3.4196902E-2,1.9952849E-2,2.440613E-2,7.2280355E-3,-1.3649944E-2,3.3266698E-3,1.0836903E-2,5.0267335E-2,5.920655E-3,4.2818196E-2,-1.7775955E-2,1.7902697E-3,-8.475038E-3,-4.0035103E-2,-3.6945716E-2,-1.7088154E-2,-3.259064E-2,-5.100301E-3,-4.4931892E-2,6.9994637E-4,9.282592E-3,-1.0486122E-2,3.668479E-3,-5.37345E-2],"split_indices":[65,2,11,71,2,11,11,11,69,81,8,65,2,2,62,6,65,9,38,9,66,78,2,22,71,1,22,64,24,49,7,0,0,0,0,0,0,0,0,0,0,0,0,0,0,0,0,0,0,0,0,0,0,0,0,0,0,0,0,0,0,0,0],"split_type":[0,0,0,0,0,0,0,0,0,0,0,0,0,0,0,0,0,0,0,0,0,0,0,0,0,0,0,0,0,0,0,0,0,0,0,0,0,0,0,0,0,0,0,0,0,0,0,0,0,0,0,0,0,0,0,0,0,0,0,0,0,0,0],"sum_hessian":[9.425783E3,3.936057E3,5.489726E3,4.424644E2,3.4935925E3,4.70767E3,7.8205615E2,1.7967522E1,4.2449686E2,2.0263815E3,1.467211E3,2.2682153E3,2.4394546E3,2.7846143E2,5.0359476E2,9.387615E0,8.579906E0,1.4148843E2,2.8300842E2,9.722706E2,1.0541108E3,8.9596295E2,5.712481E2,6.638748E2,1.6043406E3,1.9710614E3,4.6839322E2,1.2403076E2,1.5443065E2,5.9712915E0,4.9762344E2,1.4477309E0,7.939884E0,2.416217E0,6.1636887E0,1.3304228E2,8.446141E0,2.8135446E2,1.6539738E0,3.4951913E2,6.227515E2,1.8612553E2,8.679853E2,5.9931323E2,2.9664972E2,5.3349725E2,3.7750874E1,4.6217612E2,2.0169872E2,2.0461873E2,1.3997219E3,1.8960319E3,7.502953E1,2.7500125E2,1.9339198E2,3.1829096E1,9.220167E1,1.4546579E2,8.964862E0,1.6939752E0,4.2773166E0,2.1513205E0,4.9547214E2],"tree_param":{"num_deleted":"0","num_feature":"96","num_nodes":"63","size_leaf_vector":"1"}},{"base_weights":[9.836699E-4,1.2755714E-1,-5.1013374E-1,3.388609E-1,-1.5855989E-1,-3.6134538E-1,-8.068616E-1,9.731717E-1,2.5076517E-1,-6.2698014E-2,-1.2498801E0,-2.2927429E-1,-6.6986936E-1,2.7326187E-1,-9.88411E-1,1.0618464E0,-3.2138613E-1,1.9856519E-1,8.889127E-1,-3.2434428E-1,1.4334438E-2,-1.0283769E-3,-1.2577267E0,1.3981512E-1,-3.530289E-1,-8.265968E-1,-3.7749442E-1,7.3977673E-1,-8.805244E-1,-4.4428968E-1,-1.1083472E0,2.2136292E-3,4.8528314E-2,-2.0005997E-2,4.3776412E-3,1.4347627E-2,-7.175058E-3,1.710339E-2,4.8271626E-2,-1.912687E-2,8.092573E-3,1.3366458E-2,-2.4648411E-3,-5.5482715E-2,-1.430501E-3,2.2206467E-2,-8.549161E-4,-2.638086E-2,-7.907514E-3,-3.8615845E-2,8.715681E-3,-3.2149244E-2,-5.6336964E-3,-9.362077E-3,3.5930727E-2,2.3584045E-3,-4.120385E-2,4.2677573E-3,-2.5888778E-2,-5.051155E-2,-1.5800696E-2],"categories":[],"categories_nodes":[],"categories_segments":[],"categories_sizes":[],"default_left":[1,0,0,0,1,0,0,0,0,1,0,1,0,0,0,0,1,0,0,1,0,0,0,0,1,1,0,0,0,1,0,0,0,0,0,0,0,0,0,0,0,0,0,0,0,0,0,0,0,0,0,0,0,0,0,0,0,0,0,0,0],"id":10,"left_children":[1,3,5,7,9,11,13,15,17,19,21,23,25,27,29,31,33,35,37,39,41,-1,43,45,47,49,51,53,55,57,59,-1,-1,-1,-1,-1,-1,-1,-1,-1,-1,-1,-1,-1,-1,-1,-1,-1,-1,-1,-1,-1,-1,-1,-1,-1,-1,-1,-1,-1,-1],"loss_changes":[6.089704E2,4.5666577E2,7.959894E1,2.4026059E2,3.352163E2,4.9913483E1,1.2346008E2,6.378073E1,1.25718735E2,5.9762886E1,2.19458E0,4.155235E1,1.4010452E1,5.8326496E1,2.9673584E1,2.1999939E1,2.8014112E0,1.6603212E2,2.606099E1,3.921337E1,4.728879E1,0E0,2.0525513E0,1.3701675E1,2.7955917E1,1.4783783E1,1.22191925E1,7.3650055E0,2.2920475E0,9.453484E0,9.886047E0,0E0,0E0,0E0,0E0,0E0,0E0,0E0,0E0,0E0,0E0,0E0,0E0,0E0,0E0,0E0,0E0,0E0,0E0,0E0,0E0,0E0,0E0,0E0,0E0,0E0,0E0,0E0,0E0,0E0,0E0],"parents":[2147483647,0,0,1,1,2,2,3,3,4,4,5,5,6,6,7,7,8,8,9,9,10,10,11,11,12,12,13,13,14,14,15,15,16,16,17,17,18,18,19,19,20,20,22,22,23,23,24,24,25,25,26,26,27,27,28,28,29,29,30,30],"right_children":[2,4,6,8,10,12,14,16,18,20,22,24,26,28,30,32,34,36,38,40,42,-1,44,46,48,50,52,54,56,58,60,-1,-1,-1,-1,-1,-1,-1,-1,-1,-1,-1,-1,-1,-1,-1,-1,-1,-1,-1,-1,-1,-1,-1,-1,-1,-1,-1,-1,-1,-1],"split_conditions":[2.1914463E-3,1.6446E2,1.3202994E-1,-4.1666665E0,5.6746566E-1,5.9581203E-3,-1.9E1,-2.49E0,2.055317E6,1.131E1,-3.2739E4,2E0,9.612E3,-1.2E-1,-2.26E2,1E-2,1.07091E5,-5.4538812E-2,2.7552E4,2.29517E5,-7.838116E-2,-1.0283769E-3,1.336998E1,-2.595E3,3E0,7.8267E4,2.3145927E-1,1.0491E0,-4.8196E4,7.41E-2,1.3844577E1,2.2136292E-3,4.8528314E-2,-2.0005997E-2,4.3776412E-3,1.4347627E-2,-7.175058E-3,1.710339E-2,4.8271626E-2,-1.912687E-2,8.092573E-3,1.3366458E-2,-2.4648411E-3,-5.5482715E-2,-1.430501E-3,2.2206467E-2,-8.549161E-4,-2.638086E-2,-7.907514E-3,-3.8615845E-2,8.715681E-3,-3.2149244E-2,-5.6336964E-3,-9.362077E-3,3.5930727E-2,2.3584045E-3,-4.120385E-2,4.2677573E-3,-2.5888778E-2,-5.051155E-2,-1.5800696E-2],"split_indices":[2,49,2,2,1,1,1,49,16,70,94,16,53,49,49,71,69,2,95,19,2,0,10,52,53,84,5,64,18,71,10,0,0,0,0,0,0,0,0,0,0,0,0,0,0,0,0,0,0,0,0,0,0,0,0,0,0,0,0,0,0],"split_type":[0,0,0,0,0,0,0,0,0,0,0,0,0,0,0,0,0,0,0,0,0,0,0,0,0,0,0,0,0,0,0,0,0,0,0,0,0,0,0,0,0,0,0,0,0,0,0,0,0,0,0,0,0,0,0,0,0,0,0,0,0],"sum_hessian":[9.393269E3,7.5347837E3,1.858485E3,4.332973E3,3.2018105E3,1.2524373E3,6.060478E2,5.162644E2,3.8167087E3,2.9528967E3,2.4891364E2,8.891004E2,3.6333682E2,8.6485725E1,5.195621E2,4.8483582E2,3.1428562E1,3.540113E3,2.7659567E2,6.6441766E2,2.2884792E3,1.8360046E0,2.4707764E2,2.2292683E2,6.661736E2,2.2475868E2,1.3857816E2,6.411592E1,2.2369806E1,1.0225352E2,4.1730853E2,2.1588188E1,4.6324762E2,2.3184065E1,8.244498E0,2.612742E3,9.2737115E2,9.093149E1,1.8566417E2,5.457918E2,1.18625854E2,4.407306E2,1.8477485E3,2.4518088E2,1.8967483E0,6.0989338E1,1.619375E2,2.6287802E2,4.0329553E2,2.1479768E2,9.960988E0,4.911801E1,8.9460144E1,3.668029E0,6.044789E1,1.3877476E0,2.098206E1,2.2436615E1,7.98169E1,3.891556E2,2.815293E1],"tree_param":{"num_deleted":"0","num_feature":"96","num_nodes":"61","size_leaf_vector":"1"}},{"base_weights":[-1.6345076E-3,1.7244433E-1,-5.752937E-1,1.1124431E0,1.0944404E-1,-3.8404214E-1,-1.1779901E0,7.492207E-1,1.281382E0,2.3528312E-1,-2.802574E-1,-6.808003E-1,-2.5911033E-1,-6.862358E-1,-1.2499555E0,9.002234E-1,3.794166E-1,4.8758954E-2,1.2915225E0,4.0951946E-1,1.03101596E-1,-6.032484E-1,-4.472261E-2,-2.327324E-1,-8.224699E-1,-5.4796183E-1,-1.7317058E-1,-4.7527034E-2,-8.2737947E-1,-1.254429E0,5.222823E-4,-1.3860831E-3,4.0391423E-2,-3.2625507E-4,2.5600465E-2,8.716284E-3,-6.2766774E-3,1.208924E-3,5.684711E-2,2.1677671E-2,3.2119004E-3,5.936208E-3,-1.9588469E-2,-1.0937705E-2,-4.153776E-2,1.0140115E-2,-1.2109987E-2,-1.8316863E-2,3.0257893E-3,-3.7119817E-2,8.359011E-3,-1.6489375E-2,-3.3422552E-2,5.8124545E-3,-1.0119428E-2,1.2121717E-2,-2.1635046E-2,-3.8327273E-2,2.9629802E-3,-5.5138648E-2,-1.136707E-3],"categories":[],"categories_nodes":[],"categories_segments":[],"categories_sizes":[],"default_left":[0,0,0,0,1,0,0,1,0,0,0,1,0,1,0,0,0,0,0,0,1,0,0,0,1,0,0,1,0,1,0,0,0,0,0,0,0,0,0,0,0,0,0,0,0,0,0,0,0,0,0,0,0,0,0,0,0,0,0,0,0],"id":11,"left_children":[1,3,5,7,9,11,13,15,17,19,21,23,25,27,29,31,33,35,37,39,41,43,45,47,49,51,53,55,57,59,-1,-1,-1,-1,-1,-1,-1,-1,-1,-1,-1,-1,-1,-1,-1,-1,-1,-1,-1,-1,-1,-1,-1,-1,-1,-1,-1,-1,-1,-1,-1],"loss_changes":[9.3733496E2,4.2524545E2,2.4739728E2,1.817987E1,3.3215225E2,6.0295258E1,9.962524E0,5.9456024E0,3.047943E0,1.17387695E2,1.2560014E2,2.9187622E1,2.8690422E1,7.58992E0,2.6522217E0,2.4822464E0,5.232215E0,6.4735633E-1,1.5404053E0,6.2572876E1,5.2501366E1,8.252388E1,6.245531E1,7.6275105E0,1.0638123E1,7.073906E0,1.6775394E1,5.184963E0,3.6033173E0,1.4524536E0,0E0,0E0,0E0,0E0,0E0,0E0,0E0,0E0,0E0,0E0,0E0,0E0,0E0,0E0,0E0,0E0,0E0,0E0,0E0,0E0,0E0,0E0,0E0,0E0,0E0,0E0,0E0,0E0,0E0,0E0,0E0],"parents":[2147483647,0,0,1,1,2,2,3,3,4,4,5,5,6,6,7,7,8,8,9,9,10,10,11,11,12,12,13,13,14,14,15,15,16,16,17,17,18,18,19,19,20,20,21,21,22,22,23,23,24,24,25,25,26,26,27,27,28,28,29,29],"right_children":[2,4,6,8,10,12,14,16,18,20,22,24,26,28,30,32,34,36,38,40,42,44,46,48,50,52,54,56,58,60,-1,-1,-1,-1,-1,-1,-1,-1,-1,-1,-1,-1,-1,-1,-1,-1,-1,-1,-1,-1,-1,-1,-1,-1,-1,-1,-1,-1,-1,-1,-1],"split_conditions":[4.9473416E-2,-1.1965278E1,2.2687949E-1,-1.0773E2,-4.057392E-3,1.01E2,2.5532264E-1,-3.5581436E1,-1.1285714E3,-2.7323232E-3,-3E-2,-5.5541374E-2,1.849E1,0E0,1.519499E1,9E-1,1.5E-1,2.61E2,-2.9373E4,6.2577976E-3,8.263276E-1,-2.4828495E-2,9.026271E-3,1.6E1,7.29E2,2.3E1,-8.330395E-2,1.1880332E0,1.2E1,7.627571E3,5.222823E-4,-1.3860831E-3,4.0391423E-2,-3.2625507E-4,2.5600465E-2,8.716284E-3,-6.2766774E-3,1.208924E-3,5.684711E-2,2.1677671E-2,3.2119004E-3,5.936208E-3,-1.9588469E-2,-1.0937705E-2,-4.153776E-2,1.0140115E-2,-1.2109987E-2,-1.8316863E-2,3.0257893E-3,-3.7119817E-2,8.359011E-3,-1.6489375E-2,-3.3422552E-2,5.8124545E-3,-1.0119428E-2,1.2121717E-2,-2.1635046E-2,-3.8327273E-2,2.9629802E-3,-5.5138648E-2,-1.136707E-3],"split_indices":[0,0,0,79,2,91,11,11,7,11,68,2,70,82,10,62,71,19,32,0,5,0,0,91,70,82,2,7,73,7,0,0,0,0,0,0,0,0,0,0,0,0,0,0,0,0,0,0,0,0,0,0,0,0,0,0,0,0,0,0,0],"split_type":[0,0,0,0,0,0,0,0,0,0,0,0,0,0,0,0,0,0,0,0,0,0,0,0,0,0,0,0,0,0,0,0,0,0,0,0,0,0,0,0,0,0,0,0,0,0,0,0,0,0,0,0,0,0,0,0,0,0,0,0,0],"sum_hessian":[9.366564E3,7.1912676E3,2.1752974E3,4.4133768E2,6.7499297E3,1.6636023E3,5.1169492E2,1.5718967E2,2.84148E2,5.1053E3,1.6446299E3,4.7981143E2,1.1837909E3,7.8642395E1,4.3305252E2,1.01527275E2,5.5662384E1,2.7902007E0,2.8135782E2,2.1933384E3,2.9119614E3,6.870314E2,9.575985E2,1.2155188E2,3.5825955E2,2.5923337E2,9.2455756E2,1.6632006E1,6.201039E1,4.3158334E2,1.4691658E0,2.135805E0,9.939147E1,2.254392E1,3.3118465E1,1.375755E0,1.4144459E0,1.4011053E0,2.799567E2,1.7472666E3,4.460718E2,2.7574502E3,1.5451143E2,3.4724744E2,3.3978397E2,4.3680386E2,5.207946E2,7.298881E1,4.8563076E1,3.514823E2,6.7772326E0,1.590419E2,1.0019146E2,1.4462848E2,7.799291E2,1.1807455E1,4.8245516E0,5.9145992E1,2.864401E0,4.3019662E2,1.3867402E0],"tree_param":{"num_deleted":"0","num_feature":"96","num_nodes":"61","size_leaf_vector":"1"}},{"base_weights":[-3.3173E-3,1.4031422E-1,-6.5098363E-1,4.2539147E-1,-7.165795E-2,-4.2666128E-1,-1.1588447E0,1.0732136E0,3.327719E-1,-3.633366E-1,5.065439E-2,-8.6555576E-1,-3.3446518E-1,-6.6253436E-1,-1.2245493E0,7.914225E-1,1.2486761E0,5.3037024E-1,1.9855918E-1,-1.5281293E-1,-9.207052E-1,3.556537E-1,-1.5758829E-1,-1.452926E-1,-9.2360175E-1,-1.0270341E-1,-4.5462945E-1,-7.457511E-1,-3.1274296E-2,-1.228928E0,5.1319215E-4,4.5507587E-2,2.1813314E-2,1.2023915E-3,5.5015128E-2,1.3786392E-2,3.2135237E-2,2.9920326E-3,1.4512275E-2,3.8217362E-2,-9.625313E-3,-4.284106E-2,-5.4212136E-4,2.810202E-3,2.6294865E-2,-1.2732031E-2,6.9486286E-4,-1.7609335E-2,1.08681945E-2,-4.191673E-2,2.5428107E-3,-1.2456744E-2,4.9277004E-3,-1.1989482E-2,-3.002843E-2,-3.5072476E-2,-8.890926E-4,1.1829066E-2,-1.7727386E-2,-2.047747E-2,-5.4693382E-2],"categories":[],"categories_nodes":[],"categories_segments":[],"categories_sizes":[],"default_left":[0,1,0,0,0,0,0,0,0,0,0,1,0,0,0,0,0,0,0,0,0,1,0,0,1,1,0,0,1,0,0,0,0,0,0,0,0,0,0,0,0,0,0,0,0,0,0,0,0,0,0,0,0,0,0,0,0,0,0,0,0],"id":12,"left_children":[1,3,5,7,9,11,13,15,17,19,21,23,25,27,29,31,33,35,37,39,41,43,45,47,49,51,53,55,57,59,-1,-1,-1,-1,-1,-1,-1,-1,-1,-1,-1,-1,-1,-1,-1,-1,-1,-1,-1,-1,-1,-1,-1,-1,-1,-1,-1,-1,-1,-1,-1],"loss_changes":[8.718501E2,4.6385974E2,1.8890643E2,1.9283716E2,1.5744897E2,4.5511826E1,8.771484E0,1.0233887E1,7.527637E1,1.5156772E2,1.9836789E2,7.0853577E0,2.750319E1,4.0653267E0,2.546997E0,8.10289E0,1.4197083E0,4.8381622E1,2.9631409E1,6.7404396E1,1.8116882E1,8.977829E1,4.2842426E1,3.6840885E0,6.439316E0,1.4198069E1,2.5614166E1,2.665062E0,3.312061E0,4.9884033E-1,0E0,0E0,0E0,0E0,0E0,0E0,0E0,0E0,0E0,0E0,0E0,0E0,0E0,0E0,0E0,0E0,0E0,0E0,0E0,0E0,0E0,0E0,0E0,0E0,0E0,0E0,0E0,0E0,0E0,0E0,0E0],"parents":[2147483647,0,0,1,1,2,2,3,3,4,4,5,5,6,6,7,7,8,8,9,9,10,10,11,11,12,12,13,13,14,14,15,15,16,16,17,17,18,18,19,19,20,20,21,21,22,22,23,23,24,24,25,25,26,26,27,27,28,28,29,29],"right_children":[2,4,6,8,10,12,14,16,18,20,22,24,26,28,30,32,34,36,38,40,42,44,46,48,50,52,54,56,58,60,-1,-1,-1,-1,-1,-1,-1,-1,-1,-1,-1,-1,-1,-1,-1,-1,-1,-1,-1,-1,-1,-1,-1,-1,-1,-1,-1,-1,-1,-1,-1],"split_conditions":[6.6561975E-2,-7.728291E-2,2.2687949E-1,-1.1965278E1,-3E-2,1.15E0,2.1687576E-1,1.1716862E-4,-2.5855072E-2,-1.14872E-2,8.3425855E-3,-1.0584944E-1,-5.290396E-2,6.80368E5,1.5666699E1,-1.1673471E2,-2.9373E4,3.215895E2,1.276E1,-2.3855553E0,6.2031E4,1.18E1,3.5E1,1.2233644E-1,7.29E2,5.148E1,-3.6E1,3.233139E6,1.2682185E0,1E-1,5.1319215E-4,4.5507587E-2,2.1813314E-2,1.2023915E-3,5.5015128E-2,1.3786392E-2,3.2135237E-2,2.9920326E-3,1.4512275E-2,3.8217362E-2,-9.625313E-3,-4.284106E-2,-5.4212136E-4,2.810202E-3,2.6294865E-2,-1.2732031E-2,6.9486286E-4,-1.7609335E-2,1.08681945E-2,-4.191673E-2,2.5428107E-3,-1.2456744E-2,4.9277004E-3,-1.1989482E-2,-3.002843E-2,-3.5072476E-2,-8.890926E-4,1.1829066E-2,-1.7727386E-2,-2.047747E-2,-5.4693382E-2],"split_indices":[0,2,0,0,68,91,11,7,11,0,0,2,2,72,10,2,32,64,70,0,17,70,70,0,70,70,77,76,7,19,0,0,0,0,0,0,0,0,0,0,0,0,0,0,0,0,0,0,0,0,0,0,0,0,0,0,0,0,0,0,0],"split_type":[0,0,0,0,0,0,0,0,0,0,0,0,0,0,0,0,0,0,0,0,0,0,0,0,0,0,0,0,0,0,0,0,0,0,0,0,0,0,0,0,0,0,0,0,0,0,0,0,0,0,0,0,0,0,0,0,0,0,0,0,0],"sum_hessian":[9.352548E3,7.6612734E3,1.6912747E3,3.2629902E3,4.398283E3,1.185749E3,5.055257E2,3.9504474E2,2.8679456E3,1.293704E3,3.104579E3,1.9142407E2,9.943249E2,7.193163E1,4.3359406E2,1.7252785E2,2.2251689E2,1.1482148E3,1.7197307E3,9.481833E2,3.4552072E2,1.2568145E3,1.8477648E3,1.6866322E1,1.7455775E2,3.4578705E2,6.4853784E2,6.196307E1,9.968567E0,4.3212473E2,1.469321E0,8.017244E1,9.235541E1,1.4007473E0,2.2111613E2,5.681409E2,5.80074E2,8.744861E2,8.452446E2,5.068377E1,8.974995E2,3.2457867E2,2.0942057E1,5.7847766E2,6.783368E2,1.0426141E3,8.051506E2,1.00852E1,6.781121E0,1.6921257E2,5.3451834E0,1.8585854E2,1.5992851E2,3.7514362E2,2.7339426E2,5.6701736E1,5.2613306E0,7.027967E0,2.9406002E0,1.6476414E1,4.1564832E2],"tree_param":{"num_deleted":"0","num_feature":"96","num_nodes":"61","size_leaf_vector":"1"}},{"base_weights":[-1.9781329E-3,1.7029378E-1,-5.2399206E-1,1.0366392E0,1.127256E-1,-3.5346562E-1,-1.1254289E0,3.232559E-2,1.0760902E0,3.3507246E-1,-4.2197313E-2,-7.998188E-1,-2.7047783E-1,-2.7979022E-1,-1.1633191E0,3.8013422E-1,-3.7562945E-1,6.081036E-1,1.150001E0,4.12617E-1,5.063398E-2,2.2280703E-1,-1.4310682E-1,-8.415554E-1,9.380345E-2,-4.0474996E-1,-6.8029955E-2,8.823489E-2,-5.756815E-1,-8.371521E-1,-5.528341E-2,-5.9180628E-3,2.3664512E-2,5.5189766E-3,-2.280601E-2,3.1872276E-2,-5.045528E-3,9.473207E-3,5.1282253E-2,8.043381E-3,2.669204E-2,4.797967E-3,-2.2052728E-2,1.3332799E-2,-1.957912E-2,-3.934275E-2,-3.9485386E-3,-8.57393E-3,-4.043647E-2,-1.3036579E-2,1.683878E-2,-2.3343597E-2,-1.1705543E-2,-8.660941E-4,-3.6731735E-2,-1.2907232E-2,1.2999661E-2,-2.68568E-2,-1.7968526E-4,-4.0974177E-2,-4.5109885E-3],"categories":[],"categories_nodes":[],"categories_segments":[],"categories_sizes":[],"default_left":[0,0,0,0,0,0,0,1,0,0,0,1,1,0,0,0,0,1,0,0,1,1,0,0,0,0,0,0,1,1,0,0,0,0,0,0,0,0,0,0,0,0,0,0,0,0,0,0,0,0,0,0,0,0,0,0,0,0,0,0,0],"id":13,"left_children":[1,3,5,7,9,11,13,15,17,19,21,23,25,27,29,31,33,35,37,39,41,43,45,47,49,51,53,55,57,59,-1,-1,-1,-1,-1,-1,-1,-1,-1,-1,-1,-1,-1,-1,-1,-1,-1,-1,-1,-1,-1,-1,-1,-1,-1,-1,-1,-1,-1,-1,-1],"loss_changes":[8.3821075E2,3.4836484E2,2.3325702E2,1.69057E1,2.2688956E2,6.513483E1,1.2997986E1,5.197107E0,7.55484E0,5.9437653E1,1.0429403E2,1.12152405E1,4.176513E1,4.2885437E0,4.886963E0,2.3112543E0,1.899934E0,7.5473385E0,3.9563904E0,9.4375885E1,1.9772776E1,5.9920708E1,1.1210295E2,1.2209839E1,3.558746E0,1.4912842E1,2.3194004E1,2.7821481E0,4.075837E-1,9.094986E0,0E0,0E0,0E0,0E0,0E0,0E0,0E0,0E0,0E0,0E0,0E0,0E0,0E0,0E0,0E0,0E0,0E0,0E0,0E0,0E0,0E0,0E0,0E0,0E0,0E0,0E0,0E0,0E0,0E0,0E0,0E0],"parents":[2147483647,0,0,1,1,2,2,3,3,4,4,5,5,6,6,7,7,8,8,9,9,10,10,11,11,12,12,13,13,14,14,15,15,16,16,17,17,18,18,19,19,20,20,21,21,22,22,23,23,24,24,25,25,26,26,27,27,28,28,29,29],"right_children":[2,4,6,8,10,12,14,16,18,20,22,24,26,28,30,32,34,36,38,40,42,44,46,48,50,52,54,56,58,60,-1,-1,-1,-1,-1,-1,-1,-1,-1,-1,-1,-1,-1,-1,-1,-1,-1,-1,-1,-1,-1,-1,-1,-1,-1,-1,-1,-1,-1,-1,-1],"split_conditions":[4.4498783E-2,-1.1965278E1,2.2687949E-1,1E-2,-7.3400507E-4,8E-2,1E-1,-2.7890268E1,5E-2,8.3425855E-3,-5.201E3,2.62E0,5.148E1,7.8348804E0,9.102423E-1,1.5E1,-3.96E2,4.608E3,9E-2,1.29E0,1.7E1,8.263276E-1,-4.501E3,-2.3619376E-2,2.7004E4,0E0,2.5E1,1.74E0,6.46E2,2.4646E4,-5.528341E-2,-5.9180628E-3,2.3664512E-2,5.5189766E-3,-2.280601E-2,3.1872276E-2,-5.045528E-3,9.473207E-3,5.1282253E-2,8.043381E-3,2.669204E-2,4.797967E-3,-2.2052728E-2,1.3332799E-2,-1.957912E-2,-3.934275E-2,-3.9485386E-3,-8.57393E-3,-4.043647E-2,-1.3036579E-2,1.683878E-2,-2.3343597E-2,-1.1705543E-2,-8.660941E-4,-3.6731735E-2,-1.2907232E-2,1.2999661E-2,-2.68568E-2,-1.7968526E-4,-4.0974177E-2,-4.5109885E-3],"split_indices":[0,0,0,71,11,91,19,11,15,0,65,88,70,0,0,29,66,61,8,67,81,5,68,11,61,18,36,66,45,40,0,0,0,0,0,0,0,0,0,0,0,0,0,0,0,0,0,0,0,0,0,0,0,0,0,0,0,0,0,0,0],"split_type":[0,0,0,0,0,0,0,0,0,0,0,0,0,0,0,0,0,0,0,0,0,0,0,0,0,0,0,0,0,0,0,0,0,0,0,0,0,0,0,0,0,0,0,0,0,0,0,0,0,0,0,0,0,0,0,0,0,0,0,0,0],"sum_hessian":[9.301142E3,6.9982754E3,2.302866E3,4.255635E2,6.572712E3,1.8064113E3,4.9645456E2,1.6768631E1,4.0879486E2,2.6943152E3,3.8783967E3,2.697914E2,1.5366199E3,2.485297E1,4.716016E2,9.420104E0,7.348527E0,6.821985E1,3.4057504E2,2.1136213E3,5.806939E2,1.0662548E3,2.8121418E3,2.583074E2,1.1484006E1,9.179136E2,6.187063E2,1.4167487E1,1.0685482E1,1.3053453E2,3.4106708E2,2.5858727E0,6.8342314E0,1.925767E0,5.42276E0,5.8546303E1,9.673542E0,9.502195E0,3.3107285E2,9.8386395E2,1.1297573E3,5.321211E2,4.857286E1,9.5558484E2,1.10669945E2,1.7439696E2,2.6377449E3,3.2484932E1,2.2582246E2,4.784592E0,6.699414E0,4.615697E2,4.563439E2,5.9175433E2,2.6951986E1,3.5456672E0,1.06218195E1,9.364732E0,1.3207502E0,1.1284942E2,1.768511E1],"tree_param":{"num_deleted":"0","num_feature":"96","num_nodes":"61","size_leaf_vector":"1"}},{"base_weights":[6.219526E-3,1.4227088E-1,-5.828974E-1,4.8794562E-1,-4.5768106E-3,-3.9661768E-1,-1.147694E0,1.044305E0,3.7840357E-1,-2.755669E-1,1.1659896E-1,-8.470089E-1,-3.0217084E-1,-3.7427852E-1,-1.1840937E0,1.6550016E-1,1.0730163E0,5.5459183E-1,2.2507517E-1,-1.1227854E-1,-7.8361416E-1,3.8544205E-1,-9.9700205E-2,-1.7925175E-1,-9.1729677E-1,-2.3533192E-1,-6.847289E-1,-5.7496685E-1,5.180913E-2,-9.727815E-2,-1.1892297E0,1.9248217E-2,-1.14552975E-2,4.7878154E-2,4.085772E-3,2.5967453E-2,-4.0927213E-3,1.5185546E-2,3.045341E-4,3.9582122E-2,-6.699724E-3,-3.963785E-2,-2.821592E-3,6.567526E-3,2.8537188E-2,3.937381E-3,-1.1606238E-2,-1.760266E-2,1.1773837E-2,-4.1729864E-2,4.7122026E-3,-2.174874E-2,-5.95101E-3,-3.5147112E-2,-8.720601E-3,2.7058339E-3,-2.904101E-2,9.57709E-3,-1.0855516E-2,-8.271688E-3,3.56743E-3,-5.224265E-2,-3.0013695E-3],"categories":[],"categories_nodes":[],"categories_segments":[],"categories_sizes":[],"default_left":[0,0,0,0,0,0,0,0,0,0,0,1,1,1,0,1,1,0,1,0,1,1,1,0,1,1,0,0,0,1,0,0,0,0,0,0,0,0,0,0,0,0,0,0,0,0,0,0,0,0,0,0,0,0,0,0,0,0,0,0,0,0,0],"id":14,"left_children":[1,3,5,7,9,11,13,15,17,19,21,23,25,27,29,31,33,35,37,39,41,43,45,47,49,51,53,55,57,59,61,-1,-1,-1,-1,-1,-1,-1,-1,-1,-1,-1,-1,-1,-1,-1,-1,-1,-1,-1,-1,-1,-1,-1,-1,-1,-1,-1,-1,-1,-1,-1,-1],"loss_changes":[7.46654E2,3.8416638E2,1.7937256E2,1.336004E2,1.7504927E2,5.4013977E1,7.6644897E0,7.4618835E0,5.01102E1,1.3576831E2,2.1459991E2,8.927475E0,2.689611E1,3.1803956E0,1.1083374E0,3.8530667E0,5.573517E0,2.2002289E1,2.7308044E1,5.313938E1,3.400612E1,1.0190968E2,6.433031E1,4.425001E0,8.138321E0,2.4357666E1,7.5420303E0,1.7290468E0,1.526943E0,3.594314E-1,2.7893066E-1,0E0,0E0,0E0,0E0,0E0,0E0,0E0,0E0,0E0,0E0,0E0,0E0,0E0,0E0,0E0,0E0,0E0,0E0,0E0,0E0,0E0,0E0,0E0,0E0,0E0,0E0,0E0,0E0,0E0,0E0,0E0,0E0],"parents":[2147483647,0,0,1,1,2,2,3,3,4,4,5,5,6,6,7,7,8,8,9,9,10,10,11,11,12,12,13,13,14,14,15,15,16,16,17,17,18,18,19,19,20,20,21,21,22,22,23,23,24,24,25,25,26,26,27,27,28,28,29,29,30,30],"right_children":[2,4,6,8,10,12,14,16,18,20,22,24,26,28,30,32,34,36,38,40,42,44,46,48,50,52,54,56,58,60,62,-1,-1,-1,-1,-1,-1,-1,-1,-1,-1,-1,-1,-1,-1,-1,-1,-1,-1,-1,-1,-1,-1,-1,-1,-1,-1,-1,-1,-1,-1,-1,-1],"split_conditions":[6.348382E-2,-1.2874678E-1,3.264133E-1,-1.7595745E1,5.01E0,1.15E0,1E-1,1E-2,-1E0,-1.3210118E-2,8.3425855E-3,-8.8522114E-2,1.7E1,9.7388995E-1,-1.1285714E3,-2.7890268E1,3.06322E0,9.970125E-3,-4.3817364E-2,-4.8768864E0,0E0,1.447E1,-2.7E1,1.4476135E-1,7.29E2,1.797E1,1.1E1,-6.8405E4,1.4718286E2,2.3220153E-1,1.5666699E1,1.9248217E-2,-1.14552975E-2,4.7878154E-2,4.085772E-3,2.5967453E-2,-4.0927213E-3,1.5185546E-2,3.045341E-4,3.9582122E-2,-6.699724E-3,-3.963785E-2,-2.821592E-3,6.567526E-3,2.8537188E-2,3.937381E-3,-1.1606238E-2,-1.760266E-2,1.1773837E-2,-4.1729864E-2,4.7122026E-3,-2.174874E-2,-5.95101E-3,-3.5147112E-2,-8.720601E-3,2.7058339E-3,-2.904101E-2,9.57709E-3,-1.0855516E-2,-8.271688E-3,3.56743E-3,-5.224265E-2,-3.0013695E-3],"split_indices":[0,2,0,0,68,91,19,71,81,0,0,2,81,3,7,11,9,0,11,0,76,70,81,0,70,70,44,76,0,3,10,0,0,0,0,0,0,0,0,0,0,0,0,0,0,0,0,0,0,0,0,0,0,0,0,0,0,0,0,0,0,0,0],"split_type":[0,0,0,0,0,0,0,0,0,0,0,0,0,0,0,0,0,0,0,0,0,0,0,0,0,0,0,0,0,0,0,0,0,0,0,0,0,0,0,0,0,0,0,0,0,0,0,0,0,0,0,0,0,0,0,0,0,0,0,0,0,0,0],"sum_hessian":[9.295567E3,7.5576973E3,1.7378702E3,2.2465115E3,5.3111855E3,1.319523E3,4.1834732E2,3.556562E2,1.8908553E3,1.6372205E3,3.6739653E3,2.1505963E2,1.1044634E3,2.3827425E1,3.945199E2,1.3373683E1,3.422825E2,8.677769E2,1.0230784E3,1.2481515E3,3.89069E2,1.6345815E3,2.0393837E3,2.3832151E1,1.9122748E2,9.5381244E2,1.5065091E2,1.3852006E1,9.97542E0,2.7868838E0,3.91733E2,7.9812903E0,5.3923926E0,3.346282E2,7.6543064E0,8.2084094E2,4.693598E1,6.537044E2,3.69374E2,3.9844982E1,1.2083065E3,3.3104767E2,5.8021328E1,8.7418665E2,7.6039496E2,9.513947E2,1.087989E3,1.6615618E1,7.2165346E0,1.8567336E2,5.554119E0,2.5270798E2,7.0110443E2,1.1622377E2,3.442714E1,2.0203912E0,1.18316145E1,8.1350355E0,1.840384E0,1.48786E0,1.299024E0,3.9026068E2,1.4723369E0],"tree_param":{"num_deleted":"0","num_feature":"96","num_nodes":"63","size_leaf_vector":"1"}},{"base_weights":[3.8229104E-3,1.5476191E-1,-4.996085E-1,9.9209905E-1,1.0214949E-1,-3.3236387E-1,-1.0555663E0,6.5859246E-1,1.1713201E0,3.1679168E-1,-3.7188407E-2,-7.46547E-1,-2.5519082E-1,-6.578257E-1,-1.1608299E0,9.1368526E-1,3.3022934E-1,4.5859872E-4,1.1769131E0,1.615959E-1,4.5141974E-1,-2.2936271E-1,6.852309E-2,-1.5844461E-1,-8.10789E-1,-1.9831431E-1,-5.840129E-1,-9.441305E-1,-2.455893E-1,-1.9437008E-3,-5.1058207E-2,4.218554E-2,6.348203E-4,2.2758252E-3,2.8400404E-2,5.182769E-2,4.1101165E-3,1.2332659E-2,-2.9085858E-3,2.7017344E-2,8.015311E-3,2.3953538E-4,-2.382409E-2,1.0660591E-2,-2.1994617E-3,1.946343E-2,-1.8142058E-2,-3.669496E-2,5.2625486E-3,-1.3965575E-2,-1.1564222E-3,-4.126582E-2,-1.6285244E-2,-4.3062612E-2,3.3850993E-3,2.517502E-3,-2.06652E-2],"categories":[],"categories_nodes":[],"categories_segments":[],"categories_sizes":[],"default_left":[0,0,0,0,0,0,0,0,0,0,0,0,1,1,0,0,0,0,1,0,0,0,1,0,1,1,0,0,0,0,0,0,0,0,0,0,0,0,0,0,0,0,0,0,0,0,0,0,0,0,0,0,0,0,0,0,0],"id":15,"left_children":[1,3,5,7,9,11,13,15,17,19,21,23,25,27,29,31,33,-1,35,37,39,41,43,45,47,49,51,53,55,-1,-1,-1,-1,-1,-1,-1,-1,-1,-1,-1,-1,-1,-1,-1,-1,-1,-1,-1,-1,-1,-1,-1,-1,-1,-1,-1,-1],"loss_changes":[7.067216E2,3.142044E2,1.9599487E2,1.7573547E1,2.0178842E2,5.1287308E1,1.3016296E1,1.1255615E1,1.5733948E0,5.4756042E1,8.3399826E1,8.4028015E0,2.535952E1,1.2539032E1,1.0814209E0,3.7940369E0,7.6079454E0,0E0,3.8604736E-1,3.4263725E1,6.1592743E1,1.0744337E2,5.507633E1,7.5922446E0,6.5741425E0,2.5207214E1,1.2019203E1,3.506813E0,4.7100058E0,0E0,0E0,0E0,0E0,0E0,0E0,0E0,0E0,0E0,0E0,0E0,0E0,0E0,0E0,0E0,0E0,0E0,0E0,0E0,0E0,0E0,0E0,0E0,0E0,0E0,0E0,0E0,0E0],"parents":[2147483647,0,0,1,1,2,2,3,3,4,4,5,5,6,6,7,7,8,8,9,9,10,10,11,11,12,12,13,13,14,14,15,15,16,16,18,18,19,19,20,20,21,21,22,22,23,23,24,24,25,25,26,26,27,27,28,28],"right_children":[2,4,6,8,10,12,14,16,18,20,22,24,26,28,30,32,34,-1,36,38,40,42,44,46,48,50,52,54,56,-1,-1,-1,-1,-1,-1,-1,-1,-1,-1,-1,-1,-1,-1,-1,-1,-1,-1,-1,-1,-1,-1,-1,-1,-1,-1,-1,-1],"split_conditions":[4.9473416E-2,-1.1965278E1,2.2687949E-1,2.9393E2,-1.7858989E-3,8E-2,1.27575E0,-8.377698E1,6.231E-1,1.2E1,7.15E0,-3.3765044E-2,1.7E1,5.821E1,-1.37289E5,1.3845E4,-5.37E2,4.5859872E-4,7.3499976E3,-4.436941E-2,4.889976E-3,-6.97E2,-2.36E1,5.6632034E-2,9.63E2,5.148E1,8.13E2,4.507005E6,5.02E2,-1.9437008E-3,-5.1058207E-2,4.218554E-2,6.348203E-4,2.2758252E-3,2.8400404E-2,5.182769E-2,4.1101165E-3,1.2332659E-2,-2.9085858E-3,2.7017344E-2,8.015311E-3,2.3953538E-4,-2.382409E-2,1.0660591E-2,-2.1994617E-3,1.946343E-2,-1.8142058E-2,-3.669496E-2,5.2625486E-3,-1.3965575E-2,-1.1564222E-3,-4.126582E-2,-1.6285244E-2,-4.3062612E-2,3.3850993E-3,2.517502E-3,-2.06652E-2],"split_indices":[0,0,0,16,11,91,11,0,64,70,70,11,81,42,20,31,79,0,13,0,0,65,81,0,88,70,24,88,17,0,0,0,0,0,0,0,0,0,0,0,0,0,0,0,0,0,0,0,0,0,0,0,0,0,0,0,0],"split_type":[0,0,0,0,0,0,0,0,0,0,0,0,0,0,0,0,0,0,0,0,0,0,0,0,0,0,0,0,0,0,0,0,0,0,0,0,0,0,0,0,0,0,0,0,0,0,0,0,0,0,0,0,0,0,0,0,0],"sum_hessian":[9.28055E3,7.14515E3,2.1354001E3,4.1195755E2,6.7331924E3,1.6537393E3,4.8166095E2,1.6017735E2,2.517802E2,2.645447E3,4.0877454E3,2.4624794E2,1.4074913E3,1.1581939E2,3.6584155E2,8.0211044E1,7.99663E1,1.3461931E0,2.50434E2,1.2389824E3,1.4064646E3,1.4465306E3,2.6412148E3,2.7633839E1,2.186141E2,1.2134736E3,1.9401776E2,6.0808273E1,5.5011112E1,1.6707609E0,3.6417078E2,7.543921E1,4.771837E0,4.8760384E1,3.1205915E1,2.4831715E2,2.1168606E0,8.108375E2,4.2814487E2,8.636101E2,5.428545E2,8.332342E2,6.1329645E2,1.0645226E3,1.5766923E3,6.047246E0,2.1586592E1,2.1359811E2,5.015993E0,7.09113E2,5.043606E2,5.9707775E1,1.3430998E2,5.8988216E1,1.8200551E0,2.6633783E1,2.837733E1],"tree_param":{"num_deleted":"0","num_feature":"96","num_nodes":"57","size_leaf_vector":"1"}},{"base_weights":[5.0105015E-4,1.380358E-1,-5.072872E-1,9.622285E-1,8.800906E-2,-3.3187804E-1,-1.0551983E0,6.8492067E-1,1.1720773E0,2.4833317E-1,-5.4713994E-2,-7.3097354E-1,-2.5845844E-1,-1.0769509E0,-2.025998E-1,7.907746E-1,2.1994486E-1,1.1791564E0,-1.644118E-4,3.4504232E-1,4.2587012E-2,2.2267136E-1,-1.151961E-1,-7.86236E-1,-6.371098E-2,-3.7402046E-1,-1.1368206E-1,-7.632263E-1,-5.1366657E-2,-1.7985158E-2,7.044214E-2,3.520356E-2,-2.4883407E-3,2.0934062E-2,-1.0929367E-2,2.9218977E-3,5.2072905E-2,4.864294E-3,2.2341095E-2,-3.7505403E-3,1.2014821E-2,5.4956037E-3,3.3311743E-2,-1.14465365E-2,2.5826148E-3,7.837927E-3,-3.5375707E-2,1.4403205E-2,-1.6327484E-2,-1.2645887E-2,-2.688993E-2,-9.092135E-3,6.4997333E-3,-3.547916E-2,7.867512E-3,-1.0122091E-2,1.2724564E-2],"categories":[],"categories_nodes":[],"categories_segments":[],"categories_sizes":[],"default_left":[0,0,0,1,1,0,0,1,1,0,0,1,1,0,0,1,1,0,0,0,1,0,0,1,1,1,0,1,0,0,0,0,0,0,0,0,0,0,0,0,0,0,0,0,0,0,0,0,0,0,0,0,0,0,0,0,0],"id":16,"left_children":[1,3,5,7,9,11,13,15,17,19,21,23,25,27,29,31,33,35,-1,37,39,41,43,45,47,49,51,53,-1,-1,55,-1,-1,-1,-1,-1,-1,-1,-1,-1,-1,-1,-1,-1,-1,-1,-1,-1,-1,-1,-1,-1,-1,-1,-1,-1,-1],"loss_changes":[6.4668604E2,2.9958212E2,1.8619824E2,1.6253479E1,1.575671E2,4.2352936E1,6.6278076E0,8.266678E0,1.9024353E0,6.436287E1,6.1455402E1,7.949562E0,2.1162544E1,4.8103027E0,1.6471275E0,2.1260223E0,7.386388E0,1.3381042E0,0E0,8.433963E1,3.1314692E1,3.336795E1,7.639613E1,5.635208E0,4.6379685E0,1.2850571E1,1.4711103E1,7.30291E0,0E0,0E0,1.9088919E0,0E0,0E0,0E0,0E0,0E0,0E0,0E0,0E0,0E0,0E0,0E0,0E0,0E0,0E0,0E0,0E0,0E0,0E0,0E0,0E0,0E0,0E0,0E0,0E0,0E0,0E0],"parents":[2147483647,0,0,1,1,2,2,3,3,4,4,5,5,6,6,7,7,8,8,9,9,10,10,11,11,12,12,13,13,14,14,15,15,16,16,17,17,19,19,20,20,21,21,22,22,23,23,24,24,25,25,26,26,27,27,30,30],"right_children":[2,4,6,8,10,12,14,16,18,20,22,24,26,28,30,32,34,36,-1,38,40,42,44,46,48,50,52,54,-1,-1,56,-1,-1,-1,-1,-1,-1,-1,-1,-1,-1,-1,-1,-1,-1,-1,-1,-1,-1,-1,-1,-1,-1,-1,-1,-1,-1],"split_conditions":[5.420504E-2,-1.1965278E1,2.2687949E-1,3.6E1,-1E0,8E-2,9.985568E6,-4.581917E-1,7.3499976E3,8.3425855E-3,-5.3691936E-1,3.64889E5,2.6E1,9.102423E-1,1.1E0,3.3E1,2.6543E4,8.598E-1,-1.644118E-4,8.25E0,4.156E1,3.636E3,8.861E3,-1.99771E5,9.3107E4,5.13E1,2.910965E-1,4.69E2,-5.1366657E-2,-1.7985158E-2,5.95E0,3.520356E-2,-2.4883407E-3,2.0934062E-2,-1.0929367E-2,2.9218977E-3,5.2072905E-2,4.864294E-3,2.2341095E-2,-3.7505403E-3,1.2014821E-2,5.4956037E-3,3.3311743E-2,-1.14465365E-2,2.5826148E-3,7.837927E-3,-3.5375707E-2,1.4403205E-2,-1.6327484E-2,-1.2645887E-2,-2.688993E-2,-9.092135E-3,6.4997333E-3,-3.547916E-2,7.867512E-3,-1.0122091E-2,1.2724564E-2],"split_indices":[0,0,0,78,81,91,44,9,13,0,0,61,18,0,66,78,23,64,0,71,71,69,60,45,28,55,6,87,0,0,71,0,0,0,0,0,0,0,0,0,0,0,0,0,0,0,0,0,0,0,0,0,0,0,0,0,0],"split_type":[0,0,0,0,0,0,0,0,0,0,0,0,0,0,0,0,0,0,0,0,0,0,0,0,0,0,0,0,0,0,0,0,0,0,0,0,0,0,0,0,0,0,0,0,0,0,0,0,0,0,0,0,0,0,0,0,0],"sum_hessian":[9.239925E3,7.276338E3,1.9635868E3,4.060528E2,6.870285E3,1.4994497E3,4.6413702E2,1.930988E2,2.1295398E2,3.2321897E3,3.6380955E3,2.192043E2,1.2802455E3,4.500466E2,1.4090419E1,1.51636E2,4.1462795E1,2.1165437E2,1.2996058E0,2.194138E3,1.0380518E3,6.464995E2,2.991596E3,2.0080421E2,1.8400084E1,7.032272E2,5.7701825E2,1.2516641E2,3.2488022E2,5.185175E0,8.905244E0,1.4999777E2,1.6382344E0,2.666129E1,1.4801507E1,2.295444E0,2.0935893E2,9.1256824E2,1.2815697E3,6.7217664E2,3.6587515E2,5.5768024E2,8.88193E1,1.6249636E3,1.3666324E3,2.6224911E0,1.9818173E2,7.819392E0,1.058069E1,5.341112E2,1.69116E2,4.2650848E2,1.5050978E2,1.2067534E2,4.491073E0,3.5395923E0,5.365651E0],"tree_param":{"num_deleted":"0","num_feature":"96","num_nodes":"57","size_leaf_vector":"1"}},{"base_weights":[-3.8339528E-3,2.6879942E-1,-1.768419E-1,6.5889347E-1,1.2290118E-1,-7.196782E-2,-8.1882626E-1,4.5344442E-1,9.7133374E-1,-1.632988E-3,3.6068162E-1,9.996205E-2,-2.3923886E-1,-1.1212279E0,-6.8006605E-1,9.0572315E-1,3.2643163E-1,1.0921748E0,5.345456E-1,2.1534322E-1,-1.18494116E-1,5.978552E-2,5.0045174E-1,3.1606796E-1,-3.7105582E-3,-1.5450387E-1,-4.8189098E-1,1.0901153E-2,-1.1356324E0,-2.4927846E-1,-8.9797986E-1,4.0730022E-2,-2.5679478E-3,2.607341E-2,7.207623E-3,4.836905E-2,-5.4288357E-3,-1.5877767E-3,2.7384683E-2,1.747574E-2,4.3704705E-3,3.8509537E-2,-6.724521E-3,1.3777011E-2,-5.252901E-3,1.18013E-2,2.5674045E-2,4.0118303E-3,3.4142695E-2,-1.8389463E-2,2.0590695E-3,1.6228445E-3,-1.0704234E-2,-3.0419555E-2,-1.4750895E-2,-8.303035E-3,8.884428E-3,-5.0212916E-2,-3.243761E-3,-1.6636815E-2,4.998037E-3,-4.0816672E-2,-6.171352E-3],"categories":[],"categories_nodes":[],"categories_segments":[],"categories_sizes":[],"default_left":[0,0,1,0,0,0,0,0,1,0,0,0,1,0,1,0,0,1,1,0,0,0,0,0,1,0,0,1,1,0,0,0,0,0,0,0,0,0,0,0,0,0,0,0,0,0,0,0,0,0,0,0,0,0,0,0,0,0,0,0,0,0,0],"id":17,"left_children":[1,3,5,7,9,11,13,15,17,19,21,23,25,27,29,31,33,35,37,39,41,43,45,47,49,51,53,55,57,59,61,-1,-1,-1,-1,-1,-1,-1,-1,-1,-1,-1,-1,-1,-1,-1,-1,-1,-1,-1,-1,-1,-1,-1,-1,-1,-1,-1,-1,-1,-1,-1,-1],"loss_changes":[4.3492035E2,2.0293341E2,3.7920215E2,5.8037994E1,7.751583E1,1.399957E2,2.5644165E1,3.182724E1,1.4113861E1,4.4059013E1,3.754165E1,5.385969E1,4.9967453E1,3.9351807E0,5.1051086E1,3.3998795E0,2.0238651E1,5.220093E0,5.4240246E0,1.2498545E1,4.0611694E1,1.3930093E1,1.051152E1,8.027006E1,3.4623787E1,3.1727432E1,1.721788E1,8.6907643E-1,1.5387573E0,1.0094272E1,8.033752E0,0E0,0E0,0E0,0E0,0E0,0E0,0E0,0E0,0E0,0E0,0E0,0E0,0E0,0E0,0E0,0E0,0E0,0E0,0E0,0E0,0E0,0E0,0E0,0E0,0E0,0E0,0E0,0E0,0E0,0E0,0E0,0E0],"parents":[2147483647,0,0,1,1,2,2,3,3,4,4,5,5,6,6,7,7,8,8,9,9,10,10,11,11,12,12,13,13,14,14,15,15,16,16,17,17,18,18,19,19,20,20,21,21,22,22,23,23,24,24,25,25,26,26,27,27,28,28,29,29,30,30],"right_children":[2,4,6,8,10,12,14,16,18,20,22,24,26,28,30,32,34,36,38,40,42,44,46,48,50,52,54,56,58,60,62,-1,-1,-1,-1,-1,-1,-1,-1,-1,-1,-1,-1,-1,-1,-1,-1,-1,-1,-1,-1,-1,-1,-1,-1,-1,-1,-1,-1,-1,-1,-1,-1],"split_conditions":[-3.44E2,-3.8769394E-1,1.00630246E-1,1.568E3,-3E-2,3.8751455E-3,-9.9634486E-1,-7.129296E-1,-2.5225285E-1,-1.2874678E-1,5E0,5.73E2,3.9516855E-3,5E-2,-2.1318803E-2,-1.3760275E0,-7.184E3,2.310884E6,1.359E1,-1.5E0,-4.479042E0,-2.2475228E-2,1.6E1,2.13E2,5.9E0,8.52E2,6E0,8.4908694E-2,1.22647E5,1E0,7.0017E4,4.0730022E-2,-2.5679478E-3,2.607341E-2,7.207623E-3,4.836905E-2,-5.4288357E-3,-1.5877767E-3,2.7384683E-2,1.747574E-2,4.3704705E-3,3.8509537E-2,-6.724521E-3,1.3777011E-2,-5.252901E-3,1.18013E-2,2.5674045E-2,4.0118303E-3,3.4142695E-2,-1.8389463E-2,2.0590695E-3,1.6228445E-3,-1.0704234E-2,-3.0419555E-2,-1.4750895E-2,-8.303035E-3,8.884428E-3,-5.0212916E-2,-3.243761E-3,-1.6636815E-2,4.998037E-3,-4.0816672E-2,-6.171352E-3],"split_indices":[65,2,11,69,68,11,9,9,9,2,70,65,2,71,2,11,50,33,24,45,1,11,33,91,70,65,91,4,52,85,24,0,0,0,0,0,0,0,0,0,0,0,0,0,0,0,0,0,0,0,0,0,0,0,0,0,0,0,0,0,0,0,0],"split_type":[0,0,0,0,0,0,0,0,0,0,0,0,0,0,0,0,0,0,0,0,0,0,0,0,0,0,0,0,0,0,0,0,0,0,0,0,0,0,0,0,0,0,0,0,0,0,0,0,0,0,0,0,0,0,0,0,0,0,0,0,0,0,0],"sum_hessian":[9.200849E3,3.5698413E3,5.631008E3,9.62239E2,2.6076023E3,4.849766E3,7.8124164E2,5.951583E2,3.670807E2,1.7177642E3,8.89838E2,2.3935327E3,2.4562334E3,2.2367647E2,5.575652E2,1.1718075E2,4.7797757E2,2.7589346E2,9.1187225E1,5.9838104E2,1.1193832E3,2.8672757E2,6.031105E2,7.6942206E2,1.6241108E3,1.8325232E3,6.2371014E2,2.8376644E0,2.208388E2,1.9443246E2,3.6313272E2,1.1476952E2,2.4112294E0,1.7000706E2,3.079705E2,2.743049E2,1.588554E0,1.3234128E1,7.7953094E1,2.221271E2,3.762539E2,2.975915E1,1.089624E3,1.1557497E2,1.7115259E2,1.7342703E2,4.296834E2,5.260128E2,2.4340918E2,1.6864116E2,1.4554696E3,5.861739E2,1.2463494E3,2.3858502E2,3.851251E2,1.4394766E0,1.3981879E0,2.1805856E2,2.780244E0,1.4281323E2,5.1619236E1,3.457665E2,1.7366215E1],"tree_param":{"num_deleted":"0","num_feature":"96","num_nodes":"63","size_leaf_vector":"1"}},{"base_weights":[-9.887026E-3,1.0541199E-1,-5.5458206E-1,5.031267E-1,1.6092607E-3,-4.031135E-1,-1.1063197E0,9.638797E-1,3.8584724E-1,-2.1683627E-1,1.041371E-1,-2.4015124E-1,-6.657797E-1,-1.1257236E0,-2.1747011E-1,4.5194748E-1,1.0306624E0,1.2578426E-1,5.1817447E-1,-8.185922E-2,-7.4403083E-1,3.3719096E-1,-9.83597E-2,-3.163192E-1,1.13775454E-1,-7.2409034E-2,-7.034754E-1,-1.1340022E0,-1.9712721E-1,-1.8004881E-2,1.08406E-1,2.5076771E-2,-8.883866E-3,5.7694116E-3,4.5954715E-2,1.8758185E-2,2.7259224E-4,2.4638753E-2,-1.0335262E-2,3.662846E-2,-4.795476E-3,-3.725556E-2,-4.1706176E-3,2.944921E-3,2.4621261E-2,3.2601051E-3,-1.0569768E-2,-7.832832E-3,-1.9665053E-2,-5.2698846E-3,2.1348635E-2,2.2523658E-2,-1.5363465E-2,-3.1436477E-2,1.1896791E-2,-4.0571326E-3,-4.990065E-2,4.7708745E-3,-1.4248249E-2,1.0933358E-2,-5.1894085E-3],"categories":[],"categories_nodes":[],"categories_segments":[],"categories_sizes":[],"default_left":[0,0,0,0,0,1,0,0,0,0,0,0,0,1,1,1,0,1,0,0,1,1,1,0,1,1,1,0,0,0,0,0,0,0,0,0,0,0,0,0,0,0,0,0,0,0,0,0,0,0,0,0,0,0,0,0,0,0,0,0,0],"id":18,"left_children":[1,3,5,7,9,11,13,15,17,19,21,23,25,27,29,31,33,35,37,39,41,43,45,47,49,51,53,55,57,-1,59,-1,-1,-1,-1,-1,-1,-1,-1,-1,-1,-1,-1,-1,-1,-1,-1,-1,-1,-1,-1,-1,-1,-1,-1,-1,-1,-1,-1,-1,-1],"loss_changes":[5.78393E2,3.1380792E2,1.3003598E2,8.133023E1,1.3545612E2,5.3114822E1,3.4516296E0,6.07193E0,4.3078186E1,1.3686885E2,1.945756E2,2.203415E1,1.031221E1,3.2925415E-1,1.672853E0,5.3689985E0,2.8749695E0,1.5921495E1,2.9036774E1,4.0021523E1,2.6140045E1,1.15720825E2,5.4664185E1,1.1297791E1,1.3650214E1,8.289272E0,7.9369507E0,3.902893E-1,9.341151E-1,0E0,7.7548635E-1,0E0,0E0,0E0,0E0,0E0,0E0,0E0,0E0,0E0,0E0,0E0,0E0,0E0,0E0,0E0,0E0,0E0,0E0,0E0,0E0,0E0,0E0,0E0,0E0,0E0,0E0,0E0,0E0,0E0,0E0],"parents":[2147483647,0,0,1,1,2,2,3,3,4,4,5,5,6,6,7,7,8,8,9,9,10,10,11,11,12,12,13,13,14,14,15,15,16,16,17,17,18,18,19,19,20,20,21,21,22,22,23,23,24,24,25,25,26,26,27,27,28,28,30,30],"right_children":[2,4,6,8,10,12,14,16,18,20,22,24,26,28,30,32,34,36,38,40,42,44,46,48,50,52,54,56,58,-1,60,-1,-1,-1,-1,-1,-1,-1,-1,-1,-1,-1,-1,-1,-1,-1,-1,-1,-1,-1,-1,-1,-1,-1,-1,-1,-1,-1,-1,-1,-1],"split_conditions":[6.809407E-2,-2.0732826E-1,9.102423E-1,-2.6964922E1,5.01E0,-9.597833E-3,1.8262626E3,2E-2,2E-2,-1.14872E-2,8.3425855E-3,2.3E1,-5.8785E4,1.4316E4,-3.317675E-1,1.31E2,6.231E-1,-7.529E3,2.5724104E-4,-4.8768864E0,0E0,1.114E1,-3.5E1,-5.378831E-2,6.0304595E3,6.978649E-2,2.4585E4,-2.2747E4,-8.653E3,-1.8004881E-2,8.376E3,2.5076771E-2,-8.883866E-3,5.7694116E-3,4.5954715E-2,1.8758185E-2,2.7259224E-4,2.4638753E-2,-1.0335262E-2,3.662846E-2,-4.795476E-3,-3.725556E-2,-4.1706176E-3,2.944921E-3,2.4621261E-2,3.2601051E-3,-1.0569768E-2,-7.832832E-3,-1.9665053E-2,-5.2698846E-3,2.1348635E-2,2.2523658E-2,-1.5363465E-2,-3.1436477E-2,1.1896791E-2,-4.0571326E-3,-4.990065E-2,4.7708745E-3,-1.4248249E-2,1.0933358E-2,-5.1894085E-3],"split_indices":[0,2,0,0,68,2,1,15,17,0,0,44,52,43,9,32,64,50,0,0,76,71,81,2,64,4,71,36,66,0,68,0,0,0,0,0,0,0,0,0,0,0,0,0,0,0,0,0,0,0,0,0,0,0,0,0,0,0,0,0,0],"split_type":[0,0,0,0,0,0,0,0,0,0,0,0,0,0,0,0,0,0,0,0,0,0,0,0,0,0,0,0,0,0,0,0,0,0,0,0,0,0,0,0,0,0,0,0,0,0,0,0,0,0,0,0,0,0,0,0,0,0,0,0,0],"sum_hessian":[9.190533E3,7.5915576E3,1.5989758E3,1.5633928E3,6.0281646E3,1.2680057E3,3.309701E2,3.027009E2,1.2606919E3,1.922029E3,4.1061357E3,7.9421924E2,4.737865E2,3.2131433E2,9.655746E0,4.3808746E1,2.5889215E2,4.3166687E2,8.290251E2,1.5393516E3,3.826775E2,1.9059764E3,2.2001594E3,6.544392E2,1.3978006E2,3.0032833E1,4.4375366E2,3.1630164E2,5.0127096E0,4.4504833E0,5.2052636E0,3.8078697E1,5.730049E0,6.5744667E0,2.5231769E2,1.15160545E2,3.1650632E2,7.8585785E2,4.3167267E1,3.637578E1,1.5029757E3,3.2640607E2,5.627145E1,8.7094385E2,1.0350325E3,9.976454E2,1.2025139E3,3.3207068E2,3.223685E2,9.0032555E1,4.9747505E1,6.9585447E0,2.3074287E1,4.402375E2,3.516171E0,2.1982489E0,3.141034E2,1.904954E0,3.1077557E0,2.6097333E0,2.5955303E0],"tree_param":{"num_deleted":"0","num_feature":"96","num_nodes":"61","size_leaf_vector":"1"}},{"base_weights":[5.416066E-3,9.7048186E-2,-6.368521E-1,3.300892E-1,-6.519221E-2,-4.0571955E-1,-9.825342E-1,9.11418E-1,2.6375422E-1,-1.5792626E-1,2.0092258E-1,-2.5766915E-1,-6.412044E-1,-3.1151852E-1,-1.0127116E0,5.823208E-1,1.0718992E0,4.039589E-1,1.2763101E-1,-1.7641718E-2,-3.1452924E-1,7.20452E-1,5.2327616E-4,-3.0993706E-1,1.879331E-1,4.8341077E-2,-7.3602206E-1,-5.68076E-1,7.8242265E-2,-1.018975E0,-2.0593075E-2,3.4637276E-2,7.914243E-3,1.8751279E-3,4.7266036E-2,1.2788899E-2,2.4077106E-2,1.598899E-2,2.4714847E-3,-5.731094E-3,6.074792E-3,1.4469144E-2,-1.5400528E-2,1.5152422E-2,4.1635428E-2,3.8988458E-3,-1.9797673E-2,-1.6173474E-2,4.6483325E-3,2.1876503E-2,-5.1765414E-3,2.5879052E-2,-1.0078427E-2,-2.2754306E-2,-3.995317E-2,-2.6515318E-2,-2.5471603E-4,-1.3944069E-2,1.39044495E-2,-4.0366696E-3,-4.4850264E-2,5.1306887E-3,-6.1494443E-3],"categories":[],"categories_nodes":[],"categories_segments":[],"categories_sizes":[],"default_left":[0,1,0,0,0,0,0,0,1,0,0,1,0,0,0,0,0,1,1,0,0,0,1,1,1,1,0,1,0,0,0,0,0,0,0,0,0,0,0,0,0,0,0,0,0,0,0,0,0,0,0,0,0,0,0,0,0,0,0,0,0,0,0],"id":19,"left_children":[1,3,5,7,9,11,13,15,17,19,21,23,25,27,29,31,33,35,37,39,41,43,45,47,49,51,53,55,57,59,61,-1,-1,-1,-1,-1,-1,-1,-1,-1,-1,-1,-1,-1,-1,-1,-1,-1,-1,-1,-1,-1,-1,-1,-1,-1,-1,-1,-1,-1,-1,-1,-1],"loss_changes":[5.406871E2,3.0418106E2,8.770035E1,1.2492859E2,1.174864E2,2.2916595E1,6.0396423E0,1.1461884E1,5.630887E1,7.74203E1,1.2819382E2,1.1034246E1,1.7694458E1,3.8195484E0,2.4535828E0,9.53672E0,9.059143E-1,2.2246292E1,2.5558912E1,3.3224934E1,4.061328E1,2.6198746E1,3.630981E1,1.0338619E1,5.6572666E0,7.5786495E0,4.206558E0,4.0895128E-1,3.0914633E0,6.6571045E-1,3.7330103E-1,0E0,0E0,0E0,0E0,0E0,0E0,0E0,0E0,0E0,0E0,0E0,0E0,0E0,0E0,0E0,0E0,0E0,0E0,0E0,0E0,0E0,0E0,0E0,0E0,0E0,0E0,0E0,0E0,0E0,0E0,0E0,0E0],"parents":[2147483647,0,0,1,1,2,2,3,3,4,4,5,5,6,6,7,7,8,8,9,9,10,10,11,11,12,12,13,13,14,14,15,15,16,16,17,17,18,18,19,19,20,20,21,21,22,22,23,23,24,24,25,25,26,26,27,27,28,28,29,29,30,30],"right_children":[2,4,6,8,10,12,14,16,18,20,22,24,26,28,30,32,34,36,38,40,42,44,46,48,50,52,54,56,58,60,62,-1,-1,-1,-1,-1,-1,-1,-1,-1,-1,-1,-1,-1,-1,-1,-1,-1,-1,-1,-1,-1,-1,-1,-1,-1,-1,-1,-1,-1,-1,-1,-1],"split_conditions":[9.198831E-2,-7.728291E-2,2.2687949E-1,-1.7595745E1,1E0,-8.130225E-3,1E-1,9.6E1,-2E0,-1.9657936E-2,3.8318124E-3,2.15E2,-2.2863E4,7.221105E0,1.5666699E1,-5.246447E1,-3.7236E4,1.263E1,-1.21E2,3.452E1,-7.120365E-1,1E-2,7E-2,1.14E2,4.52E2,7.360406E-2,-6.7E1,7.29E0,1.74E0,-1.1285714E3,5.08502E5,3.4637276E-2,7.914243E-3,1.8751279E-3,4.7266036E-2,1.2788899E-2,2.4077106E-2,1.598899E-2,2.4714847E-3,-5.731094E-3,6.074792E-3,1.4469144E-2,-1.5400528E-2,1.5152422E-2,4.1635428E-2,3.8988458E-3,-1.9797673E-2,-1.6173474E-2,4.6483325E-3,2.1876503E-2,-5.1765414E-3,2.5879052E-2,-1.0078427E-2,-2.2754306E-2,-3.995317E-2,-2.6515318E-2,-2.5471603E-4,-1.3944069E-2,1.39044495E-2,-4.0366696E-3,-4.4850264E-2,5.1306887E-3,-6.1494443E-3],"split_indices":[0,2,0,0,5,2,19,26,81,2,0,71,52,10,10,2,32,71,66,71,0,90,77,44,89,4,77,88,66,7,51,0,0,0,0,0,0,0,0,0,0,0,0,0,0,0,0,0,0,0,0,0,0,0,0,0,0,0,0,0,0,0,0],"split_type":[0,0,0,0,0,0,0,0,0,0,0,0,0,0,0,0,0,0,0,0,0,0,0,0,0,0,0,0,0,0,0,0,0,0,0,0,0,0,0,0,0,0,0,0,0,0,0,0,0,0,0,0,0,0,0,0,0,0,0,0,0,0,0],"sum_hessian":[9.166908E3,8.029719E3,1.1371892E3,3.291545E3,4.7381743E3,6.9441125E2,4.4277795E2,3.2420642E2,2.9673384E3,3.5167239E3,1.2214504E3,4.3909335E2,2.553179E2,2.3883831E1,4.188941E2,1.2129719E2,2.0290924E2,1.4521497E3,1.5151887E3,1.8608302E3,1.6558937E3,3.3284842E2,8.8860205E2,3.9569946E2,4.339387E1,3.1446539E1,2.2387137E2,1.1677145E1,1.2206686E1,4.1599677E2,2.8973548E0,7.364525E1,4.7651936E1,1.6938307E0,2.0121541E2,8.359236E2,6.162261E2,3.407329E2,1.1744558E3,1.080356E3,7.804743E2,8.506645E1,1.5708273E3,1.3574252E2,1.9710588E2,7.4991486E2,1.386872E2,3.4754828E2,4.8151196E1,1.8428524E1,2.496535E1,6.9052505E0,2.4541288E1,1.1756688E2,1.0630449E2,1.0252661E1,1.4244843E0,3.3529074E0,8.853778E0,2.83845E0,4.131583E2,1.4371109E0,1.460244E0],"tree_param":{"num_deleted":"0","num_feature":"96","num_nodes":"63","size_leaf_vector":"1"}},{"base_weights":[-4.985513E-4,2.2885185E-1,-1.6260633E-1,5.1003736E-1,5.4131903E-2,-9.1642216E-2,-7.2706705E-1,9.389206E-1,4.0410998E-1,-8.845775E-2,2.5664377E-1,-7.7705866E-1,-5.026098E-2,-4.3598545E-1,-8.476128E-1,-6.203816E-2,9.515916E-1,3.2015485E-1,7.284046E-1,-1.629641E-2,-5.395117E-1,-4.4423904E-2,3.999295E-1,7.489352E-2,-1.0368576E0,-4.056449E-1,4.689636E-3,1.2366046E-1,-5.593874E-1,-2.302458E-1,-9.1324055E-1,7.554636E-3,-1.0528539E-2,4.2213842E-2,4.791899E-4,2.0222774E-2,6.826596E-3,1.994276E-2,4.02343E-2,2.6783142E-3,-1.4898849E-2,3.5628646E-3,-2.8294563E-2,-5.3215856E-3,3.331957E-2,6.8701333E-3,2.2646895E-2,2.1622773E-2,-4.9598417E-3,-4.6036478E-2,-1.8026407E-3,-1.3142526E-2,-3.0147616E-2,1.0301477E-2,-3.1758412E-3,-1.2062736E-2,1.6639657E-2,-1.2757383E-4,-2.7755983E-2,1.4691995E-2,-3.3590082E-2,8.570025E-3,-4.0881522E-2],"categories":[],"categories_nodes":[],"categories_segments":[],"categories_sizes":[],"default_left":[0,0,1,0,0,0,0,0,0,1,0,0,0,1,0,1,0,0,1,0,0,0,0,0,1,0,0,1,1,0,0,0,0,0,0,0,0,0,0,0,0,0,0,0,0,0,0,0,0,0,0,0,0,0,0,0,0,0,0,0,0,0,0],"id":20,"left_children":[1,3,5,7,9,11,13,15,17,19,21,23,25,27,29,31,33,35,37,39,41,43,45,47,49,51,53,55,57,59,61,-1,-1,-1,-1,-1,-1,-1,-1,-1,-1,-1,-1,-1,-1,-1,-1,-1,-1,-1,-1,-1,-1,-1,-1,-1,-1,-1,-1,-1,-1,-1,-1],"loss_changes":[3.397655E2,1.856467E2,2.1380566E2,6.207495E1,6.794386E1,1.3483377E2,1.7269104E1,4.132553E0,2.9801544E1,4.4943123E1,4.2086975E1,6.0699936E1,8.80287E1,1.4158588E1,1.4580933E1,9.4346404E-1,2.8344574E0,2.1440346E1,8.022255E0,3.0326075E1,1.3042885E1,2.0857296E1,1.7899673E1,6.2560463E0,2.3117218E0,1.5978607E1,6.967066E1,5.4574833E0,6.610981E0,1.8530594E1,9.67688E0,0E0,0E0,0E0,0E0,0E0,0E0,0E0,0E0,0E0,0E0,0E0,0E0,0E0,0E0,0E0,0E0,0E0,0E0,0E0,0E0,0E0,0E0,0E0,0E0,0E0,0E0,0E0,0E0,0E0,0E0,0E0,0E0],"parents":[2147483647,0,0,1,1,2,2,3,3,4,4,5,5,6,6,7,7,8,8,9,9,10,10,11,11,12,12,13,13,14,14,15,15,16,16,17,17,18,18,19,19,20,20,21,21,22,22,23,23,24,24,25,25,26,26,27,27,28,28,29,29,30,30],"right_children":[2,4,6,8,10,12,14,16,18,20,22,24,26,28,30,32,34,36,38,40,42,44,46,48,50,52,54,56,58,60,62,-1,-1,-1,-1,-1,-1,-1,-1,-1,-1,-1,-1,-1,-1,-1,-1,-1,-1,-1,-1,-1,-1,-1,-1,-1,-1,-1,-1,-1,-1,-1,-1],"split_conditions":[-1.22E2,-2.0732826E-1,7.6356225E-2,-3.6659985E1,5.0547755E-1,-7.376024E-1,1.4749087E-1,6.255792E-2,3E-1,7.958309E-1,3.79E0,9.16E1,5.9E0,-1.4542955E-1,3.4137845E0,-3E0,-1.82E2,-5.304E3,3.28E0,-3.6797272E-3,-1.5921125E-1,1.1750516E0,-2.87E2,1.9344158E0,1.22647E5,6.416E3,6.337E2,-6.896E3,4.851752E-2,-3.7E-1,-1.68849E5,7.554636E-3,-1.0528539E-2,4.2213842E-2,4.791899E-4,2.0222774E-2,6.826596E-3,1.994276E-2,4.02343E-2,2.6783142E-3,-1.4898849E-2,3.5628646E-3,-2.8294563E-2,-5.3215856E-3,3.331957E-2,6.8701333E-3,2.2646895E-2,2.1622773E-2,-4.9598417E-3,-4.6036478E-2,-1.8026407E-3,-1.3142526E-2,-3.0147616E-2,1.0301477E-2,-3.1758412E-3,-1.2062736E-2,1.6639657E-2,-1.2757383E-4,-2.7755983E-2,1.4691995E-2,-3.3590082E-2,8.570025E-3,-4.0881522E-2],"split_indices":[65,2,2,2,8,2,2,8,89,5,70,49,70,5,10,77,65,50,71,2,9,2,68,10,52,65,65,77,4,65,77,0,0,0,0,0,0,0,0,0,0,0,0,0,0,0,0,0,0,0,0,0,0,0,0,0,0,0,0,0,0,0,0],"split_type":[0,0,0,0,0,0,0,0,0,0,0,0,0,0,0,0,0,0,0,0,0,0,0,0,0,0,0,0,0,0,0,0,0,0,0,0,0,0,0,0,0,0,0,0,0,0,0,0,0,0,0,0,0,0,0,0,0,0,0,0,0,0,0],"sum_hessian":[9.118721E3,3.774482E3,5.3442393E3,1.4392351E3,2.3352468E3,4.7576206E3,5.866184E2,2.6963974E2,1.1695953E3,1.3736276E3,9.6161926E2,2.608584E2,4.496762E3,1.8518231E2,4.0143607E2,2.8854804E0,2.6675427E2,9.447046E2,2.248907E2,1.1930255E3,1.8060211E2,3.1227783E2,6.4934143E2,6.2601963E1,1.9825644E2,5.9373944E2,3.903023E3,3.3447357E1,1.5173495E2,4.286575E1,3.585703E2,1.3774742E0,1.5080063E0,2.6335226E2,3.4020157E0,4.9876746E2,4.4593713E2,1.057799E2,1.191108E2,9.6921826E2,2.238072E2,2.6647348E1,1.5395477E2,2.9268503E2,1.9592823E1,2.1800058E2,4.3134085E2,1.4436028E1,4.8165936E1,1.9512012E2,3.1363177E0,4.4654617E2,1.4719327E2,9.741901E2,2.9288328E3,1.2776872E1,2.0670485E1,1.8959578E1,1.3277538E2,2.266219E1,2.020356E1,4.5749054E0,3.5399542E2],"tree_param":{"num_deleted":"0","num_feature":"96","num_nodes":"63","size_leaf_vector":"1"}},{"base_weights":[-4.9189525E-3,7.938362E-2,-6.029221E-1,8.4617275E-1,3.718177E-2,-4.226792E-1,-1.0515122E0,5.227878E-1,1.0581118E0,2.1259786E-1,-7.078773E-2,-6.425372E-1,-1.9333297E-1,-1.0731913E0,-2.2883579E-1,2.997142E-1,8.462739E-1,-3.0265105E-4,1.067366E0,3.034327E-1,-1.4033467E-2,1.4269842E-1,-1.3392062E-1,-4.574732E-2,-6.9347507E-1,-2.851266E-1,1.1530851E-1,-1.0822078E0,-1.424203E-1,-3.995243E-1,1.7089924E-1,4.7945026E-3,2.7189009E-2,3.9851077E-2,1.8809485E-3,4.7196362E-2,1.1108301E-3,7.5287363E-3,2.5449356E-2,-7.618147E-3,8.251924E-3,9.389932E-3,-1.8590808E-2,-1.5390754E-2,-2.0132083E-3,-1.9714586E-2,1.1312166E-2,-4.3008216E-2,-2.4414016E-2,-2.0176845E-2,-6.784775E-4,1.51884E-2,-1.2061243E-2,-1.5020869E-2,-4.830051E-2,5.3327014E-3,-1.2172784E-2,-1.943792E-2,-3.8501614E-4,9.113768E-3,-8.072243E-4],"categories":[],"categories_nodes":[],"categories_segments":[],"categories_sizes":[],"default_left":[0,0,0,0,0,0,0,0,0,0,0,0,1,1,1,0,1,0,0,1,1,1,0,1,0,1,0,0,0,0,0,0,0,0,0,0,0,0,0,0,0,0,0,0,0,0,0,0,0,0,0,0,0,0,0,0,0,0,0,0,0],"id":21,"left_children":[1,3,5,7,9,11,13,15,17,19,21,23,25,27,29,31,33,-1,35,37,39,41,43,45,47,49,51,53,55,57,59,-1,-1,-1,-1,-1,-1,-1,-1,-1,-1,-1,-1,-1,-1,-1,-1,-1,-1,-1,-1,-1,-1,-1,-1,-1,-1,-1,-1,-1,-1],"loss_changes":[4.61045E2,2.5907794E2,8.695804E1,2.3147705E1,1.4424268E2,4.0247498E1,3.2225952E0,1.0831291E1,2.467865E0,5.9765976E1,6.3762253E1,1.23216095E1,1.2134153E1,1.0418701E0,2.0908918E0,6.938694E0,3.1409035E0,0E0,2.0285034E0,7.4600494E1,2.7447582E1,4.470681E1,6.949686E1,6.461843E0,9.604279E0,1.5231424E1,1.0200907E1,6.1917114E-1,8.469303E-1,2.5985718E-1,1.3041666E-1,0E0,0E0,0E0,0E0,0E0,0E0,0E0,0E0,0E0,0E0,0E0,0E0,0E0,0E0,0E0,0E0,0E0,0E0,0E0,0E0,0E0,0E0,0E0,0E0,0E0,0E0,0E0,0E0,0E0,0E0],"parents":[2147483647,0,0,1,1,2,2,3,3,4,4,5,5,6,6,7,7,8,8,9,9,10,10,11,11,12,12,13,13,14,14,15,15,16,16,18,18,19,19,20,20,21,21,22,22,23,23,24,24,25,25,26,26,27,27,28,28,29,29,30,30],"right_children":[2,4,6,8,10,12,14,16,18,20,22,24,26,28,30,32,34,-1,36,38,40,42,44,46,48,50,52,54,56,58,60,-1,-1,-1,-1,-1,-1,-1,-1,-1,-1,-1,-1,-1,-1,-1,-1,-1,-1,-1,-1,-1,-1,-1,-1,-1,-1,-1,-1,-1,-1],"split_conditions":[9.198831E-2,-8.324111E0,9.102423E-1,-8E0,-1.7858989E-3,1.5573837E-1,1.8262626E3,7.68621E2,-1.09714516E2,1.0672764E-2,-5.201E3,-4.2594E4,6.8689656E-1,1.4316E4,-1.5006578E-1,1.569E3,6.5798E4,-3.0265105E-4,9.5720625E0,1.8686E4,3.844E1,8.263276E-1,7.04E0,2.06757E5,-2.6000869E-2,7.83E0,6.5935683E-1,1.586E1,-8.653E3,3.66E3,7.8348804E0,4.7945026E-3,2.7189009E-2,3.9851077E-2,1.8809485E-3,4.7196362E-2,1.1108301E-3,7.5287363E-3,2.5449356E-2,-7.618147E-3,8.251924E-3,9.389932E-3,-1.8590808E-2,-1.5390754E-2,-2.0132083E-3,-1.9714586E-2,1.1312166E-2,-4.3008216E-2,-2.4414016E-2,-2.0176845E-2,-6.784775E-4,1.51884E-2,-1.2061243E-2,-1.5020869E-2,-4.830051E-2,5.3327014E-3,-1.2172784E-2,-1.943792E-2,-3.8501614E-4,9.113768E-3,-8.072243E-4],"split_indices":[0,0,0,79,11,1,1,8,12,0,65,52,8,43,13,29,29,0,10,19,71,5,71,23,12,20,6,28,66,26,0,0,0,0,0,0,0,0,0,0,0,0,0,0,0,0,0,0,0,0,0,0,0,0,0,0,0,0,0,0,0],"split_type":[0,0,0,0,0,0,0,0,0,0,0,0,0,0,0,0,0,0,0,0,0,0,0,0,0,0,0,0,0,0,0,0,0,0,0,0,0,0,0,0,0,0,0,0,0,0,0,0,0,0,0,0,0,0,0,0,0,0,0,0,0],"sum_hessian":[9.125994E3,8.0059473E3,1.1200472E3,4.0779797E2,7.5981494E3,8.127264E2,3.0732083E2,1.7504143E2,2.3275655E2,2.8912405E3,4.7069087E3,4.0583496E2,4.0689145E2,2.964899E2,1.0830942E1,1.1489159E2,6.0149845E1,2.023788E0,2.3073276E2,2.0616013E3,8.2963934E2,1.0714016E3,3.6355073E3,3.3397564E1,3.724374E2,3.142069E2,9.268452E1,2.9204697E2,4.442927E0,7.5991683E0,3.2317734E0,8.041314E1,3.447845E1,5.4582653E1,5.567191E0,2.2838968E2,2.34307E0,1.4082413E3,6.533599E2,4.64336E2,3.6530338E2,9.568729E2,1.1452868E2,1.0398981E3,2.5956091E3,1.2299135E1,2.1098427E1,1.0023012E2,2.7220728E2,1.8625128E2,1.27955635E2,5.8923706E1,3.3760815E1,1.2237762E1,2.798092E2,1.8340645E0,2.6088624E0,5.626305E0,1.9728634E0,1.9051585E0,1.326615E0],"tree_param":{"num_deleted":"0","num_feature":"96","num_nodes":"61","size_leaf_vector":"1"}},{"base_weights":[-9.662521E-4,2.4329352E-1,-1.4505723E-1,8.6216086E-1,1.7658582E-1,-5.0824437E-2,-5.4592526E-1,9.672549E-1,5.4304752E-2,3.362214E-1,6.37527E-2,-1.4907388E-2,-7.5208646E-1,-3.8419822E-1,-7.83088E-1,1.0869759E0,6.521709E-1,-4.5629025E-1,2.9367426E-1,1.3194095E-1,4.7939545E-1,-3.7467696E-2,4.1656613E-1,3.825788E-1,-6.215954E-2,6.0551643E-1,-9.043335E-1,-2.9929543E-1,-6.5120226E-1,-9.546431E-2,-8.821927E-1,4.833658E-2,3.6266055E-3,3.159643E-2,-1.3800554E-3,-2.4219831E-2,3.5581246E-3,-4.0405E-3,2.2690775E-2,2.2286663E-2,1.6311893E-3,2.5417546E-2,7.017993E-5,-5.1401337E-3,7.113791E-3,-5.280146E-3,2.3727756E-2,7.4845683E-3,2.802143E-2,-1.8405349E-3,-2.7104368E-2,3.0933982E-2,-7.698177E-3,-1.043569E-2,-4.3061245E-2,-2.3230933E-2,-8.314426E-3,-3.248976E-2,5.7389806E-3,2.5131611E-2,-1.3920028E-2,2.687959E-4,-4.010225E-2],"categories":[],"categories_nodes":[],"categories_segments":[],"categories_sizes":[],"default_left":[0,0,1,0,0,1,0,0,1,0,0,0,0,0,0,1,1,1,0,0,0,1,0,0,1,0,0,1,1,0,0,0,0,0,0,0,0,0,0,0,0,0,0,0,0,0,0,0,0,0,0,0,0,0,0,0,0,0,0,0,0,0,0],"id":22,"left_children":[1,3,5,7,9,11,13,15,17,19,21,23,25,27,29,31,33,35,37,39,41,43,45,47,49,51,53,55,57,59,61,-1,-1,-1,-1,-1,-1,-1,-1,-1,-1,-1,-1,-1,-1,-1,-1,-1,-1,-1,-1,-1,-1,-1,-1,-1,-1,-1,-1,-1,-1,-1,-1],"loss_changes":[3.2147815E2,1.3840024E2,2.167395E2,2.7256927E1,5.511515E1,1.1732107E2,3.8918945E1,3.8775635E0,7.2115693E0,3.650833E1,6.486246E1,8.372806E1,5.2331818E1,1.3232468E1,2.869629E1,2.137024E0,5.1146393E0,1.439774E0,3.826493E0,1.8955605E1,3.561081E1,2.2767916E1,2.7743279E1,2.4666893E1,4.4415554E1,3.4805412E0,8.479263E0,1.229932E1,1.171595E1,1.155584E1,1.0971832E1,0E0,0E0,0E0,0E0,0E0,0E0,0E0,0E0,0E0,0E0,0E0,0E0,0E0,0E0,0E0,0E0,0E0,0E0,0E0,0E0,0E0,0E0,0E0,0E0,0E0,0E0,0E0,0E0,0E0,0E0,0E0,0E0],"parents":[2147483647,0,0,1,1,2,2,3,3,4,4,5,5,6,6,7,7,8,8,9,9,10,10,11,11,12,12,13,13,14,14,15,15,16,16,17,17,18,18,19,19,20,20,21,21,22,22,23,23,24,24,25,25,26,26,27,27,28,28,29,29,30,30],"right_children":[2,4,6,8,10,12,14,16,18,20,22,24,26,28,30,32,34,36,38,40,42,44,46,48,50,52,54,56,58,60,62,-1,-1,-1,-1,-1,-1,-1,-1,-1,-1,-1,-1,-1,-1,-1,-1,-1,-1,-1,-1,-1,-1,-1,-1,-1,-1,-1,-1,-1,-1,-1,-1],"split_conditions":[-1.7858989E-3,-7.129296E-1,1.3589085E-2,-2.9437494E-1,-8.446994E-2,6.494328E0,1.4749087E-1,-9.9794936E-1,-5.0026E4,2.023461E2,9.259427E6,-3.6116493E-1,-1.49E2,2.5611326E-2,-2.97E2,4.658E3,2.5E0,6.39E2,1.244E3,-3.1523E4,2.685E3,4.693629E3,-6.257518E0,9.5E1,8.4222454E-1,5.12786E5,1.6E2,1.9995369E-1,9.203E3,-4.479042E0,-1.911538E2,4.833658E-2,3.6266055E-3,3.159643E-2,-1.3800554E-3,-2.4219831E-2,3.5581246E-3,-4.0405E-3,2.2690775E-2,2.2286663E-2,1.6311893E-3,2.5417546E-2,7.017993E-5,-5.1401337E-3,7.113791E-3,-5.280146E-3,2.3727756E-2,7.4845683E-3,2.802143E-2,-1.8405349E-3,-2.7104368E-2,3.0933982E-2,-7.698177E-3,-1.043569E-2,-4.3061245E-2,-2.3230933E-2,-8.314426E-3,-3.248976E-2,5.7389806E-3,2.5131611E-2,-1.3920028E-2,2.687959E-4,-4.010225E-2],"split_indices":[11,9,2,11,2,1,2,9,76,64,16,2,65,1,65,83,59,20,23,65,65,64,11,78,5,24,48,7,20,1,1,0,0,0,0,0,0,0,0,0,0,0,0,0,0,0,0,0,0,0,0,0,0,0,0,0,0,0,0,0,0,0,0],"split_type":[0,0,0,0,0,0,0,0,0,0,0,0,0,0,0,0,0,0,0,0,0,0,0,0,0,0,0,0,0,0,0,0,0,0,0,0,0,0,0,0,0,0,0,0,0,0,0,0,0,0,0,0,0,0,0,0,0,0,0,0,0,0,0],"sum_hessian":[9.114221E3,3.3791409E3,5.73508E3,3.1730756E2,3.0618333E3,4.652556E3,1.082524E3,2.7904913E2,3.825842E1,1.2598215E3,1.8020118E3,4.435493E3,2.170629E2,6.590488E2,4.2347528E2,1.8463567E2,9.441347E1,9.34397E0,2.891445E1,5.2697546E2,7.32846E2,1.4071466E3,3.9486526E2,4.6378812E2,3.971705E3,1.8914146E1,1.9814874E2,5.159807E2,1.4306807E2,5.579738E1,3.676779E2,1.80858E2,3.7776682E0,8.53267E1,9.086764E0,7.696462E0,1.647508E0,1.2750989E1,1.616346E1,9.7262054E1,4.2971344E2,6.038641E2,1.289819E2,1.00844934E3,3.9869724E2,7.445362E1,3.2041165E2,2.630736E2,2.0071451E2,3.8429204E3,1.2878464E2,1.7617619E1,1.2965279E0,2.4945757E1,1.7320299E2,1.5403983E2,3.6194092E2,1.2878947E2,1.4278598E1,1.000318E1,4.57942E1,1.3271898E1,3.54406E2],"tree_param":{"num_deleted":"0","num_feature":"96","num_nodes":"63","size_leaf_vector":"1"}},{"base_weights":[2.7415005E-3,1.1836706E-1,-3.8985974E-1,4.524604E-1,2.4616223E-2,-2.4317205E-1,-8.482811E-1,8.34224E-1,3.5365355E-1,-1.857863E-1,1.342421E-1,-5.634021E-1,-1.405649E-1,-5.65764E-1,-1.0104501E0,5.344118E-1,9.97506E-1,1.0658032E-1,4.6682906E-1,-5.9023365E-2,-7.151491E-1,3.1466356E-1,-6.729927E-2,-2.394789E-1,-6.4200777E-1,-2.4310669E-2,-3.0159518E-1,-7.664653E-1,-7.102129E-2,-1.0208088E0,-5.4007927E-3,3.6984038E-2,1.2170143E-2,-3.2028963E-3,4.4267353E-2,1.6245376E-2,-1.7241678E-3,1.6834179E-2,3.0371083E-2,2.9024988E-2,-4.005486E-3,-3.5803027E-2,8.482475E-4,3.668757E-3,2.2995662E-2,-5.9627055E-4,-2.1469755E-2,-2.6138132E-2,-1.6046722E-3,-2.9137777E-2,6.8470286E-3,3.524086E-3,-1.0814814E-2,-1.6907722E-2,3.8030955E-3,-3.5767518E-2,-6.216886E-4,-1.4855177E-2,1.3177437E-2,-1.2624214E-2,-4.5752708E-2,7.6190364E-3,-7.9630315E-3],"categories":[],"categories_nodes":[],"categories_segments":[],"categories_sizes":[],"default_left":[0,1,0,0,0,0,0,0,0,0,0,1,0,0,0,0,0,0,1,0,1,1,1,0,1,0,0,1,0,0,0,0,0,0,0,0,0,0,0,0,0,0,0,0,0,0,0,0,0,0,0,0,0,0,0,0,0,0,0,0,0,0,0],"id":23,"left_children":[1,3,5,7,9,11,13,15,17,19,21,23,25,27,29,31,33,35,37,39,41,43,45,47,49,51,53,55,57,59,61,-1,-1,-1,-1,-1,-1,-1,-1,-1,-1,-1,-1,-1,-1,-1,-1,-1,-1,-1,-1,-1,-1,-1,-1,-1,-1,-1,-1,-1,-1,-1,-1],"loss_changes":[4.1300906E2,2.2001932E2,1.3714597E2,5.5145355E1,1.2707399E2,5.1195747E1,1.7143402E1,9.856506E0,3.4182785E1,1.2624952E2,1.3187056E2,8.166351E0,2.260281E1,1.9718407E1,3.1035461E0,8.029346E0,3.2046204E0,1.5645454E1,1.3227829E1,3.636587E1,2.7285187E1,9.225923E1,3.89126E1,6.3040514E0,6.453224E0,1.6825325E1,1.6883732E1,5.2383423E0,7.954653E0,2.0441895E0,7.2464025E-1,0E0,0E0,0E0,0E0,